{"archetype":"Ettin_high","input_dim":153,"output_dim":13,"weight_names":["hunger","thirst","pain","fatigue","fear","anger","loneliness","boredom","curiosity","escape","social","rest","limbicInfluence"],"best_val_loss":0.0003906398679704425,"weights":{"net.0.weight":[[-0.0291,0.0366,0.0127,-0.0368,0.0671,-0.2823,0.0897,-0.0949,0.2382,0.1157,-0.2625,0.2778,-0.244,-0.1354,-0.0278,0.0166,0.0355,-0.0594,0.045,0.0399,0.0015,0.0015,0.0201,0.0398,-0.0193,-0.0127,-0.0383,-0.0104,0.0257,0.0438,-0.0284,0.0254,-0.0132,-0.0071,0.0537,-0.0097,0.0068,-0.0001,0.0058,0.0416,0.2023,-0.0432,0.0163,0.0141,0.0083,0.0177,0.016,-0.0503,-0.0562,0.0658,0.0122,-0.0797,0.0481,0.0046,-0.0133,0.0663,0.0001,0.0702,-0.0622,0.0499,0.0412,-0.0185,0.022,0.0759,0.0019,0.0681,0.0378,-0.0772,0.0215,0.0003,0.061,0.0449,-0.0623,0.0092,0.0264,0.0537,-0.043,-0.0094,-0.0595,0.0639,0.005,-0.0604,-0.0603,-0.0612,0.064,-0.074,0.0123,-0.0101,-0.0702,0.0708,0.0249,-0.072,-0.0227,0.0323,-0.0406,-0.0084,-0.0702,0.0,-0.0503,0.0492,0.0268,-0.0386,0.0436,-0.0651,0.0598,0.0276,-0.0633,0.0339,-0.0576,0.0264,-0.0489,-0.0222,0.0406,-0.0018,0.0531,0.0388,0.048,0.0495,-0.0452,0.0064,0.0422,0.025,0.0233,0.0321,0.0267,0.0536,-0.0161,0.031,0.0391,-0.0224,-0.0243,-0.0042,-0.0093,0.0018,0.0385,0.0217,-0.0271,0.0336,0.0153,0.0636,0.0061,0.0,0.0,0.0,0.0,0.0,0.0,0.0,0.0,0.0,0.0,0.0,0.0],[0.0023,-0.0399,-0.0079,-0.042,-0.0104,-0.1855,-0.1436,-0.0915,0.3256,0.1415,-0.0452,-0.0003,0.1272,0.2567,-0.1419,0.0009,0.0286,0.0143,0.06,0.0476,0.0676,0.0513,0.0392,-0.0594,0.0207,0.0132,0.0725,0.0804,0.0146,0.0764,-0.0214,0.0354,-0.0061,0.0364,0.0874,0.0227,-0.0517,0.0649,0.0425,0.0206,-0.0041,0.0247,0.0348,-0.0184,-0.0152,0.0297,0.0247,-0.0025,0.0298,-0.016,-0.0165,0.0082,0.0205,0.0336,-0.026,0.0081,-0.068,-0.0489,-0.016,-0.0042,-0.0597,0.0031,0.0083,0.0323,-0.0713,0.0539,0.0455,-0.071,0.0288,0.0473,0.0026,-0.0647,0.0045,0.0184,-0.0068,-0.0348,0.0805,-0.0248,0.0749,0.0299,0.0781,0.0345,0.0447,0.0289,0.0336,-0.0249,0.0748,0.0727,-0.0041,0.0837,0.0085,-0.0815,0.0291,0.0036,0.0721,-0.0493,-0.0681,0.0,0.0769,-0.0835,-0.1965,-0.0549,0.019,-0.046,-0.0323,0.0388,-0.0646,-0.0013,-0.0012,-0.0385,0.0479,-0.0462,0.0377,0.0643,0.0554,0.0276,0.0242,0.0736,-0.0304,-0.0073,0.0106,0.0058,0.0028,-0.0114,-0.0345,-0.0311,0.0101,-0.0202,0.0582,0.0413,0.0479,0.0019,-0.01,-0.07,0.0278,0.0402,-0.0215,-0.0201,-0.0205,-0.0639,-0.0344,0.0,0.0,0.0,0.0,0.0,0.0,0.0,0.0,0.0,0.0,0.0,0.0],[0.075,-0.0244,-0.0115,0.074,0.0657,0.0386,-0.1084,-0.1081,-0.2792,-0.3326,0.0633,0.1134,0.2314,0.1395,0.0267,0.0069,-0.0042,0.0799,-0.105,0.0087,0.0251,0.0042,0.0245,0.043,0.0205,-0.0046,-0.0395,0.079,0.0648,0.0357,-0.0145,0.0235,0.0438,-0.067,-0.0097,-0.0367,0.0055,0.0161,-0.0621,0.0779,0.0302,0.0783,0.012,0.0173,0.0354,0.0703,-0.0221,-0.0756,-0.0446,0.0435,0.0151,-0.0798,0.0752,0.0615,0.0551,-0.0554,-0.0045,0.0648,0.0791,-0.057,0.0299,-0.0052,-0.0151,0.0575,-0.0617,0.0499,0.0392,-0.0163,0.0841,-0.0653,0.0022,-0.0076,-0.0362,0.0046,0.0608,0.0101,-0.0405,0.0478,-0.084,-0.0183,-0.0352,-0.0008,0.0151,-0.0602,-0.0611,0.0745,-0.0158,-0.0461,-0.0167,-0.0418,0.0029,-0.0647,0.0652,-0.0811,-0.02,0.0785,-0.0682,0.0,-0.0592,0.0194,0.1564,0.0218,-0.0514,0.0558,-0.0464,-0.083,0.002,0.0137,0.0101,-0.0353,-0.0357,-0.0411,-0.0054,0.0192,0.0396,-0.0178,-0.0327,0.019,0.0051,0.003,-0.0787,-0.0284,-0.0392,-0.0153,-0.0386,0.0053,-0.0256,0.0685,0.0566,0.0386,-0.0129,-0.04,-0.0327,-0.0002,0.0315,0.0206,-0.0185,0.0226,0.0161,0.0001,-0.0424,0.0,0.0,0.0,0.0,0.0,0.0,0.0,0.0,0.0,0.0,0.0,0.0],[0.0077,-0.0551,0.0177,0.0276,0.0568,-0.0079,0.1681,0.227,-0.2672,-0.2691,0.079,0.0906,-0.0337,-0.1618,-0.0712,-0.0395,0.0076,0.3559,0.0146,-0.0612,-0.0559,0.0169,0.0051,-0.0156,0.009,-0.0109,0.0546,0.067,-0.0064,-0.0073,-0.0501,-0.0599,-0.0136,-0.0141,-0.0114,0.0308,0.0323,-0.0039,0.0239,0.0542,0.0408,-0.0484,0.0233,-0.045,0.0251,0.0633,0.0093,0.0605,-0.0651,0.0625,-0.0532,-0.0683,-0.0122,-0.0838,-0.0618,0.0406,-0.023,-0.0771,-0.0559,0.0769,-0.0599,-0.0238,-0.0423,-0.0067,-0.0536,0.0659,-0.0077,0.0552,-0.0498,0.0607,-0.0423,-0.0199,-0.0755,-0.0174,-0.06,0.0536,-0.0478,0.0798,-0.076,0.0286,-0.0797,-0.0122,-0.0297,0.055,-0.0702,-0.0452,-0.0068,0.0226,-0.0578,0.0458,-0.0474,0.0231,0.0274,-0.0547,0.0763,-0.0595,-0.0613,0.0,0.0068,-0.0154,0.1031,-0.0355,-0.061,0.021,0.0158,0.0796,-0.0361,-0.0246,-0.0948,0.0221,0.0381,0.0293,0.0735,-0.0364,0.0661,0.0292,-0.0322,0.0307,0.1114,-0.0126,0.0486,0.0394,0.0478,-0.0156,-0.0123,-0.007,-0.0155,-0.0388,0.0216,0.0077,0.0824,-0.0275,-0.0112,0.0443,-0.0071,0.0386,0.0821,-0.054,0.0141,0.0705,-0.0356,0.0,0.0,0.0,0.0,0.0,0.0,0.0,0.0,0.0,0.0,0.0,0.0],[0.0202,-0.0875,-0.0888,0.0751,0.0613,-0.0645,0.3347,-0.256,-0.4024,-0.0379,0.2703,-0.0703,0.1478,0.2974,-0.0038,-0.0473,-0.1077,0.1067,-0.1794,0.0368,0.0549,-0.0859,0.0139,-0.0339,-0.1261,-0.0639,0.0204,-0.0801,-0.007,0.0122,-0.0814,-0.0017,0.0549,-0.0704,0.0729,-0.0057,0.03,-0.0532,-0.0678,-0.0072,0.1069,-0.1612,-0.1107,-0.0681,-0.1107,-0.0041,-0.0266,-0.0647,0.0395,-0.0184,0.0786,-0.0452,0.052,-0.0243,-0.037,-0.0244,0.0307,-0.0147,0.0446,-0.0513,-0.0723,-0.0829,0.0668,-0.0458,0.0494,-0.0247,-0.0026,0.0336,0.0364,-0.0156,0.0262,-0.0471,0.0348,-0.0204,-0.0572,0.0052,0.0594,-0.045,0.0415,0.0375,-0.0462,-0.0671,-0.0395,-0.067,0.0571,0.0159,0.0801,-0.0806,-0.0166,0.053,0.0018,-0.0537,0.0783,-0.0627,-0.0349,-0.0727,0.0742,0.0,-0.0203,-0.0295,-0.1761,-0.0468,0.0293,-0.0555,0.0615,0.0111,0.0157,0.0752,-0.0674,-0.0164,-0.0777,0.0623,-0.0796,-0.0961,-0.0832,-0.05,-0.1014,0.0526,-0.063,-0.0307,-0.0325,0.0209,-0.0702,0.005,0.0068,0.0117,0.0677,0.0564,-0.1141,0.0218,-0.0742,-0.0255,-0.0025,-0.0212,-0.0512,0.0472,0.0158,-0.0798,-0.0261,-0.0044,-0.1161,0.0,0.0,0.0,0.0,0.0,0.0,0.0,0.0,0.0,0.0,0.0,0.0],[-0.0424,0.0585,0.0588,-0.0069,0.0394,-0.072,-0.1904,0.2038,-0.0688,-0.1355,0.2398,-0.2441,0.0018,0.1269,-0.1625,0.0056,-0.0229,0.2844,-0.097,0.0575,-0.0252,0.004,-0.0142,0.0619,0.0555,0.0951,-0.0557,-0.0436,-0.002,-0.05,0.0153,-0.0002,0.0313,-0.0271,-0.0801,-0.0169,-0.077,0.0183,-0.0288,0.0419,0.119,0.0654,-0.0337,-0.0253,0.0569,-0.0696,0.0065,0.0369,-0.0136,-0.0339,0.0109,-0.052,0.0288,0.0708,-0.069,-0.0805,-0.0665,0.0526,0.0796,-0.0686,-0.0292,-0.0722,-0.0438,-0.0403,0.0411,-0.0497,0.066,0.0092,-0.0496,-0.0202,-0.0664,-0.0315,0.0837,-0.0751,0.058,0.0087,-0.0659,0.0656,-0.0104,0.0229,-0.0569,-0.0509,0.0486,0.0636,-0.0714,-0.0093,-0.0136,0.0218,0.0217,0.054,-0.0306,0.0482,-0.0573,0.0295,0.0063,-0.0319,-0.0336,0.0,0.0163,-0.0783,0.0402,-0.0074,0.0145,-0.0575,-0.0335,-0.0122,0.0741,-0.0396,-0.1934,0.0537,0.0288,-0.0125,0.0594,0.0423,-0.0766,-0.0214,0.0553,0.0428,0.0116,0.0369,0.0535,-0.0423,0.045,0.0295,0.0056,-0.0301,0.0125,-0.0192,0.0454,0.0777,-0.0261,0.0215,0.0575,0.0268,0.0095,-0.0393,-0.0187,0.016,0.0438,0.0338,0.0464,0.0,0.0,0.0,0.0,0.0,0.0,0.0,0.0,0.0,0.0,0.0,0.0],[0.073,-0.0456,-0.0791,0.0323,0.0483,0.1139,0.2115,-0.1374,0.3029,-0.0635,-0.2546,-0.0828,-0.0777,-0.1196,-0.2459,0.0399,-0.0362,0.1508,-0.0973,0.0467,0.0451,0.0435,0.0616,-0.0597,0.0415,-0.0142,0.0227,0.0192,-0.0222,0.0617,-0.0198,-0.011,-0.0197,-0.0172,0.0754,0.1011,-0.0616,0.0615,-0.0145,0.0512,-0.033,0.06,-0.0101,-0.0265,0.005,-0.0081,0.0252,0.0665,-0.0765,0.0757,-0.0731,-0.0299,0.0097,-0.0039,-0.0507,0.0449,0.0613,0.0562,-0.0418,0.0586,0.066,-0.0337,0.0459,-0.0097,0.0543,-0.071,-0.0083,0.0614,-0.0225,0.0443,0.0159,-0.0306,0.0826,-0.0691,0.0581,-0.0001,-0.003,0.05,0.0515,0.0349,-0.08,0.018,0.0176,0.074,-0.0011,0.01,-0.0063,-0.057,-0.0485,-0.0815,-0.0272,-0.0107,0.0692,-0.0266,0.0049,0.0682,0.02,0.0,-0.0632,-0.0435,-0.1006,0.0777,-0.0443,-0.0501,0.0761,0.0373,-0.0416,0.0736,0.0972,0.0139,-0.0118,0.0655,0.0929,0.0037,-0.0282,0.0817,0.0372,0.014,-0.0627,0.0246,-0.0831,-0.0042,0.0183,-0.0465,0.0292,0.0185,0.0149,-0.0002,-0.0375,0.0338,0.0247,-0.0393,-0.0274,-0.0801,0.0071,0.0455,0.0442,-0.019,-0.0021,-0.0312,-0.0756,0.0,0.0,0.0,0.0,0.0,0.0,0.0,0.0,0.0,0.0,0.0,0.0],[0.0192,0.0094,-0.0481,-0.0174,0.0614,0.2161,0.2438,0.1388,0.1983,-0.2977,0.1105,-0.0269,-0.3526,-0.1517,0.0662,0.0036,0.0078,-0.1639,-0.072,-0.0507,-0.0104,0.0231,0.0222,0.0937,0.0678,-0.0326,0.0687,-0.0246,-0.0033,-0.0363,0.0772,-0.1458,0.0056,-0.02,0.118,0.0478,-0.0514,-0.0418,0.0157,-0.0748,-0.1987,0.0022,-0.0335,0.0195,-0.0566,0.1325,0.0302,-0.0729,-0.0342,-0.0611,-0.041,0.044,-0.0183,-0.0454,0.0549,-0.0788,0.0822,0.0292,0.0074,-0.0701,-0.029,0.0341,-0.0505,-0.0788,0.0641,-0.07,-0.0576,-0.0589,0.0485,-0.0487,0.054,-0.0068,-0.0503,0.0725,-0.0743,0.0686,0.0026,-0.0169,-0.0368,0.0842,-0.0722,-0.0479,-0.0202,-0.0406,-0.0426,0.0247,0.065,0.0248,0.0206,-0.0331,0.0607,-0.0761,-0.0737,-0.0008,-0.0792,0.0352,0.0443,0.0,0.0292,-0.0446,-0.0455,-0.0314,-0.0544,-0.0809,-0.0635,0.0681,-0.0785,-0.0307,0.0699,0.0094,-0.0392,-0.0563,0.1206,0.0827,-0.0648,0.0572,0.0087,-0.0035,-0.0084,0.0187,-0.0478,0.0171,0.046,0.1012,-0.0387,0.0647,-0.0245,-0.0234,-0.0164,0.0024,0.0209,0.0257,-0.0166,-0.0179,-0.0354,0.0124,-0.0772,-0.0018,0.0128,0.0301,0.041,0.0,0.0,0.0,0.0,0.0,0.0,0.0,0.0,0.0,0.0,0.0,0.0],[-0.0439,-0.0854,0.024,-0.0252,-0.0772,-0.3133,0.3036,-0.1179,-0.0374,0.1873,-0.2594,0.0057,-0.4078,-0.1952,0.1262,0.0209,0.0276,0.4965,-0.0014,0.0049,0.0175,0.075,-0.0257,0.0076,0.0753,-0.0671,-0.0665,-0.0739,0.0096,-0.079,-0.0289,-0.1352,-0.024,-0.0446,-0.0876,0.0486,-0.1907,0.0269,0.0096,-0.018,-0.0487,0.02,-0.0576,-0.0748,0.0002,-0.0357,-0.0047,0.0817,-0.0392,0.0718,0.083,-0.0673,0.0602,-0.0449,-0.0401,-0.0624,0.0091,0.049,-0.0329,0.0003,0.0618,0.0041,-0.0451,0.0048,0.0005,-0.0505,-0.0093,0.0087,-0.0529,0.0251,0.0798,-0.0525,-0.0222,0.0041,-0.0338,0.0388,-0.0386,0.0758,0.0534,0.0839,0.0811,-0.0661,0.0823,0.0395,-0.0688,-0.0764,-0.0604,0.0197,0.009,0.022,0.0605,-0.0586,-0.0503,-0.0756,-0.0422,-0.0799,-0.0623,0.0,-0.0266,0.0196,-0.0277,-0.0146,-0.0106,0.0141,0.018,-0.0617,-0.0032,-0.029,-0.2127,0.079,-0.0435,0.0089,-0.0261,-0.019,-0.0104,-0.0333,-0.1024,-0.0641,0.0444,0.0021,-0.0534,-0.0222,-0.0008,-0.0092,-0.0028,-0.0439,-0.0303,-0.0328,0.0002,-0.0175,0.0755,0.015,-0.0635,-0.0063,0.0683,-0.0357,-0.0972,-0.0343,-0.0888,-0.0266,0.0999,0.0,0.0,0.0,0.0,0.0,0.0,0.0,0.0,0.0,0.0,0.0,0.0],[-0.0157,0.0169,0.0142,0.0186,0.0573,0.1059,-0.1634,0.1978,0.1566,0.0338,-0.0609,-0.2282,0.2003,-0.379,-0.0004,-0.0781,0.0027,-0.0244,0.3002,-0.0554,0.0444,-0.0011,0.0041,-0.0004,0.0431,-0.0173,-0.0032,0.091,-0.0023,0.0129,0.0307,-0.0209,-0.0355,0.0218,0.0325,-0.0147,0.0202,0.026,0.0415,0.0312,-0.1157,0.061,-0.0646,0.0379,0.0535,0.0424,0.0179,0.048,-0.0704,-0.0468,-0.0681,-0.0528,-0.0202,0.0766,-0.0663,-0.0523,0.0082,-0.0087,-0.0463,0.0029,0.0512,0.0036,0.0582,0.0436,-0.0167,-0.0107,0.0576,0.0628,-0.073,-0.0794,0.0105,0.0801,0.0546,0.0011,0.0732,-0.0645,0.0414,-0.0391,0.0601,0.0738,0.0509,-0.0205,0.0002,0.0055,0.0548,0.009,-0.0568,0.0383,0.0259,0.0291,-0.0553,0.0526,0.0427,-0.0067,-0.0763,-0.043,-0.0027,0.0,0.0396,-0.0054,0.0511,-0.0739,-0.0659,-0.0357,0.0052,0.0432,0.0711,-0.0666,0.0599,-0.0696,-0.0174,-0.0637,0.0287,-0.0101,0.0139,-0.0413,0.0188,0.0333,-0.04,-0.0052,0.0476,0.032,0.0204,0.0273,0.0084,-0.0148,0.0542,-0.0004,0.0293,0.0332,0.0393,-0.0324,-0.0102,0.0639,0.001,0.0284,0.0718,0.0497,0.0079,-0.0862,-0.0253,0.0,0.0,0.0,0.0,0.0,0.0,0.0,0.0,0.0,0.0,0.0,0.0],[-0.03,-0.0364,0.0573,-0.0375,0.0113,0.0097,-0.1539,-0.1622,0.2402,-0.1553,-0.0788,-0.0699,0.1096,0.1889,-0.0349,-0.0641,0.0698,0.3981,-0.0298,-0.0498,0.0925,-0.0122,0.0984,0.0618,-0.0551,-0.0145,-0.0541,0.0489,0.0005,0.0501,-0.0267,0.0023,0.0217,0.0277,0.0021,0.0204,0.0356,0.0204,-0.0015,-0.0224,-0.1593,-0.055,0.0236,-0.0032,-0.0766,-0.1166,-0.0585,-0.0001,-0.0072,-0.0331,-0.0009,0.0547,-0.0709,0.042,0.0253,-0.0072,0.0616,-0.0068,0.0383,0.08,-0.0684,0.0478,0.0128,0.0501,-0.057,0.0825,0.0778,-0.0183,-0.0546,0.062,-0.0172,-0.0334,-0.0047,-0.0489,-0.0281,0.0238,-0.0835,-0.0064,0.0307,0.0807,-0.0622,-0.0086,0.0446,0.0074,0.0512,0.0047,0.0616,0.0498,0.0308,-0.0839,-0.0395,-0.052,-0.022,0.0063,0.0226,0.0677,0.0,0.0,-0.0624,0.0821,-0.1023,0.0359,-0.0666,-0.0671,-0.0084,-0.0,0.0374,-0.0794,0.0146,0.0469,0.0684,0.0384,0.03,-0.0401,0.0299,0.0218,-0.0133,0.0244,-0.0508,0.0424,-0.0503,0.0502,0.0307,0.017,-0.0421,-0.021,-0.0812,-0.0496,0.0215,0.0434,-0.0215,0.0401,-0.0657,0.0823,0.0255,-0.0425,-0.0157,0.0102,0.0721,0.035,-0.0856,0.0,0.0,0.0,0.0,0.0,0.0,0.0,0.0,0.0,0.0,0.0,0.0],[0.013,-0.0262,-0.0052,0.0107,-0.066,0.1055,0.0558,-0.007,0.2251,-0.2768,-0.0767,-0.2312,-0.3201,0.2006,0.1936,0.0494,0.0085,-0.1315,-0.0673,0.0304,0.0034,-0.0787,0.0552,0.0673,-0.0681,0.0175,-0.0569,0.0313,-0.0081,-0.0326,-0.0548,0.0149,0.0357,0.0492,0.016,-0.0186,-0.0671,0.0004,0.0478,0.0531,0.1258,0.0139,-0.055,-0.0276,0.0344,-0.0314,-0.0366,-0.0351,0.0368,0.0563,-0.0129,-0.0615,-0.0025,0.0814,0.0399,-0.0121,-0.0385,-0.016,-0.0026,0.0125,0.0502,-0.0633,0.0305,0.0489,0.0744,-0.0058,0.0422,0.0715,-0.0508,-0.0123,-0.0621,0.0527,-0.0758,0.0783,0.0309,0.0727,0.0088,-0.0522,-0.008,-0.0377,-0.0531,-0.0044,-0.0532,0.0721,0.0677,-0.0516,-0.0642,0.0593,0.0426,-0.0362,-0.0527,0.0173,-0.0642,-0.0746,0.0245,-0.0444,-0.0128,0.0,0.0257,0.045,0.1333,0.0209,-0.0398,0.0582,0.0264,-0.0205,-0.0743,-0.0046,0.1245,-0.013,0.0516,-0.0552,0.051,-0.0516,-0.0066,0.03,0.0055,0.0355,-0.0127,-0.0396,0.0684,0.0169,-0.0178,-0.0441,-0.0008,0.0372,0.0727,0.0793,0.0506,-0.0278,0.0248,-0.0474,0.0518,0.0507,-0.0004,0.0146,-0.0259,-0.0218,0.0636,-0.0328,-0.0102,0.0,0.0,0.0,0.0,0.0,0.0,0.0,0.0,0.0,0.0,0.0,0.0],[-0.0147,0.0099,0.0319,0.0591,0.0642,-0.3388,-0.0082,-0.0058,0.2677,-0.2099,-0.1801,-0.1347,0.2209,0.3026,-0.0373,0.0181,0.0128,-0.0999,-0.1034,0.0179,-0.0356,0.0273,-0.0445,-0.0055,0.0027,0.0029,0.019,-0.0075,0.0137,0.051,-0.0502,0.0829,0.0156,0.0354,-0.0067,-0.0147,0.005,-0.0071,0.0222,-0.016,-0.0314,-0.0178,0.0184,0.0136,0.0113,0.0237,-0.0091,-0.0448,0.0771,-0.0173,-0.079,0.0775,-0.0013,-0.0349,-0.0322,0.0281,0.0472,-0.0737,-0.0826,0.0243,-0.0384,0.0353,0.0589,0.0725,0.0661,0.0664,-0.0179,-0.0349,-0.0602,0.0492,0.0369,0.0491,-0.0188,0.0666,-0.0618,0.0536,-0.033,-0.0107,0.0637,0.0745,0.0589,0.0568,0.006,0.031,0.0355,-0.0737,0.0569,0.0083,0.0432,0.0088,-0.0027,0.0187,0.0449,-0.0752,-0.0079,0.0747,0.0061,0.0,0.0074,0.0311,0.0603,-0.0038,0.0267,0.0134,0.0544,0.0459,-0.0575,0.0135,-0.0443,-0.0311,-0.0006,0.0365,0.0445,-0.0205,0.025,0.0359,-0.0347,0.019,0.0346,-0.015,-0.0161,0.0002,0.0095,0.0281,0.0086,0.009,0.0275,0.0292,-0.0033,-0.0087,-0.0028,0.0373,0.02,-0.0245,-0.0169,-0.0258,0.0712,-0.0406,0.0746,0.0032,-0.0265,0.0,0.0,0.0,0.0,0.0,0.0,0.0,0.0,0.0,0.0,0.0,0.0],[-0.0895,-0.1287,-0.0071,-0.0185,-0.0681,-0.1155,-0.0267,-0.0945,0.345,0.3651,-0.0734,-0.1461,0.1499,-0.0963,-0.2053,-0.0661,-0.1497,0.016,0.1185,0.0366,-0.0861,-0.0274,-0.0816,0.0038,0.0477,0.0538,-0.0013,-0.0143,0.0091,-0.0105,-0.0879,-0.0176,0.0019,-0.0656,0.0296,0.0639,0.0455,-0.0976,-0.0594,-0.0556,-0.2543,-0.0898,-0.1071,0.1066,-0.0449,-0.0655,-0.0821,0.0587,0.0456,0.0336,-0.059,-0.0587,-0.0326,-0.0349,0.0566,0.0647,-0.0506,-0.071,0.0635,0.0466,0.0502,0.0575,-0.0194,0.0066,-0.023,-0.0343,-0.0052,0.0604,-0.0306,-0.0561,-0.0399,-0.019,0.0372,0.0735,-0.0534,-0.0619,-0.0273,-0.058,-0.0246,-0.0468,0.0317,0.0547,0.0412,0.084,-0.013,0.0605,0.0807,0.0548,0.004,-0.0803,-0.0292,0.0711,-0.0229,0.0736,0.0124,-0.0482,0.0715,0.0,-0.08,-0.0253,-0.1643,-0.0453,-0.0481,-0.0371,-0.0228,0.0538,-0.056,0.0748,-0.1803,-0.0212,-0.0855,0.0176,-0.0589,-0.0413,-0.0216,0.0802,0.0006,-0.0157,-0.0228,-0.0736,0.0328,-0.0207,-0.0782,-0.1347,-0.0724,-0.0467,0.0326,-0.0405,0.0063,0.0451,-0.0034,-0.0219,0.0125,0.1025,-0.0496,0.0869,-0.0042,0.0676,0.1136,0.0878,-0.0939,0.0,0.0,0.0,0.0,0.0,0.0,0.0,0.0,0.0,0.0,0.0,0.0],[-0.0428,-0.079,0.0455,0.0036,-0.0143,-0.0696,-0.0922,-0.0805,-0.2497,0.1096,-0.0076,-0.0839,0.0866,-0.3302,-0.1603,0.0364,-0.0153,0.0556,0.1173,0.0387,0.0578,-0.0715,0.0468,0.0293,0.0584,0.0277,0.0914,-0.091,0.0944,0.0642,-0.0412,-0.041,-0.0204,-0.0447,0.065,-0.0312,0.1068,0.0059,0.0331,0.0134,0.0919,0.0304,-0.0495,0.0182,0.0372,0.0044,0.0219,-0.0311,-0.0408,0.0269,-0.0689,-0.0834,-0.0595,0.0409,0.0132,0.0284,0.0064,-0.0171,-0.0321,0.0065,0.0696,0.0441,0.0299,0.0075,-0.0146,-0.0572,0.0829,0.0533,0.0207,0.0668,-0.0428,0.0117,0.0477,0.0118,0.0004,-0.0571,0.0163,-0.022,0.0189,-0.0639,0.0433,-0.0369,-0.0584,0.0626,-0.0142,0.0245,0.0251,0.0342,0.0722,-0.0836,-0.0199,-0.0772,0.0182,-0.0599,-0.0582,-0.047,-0.0405,0.0,0.0236,0.0075,0.2241,-0.0307,0.0263,0.0589,0.0605,-0.0453,0.0198,0.005,0.1612,0.0573,-0.0771,0.0191,-0.0232,0.011,-0.0462,-0.0364,0.0762,-0.015,-0.015,-0.0861,0.0204,0.0007,-0.0194,-0.0222,0.0175,0.0238,0.0215,0.0123,-0.049,-0.0197,-0.0133,0.0377,-0.059,-0.0403,0.0888,0.0208,-0.0178,0.0255,0.0317,0.0396,0.045,0.0,0.0,0.0,0.0,0.0,0.0,0.0,0.0,0.0,0.0,0.0,0.0],[-0.0458,-0.0068,-0.0598,-0.055,0.0046,0.289,-0.271,-0.1019,0.2001,0.0663,-0.2551,-0.0386,-0.333,0.0229,-0.0987,-0.0869,-0.0496,0.5021,-0.0525,0.0073,-0.0945,0.0322,-0.1187,0.1338,-0.0024,0.0146,0.0983,0.0679,-0.0299,0.0325,0.014,0.0307,-0.051,0.0545,-0.1485,-0.1647,0.0183,0.101,0.0129,0.0016,-0.1099,-0.0097,-0.0577,-0.0562,-0.0374,0.019,-0.0176,0.051,0.0825,0.0367,0.0531,0.0833,0.0491,-0.0345,-0.014,-0.0063,0.0734,0.0616,-0.0023,-0.0369,-0.0283,-0.0244,0.0323,0.0687,0.0006,-0.0826,-0.0452,0.0265,0.0156,-0.0693,0.0369,0.0382,-0.0531,-0.0249,0.0338,0.0048,0.0512,0.0043,0.0103,-0.0669,0.0143,0.0002,-0.056,0.0418,0.0227,0.0568,0.022,0.0817,-0.007,0.046,0.0774,0.0234,-0.0486,0.0316,0.0361,-0.0218,0.0345,0.0,0.0702,0.0377,-0.1648,-0.0172,0.0394,0.0156,0.0246,-0.0289,-0.0782,0.0445,-0.1967,0.1183,-0.0344,-0.0586,0.0216,-0.0051,-0.0229,-0.0679,0.016,0.1599,-0.1277,-0.019,-0.0228,-0.0713,-0.0684,-0.0388,-0.0604,0.0159,0.0054,-0.0275,0.0102,0.002,-0.046,-0.0467,-0.022,-0.0448,-0.0384,0.0143,-0.1216,-0.0537,-0.023,-0.0363,-0.0309,0.0,0.0,0.0,0.0,0.0,0.0,0.0,0.0,0.0,0.0,0.0,0.0],[0.0494,0.0425,0.0598,-0.0072,0.003,-0.1092,-0.1897,-0.1883,0.1393,0.1852,-0.1022,0.2921,-0.2646,0.2064,0.018,0.0157,-0.0364,-0.0091,0.0132,-0.02,0.0166,-0.0257,-0.0256,-0.0376,-0.0213,0.048,0.0074,-0.0034,0.0451,0.0449,0.0112,-0.049,0.052,0.0087,0.0487,-0.0014,0.0147,0.0133,-0.0237,0.0056,-0.0721,0.0281,-0.0278,0.0149,0.0639,0.0314,-0.0095,-0.0231,-0.0685,-0.0658,0.001,-0.0049,0.0619,0.0837,0.0338,-0.0599,-0.013,0.0026,-0.0698,-0.0117,0.0295,0.0477,-0.0021,-0.0829,-0.0665,-0.028,0.0692,-0.0407,0.0135,-0.025,0.0584,-0.0112,0.0252,0.0509,-0.055,0.053,0.072,-0.0695,0.0714,0.0366,-0.002,-0.0502,0.0282,-0.0322,0.069,-0.0691,-0.0071,0.0604,-0.0477,-0.0075,-0.0184,-0.0248,0.0538,0.0765,0.0509,-0.0275,0.0556,0.0,-0.0654,-0.0604,-0.0312,0.0763,-0.0324,-0.0604,0.0054,0.0643,0.0653,-0.0454,0.1432,0.0421,-0.021,-0.0177,0.0122,-0.0463,-0.0076,0.0295,-0.0495,0.0184,-0.009,-0.0141,0.0293,-0.036,-0.0302,0.0024,-0.063,-0.012,0.0138,0.0531,0.0295,-0.0116,-0.0346,0.0011,0.043,0.0446,-0.0073,-0.007,-0.0252,0.0522,-0.0115,0.0045,-0.0433,0.0,0.0,0.0,0.0,0.0,0.0,0.0,0.0,0.0,0.0,0.0,0.0],[0.025,0.0019,-0.0196,0.0732,-0.0289,-0.1239,-0.1257,-0.1618,-0.1648,0.0906,-0.1144,-0.0597,0.2583,-0.247,0.057,-0.0017,0.0599,-0.171,-0.1174,0.0111,0.0092,0.0403,-0.0272,0.0291,-0.0361,-0.0181,-0.011,0.0713,0.0003,0.0141,-0.045,0.0939,0.042,0.0263,-0.0407,-0.0363,-0.0146,0.026,0.0095,-0.0376,0.0916,-0.0069,-0.0598,0.0416,0.0764,0.0051,0.0289,-0.0044,0.0524,0.0083,0.07,-0.0466,-0.0417,0.0347,-0.027,-0.053,0.0092,0.0514,-0.032,-0.0198,0.0249,-0.0141,0.0702,0.018,-0.0261,-0.003,0.0476,-0.0534,-0.0631,-0.0742,0.0196,-0.013,0.0698,0.0245,-0.0566,0.048,-0.0548,-0.0778,-0.0227,0.0073,0.0095,-0.0053,0.0487,-0.0354,-0.065,-0.0695,0.0603,0.077,0.0532,-0.0109,-0.0694,-0.0326,0.0663,0.0662,0.0564,-0.0312,-0.0394,0.0,0.0344,-0.0356,0.1306,0.0438,-0.0552,0.025,0.033,-0.0477,-0.0782,0.0613,-0.0028,-0.0663,-0.0214,-0.0546,-0.0562,-0.0479,0.0023,-0.0214,-0.0883,0.0714,-0.0033,0.0314,-0.0291,-0.0201,0.0023,-0.0211,-0.0365,0.0069,0.049,-0.0109,0.0276,0.0109,0.0424,-0.055,0.0533,0.1268,0.087,0.0709,0.0795,-0.0645,0.0188,-0.0129,-0.0335,0.0,0.0,0.0,0.0,0.0,0.0,0.0,0.0,0.0,0.0,0.0,0.0],[-0.008,0.0064,0.0293,0.0556,0.0122,-0.1795,0.3274,-0.2599,0.0093,0.1054,0.182,0.2003,0.2773,-0.1556,-0.028,0.0074,-0.0007,0.0505,-0.1301,0.0209,0.015,0.0545,0.0302,0.0051,-0.0171,0.0252,-0.0126,-0.0086,0.0432,0.0539,0.0249,-0.0397,-0.0172,0.0005,0.0557,0.0132,-0.0147,0.0169,-0.0087,-0.0462,0.0788,-0.02,0.0503,0.0055,0.0114,0.062,-0.0227,-0.0208,-0.0766,0.0555,0.0068,0.0806,0.0371,-0.0671,-0.0391,-0.0507,-0.0618,0.0308,0.0188,0.0012,-0.072,-0.0138,-0.0158,0.0542,-0.0835,0.0376,0.0605,0.0642,-0.0793,-0.0226,0.0836,-0.0651,0.0736,-0.0228,0.0388,-0.0592,-0.0613,0.0205,-0.0707,0.0245,0.0118,0.0422,0.0089,0.0005,-0.0666,-0.0085,0.038,-0.084,0.0839,-0.0405,-0.0279,-0.0787,-0.0078,0.0194,0.0155,-0.081,0.0463,0.0,0.0334,0.0567,-0.1344,0.0524,-0.077,0.0545,-0.0701,-0.004,-0.0276,-0.0624,0.1521,-0.011,-0.0169,0.0523,0.0171,0.0777,0.0136,0.0293,-0.0056,-0.0276,0.0595,0.0081,0.009,0.068,-0.0008,0.0306,-0.0302,0.0003,0.0132,0.0376,0.0431,-0.0168,-0.0312,0.0226,0.013,0.0403,0.0173,0.0405,-0.0295,0.0409,0.0342,-0.046,0.0433,0.0,0.0,0.0,0.0,0.0,0.0,0.0,0.0,0.0,0.0,0.0,0.0],[0.0292,0.0476,0.037,0.0341,-0.0137,0.1728,0.0393,-0.2013,-0.2917,0.268,-0.1412,0.2754,0.2327,-0.1424,-0.0622,0.0013,-0.0139,0.1451,0.2748,0.023,-0.0176,0.0368,0.0241,0.0112,0.0747,0.007,-0.0184,0.0579,0.0185,0.0026,-0.0135,-0.0236,0.0101,-0.0138,-0.0385,0.044,-0.0421,-0.0142,0.0434,-0.0583,0.1094,-0.0054,0.009,0.0021,-0.0145,-0.07,-0.0179,0.0175,0.0317,-0.0162,0.0052,-0.045,-0.0429,-0.0726,-0.0452,0.0063,0.0553,0.0244,0.0112,-0.0759,-0.0705,-0.011,-0.0824,0.0307,-0.0263,-0.028,0.0774,0.0223,0.0639,-0.0009,-0.08,0.0612,-0.0022,-0.0152,0.0383,0.0357,0.0245,-0.0285,-0.0449,-0.0339,-0.0385,0.0598,0.0547,-0.0555,-0.0584,-0.0659,0.0334,-0.0199,-0.0697,0.0539,-0.0099,0.0333,0.0553,0.0274,-0.0137,-0.0319,-0.0579,0.0,-0.0347,-0.0563,-0.14,0.084,0.0334,-0.0085,0.0684,-0.0173,0.0598,-0.0343,0.137,0.0626,0.0141,-0.0281,0.0438,0.0179,0.0105,0.0434,0.0243,0.0077,-0.008,0.0095,-0.0165,-0.0541,0.0,-0.0615,-0.008,-0.0284,-0.0504,0.0361,0.0372,0.0421,0.0301,0.0341,0.0206,0.0381,-0.0211,0.0264,0.0101,-0.0338,-0.005,0.0495,-0.0506,0.0,0.0,0.0,0.0,0.0,0.0,0.0,0.0,0.0,0.0,0.0,0.0],[-0.0568,0.074,0.0116,0.0515,-0.0122,0.1367,0.2409,0.0669,-0.2556,-0.1884,-0.1373,-0.0242,0.055,-0.424,0.0734,-0.0452,0.0018,0.0113,-0.0264,0.0956,0.0422,0.0075,0.0439,-0.0153,-0.0368,-0.0911,-0.0012,0.0121,-0.0325,-0.0224,-0.0018,0.0564,-0.1065,-0.0205,0.1035,0.0011,-0.0156,0.0958,-0.0919,0.0802,0.0691,0.0806,0.0589,0.0201,-0.0472,-0.0061,0.0112,-0.0272,-0.0191,0.0042,-0.0477,0.0635,-0.0638,-0.0706,0.0144,0.0341,0.0177,0.029,-0.0745,-0.0245,-0.0714,0.0729,0.0393,-0.0431,-0.0385,-0.0662,-0.0578,-0.0351,-0.0409,-0.0166,0.0527,-0.0253,-0.0756,0.0139,-0.0014,-0.0444,-0.035,0.052,-0.0714,0.0385,-0.0786,-0.0769,0.0704,-0.0826,0.0189,0.0778,-0.0596,0.0342,-0.0039,-0.0143,-0.0127,0.0768,0.0625,-0.0572,-0.0497,-0.0121,0.0331,0.0,-0.0096,-0.0016,0.0521,-0.0075,0.0117,0.0157,0.07,-0.0078,-0.0667,-0.0711,-0.0203,-0.0201,-0.0206,0.0333,0.0292,-0.0191,-0.045,-0.0593,-0.0013,-0.0078,-0.022,-0.0143,-0.0465,0.0233,-0.0634,-0.081,-0.0119,-0.0451,-0.0197,0.0226,0.0267,-0.0013,0.0538,0.0347,0.0075,-0.0488,-0.0293,0.0448,-0.0286,0.0513,0.0068,0.0018,-0.0121,0.0,0.0,0.0,0.0,0.0,0.0,0.0,0.0,0.0,0.0,0.0,0.0],[-0.0363,0.024,0.0487,-0.0834,0.0762,-0.2281,0.0385,0.1275,0.2057,0.1572,-0.1508,0.0095,-0.0808,0.0854,-0.2545,-0.001,0.0283,-0.31,-0.0046,0.0329,-0.0656,-0.0621,0.035,0.0194,-0.1083,-0.0196,-0.0363,0.0478,-0.0975,0.0096,0.0433,-0.0342,0.0566,-0.0148,0.0823,0.0288,-0.065,-0.0437,0.0711,-0.0753,-0.2402,-0.009,0.024,0.0542,0.0369,-0.0587,-0.0428,0.0082,-0.0761,-0.0142,-0.0676,-0.0442,0.0421,0.0791,-0.0092,0.0407,-0.031,0.0057,-0.0096,0.0335,-0.055,-0.0383,-0.0137,0.0754,-0.0001,0.0131,-0.0586,0.0421,-0.0561,0.0009,-0.0562,-0.0371,0.0044,0.0467,0.0402,0.0789,-0.0604,-0.0371,-0.025,-0.0257,-0.0772,0.0692,-0.0271,-0.0311,-0.0019,-0.0061,-0.0399,-0.0745,-0.0364,-0.0013,-0.0096,-0.0449,0.0356,-0.0093,0.0004,0.059,-0.0059,0.0,0.0598,0.0141,0.1186,-0.0567,-0.0281,0.0148,0.0244,0.0542,-0.0688,-0.0471,-0.0981,-0.1033,0.0329,-0.0036,0.0599,0.0127,-0.047,-0.1056,-0.0153,-0.0071,-0.0169,0.0341,0.1112,-0.1632,0.0016,-0.0376,0.0727,0.0329,0.0451,-0.048,-0.0221,0.0131,0.0412,-0.0269,0.0663,0.0292,-0.0546,-0.0213,-0.039,0.0072,-0.0401,-0.0944,0.0684,0.0,0.0,0.0,0.0,0.0,0.0,0.0,0.0,0.0,0.0,0.0,0.0],[0.0689,-0.0706,0.0436,0.0038,0.0977,0.0055,-0.1154,-0.0741,-0.1962,0.1629,-0.0763,0.0377,-0.026,0.2167,0.0653,-0.1368,-0.0106,0.3704,-0.1751,-0.1261,-0.0813,0.1346,-0.1526,0.0186,-0.0652,-0.0336,-0.0284,0.0999,0.0306,-0.031,0.0846,-0.054,-0.06,-0.008,0.0342,-0.0409,0.0772,-0.1091,-0.0396,-0.0701,-0.1418,-0.0319,0.009,0.011,0.1212,-0.0884,-0.0372,0.0352,-0.0343,-0.0702,0.0301,-0.0793,0.0284,-0.0512,0.0667,0.0519,0.0654,0.0545,-0.0406,-0.0832,-0.0214,0.0819,-0.0513,0.0348,0.0397,-0.0226,-0.0446,0.024,-0.0551,0.0443,0.0518,-0.043,0.0592,0.0674,0.0475,-0.0664,-0.0227,0.0706,0.0525,-0.044,-0.0569,0.0035,0.0603,0.047,-0.052,0.0153,-0.0178,0.011,0.0642,0.0506,-0.0166,-0.0206,0.0299,0.0373,0.037,-0.0725,-0.0239,0.0,0.0489,0.0699,-0.0484,-0.0837,-0.003,-0.0036,-0.0133,0.0427,0.0457,-0.0063,0.0603,-0.1002,0.0436,0.0457,0.0317,0.0405,0.076,-0.026,0.0188,-0.0294,-0.0451,-0.0325,-0.05,0.0865,-0.085,-0.0248,0.0372,0.0504,0.0274,-0.0987,-0.0674,0.0239,0.0404,0.01,0.1215,-0.0587,-0.0436,-0.0143,-0.0371,-0.0253,0.0185,-0.0676,-0.0306,0.0,0.0,0.0,0.0,0.0,0.0,0.0,0.0,0.0,0.0,0.0,0.0],[0.0036,-0.002,0.0271,0.0089,-0.0209,0.101,0.1149,0.2733,-0.114,0.234,0.2195,0.1047,-0.2364,-0.122,-0.0803,0.061,0.0338,-0.3025,-0.0889,0.1,0.016,-0.0113,-0.0571,-0.0311,0.0414,0.0229,0.0264,0.0462,0.0475,0.0082,0.0321,0.0571,-0.0235,-0.0118,-0.0498,-0.052,-0.0333,0.0194,-0.002,-0.0193,0.1499,0.068,-0.0455,0.0496,0.0738,0.0137,-0.0095,-0.0231,0.0117,0.0765,0.0505,-0.0307,-0.0348,0.0012,-0.0016,-0.0241,0.0489,-0.0626,-0.0382,-0.0169,0.0432,0.0122,-0.0451,-0.0552,0.0797,0.0769,0.068,-0.0269,-0.0586,-0.0746,0.0241,-0.0723,-0.0763,0.025,-0.0651,-0.0425,0.0582,-0.0131,0.0044,0.0167,0.0559,0.0299,0.0506,0.0072,0.0036,-0.0316,0.0261,-0.054,0.0117,-0.0608,0.0039,-0.0385,-0.0128,-0.0834,0.0361,0.0666,0.0833,0.0,0.0163,-0.077,-0.1281,0.0702,-0.0373,0.0623,0.044,0.0554,-0.0345,0.0744,-0.0864,0.0002,-0.0612,0.065,0.057,0.0505,-0.035,0.0085,-0.0034,-0.0075,0.0238,-0.0074,-0.0079,0.0021,-0.0453,-0.0047,-0.0172,0.0153,0.007,-0.0245,0.0703,-0.0236,0.0001,0.0176,0.1162,0.0162,0.0194,0.0109,0.0095,-0.0665,-0.007,-0.025,-0.0276,0.0,0.0,0.0,0.0,0.0,0.0,0.0,0.0,0.0,0.0,0.0,0.0],[-0.0409,0.0674,0.0533,-0.0551,0.0733,-0.1261,0.1873,-0.2204,0.1451,-0.0241,0.112,0.2501,-0.1274,0.1082,0.0184,0.0545,0.0532,-0.3027,-0.4872,0.015,0.0293,0.0149,0.0112,-0.0432,-0.0128,-0.0019,0.0216,0.1064,-0.0583,-0.0336,-0.0363,-0.018,-0.036,0.0086,0.1094,0.039,-0.0475,-0.0784,0.1284,0.0643,0.0953,-0.0227,0.0409,0.0235,-0.023,-0.0197,0.0644,-0.0008,-0.0635,-0.0635,0.0094,-0.0048,0.0479,-0.0354,0.06,-0.0816,0.049,0.0405,0.0629,0.0636,0.0243,0.0664,0.0346,-0.0688,0.0461,-0.0673,-0.0467,0.0259,0.081,-0.034,0.009,-0.0697,0.0296,-0.0156,-0.0829,-0.0621,0.0514,-0.0714,-0.0837,0.0672,-0.0572,0.0227,-0.0544,0.0581,-0.0072,-0.057,0.0592,0.0201,-0.0247,-0.0545,0.0364,0.0267,0.0024,-0.0218,-0.058,0.0843,-0.0278,0.0,-0.0719,0.0808,-0.1233,0.0741,-0.0244,0.0205,-0.0825,-0.0598,-0.0356,0.068,0.0267,0.0234,0.0355,0.0065,0.1093,-0.0378,0.0892,0.0256,-0.036,-0.0196,-0.0056,0.0428,0.0599,0.0217,0.0483,-0.0134,0.1081,0.0276,0.012,0.0233,0.0192,-0.0103,0.0733,-0.0895,0.0225,0.0201,-0.0332,-0.0206,0.0025,-0.0104,-0.0121,-0.0115,-0.0502,0.0,0.0,0.0,0.0,0.0,0.0,0.0,0.0,0.0,0.0,0.0,0.0],[-0.0267,0.0432,0.0555,0.0497,0.0393,-0.2112,-0.5634,0.0448,0.1114,-0.4089,0.2916,-0.1134,-0.0839,-0.0511,0.0405,0.0053,-0.01,-0.1433,0.0688,-0.0379,-0.0295,0.0349,0.0594,-0.0009,-0.0085,0.0406,0.0359,0.0617,0.0386,-0.013,0.0094,-0.0537,0.039,0.0218,0.0018,-0.0137,0.0849,-0.0428,0.0812,-0.0172,0.0197,-0.0203,-0.0083,0.0287,0.0011,0.0495,0.0285,-0.0035,0.0428,0.0039,-0.0186,0.0112,-0.0367,0.0754,-0.0256,-0.0258,-0.0379,0.0027,-0.0719,0.0654,-0.0191,-0.0816,0.0181,-0.039,0.0354,0.0602,-0.0615,0.045,-0.0595,0.009,-0.0113,0.0712,-0.0077,0.0324,-0.0208,0.0428,0.0542,0.0323,-0.0745,0.0285,-0.0843,-0.0102,-0.0242,0.0284,0.0226,0.0096,0.0004,0.0593,0.0543,0.0361,0.0468,0.033,0.0324,-0.0188,0.0545,-0.0318,-0.012,0.0,0.0035,0.0178,0.0378,-0.0165,-0.0191,-0.0275,-0.0581,-0.0508,0.0441,-0.0158,0.0729,0.0191,-0.0397,-0.0154,0.0236,0.052,0.0822,0.0568,-0.0621,0.0251,0.0098,0.0183,0.0468,0.0243,0.051,0.0248,0.0012,0.0295,-0.0222,0.0214,0.0373,0.0263,-0.0063,0.0233,-0.0091,0.0069,-0.0039,-0.0277,0.0064,0.0098,-0.0235,0.046,0.0406,0.0,0.0,0.0,0.0,0.0,0.0,0.0,0.0,0.0,0.0,0.0,0.0],[-0.0394,0.0276,0.0833,-0.0585,-0.0167,0.1079,0.1235,-0.2372,-0.0105,-0.128,0.279,-0.2547,-0.1288,0.0621,0.0466,-0.0181,-0.0171,-0.3514,-0.0552,-0.0304,0.0096,0.0126,0.0041,-0.027,-0.031,0.0257,-0.0372,0.0434,0.0483,0.0446,0.0227,-0.0435,0.0243,-0.0155,0.0375,-0.0056,0.0225,0.0295,-0.0249,0.0179,0.1105,-0.0109,0.005,0.0312,0.0428,0.0434,0.043,-0.073,-0.0319,-0.026,-0.0619,-0.0632,0.0357,-0.0281,-0.078,0.0143,-0.0493,0.0215,0.0452,-0.0556,-0.0522,0.0327,-0.0367,0.0045,0.056,-0.0637,-0.067,0.0479,0.0619,0.0251,0.0806,-0.0285,0.0838,-0.0446,-0.0611,-0.0782,-0.0819,0.0051,0.0014,0.0145,-0.0509,0.0773,-0.0566,0.0111,0.016,0.042,-0.0456,-0.0608,-0.0713,-0.0099,-0.0603,0.0457,0.0775,0.0008,-0.0292,-0.0723,-0.0658,0.0,-0.0831,0.0315,0.1262,-0.0621,0.052,0.0476,-0.0752,-0.0352,-0.0672,0.0194,0.0596,0.0212,0.0207,0.0373,0.0156,-0.0554,-0.0168,0.0037,0.014,-0.0564,0.016,0.0242,0.0156,0.0289,-0.0202,-0.0441,0.0291,0.0489,-0.0412,0.0017,-0.0175,0.0014,0.0342,0.0339,-0.0199,0.0246,-0.0467,0.0067,0.0441,0.0332,-0.04,-0.0382,0.0097,0.0,0.0,0.0,0.0,0.0,0.0,0.0,0.0,0.0,0.0,0.0,0.0],[-0.0193,0.0464,-0.0097,0.0266,0.0784,-0.0811,-0.1773,0.0694,0.0966,-0.0902,0.0437,-0.2367,-0.1233,0.3702,-0.1147,-0.0012,-0.0158,-0.0694,-0.3474,0.0603,0.0454,-0.0052,0.0158,0.0399,-0.053,-0.053,-0.0135,-0.0364,0.0181,0.0602,-0.0318,0.0013,-0.0399,0.0518,0.0742,0.0609,0.0466,-0.0292,0.0138,0.0613,0.1616,-0.0159,0.0025,-0.0046,-0.0133,-0.0249,-0.0167,-0.0581,0.0064,0.0064,0.0533,0.0262,0.0747,-0.0423,0.0091,-0.0491,-0.0607,0.06,0.0556,0.0759,-0.0682,-0.0043,0.0026,-0.0158,0.036,0.0731,-0.0187,0.0763,-0.0494,-0.0002,0.0682,0.0619,0.0403,-0.0095,0.0099,0.0747,-0.0595,0.072,0.0481,0.0375,-0.008,-0.0323,-0.0212,-0.061,-0.0572,-0.0243,-0.021,0.0376,0.0033,0.0681,-0.0314,0.0749,-0.0414,0.023,-0.0354,0.0743,-0.0583,0.0,0.0287,0.0211,0.0748,0.0142,0.0031,-0.0015,-0.0585,-0.0259,-0.0788,-0.0515,0.0519,0.0085,-0.0531,0.0132,0.0345,0.0058,0.0407,0.0564,0.0066,-0.0116,-0.0143,0.0084,0.0026,-0.0363,-0.0125,0.0296,0.0029,0.0035,-0.0279,-0.0042,-0.0503,-0.0539,-0.015,-0.0843,-0.005,-0.0224,-0.0478,0.0113,-0.0038,0.0667,0.0286,0.074,0.0719,0.0,0.0,0.0,0.0,0.0,0.0,0.0,0.0,0.0,0.0,0.0,0.0],[-0.0132,-0.0227,0.0372,-0.0022,0.0151,0.0388,0.0282,-0.0866,-0.3017,-0.1786,0.0227,0.1097,-0.1831,0.1425,0.1211,-0.0722,-0.0469,0.3046,-0.0432,-0.008,-0.0732,-0.0155,-0.1438,0.0177,0.0178,0.0209,-0.098,-0.0105,0.0849,-0.0276,-0.0244,0.026,0.0405,0.0435,-0.0208,-0.022,0.038,-0.0703,0.0324,0.0282,0.1179,0.0311,0.0094,0.0212,0.0831,0.0255,0.0225,-0.0595,-0.0647,-0.0168,-0.0312,-0.0053,0.0659,-0.0081,0.0648,0.0765,0.0238,-0.0572,0.0474,0.0043,0.0052,0.0109,-0.0466,0.006,-0.0273,-0.0396,0.0096,0.013,-0.0411,0.0356,0.0197,-0.0089,0.0408,-0.0083,0.0005,0.0287,-0.0462,0.0254,-0.018,0.0502,-0.0503,0.0347,0.0711,0.0594,0.06,-0.0373,0.0549,-0.055,0.0764,-0.0124,0.0209,-0.0393,-0.0216,-0.0326,0.0341,-0.0679,-0.049,0.0,-0.0584,0.0169,-0.1435,0.0484,0.031,0.0548,-0.0048,-0.0473,0.0485,-0.0016,0.0962,0.0272,-0.035,0.0642,0.0075,-0.0158,0.1235,0.0086,-0.0397,0.0234,0.0691,0.0239,0.0296,0.0093,0.0425,-0.0385,0.0749,-0.0205,-0.0167,-0.0222,-0.085,0.0244,-0.0448,0.0529,0.0683,-0.0238,-0.0932,0.0153,-0.0102,-0.0297,-0.0598,0.0038,0.045,0.0,0.0,0.0,0.0,0.0,0.0,0.0,0.0,0.0,0.0,0.0,0.0],[0.0255,0.0172,-0.1008,0.0195,0.0643,-0.1354,-0.1289,-0.0047,0.0068,0.0511,0.039,-0.0209,-0.09,0.239,-0.173,0.0635,-0.0337,0.4361,-0.16,-0.0273,0.0185,0.0363,0.0077,-0.0723,-0.1258,-0.0049,0.0165,-0.0855,0.0714,0.0267,0.0304,0.0171,-0.0776,0.0542,0.0773,0.0301,0.0084,-0.0209,-0.1013,0.0382,-0.0337,0.0225,-0.0586,0.0449,-0.0211,0.03,0.0098,-0.0101,0.0527,-0.0753,-0.0727,-0.0008,0.0223,-0.0833,0.0,-0.0458,-0.0594,0.0215,0.0506,0.0051,-0.0106,0.0625,0.0266,0.0745,0.0405,-0.016,0.0388,0.0636,-0.0644,-0.0129,-0.0091,-0.0634,-0.035,-0.0572,0.0441,0.083,-0.0528,-0.0303,-0.0018,0.0002,-0.0366,0.0764,0.0407,-0.0145,0.0346,-0.025,0.079,0.0087,0.0491,-0.0435,-0.0183,0.0677,0.0784,-0.0793,0.0136,0.0149,-0.0784,0.0,0.0221,0.0282,-0.1205,0.0047,0.0357,-0.0835,-0.075,0.0249,-0.0762,0.0213,-0.1655,-0.0102,0.0083,-0.028,0.0872,-0.0021,0.113,0.0506,0.0206,-0.0155,0.0061,0.0197,-0.1299,-0.0515,0.0063,0.0001,0.1052,-0.0248,0.0446,0.117,-0.1122,0.0589,-0.0673,0.005,0.0637,-0.1256,-0.0092,0.0686,0.1012,-0.0449,-0.081,-0.0327,0.0888,0.0,0.0,0.0,0.0,0.0,0.0,0.0,0.0,0.0,0.0,0.0,0.0],[0.0242,-0.0479,-0.0084,0.0215,0.0582,-0.1113,-0.1806,0.0895,-0.2257,0.0775,-0.1953,0.276,-0.0967,0.2514,-0.0626,0.0186,-0.0334,-0.2624,-0.1723,0.0602,-0.0097,0.0226,0.0411,0.0266,0.0145,0.0179,0.0526,0.0203,-0.0425,0.0004,0.0477,-0.0434,-0.0433,0.0196,-0.0137,-0.0252,-0.0511,0.0374,0.0589,-0.039,-0.1171,-0.052,-0.0165,0.0124,-0.0278,-0.0032,0.0223,0.0024,-0.0432,0.0796,0.05,0.0833,0.059,-0.0118,0.0831,-0.0673,0.0094,0.0746,0.0593,-0.0354,-0.0126,0.0588,-0.0014,-0.0257,0.0373,0.0748,-0.0582,0.0224,-0.0713,-0.0042,-0.0068,-0.0478,-0.0484,0.0059,0.0606,-0.0662,-0.0365,-0.0254,0.0829,-0.0545,-0.0415,-0.028,0.0591,-0.0197,-0.0649,0.0547,0.02,0.0027,0.018,0.0323,0.072,-0.0715,0.0799,0.0551,-0.0396,-0.0599,-0.0452,0.0,-0.0558,-0.0664,0.2146,-0.0804,-0.0615,0.0451,-0.0535,-0.0736,0.0743,0.0153,0.1253,0.0113,-0.0087,-0.0266,0.0063,0.0392,-0.021,0.0219,0.0538,0.06,-0.0321,-0.0334,0.0194,0.0122,0.0205,0.0146,-0.0123,0.0709,0.0393,0.0649,-0.0077,0.0422,-0.0049,-0.0554,0.0019,-0.0103,0.0239,-0.0065,0.0575,0.0684,0.0362,0.0238,0.0736,0.0,0.0,0.0,0.0,0.0,0.0,0.0,0.0,0.0,0.0,0.0,0.0],[-0.1217,-0.0211,0.0611,0.0053,0.0891,-0.047,0.0968,-0.0879,0.3252,-0.0556,-0.2004,-0.0011,0.2608,-0.1906,0.0831,-0.0777,-0.1306,-0.1551,0.1077,-0.1309,0.0054,0.0191,0.132,-0.0906,-0.1422,-0.0292,-0.0352,0.0532,-0.0113,-0.0989,0.0368,0.0251,-0.0288,-0.0165,0.0657,0.0338,0.0923,-0.022,0.102,-0.0103,0.0321,-0.0761,0.0301,0.001,-0.1327,0.0297,-0.0289,-0.0257,0.0516,0.0681,0.0819,0.0037,-0.0311,-0.0764,-0.0453,-0.0567,0.0424,-0.0338,0.0417,0.0629,0.0809,-0.0395,0.004,-0.036,0.041,0.0679,0.0574,-0.0133,-0.0128,0.0182,0.0543,-0.0642,0.0273,-0.0241,-0.0715,0.0396,0.0183,-0.0287,-0.0269,-0.0393,-0.0777,0.0312,-0.0061,0.01,-0.02,-0.0717,0.0122,0.0137,-0.0321,0.0057,0.0334,0.0441,0.0367,0.0352,-0.0584,-0.0486,0.0155,0.0,-0.0037,0.074,0.0262,-0.0697,0.073,0.0563,0.0822,-0.0421,0.0658,0.0259,0.0251,0.0213,0.0054,0.0454,-0.026,0.0036,-0.0252,0.0107,0.1008,-0.0664,0.0096,-0.0133,0.0186,-0.0602,-0.0073,-0.0438,0.0521,0.0357,-0.0259,0.0534,0.0868,0.0154,-0.0961,-0.0479,-0.0439,-0.1025,-0.0352,-0.042,0.0116,-0.0026,0.0988,0.008,0.0811,0.0,0.0,0.0,0.0,0.0,0.0,0.0,0.0,0.0,0.0,0.0,0.0],[-0.0023,-0.0593,-0.0815,-0.0193,-0.0728,0.0206,-0.1598,-0.2185,-0.3551,-0.0816,-0.2158,0.0738,-0.232,0.0693,-0.0811,-0.0587,-0.0461,0.1019,-0.4291,0.0714,-0.0963,0.0125,0.0194,-0.0113,-0.0571,0.0192,0.0293,0.0031,-0.0075,-0.0288,0.0849,-0.0574,-0.0594,0.0208,0.0571,-0.068,0.0311,-0.0731,-0.0451,-0.019,-0.204,-0.0915,0.0838,-0.0377,-0.0695,0.0111,-0.0296,-0.0699,-0.0315,0.077,-0.0626,-0.0576,-0.0522,0.0333,0.0789,0.0709,-0.0704,-0.0228,-0.0501,0.0255,0.0019,0.0041,0.0743,0.0298,-0.0143,0.0125,0.034,0.0375,0.0355,-0.0245,-0.0011,0.0666,0.0149,0.0763,0.0249,0.0238,0.0553,0.0178,0.0609,0.0818,-0.0039,0.0803,-0.0553,-0.0514,0.0078,0.0788,0.0109,-0.0077,-0.0527,-0.0705,-0.018,-0.0327,0.0392,0.0355,0.0416,-0.0683,-0.0347,0.0,-0.0391,-0.0547,0.1409,-0.074,0.0483,0.0492,0.0843,-0.0481,0.0048,0.005,-0.2002,0.0684,0.0796,0.0398,0.0246,-0.0018,0.088,0.0368,0.0099,-0.0542,-0.0966,0.0618,0.0244,0.0486,-0.0976,0.0165,0.0499,-0.0378,-0.0419,-0.0204,0.0522,-0.004,0.0151,0.0022,-0.0884,-0.0197,-0.0137,0.0439,-0.0183,-0.0955,0.0408,0.0429,-0.0812,0.0,0.0,0.0,0.0,0.0,0.0,0.0,0.0,0.0,0.0,0.0,0.0],[-0.0149,0.0323,0.0468,0.0262,0.0095,-0.078,0.2451,-0.1272,0.2407,0.026,0.2229,0.1188,-0.2626,0.2175,-0.0817,-0.0397,-0.0105,0.1781,-0.0939,0.0075,0.0052,0.0225,-0.048,-0.0846,0.0069,0.0379,-0.0177,0.0481,-0.0628,0.0263,0.0678,0.0454,0.0582,-0.0419,0.0215,-0.0406,0.0438,-0.0151,-0.0509,0.0718,0.1105,0.0537,-0.0476,-0.0167,0.0174,-0.0151,-0.0342,-0.0708,-0.0504,-0.0822,-0.0815,-0.0607,-0.0737,-0.0712,0.013,0.0027,0.0118,0.0506,-0.0772,0.0101,-0.0549,-0.0825,0.0096,0.0233,0.0509,0.0475,-0.0218,-0.034,0.024,0.0128,0.0446,0.0057,0.0036,0.046,0.007,-0.0384,-0.0004,-0.0026,-0.0249,-0.0643,0.0174,-0.0034,-0.0258,-0.044,0.0348,-0.01,-0.0831,0.0192,-0.0522,0.0314,-0.0241,-0.0237,-0.048,-0.0209,-0.0145,0.0567,0.0552,0.0,-0.0535,0.0367,-0.1395,-0.0156,-0.0469,0.0482,0.004,0.0726,-0.0772,0.0701,0.0935,-0.0045,-0.0072,-0.0463,0.0236,-0.0409,-0.0662,-0.0401,0.0688,0.0429,-0.01,0.0311,0.0157,-0.034,-0.0081,0.018,0.0008,-0.0086,-0.0485,-0.0464,0.064,0.0073,0.0158,-0.0394,0.022,-0.059,0.0186,0.0113,0.0278,-0.0093,-0.0346,0.0566,0.0186,0.0,0.0,0.0,0.0,0.0,0.0,0.0,0.0,0.0,0.0,0.0,0.0],[-0.0412,0.0123,-0.0026,0.087,0.0373,-0.205,-0.2623,-0.1726,-0.3632,0.1358,0.1325,-0.0689,0.1378,0.2021,-0.0355,0.0014,0.0058,0.2318,0.2285,-0.088,0.0128,0.036,-0.0215,-0.0105,0.0682,-0.0159,-0.0323,0.0653,-0.0394,-0.0041,-0.0241,0.0341,-0.054,0.0506,0.0196,-0.0337,0.0999,0.0281,0.0134,-0.0744,-0.0348,0.023,0.0575,-0.0416,0.0336,0.0582,-0.051,0.0546,0.0133,0.0463,-0.0041,-0.0343,-0.0054,0.0747,0.0838,0.066,-0.062,0.0703,0.0264,-0.0802,-0.0262,0.0045,0.0442,-0.0016,-0.0722,0.0282,-0.0636,-0.0396,-0.015,-0.0106,-0.0529,-0.0259,-0.0278,-0.0378,0.0305,0.0162,-0.0565,0.0005,-0.0575,-0.0643,0.0667,-0.0446,-0.0261,0.0185,-0.0133,0.0536,0.0598,0.0777,0.0696,0.0331,-0.0276,-0.0101,-0.0415,-0.033,0.0826,-0.0768,-0.037,0.0,-0.053,0.0146,-0.0372,-0.0361,-0.0539,-0.0479,0.0089,-0.0283,0.0814,0.0392,-0.0805,-0.0117,0.0122,-0.0403,0.0832,0.0046,0.0173,-0.0883,0.0168,0.0239,0.0105,0.0208,0.0777,0.0469,-0.0418,0.0132,-0.0469,0.0159,-0.0093,0.0303,0.0049,0.039,-0.0269,0.0534,-0.0377,0.0242,0.0426,0.0346,-0.0072,0.0073,0.0476,0.024,0.0211,0.0,0.0,0.0,0.0,0.0,0.0,0.0,0.0,0.0,0.0,0.0,0.0],[0.0554,-0.0396,0.0249,0.0745,0.032,0.0024,-0.0382,0.2011,0.237,-0.0726,0.0411,-0.1241,0.2225,0.1612,0.0589,-0.0795,0.0333,0.1561,0.0961,-0.0564,0.0203,-0.0028,-0.0044,0.0285,0.0321,-0.0023,-0.0344,0.0428,0.0157,-0.0119,0.0713,-0.0285,-0.0045,-0.0191,-0.016,0.049,-0.0188,-0.0789,-0.0205,-0.052,0.0345,-0.0005,-0.0255,-0.031,0.0178,-0.0496,-0.0647,0.0173,0.0308,0.0322,0.0258,0.0544,0.0262,0.0838,-0.0611,-0.0222,0.0086,-0.0089,-0.0694,-0.0212,0.0761,-0.0091,-0.0525,-0.0412,0.0835,0.0277,-0.0516,0.0014,-0.0842,0.0344,-0.0052,-0.0606,-0.0127,0.0385,0.0483,0.0363,-0.0391,0.0148,-0.048,0.0417,-0.0509,0.0704,-0.0724,0.028,0.0747,0.0566,-0.0529,-0.0305,-0.0108,0.0017,-0.0689,0.0469,0.0642,-0.0647,0.0272,0.0746,0.0494,0.0,0.0123,-0.0043,-0.2103,0.0311,0.0525,0.0464,-0.0078,-0.0128,-0.0574,-0.0061,0.0987,0.0174,-0.0191,0.0298,-0.0263,-0.0458,-0.0536,-0.0216,-0.0184,-0.0115,0.0642,0.0146,-0.0137,0.0162,-0.0391,-0.0392,-0.0097,0.0044,0.0248,0.069,-0.0003,-0.0176,-0.0063,-0.0364,-0.0251,-0.0366,0.0114,-0.007,-0.0043,0.0638,0.004,0.0111,-0.047,0.0,0.0,0.0,0.0,0.0,0.0,0.0,0.0,0.0,0.0,0.0,0.0],[0.0767,0.0102,-0.004,-0.0357,0.0388,-0.0897,-0.021,-0.1327,-0.2195,-0.135,0.1905,0.0658,-0.0792,-0.163,0.1024,-0.0101,-0.0397,-0.2465,-0.0859,-0.0158,-0.0217,-0.0162,0.0189,0.0505,0.0618,-0.0374,0.0625,0.0065,-0.0289,0.0418,-0.0388,0.0346,-0.0614,0.0232,0.0548,0.064,0.0137,0.0421,0.0396,0.0478,0.165,-0.0478,0.0481,0.0541,-0.0027,-0.052,0.0119,-0.0741,0.0622,0.0261,0.0407,-0.0012,0.0398,-0.0812,-0.013,0.0524,-0.0435,-0.0699,0.0394,0.0798,0.0284,-0.0492,0.0339,0.0601,-0.0455,-0.0423,-0.0789,0.081,-0.0629,0.0785,0.0064,0.0132,-0.054,0.0153,-0.0173,-0.0494,-0.001,0.0123,0.0534,-0.065,0.0604,-0.0203,-0.0682,0.0243,-0.0284,-0.0204,0.0493,-0.0475,0.0296,0.0754,-0.0381,-0.0418,0.0465,0.0438,0.0559,-0.0461,-0.0047,0.0,-0.0486,-0.0662,0.152,-0.0589,0.083,-0.0424,-0.0727,0.0337,-0.0678,0.0193,-0.1277,0.0909,0.074,0.0037,0.0303,-0.0292,0.0171,0.0668,-0.0337,-0.022,0.0567,0.005,0.0428,0.0593,0.0392,0.0673,0.0403,0.0107,0.0332,0.0158,-0.0389,0.003,-0.0479,0.0204,0.0575,-0.0719,0.0119,-0.0398,0.0487,0.0591,0.0281,0.0222,0.0555,0.0,0.0,0.0,0.0,0.0,0.0,0.0,0.0,0.0,0.0,0.0,0.0],[0.034,0.0149,0.0557,0.0174,-0.0058,0.2534,0.1768,-0.0768,-0.2147,0.2737,0.1953,-0.1697,-0.4039,0.0659,0.126,0.0114,0.0342,-0.1015,-0.0511,-0.0769,0.0099,0.0375,0.0391,0.0202,0.0082,0.0438,-0.041,0.03,0.0311,-0.0163,-0.0322,0.0111,0.0521,-0.0261,0.0549,0.0176,-0.0568,-0.0059,-0.0236,-0.0771,-0.0286,0.0019,-0.008,0.0255,-0.0087,0.0271,-0.014,0.0128,0.0535,0.0054,0.064,0.0719,0.0084,-0.0514,-0.0179,0.0066,-0.0417,0.0372,-0.0551,-0.0627,-0.0311,-0.0293,0.0414,0.0553,0.0339,-0.0684,0.0674,0.0407,-0.033,0.0019,-0.0562,-0.0841,0.0111,-0.0643,0.0042,0.0268,-0.0143,-0.0042,0.0054,-0.0195,0.0028,0.0372,0.0753,0.0716,0.0137,0.0424,0.0407,0.0544,0.0013,-0.0711,0.0481,-0.0489,-0.0678,-0.0141,-0.0588,-0.0073,0.0238,0.0,-0.0304,0.0268,0.0166,-0.0048,0.0659,0.0755,0.0133,0.0706,0.0007,0.0268,-0.1694,-0.0076,0.0346,-0.0511,-0.0207,-0.0244,0.0546,-0.0395,-0.0037,0.0001,0.0227,-0.0231,-0.0023,-0.0388,-0.0133,-0.0167,0.0283,-0.0057,0.065,-0.0369,0.0568,0.0379,0.0078,0.051,0.0265,0.0577,0.0431,0.0508,0.0246,0.0633,0.0396,-0.0008,-0.0115,0.0,0.0,0.0,0.0,0.0,0.0,0.0,0.0,0.0,0.0,0.0,0.0],[-0.0331,0.0007,-0.015,-0.0144,-0.0794,-0.0592,-0.0399,0.0895,-0.302,-0.0818,-0.0372,0.0384,-0.0805,0.2926,-0.0777,0.0402,-0.0459,0.3741,-0.0503,0.0301,0.0786,0.0097,-0.0351,0.0834,0.1321,0.0415,-0.1351,0.0226,0.0321,-0.0037,-0.0531,0.0255,0.0418,0.0353,-0.1524,0.1011,0.0007,-0.0134,-0.0166,-0.0766,-0.1833,0.0472,-0.0688,-0.1259,0.0154,-0.2211,-0.0681,0.0203,-0.0189,-0.0201,0.0135,-0.0536,0.0459,0.0155,0.083,0.0675,-0.0406,-0.0813,0.012,-0.0835,-0.066,0.0464,-0.0069,0.0506,-0.0684,-0.051,-0.0381,-0.0366,-0.0657,-0.0805,-0.0488,0.0614,0.0517,-0.026,0.0767,-0.0779,0.0793,-0.012,0.0711,0.0185,0.0504,0.0616,-0.0821,0.0469,-0.0609,-0.0228,0.0018,-0.0203,-0.082,-0.0603,-0.0535,0.0759,-0.0686,0.0091,0.0309,-0.0654,0.0454,0.0,0.0411,0.0796,-0.0778,-0.0158,-0.0072,0.0157,0.0348,-0.0687,0.0487,0.0221,-0.0309,0.0211,-0.021,-0.0158,0.0142,0.0454,-0.0758,0.0116,-0.0041,0.0432,-0.0825,-0.0034,0.0656,-0.0484,-0.0303,-0.0324,-0.0938,0.0313,-0.0051,0.0919,0.0474,-0.0004,0.0078,0.0376,-0.0039,0.067,0.0696,0.0314,-0.0152,0.0501,0.0393,0.0147,0.0292,0.0,0.0,0.0,0.0,0.0,0.0,0.0,0.0,0.0,0.0,0.0,0.0],[-0.0256,0.0206,-0.0076,0.0436,0.0193,0.1309,0.0932,-0.2307,-0.1906,-0.0243,-0.1193,0.23,0.0472,-0.0984,0.0373,0.0632,0.0307,-0.3137,0.0318,-0.1444,0.0436,-0.0551,0.013,-0.1757,-0.0484,0.0722,-0.0428,0.0671,0.0909,-0.0023,0.0189,-0.0492,0.0033,-0.0668,0.0941,0.0199,0.1475,0.0994,-0.0608,0.0784,-0.1725,0.0841,-0.0825,-0.0405,-0.0984,0.0151,0.0612,0.04,0.0619,0.0431,-0.0824,0.0672,-0.0017,0.0697,-0.0772,-0.0365,-0.0264,0.0231,-0.0335,0.0676,-0.0804,-0.0195,0.0652,-0.0737,-0.0754,-0.0768,-0.0796,-0.0023,0.0253,-0.0601,0.0497,-0.018,-0.0337,-0.0771,-0.0574,0.0303,-0.0401,-0.0187,-0.0236,0.0578,-0.0183,0.0323,0.0433,0.0745,0.0605,0.0485,0.0476,-0.004,0.0355,-0.0308,-0.0413,0.0095,-0.0633,-0.012,-0.0601,-0.0627,-0.0003,0.0,0.0556,-0.0284,0.1257,0.0711,0.0687,0.0118,-0.0527,0.038,0.0801,0.0457,-0.14,-0.0065,0.0171,0.0197,-0.1454,0.0809,0.0564,0.0211,0.016,0.0053,-0.0009,0.0648,0.0453,-0.012,-0.0708,-0.0022,0.006,-0.0153,-0.0879,0.0026,0.0156,-0.0151,0.0732,0.0615,0.0374,-0.0348,-0.0298,0.0237,-0.0229,-0.0641,-0.0835,0.0312,-0.0701,0.0,0.0,0.0,0.0,0.0,0.0,0.0,0.0,0.0,0.0,0.0,0.0],[0.0005,0.0112,-0.0068,-0.0065,-0.0265,-0.1241,0.2831,-0.019,-0.2561,-0.1925,-0.2146,-0.1429,0.2533,0.0639,0.1122,-0.0263,0.0083,-0.0677,0.1773,-0.0018,-0.0363,0.0395,0.0609,-0.0125,0.0124,0.0649,0.0162,-0.0342,0.0091,0.0307,0.0564,-0.002,0.0543,-0.0229,0.0435,0.0043,0.031,0.0101,0.0127,-0.0011,-0.1722,0.0304,0.0372,0.0566,0.0185,0.0666,-0.033,-0.0295,0.0773,-0.0579,-0.0285,-0.0001,0.0015,-0.0709,-0.0685,-0.0734,-0.0709,0.0748,0.0506,0.0358,0.0731,-0.0201,-0.0419,0.0029,-0.0164,0.0559,-0.0338,-0.051,-0.0075,0.0521,0.0124,-0.0267,0.0475,0.0733,-0.0234,-0.0679,-0.0628,0.0599,-0.0421,0.0369,0.0627,-0.0674,0.0504,-0.0561,0.0126,0.0541,-0.055,0.0728,-0.0456,-0.0605,-0.0381,0.0131,0.0671,0.0628,-0.0491,-0.0169,-0.0378,0.0,0.0117,0.0005,0.2052,-0.0503,-0.0109,-0.0404,0.0119,0.04,-0.0157,0.0131,0.0005,0.0452,0.0344,-0.009,-0.0125,-0.0136,0.0917,0.0946,0.0328,0.023,-0.0027,0.0306,0.0574,-0.0438,-0.001,0.0021,0.0445,-0.0018,-0.0101,0.0759,-0.0488,0.0381,-0.0238,0.0633,-0.0207,-0.0223,-0.0082,0.0554,-0.0642,0.0022,-0.0474,0.0362,0.0039,0.0,0.0,0.0,0.0,0.0,0.0,0.0,0.0,0.0,0.0,0.0,0.0],[0.018,0.0708,-0.0155,-0.0716,0.0119,0.0685,0.0251,-0.2872,0.0325,0.1655,0.1894,-0.2506,0.1215,-0.2529,0.1094,0.028,0.0191,-0.2011,-0.0797,0.0359,-0.0214,0.0212,0.0252,0.0493,-0.0191,-0.0272,0.0389,-0.0245,0.0288,-0.0938,-0.0364,-0.0104,-0.114,0.0416,-0.0152,-0.1285,-0.0349,-0.0485,0.0177,-0.0118,0.198,0.0229,-0.0133,-0.0592,-0.0773,-0.0953,0.0347,0.0595,0.0452,0.0061,0.0068,0.0276,0.0219,0.0776,-0.0772,0.0066,0.0326,0.0837,0.0333,0.0292,-0.0354,-0.0212,0.0603,-0.0585,-0.0781,-0.0589,0.0006,0.0032,-0.0019,-0.0799,-0.0326,-0.0315,0.0385,-0.0578,-0.0425,-0.0687,0.0305,0.0484,-0.063,-0.0199,0.0453,-0.041,-0.0149,-0.0652,0.0059,0.0674,0.0649,0.0751,0.0529,-0.0604,0.0272,0.0127,0.0798,0.0116,0.0605,-0.0425,-0.0562,0.0,0.0305,-0.0287,0.0268,-0.0742,-0.0089,0.0113,-0.033,-0.0615,0.0363,0.0066,0.0732,0.0714,0.0318,0.0145,-0.009,-0.016,0.1376,0.1155,0.0033,-0.0795,-0.0025,-0.0232,0.0242,-0.0768,0.0954,0.0175,-0.0462,-0.0607,0.0028,0.1146,0.0045,0.032,0.01,-0.0467,-0.0287,-0.08,0.1063,-0.023,-0.0801,0.0249,0.0319,0.0437,0.0637,0.0,0.0,0.0,0.0,0.0,0.0,0.0,0.0,0.0,0.0,0.0,0.0],[0.0367,-0.0075,0.0064,0.0127,0.0464,-0.0182,0.1138,-0.0321,0.0364,-0.3906,-0.0057,-0.2568,0.0885,0.3505,0.0586,-0.0194,-0.0009,-0.116,-0.2799,0.0652,0.0381,0.0562,0.0273,0.0434,0.0186,0.0037,0.0208,0.0016,0.0109,0.0469,-0.0126,-0.0071,-0.0176,0.0037,0.0118,-0.0244,-0.0539,-0.0059,0.0289,-0.0432,0.0167,-0.0468,0.016,0.023,-0.0284,0.0379,-0.0001,0.0098,-0.0111,-0.0416,-0.0048,0.043,-0.0681,-0.0359,0.0375,0.07,0.0703,0.0841,-0.0093,-0.034,-0.0331,0.069,-0.0235,0.0334,-0.0715,0.0416,0.0552,-0.0292,0.0731,0.0381,-0.0536,-0.0307,-0.0448,-0.0398,0.0747,0.0788,0.0493,0.0294,0.0178,-0.06,0.057,-0.0015,-0.0531,-0.0261,-0.0683,0.0549,0.0229,-0.0015,-0.046,0.0507,0.0824,0.0358,0.0517,-0.0693,-0.0586,-0.0512,0.0064,0.0,-0.0695,-0.0246,0.0608,-0.0665,-0.0389,0.0805,0.0646,-0.0839,-0.0285,-0.0684,0.1136,0.0558,-0.0102,0.0362,-0.0049,-0.0585,0.0105,-0.0533,0.0296,0.025,0.0078,0.005,-0.023,-0.0078,0.0273,-0.0181,-0.0295,0.0339,0.0401,-0.0334,0.0589,0.005,-0.0076,-0.0165,-0.0492,-0.021,0.0416,0.0292,-0.0193,0.0026,-0.005,-0.0145,-0.0419,0.0,0.0,0.0,0.0,0.0,0.0,0.0,0.0,0.0,0.0,0.0,0.0],[0.1363,0.1145,0.0547,0.0212,0.0098,0.0084,-0.1013,-0.0146,0.037,0.0688,0.0614,-0.1641,-0.1669,0.1647,-0.1869,0.0521,-0.0406,0.2826,-0.1296,-0.1608,-0.0105,-0.1643,-0.0671,-0.1309,-0.1394,-0.2123,-0.0651,0.0254,-0.0684,-0.0445,-0.0475,0.0339,0.0117,0.0747,0.0669,-0.0545,-0.0024,0.0432,-0.0463,0.0276,-0.1266,0.0403,0.0497,-0.0045,-0.0237,0.1771,0.053,0.0603,-0.0074,0.0347,-0.0227,-0.0789,-0.0751,-0.0042,0.0544,0.031,0.0635,0.0366,0.083,0.0669,0.0646,-0.0731,0.0271,0.0033,-0.033,0.0462,0.0279,0.0795,-0.0651,0.0695,0.0436,0.0489,-0.077,0.0411,-0.0303,-0.0421,0.0201,-0.0796,0.0046,-0.032,-0.0233,-0.0612,-0.0411,0.039,-0.0626,0.0106,0.0235,-0.0003,-0.0788,0.005,0.0009,0.0417,-0.0349,-0.0432,0.0791,-0.0484,0.0146,0.0,0.0132,0.0519,-0.1375,0.0582,-0.0749,-0.04,-0.0607,0.0772,0.0731,0.0678,0.0904,-0.0636,0.0008,-0.0282,-0.1466,-0.268,-0.1469,0.0167,-0.1459,0.0151,0.1224,-0.1139,0.1659,0.0796,-0.0109,0.0778,0.0938,0.0125,0.0009,-0.0924,-0.035,0.0153,-0.0455,-0.0923,-0.0989,0.0518,-0.0535,-0.1317,0.0663,0.1095,-0.0079,0.2005,0.115,0.0,0.0,0.0,0.0,0.0,0.0,0.0,0.0,0.0,0.0,0.0,0.0],[-0.0394,-0.0145,0.0193,-0.0452,-0.0066,-0.202,0.0273,-0.1845,0.1078,0.1355,0.2036,-0.1611,-0.5622,0.0273,-0.1089,-0.0064,-0.0846,0.0332,-0.0786,-0.1531,-0.0308,-0.1289,-0.0044,-0.0074,0.0489,-0.0552,-0.0029,0.0025,0.09,-0.0527,-0.0824,0.0186,-0.0223,-0.0876,0.08,-0.0097,-0.1534,-0.0859,0.0827,0.0067,0.0676,0.0641,0.0379,0.0278,0.0441,-0.0604,-0.0603,0.0135,0.0465,0.0636,-0.0237,0.0143,-0.0279,0.0128,-0.0425,-0.0524,0.0247,-0.0832,-0.0062,0.0461,-0.0067,0.0838,0.0583,-0.045,0.0236,-0.0626,0.025,0.0666,0.0037,-0.0324,0.0514,0.0349,-0.0671,-0.0188,0.0142,-0.0649,0.0509,0.0212,-0.0629,-0.0155,-0.0823,0.0552,-0.0264,-0.0203,-0.0313,-0.0596,0.0757,-0.083,0.0406,0.079,0.062,-0.0611,-0.0698,-0.0582,-0.0258,0.0448,-0.0648,0.0,-0.0399,-0.0677,-0.0956,0.0137,-0.0049,-0.0129,-0.0632,0.0719,-0.0198,0.0116,0.0291,-0.0656,-0.0327,-0.0009,-0.0985,0.016,-0.172,-0.0624,-0.0488,0.0652,0.1591,0.0236,0.0044,-0.0589,-0.0973,-0.0881,-0.0106,-0.1468,-0.0321,-0.0392,-0.0088,-0.0306,-0.0795,-0.1818,0.0754,-0.0394,-0.0827,0.1249,-0.0082,-0.1527,-0.0629,0.0323,-0.0902,0.0,0.0,0.0,0.0,0.0,0.0,0.0,0.0,0.0,0.0,0.0,0.0],[0.0217,-0.0276,0.0017,0.0436,-0.0417,0.0246,-0.175,0.0028,0.0958,0.0545,0.2153,-0.0969,0.1217,0.0608,0.0784,-0.0509,-0.028,0.4256,-0.1752,0.0061,0.0241,0.0177,-0.036,-0.0175,-0.0314,0.0511,0.0289,0.0747,0.0544,-0.1063,-0.0503,-0.0475,0.0525,-0.052,-0.0442,-0.0018,0.0987,-0.0209,-0.0205,-0.0814,0.0475,0.0227,-0.0363,0.0272,0.0094,-0.0107,0.0353,0.0353,-0.0066,-0.044,0.044,0.0634,-0.0251,0.0346,0.0683,-0.0353,0.0459,0.0321,-0.0164,0.0455,-0.0617,0.016,-0.0149,-0.0134,0.0442,-0.0682,-0.0618,-0.0013,-0.0702,-0.0121,-0.074,0.0183,-0.0352,0.0202,-0.032,-0.0177,0.0431,0.074,0.0798,-0.0096,0.0658,0.0107,0.0718,0.0616,-0.0317,0.0219,-0.0547,-0.0731,-0.0357,0.028,0.047,-0.0003,0.0719,-0.052,-0.0639,0.0242,-0.0347,0.0,0.0411,0.0046,-0.0666,0.0172,0.017,0.0703,0.0129,0.0417,0.0238,-0.048,-0.2154,0.0241,-0.0633,0.0365,-0.0433,-0.0262,0.0146,0.0033,-0.0395,0.031,0.0139,-0.0677,-0.0143,-0.0081,0.0173,-0.0422,0.0287,0.0029,0.0767,-0.0058,0.04,0.0699,-0.0321,0.0082,-0.0206,-0.0176,-0.0042,-0.0449,-0.0494,0.0048,-0.0782,-0.0367,0.0544,0.0,0.0,0.0,0.0,0.0,0.0,0.0,0.0,0.0,0.0,0.0,0.0],[-0.0096,0.005,-0.0392,-0.0892,-0.0373,-0.1844,-0.0513,-0.1295,0.2862,-0.0475,0.053,0.0251,-0.2025,0.2291,-0.1023,-0.0471,0.0871,0.229,-0.099,0.0517,-0.0172,-0.0028,-0.1033,-0.0261,0.0536,-0.1061,-0.005,0.0174,-0.1414,-0.0065,0.0455,-0.0597,-0.0722,0.0719,0.0491,0.001,0.039,0.07,0.0498,-0.0556,-0.0178,0.092,-0.0226,0.0136,0.0319,-0.0316,-0.0813,0.0593,-0.0341,0.0621,-0.0573,-0.0248,0.0062,-0.0523,0.0494,0.039,0.0033,-0.0633,0.0077,0.0427,0.068,-0.0631,-0.0431,-0.0444,0.0343,-0.0145,-0.0199,0.0372,0.0697,0.0367,-0.0545,0.0658,0.0738,0.0429,0.0467,-0.0089,0.0216,0.0018,-0.053,0.0299,-0.0739,0.0041,-0.0062,-0.0317,-0.0283,0.0769,0.042,0.0767,0.0215,0.0488,0.0332,-0.0419,-0.0399,-0.0013,0.0581,0.0798,-0.0401,0.0,0.0056,0.0796,-0.0487,-0.0639,0.0434,0.0536,-0.0547,0.03,0.0582,-0.0037,-0.0389,0.0237,0.0118,0.055,-0.0059,0.0751,0.0323,0.0832,-0.0297,0.0629,-0.0357,0.0113,0.0677,0.0103,0.1296,-0.1486,0.0553,0.0627,-0.0856,0.0257,-0.0363,-0.024,-0.0602,-0.045,-0.0327,0.0748,-0.1214,0.0697,-0.0148,-0.0439,0.0141,0.0209,0.1323,0.0,0.0,0.0,0.0,0.0,0.0,0.0,0.0,0.0,0.0,0.0,0.0],[-0.0575,-0.0002,-0.0149,-0.0065,-0.0314,-0.1215,-0.1072,0.0945,0.3122,-0.1577,-0.2154,0.1967,0.17,-0.2518,-0.0121,0.0372,0.0375,0.1128,0.0782,-0.0437,0.0133,-0.0339,0.1294,-0.0758,0.0169,-0.1409,0.0347,-0.0097,0.0354,0.0521,-0.0639,-0.1733,-0.0444,-0.0779,0.0094,-0.0283,-0.0675,-0.1893,0.0128,-0.0336,-0.0632,-0.0276,-0.0992,-0.0143,-0.1597,-0.0048,-0.0418,-0.0428,-0.0593,0.0268,-0.076,-0.0521,0.0392,-0.0112,-0.0446,-0.0488,0.0177,-0.0301,0.0311,-0.0015,-0.0559,-0.0093,-0.0804,-0.0255,-0.0584,0.0521,0.0231,0.0008,-0.0043,0.0143,0.0228,-0.0249,-0.0224,-0.0068,-0.0582,0.0027,-0.0573,-0.0396,0.0732,-0.0642,0.0338,-0.0228,0.0568,-0.0243,-0.0308,0.0177,0.0472,-0.0433,-0.0154,0.0698,0.0645,-0.0625,-0.0833,-0.0506,0.0042,0.0019,-0.0672,0.0,0.0395,-0.069,-0.1075,0.0183,0.0778,-0.0263,0.0604,-0.0159,-0.0434,-0.017,-0.0546,-0.0145,-0.0164,-0.0921,-0.0205,-0.1509,0.0815,0.005,-0.0335,-0.0202,-0.107,0.0046,-0.0132,-0.0322,-0.0856,-0.0572,0.0859,-0.1112,0.0541,-0.0418,-0.1191,-0.0359,0.0541,-0.061,0.018,0.0619,-0.0748,0.0422,-0.0335,0.0104,-0.0923,-0.1028,0.0222,0.0,0.0,0.0,0.0,0.0,0.0,0.0,0.0,0.0,0.0,0.0,0.0],[0.0276,0.0507,0.0443,0.0609,-0.0575,-0.0488,-0.0951,-0.0542,-0.2597,0.044,-0.1425,-0.0116,-0.0146,-0.2608,0.128,0.0397,-0.0009,0.0186,0.2014,0.0908,0.0091,-0.0197,0.0233,-0.0047,0.0212,0.0254,-0.0089,-0.0567,-0.018,0.0533,0.0707,-0.0054,0.0202,-0.0458,0.0737,0.0111,-0.0689,0.0148,0.0591,-0.0447,-0.0667,0.0138,0.0623,-0.002,0.0349,-0.0033,-0.0337,-0.0236,0.0467,0.0603,0.0463,0.0595,-0.0272,-0.0758,0.0487,-0.015,0.0293,0.0117,-0.0797,-0.0488,0.0156,-0.0004,0.0276,0.0097,0.0204,-0.0033,-0.0602,-0.0497,-0.0523,0.0338,-0.0511,-0.052,0.0071,0.0043,0.0683,0.0208,-0.0625,-0.0451,-0.0091,0.0255,0.0079,-0.0532,0.0792,-0.0248,-0.0246,0.0292,0.0456,0.0319,0.0527,0.0753,0.0029,0.0826,0.0813,-0.0689,-0.0559,0.0061,0.0641,0.0,-0.0261,0.0011,0.1604,0.0473,-0.0831,0.0419,0.0319,-0.0087,-0.0483,0.0638,-0.1178,0.0211,0.0106,-0.0127,0.0044,0.0549,-0.0279,0.0364,0.0285,-0.0074,0.0239,0.0105,0.0351,0.0688,-0.0703,-0.03,0.0223,0.0549,-0.0232,-0.0179,-0.045,0.0119,0.0327,0.0582,-0.0344,-0.0368,-0.0472,0.0267,0.0066,-0.0005,-0.0036,-0.0286,-0.013,0.0,0.0,0.0,0.0,0.0,0.0,0.0,0.0,0.0,0.0,0.0,0.0],[0.0325,-0.0374,-0.0277,-0.0058,-0.0259,-0.1648,-0.0815,0.204,0.2741,0.2149,-0.003,0.1062,-0.1691,-0.2539,-0.0298,-0.03,0.017,-0.2975,-0.0204,-0.0112,-0.0446,0.06,-0.0128,-0.0312,0.035,-0.0031,0.0347,-0.0387,-0.0123,0.017,-0.0424,0.0451,0.0233,0.0556,-0.1012,0.0193,0.0535,-0.0173,0.0662,-0.0231,-0.0356,-0.0068,-0.0206,-0.0409,0.0173,0.0441,0.0043,-0.0487,0.0146,0.041,0.0042,0.031,0.0128,-0.0537,-0.0056,-0.0486,-0.0355,-0.0085,0.0525,-0.0101,0.0709,-0.0483,0.0393,0.0402,-0.0088,0.0448,-0.0634,0.0103,0.049,-0.05,-0.0362,-0.0467,0.013,-0.0638,-0.05,0.0298,-0.0654,0.0791,0.0222,-0.0102,0.046,-0.0121,0.0618,-0.0594,0.0718,0.0177,0.0326,0.0389,-0.0097,0.0148,-0.059,-0.0324,0.0203,-0.0618,-0.0401,0.0728,-0.0236,0.0,-0.026,0.0304,0.1149,0.0347,-0.0334,-0.071,0.0299,-0.0364,-0.0355,-0.0799,0.0085,0.0574,-0.0322,0.0289,0.0608,0.0051,0.0206,0.0401,0.0341,-0.0432,0.0491,0.0311,0.0029,0.0228,0.0436,-0.0044,0.0157,0.0332,-0.008,0.0583,0.0749,-0.0263,0.0409,-0.0124,0.0725,0.0376,0.012,-0.022,-0.004,-0.0404,-0.0137,0.1027,0.0109,0.0,0.0,0.0,0.0,0.0,0.0,0.0,0.0,0.0,0.0,0.0,0.0],[0.014,-0.0184,0.0028,0.0929,0.0729,-0.0867,0.2008,-0.2412,-0.1,0.2035,-0.1594,-0.1853,-0.4279,0.0107,-0.1285,0.0197,-0.0592,-0.1984,0.2716,0.0258,0.0242,0.0024,0.0007,-0.0106,0.0635,-0.0516,0.0418,-0.0485,-0.0238,0.049,-0.0345,-0.0028,0.0139,0.0296,-0.0186,-0.0022,-0.0032,0.0406,0.0339,0.0793,-0.0679,0.0232,0.0078,-0.0503,-0.0111,-0.0343,0.0182,0.0328,-0.0264,-0.0485,0.0735,-0.0104,0.0508,0.0054,-0.0105,-0.0594,-0.0535,-0.0073,-0.0418,0.0463,-0.0385,-0.004,-0.032,-0.0146,0.0085,0.073,0.0303,-0.0138,0.0089,-0.0585,-0.0132,-0.0481,-0.0656,-0.0195,0.0662,0.0618,0.0438,0.0111,0.0824,0.0431,0.0168,0.0175,0.0741,0.0516,-0.0377,0.0096,-0.0668,-0.0162,-0.0649,0.03,0.0015,-0.021,-0.0489,0.0272,0.0213,0.0801,0.008,0.0,-0.0014,0.0795,0.0995,-0.0626,0.0553,0.0385,-0.0618,-0.0768,-0.0806,-0.0426,0.0083,0.0743,0.0343,0.0551,0.0239,-0.0115,0.0854,0.0002,0.0281,-0.0179,0.037,0.0274,-0.0487,0.018,-0.0048,0.0211,-0.0212,-0.022,-0.0001,0.0562,-0.0052,-0.0622,0.0392,-0.0523,0.0094,-0.036,-0.0386,0.0119,-0.0344,-0.0469,0.0157,0.0345,0.0511,0.0,0.0,0.0,0.0,0.0,0.0,0.0,0.0,0.0,0.0,0.0,0.0],[-0.0375,-0.01,0.0112,0.0584,-0.0223,0.1822,0.1418,-0.0608,0.0128,-0.2344,0.1869,-0.1378,0.2697,-0.1849,0.0331,-0.0047,0.0279,-0.1896,0.1257,-0.0391,0.0278,0.0325,0.0603,0.0095,0.0399,-0.0532,0.0335,0.0402,-0.0395,0.0167,0.0546,0.0336,-0.021,0.04,0.0401,-0.0561,-0.0216,-0.0237,0.0464,-0.0378,0.1477,-0.0407,-0.0732,0.0453,0.0085,0.0377,-0.0188,-0.0449,0.0172,0.0129,-0.0835,-0.0657,-0.0817,0.0146,-0.0259,0.0096,0.066,0.0418,0.0073,-0.0164,0.0631,0.0544,0.035,0.0326,-0.0181,0.0557,-0.0113,0.0451,-0.0339,-0.0385,0.0449,-0.0613,-0.0702,0.013,-0.0577,-0.0494,0.0609,-0.0833,0.0511,-0.0603,0.0136,-0.0263,-0.0809,0.0739,0.0826,0.0221,-0.025,0.0552,-0.0705,-0.0828,-0.0464,0.0432,-0.0616,0.0828,0.0099,-0.0162,0.0423,0.0,-0.0189,-0.0777,0.1521,-0.051,0.0775,0.0745,-0.0285,0.0341,0.0352,-0.0085,-0.232,-0.0469,-0.0166,0.0523,0.0143,0.0454,0.0504,-0.0364,0.0285,0.0503,0.0184,-0.0006,-0.0587,0.0207,-0.0284,-0.0134,-0.0135,0.0029,-0.0014,-0.0064,0.032,0.0161,-0.0123,-0.0222,-0.0182,-0.0148,0.0084,0.0144,0.0205,-0.0378,0.0361,0.0525,0.0113,0.0,0.0,0.0,0.0,0.0,0.0,0.0,0.0,0.0,0.0,0.0,0.0],[-0.0853,0.0962,0.0399,-0.0321,-0.0322,-0.0403,0.2456,-0.2274,-0.0939,0.0942,0.058,0.1433,-0.0804,-0.4066,0.0926,-0.0721,-0.0444,0.0607,-0.1652,-0.0286,-0.0137,-0.0419,0.0625,0.0481,-0.0995,-0.0497,0.03,0.0593,-0.086,0.0247,0.0093,-0.0646,0.079,0.0051,-0.0033,-0.072,0.0698,0.0633,-0.0222,0.0834,-0.0545,-0.0246,0.0141,0.0491,-0.0615,-0.0154,-0.0027,-0.0803,0.0068,-0.0489,-0.0828,0.0764,-0.0357,-0.0776,-0.0092,-0.0362,0.0128,-0.0613,-0.0292,0.0551,0.0521,-0.0339,0.0579,-0.0003,-0.0173,0.0396,-0.0832,0.0156,0.0638,-0.0831,0.0434,0.0076,0.055,-0.0141,-0.0516,0.0842,-0.0621,-0.0324,-0.0412,-0.068,0.0132,0.0358,-0.0633,-0.0514,-0.0544,0.0209,-0.0486,0.033,0.0013,0.0009,0.032,0.0054,0.0249,-0.0127,0.0571,0.078,0.0029,0.0,-0.0538,0.0356,0.0105,0.0818,-0.0031,-0.0343,-0.0808,0.0371,0.0233,0.0466,-0.0462,-0.0224,0.0198,-0.0499,-0.017,0.0724,-0.0064,0.0023,0.0491,-0.1036,-0.0639,0.0798,0.1492,0.0061,0.0502,-0.0347,0.0329,0.0625,-0.0171,-0.0152,-0.0011,0.0557,-0.0536,0.0138,0.1006,-0.035,0.0119,-0.0266,0.0672,-0.0462,0.0019,0.0404,-0.0309,0.0,0.0,0.0,0.0,0.0,0.0,0.0,0.0,0.0,0.0,0.0,0.0],[-0.1103,0.0029,-0.0856,0.0077,-0.003,-0.1384,0.308,-0.4801,-0.4012,0.0152,0.0775,-0.115,-0.0398,0.115,-0.1459,0.0075,-0.0238,0.3034,-0.1349,0.119,0.1115,0.0752,0.0481,0.046,0.0455,-0.0017,-0.0367,-0.0738,0.1361,0.0002,0.0246,-0.0362,-0.0227,0.0154,-0.0133,-0.0182,-0.0276,-0.0066,-0.0417,0.0328,0.0622,-0.0222,-0.0387,0.0244,0.0103,-0.0385,-0.0308,-0.0485,-0.0261,-0.0457,-0.0184,-0.0286,0.0705,-0.0837,0.0077,-0.0611,0.0376,-0.0307,0.0605,-0.0371,-0.0112,-0.072,-0.0773,-0.0373,-0.0047,0.0083,0.0131,-0.0469,0.0257,0.052,0.0112,-0.0104,0.0079,0.0531,-0.0701,0.0544,-0.0815,-0.0382,-0.0221,-0.0252,-0.0383,-0.0017,0.0032,-0.0672,0.0256,-0.0111,-0.0365,-0.0133,0.0526,-0.0625,0.0579,0.0075,0.0807,0.066,0.057,0.0131,-0.0731,0.0,-0.0838,-0.0625,-0.1266,-0.0808,-0.0576,0.0251,0.0522,-0.0767,-0.0188,-0.0101,-0.2083,-0.0097,0.0189,-0.0176,-0.0784,0.0205,-0.0717,0.0451,-0.0229,0.001,-0.0524,0.0009,-0.0175,-0.1572,-0.05,0.0582,-0.0658,-0.0264,-0.0814,0.0212,-0.0417,-0.0475,0.0161,0.0114,-0.0113,0.058,-0.0211,-0.0495,-0.07,-0.0367,-0.0421,-0.0587,-0.1004,0.0,0.0,0.0,0.0,0.0,0.0,0.0,0.0,0.0,0.0,0.0,0.0],[-0.0148,0.0272,0.0063,-0.0064,0.0106,0.3447,-0.1764,-0.0696,-0.1382,-0.3112,-0.0977,0.0422,0.2628,-0.0643,-0.0553,0.0147,-0.0138,-0.0673,0.3132,0.0086,-0.0066,0.0048,0.007,0.0149,0.0026,0.0062,-0.0065,-0.0341,0.0367,0.0343,0.0054,0.0439,0.0513,0.0144,0.0123,0.0058,-0.0382,0.0007,-0.0049,0.0011,-0.1014,0.0055,-0.0041,0.0093,0.0576,-0.0031,0.0322,-0.0394,-0.026,-0.0484,-0.0117,-0.0653,0.0359,-0.0064,0.0355,0.0277,0.0041,0.0238,0.0627,-0.0056,0.0839,0.041,-0.0778,-0.0183,-0.0376,-0.0431,-0.0429,0.0104,0.0262,-0.0438,-0.0102,-0.0005,0.0016,0.0339,0.0506,-0.0832,-0.0232,-0.018,-0.0063,-0.0736,0.0701,0.0373,-0.032,-0.0465,0.0529,0.0561,-0.0181,0.0454,0.0006,0.0679,-0.0225,0.0694,-0.0389,0.0813,-0.0393,0.0705,0.059,0.0,0.0239,-0.0699,-0.0579,0.0221,0.0289,-0.0692,-0.0661,-0.0478,0.069,0.0419,-0.0074,-0.0385,-0.0001,0.0474,0.0135,0.0037,0.0244,0.0286,-0.0386,0.0178,0.0863,-0.0147,0.0272,-0.0283,0.0205,0.017,0.0217,0.0077,-0.0059,0.0156,0.0083,0.0383,0.026,0.0352,0.0064,0.0226,0.0015,-0.0033,0.012,-0.0118,0.0355,-0.0144,0.0069,0.0,0.0,0.0,0.0,0.0,0.0,0.0,0.0,0.0,0.0,0.0,0.0],[-0.0124,0.0009,0.0445,-0.0204,-0.0087,-0.1664,-0.0589,0.2043,0.1674,-0.3567,0.0286,0.1243,-0.0196,0.1733,-0.0642,0.0169,-0.0258,-0.2454,0.2709,-0.0742,0.0137,0.0393,0.0107,-0.025,0.0162,0.0333,0.0053,-0.0207,0.0406,-0.0165,-0.0404,-0.0334,0.0405,0.042,0.1004,0.056,0.0324,0.0484,0.0686,-0.0247,0.1878,-0.0284,-0.0177,0.0073,-0.0294,-0.0106,0.0401,-0.0698,0.0604,0.0288,0.0109,0.0573,0.0493,-0.069,0.0521,-0.041,-0.08,0.0566,-0.0787,-0.0413,0.0597,0.0686,0.0295,-0.0468,-0.0281,0.0586,-0.0487,-0.0462,0.0303,0.0281,-0.0203,0.0007,-0.0263,0.0401,-0.0701,0.0372,-0.0062,0.0128,0.0736,-0.0312,-0.0826,0.0216,0.056,-0.0195,-0.0755,0.0723,-0.038,-0.0365,0.0414,0.0496,-0.0699,-0.0524,-0.0731,0.0423,-0.0162,0.0702,0.0172,0.0,0.0098,0.0546,0.1323,-0.0032,-0.0622,-0.006,0.0831,-0.0798,-0.0528,-0.0284,-0.1505,0.0183,-0.0528,0.0159,0.0538,0.0088,0.0716,0.1,-0.0069,0.0374,-0.0402,-0.029,0.0328,0.031,-0.0127,0.0129,0.0159,0.0532,0.0099,-0.0201,-0.027,-0.0407,0.0779,-0.0351,0.0113,0.0162,0.0828,0.063,-0.0072,0.0073,0.0195,-0.0167,-0.0103,0.0,0.0,0.0,0.0,0.0,0.0,0.0,0.0,0.0,0.0,0.0,0.0],[-0.0016,0.0221,0.0311,0.0375,0.0623,0.1768,-0.2257,0.1729,0.3201,-0.0866,-0.1463,0.0234,-0.2892,-0.0905,0.0977,0.0253,0.0149,-0.199,-0.0724,-0.0285,0.0064,-0.029,-0.0432,-0.052,-0.0303,-0.0004,0.0802,-0.0105,0.0496,-0.0276,-0.046,0.0295,-0.0096,0.0049,0.0286,-0.0076,-0.03,0.0555,-0.0309,0.0824,-0.0917,0.0133,-0.025,-0.0414,-0.0021,-0.0214,-0.0006,-0.0292,-0.0104,0.0524,-0.0478,0.0216,-0.0832,-0.0555,-0.0038,-0.0403,0.0503,-0.066,-0.0029,-0.0108,-0.0752,0.0375,-0.0368,-0.0153,0.0417,-0.0419,0.0713,0.0712,0.0481,-0.0241,0.0793,0.0324,0.0665,-0.06,-0.0745,0.0767,0.0332,-0.0037,-0.0117,-0.039,0.0774,-0.0443,0.0247,0.0655,-0.0573,0.067,-0.0586,0.0401,0.0584,-0.0012,-0.0017,0.0693,0.0295,0.0404,-0.058,-0.035,0.0014,0.0,0.0222,0.0531,0.0763,-0.0637,0.0682,0.0304,-0.032,-0.0227,0.0821,-0.0477,0.2019,0.0286,-0.0384,-0.0143,0.0228,0.0236,0.07,0.0039,-0.0068,-0.0059,0.0567,-0.0428,0.0184,0.0103,-0.0229,0.004,-0.0316,-0.0451,-0.0489,-0.0365,0.0233,-0.0287,0.0601,0.075,0.0059,0.0365,-0.0117,0.0609,-0.0243,-0.0025,0.0174,0.0395,0.0005,0.0,0.0,0.0,0.0,0.0,0.0,0.0,0.0,0.0,0.0,0.0,0.0],[0.0525,-0.064,0.0126,-0.0766,-0.0471,-0.1691,-0.162,-0.1669,0.2396,-0.2141,-0.0278,-0.2683,-0.1175,0.3531,0.0001,-0.1977,-0.0614,0.1419,-0.1569,0.0369,-0.0009,-0.0026,0.0787,-0.0638,-0.0321,0.0143,0.0347,-0.087,-0.0884,0.0162,-0.021,-0.0451,0.0982,0.1499,-0.0537,-0.1093,-0.0199,0.0475,-0.0547,0.0701,-0.4243,-0.0115,-0.0541,0.1123,-0.0685,0.0564,-0.0217,-0.023,0.0293,-0.0223,-0.0708,-0.0619,-0.0198,-0.0539,-0.0126,0.0587,-0.0246,0.0188,-0.0219,0.0241,-0.0213,-0.0315,0.0439,-0.0564,0.0472,-0.0194,-0.0654,-0.0541,-0.0643,0.0168,0.0775,-0.0779,-0.0751,0.0328,-0.0514,-0.0652,-0.0122,0.0347,-0.016,0.0721,0.0696,-0.0429,0.0624,-0.0096,-0.0703,0.0269,-0.0567,0.0661,-0.0737,0.044,0.0452,0.057,-0.0706,0.0681,0.0595,0.0268,0.0428,0.0,-0.0791,0.0169,-0.1169,0.0667,0.0239,-0.0836,0.027,-0.0294,-0.0477,0.0006,0.0832,0.1272,-0.1251,0.0567,-0.0768,-0.0985,-0.0815,-0.0448,0.0558,-0.1206,-0.0219,0.0831,-0.1165,-0.0361,0.0082,-0.0243,0.0728,0.0005,0.0273,-0.041,-0.0513,-0.0434,0.0214,-0.006,-0.0116,-0.0348,0.0178,-0.1121,-0.0346,-0.0887,0.0117,-0.0473,-0.0032,0.0,0.0,0.0,0.0,0.0,0.0,0.0,0.0,0.0,0.0,0.0,0.0],[-0.07,0.0042,0.0063,0.0317,-0.0829,-0.0342,-0.0869,-0.1088,-0.181,-0.1675,-0.1816,-0.0459,-0.1554,0.233,0.0494,0.0295,0.1309,0.38,0.0012,0.1115,0.0124,0.0138,0.0863,0.1705,0.0714,0.0497,0.0752,-0.0448,0.0745,-0.0141,-0.0199,-0.078,0.0451,-0.0027,0.0909,0.0468,0.1488,0.0756,-0.0958,0.0781,0.1149,-0.0107,-0.0071,0.0097,0.0277,-0.1527,-0.0313,0.0649,0.0407,0.0788,-0.0795,-0.0727,-0.003,0.0131,-0.0428,0.0801,0.0598,0.0842,-0.0021,-0.0195,-0.052,0.0237,-0.0405,-0.0337,-0.0671,-0.0777,-0.0805,-0.0609,-0.0509,-0.0302,0.0638,0.0637,0.0255,0.0468,0.0826,-0.0163,0.0779,0.0758,0.0393,0.0802,-0.076,0.0155,-0.0572,-0.0798,0.0018,-0.0486,0.0653,0.0582,0.0184,0.0299,-0.0416,-0.0391,0.0714,0.0194,-0.0315,-0.0654,-0.0414,0.0,0.0204,-0.0341,-0.0375,0.0376,0.0448,0.0018,0.0249,-0.0414,-0.0692,0.0531,0.076,0.0287,0.0573,0.0476,0.098,-0.0036,0.0466,0.0739,0.0839,0.0911,-0.0364,0.0692,0.0527,-0.0608,0.0194,-0.0282,-0.1098,-0.0929,-0.1109,-0.0013,-0.0731,-0.1244,-0.1168,0.1034,-0.0799,-0.0265,-0.0214,0.0563,0.0233,-0.0587,0.0591,0.0103,-0.0459,0.0,0.0,0.0,0.0,0.0,0.0,0.0,0.0,0.0,0.0,0.0,0.0],[0.044,0.0548,0.0397,0.0177,-0.0174,0.0758,0.169,-0.0131,-0.2035,-0.1456,0.3689,-0.1056,-0.0535,0.1592,-0.0495,0.0279,0.0219,0.1953,0.1765,0.0564,-0.0095,-0.0083,0.0256,0.0691,0.0548,0.0408,0.0094,-0.0095,0.0739,0.0015,-0.0077,0.0107,0.0705,0.0457,-0.0484,-0.004,-0.0028,0.0184,0.0345,0.0575,-0.0971,0.0325,0.0024,-0.0198,0.0196,-0.0566,-0.0028,-0.0064,-0.0649,-0.0158,0.0754,0.03,-0.0485,-0.0229,0.0284,-0.0208,0.0073,0.0115,-0.0752,0.0424,-0.0127,-0.0042,-0.049,-0.0599,-0.036,0.0428,0.0712,-0.0248,0.0521,-0.0638,-0.0381,-0.0135,0.0632,0.0521,-0.0298,-0.0217,-0.0677,0.009,0.0498,-0.0117,-0.0559,0.0325,0.079,0.0261,0.0304,0.0322,-0.0212,0.0324,0.0542,0.0366,0.0044,-0.0161,0.0783,0.0263,0.0496,-0.0552,0.0351,0.0,-0.0132,-0.0418,-0.1715,-0.0038,-0.0781,0.0112,-0.0655,-0.0267,0.0219,0.0138,0.2059,-0.0119,-0.0068,-0.0497,-0.0159,-0.0054,-0.0407,-0.0172,-0.001,0.0244,-0.0293,0.0361,-0.0123,0.031,0.0353,-0.0262,0.0111,0.0432,0.0164,-0.0033,0.0043,-0.0066,-0.0277,-0.0154,0.0645,0.0065,0.0055,-0.0285,0.0489,0.0359,0.0413,-0.0154,0.0626,0.0,0.0,0.0,0.0,0.0,0.0,0.0,0.0,0.0,0.0,0.0,0.0],[-0.0532,0.0185,0.0286,-0.0488,-0.0276,0.1825,-0.1991,-0.2252,0.0272,-0.2762,-0.0187,-0.061,0.2337,-0.065,-0.0256,0.0011,-0.0268,-0.005,-0.2173,-0.0157,-0.0027,0.0357,-0.0269,-0.0039,0.0395,0.0497,0.0064,-0.0209,-0.0071,0.0173,0.0402,-0.0353,0.0488,0.0337,0.095,0.0338,0.0158,-0.031,-0.0204,-0.0756,-0.0565,0.0457,0.0268,-0.0163,-0.0103,0.0532,-0.0079,-0.0477,-0.0282,-0.0435,-0.0186,-0.0243,-0.0332,-0.0258,0.0214,0.0447,0.0731,0.0008,-0.0613,0.0521,0.0449,0.0248,0.0728,0.0239,0.0006,0.0148,-0.0157,-0.0823,0.0539,0.0793,-0.0147,0.0048,-0.0022,-0.0373,0.0135,-0.0825,-0.0239,-0.0009,0.0649,-0.0633,0.0256,-0.0578,0.0266,-0.0449,-0.0575,0.0047,-0.0343,0.0476,0.0686,-0.0446,0.0334,-0.0419,0.0783,0.0841,-0.0533,0.0365,-0.0781,0.0,-0.0581,0.0278,0.1851,0.0245,0.0688,0.0068,-0.0735,-0.0736,0.0457,-0.0563,0.1957,0.0249,0.0514,-0.0335,0.0118,0.0134,0.0188,0.0312,0.0432,-0.0029,-0.0076,0.0227,0.0222,0.0258,0.0013,-0.0298,0.0464,-0.035,0.0511,0.0176,-0.0104,-0.0176,0.0323,0.0321,0.017,-0.0357,0.044,0.0433,0.0335,0.0374,-0.0382,-0.0558,0.0127,0.0,0.0,0.0,0.0,0.0,0.0,0.0,0.0,0.0,0.0,0.0,0.0],[0.0683,-0.0275,0.0095,0.0096,-0.0314,0.3332,0.2164,0.1804,0.1182,0.1763,-0.0913,0.0921,0.2067,-0.4007,-0.0109,0.0527,0.014,0.0349,-0.2456,0.0463,0.0201,0.0164,-0.0081,0.0708,-0.0228,0.0445,0.0029,-0.02,0.0519,0.0385,-0.0541,0.0193,0.0068,0.0378,-0.0445,0.0572,-0.0481,-0.0266,-0.0171,0.0432,0.0277,-0.0068,0.0047,-0.0002,-0.03,-0.0346,-0.0233,0.0318,-0.0482,0.0604,0.0674,0.0052,-0.0449,0.0444,-0.0782,-0.0175,0.0102,-0.0028,0.0237,-0.0247,-0.0489,-0.0219,0.0194,0.0566,-0.0597,0.0416,0.0399,-0.0321,-0.0278,-0.0634,-0.0161,0.0546,-0.0427,-0.0341,0.0587,-0.02,-0.0325,0.064,0.0022,0.0419,-0.0065,-0.0378,-0.0737,0.0455,0.0761,0.037,0.0056,0.0082,0.0108,-0.0594,-0.0187,0.065,0.0062,0.0072,0.0394,-0.0751,0.0792,0.0,-0.0099,0.0162,0.0227,0.0821,-0.0541,0.0176,0.0614,-0.0644,-0.0624,-0.0212,-0.0041,-0.0463,-0.0096,-0.0119,0.0263,-0.0085,-0.0565,-0.0095,0.0349,0.0123,-0.0333,-0.0126,0.0134,0.0154,0.0111,0.0157,0.026,0.0255,0.023,-0.0375,0.036,-0.0167,-0.0345,0.0709,-0.0569,0.0871,-0.0345,0.0203,-0.018,-0.0224,0.0663,0.0165,0.0383,0.0,0.0,0.0,0.0,0.0,0.0,0.0,0.0,0.0,0.0,0.0,0.0],[0.0833,-0.0704,0.0619,0.0223,0.0957,0.2497,-0.052,-0.0526,-0.201,-0.138,-0.0317,-0.2233,0.3041,0.3428,-0.0531,-0.1149,0.1188,0.4038,-0.0999,0.009,0.0523,-0.0124,0.0593,-0.0521,0.0434,-0.0447,-0.0962,0.0262,0.0876,-0.1176,0.0321,-0.1315,-0.0687,0.062,-0.1512,-0.0498,0.0273,0.1097,-0.1322,-0.0596,0.0094,-0.12,-0.1641,-0.0879,-0.0858,0.008,0.1321,0.0499,0.0065,-0.0666,-0.0099,-0.0756,0.0538,-0.038,-0.0296,-0.0264,0.053,0.0508,-0.0572,0.0741,-0.0193,0.0423,-0.0322,0.0632,-0.0367,-0.0657,0.0283,-0.01,-0.0408,-0.032,0.01,0.0406,0.0454,0.0419,0.0828,0.069,-0.0759,0.0517,-0.0721,-0.0703,0.0272,0.0775,0.0748,0.0609,-0.053,-0.0456,-0.0197,-0.0527,-0.0183,0.0163,-0.0393,-0.0357,0.0526,-0.0503,0.0194,-0.0448,0.0206,0.0,0.0105,-0.0344,-0.0994,-0.0479,0.0375,0.0189,0.0777,0.0724,0.0524,0.0137,-0.1854,0.1043,0.0518,-0.0178,-0.1772,0.0068,0.0791,-0.0987,-0.055,0.1498,-0.0158,0.1134,-0.1456,-0.0751,-0.1695,-0.094,0.1014,0.0257,-0.0918,-0.1401,-0.0041,-0.092,-0.182,-0.0045,-0.0142,-0.1824,-0.1885,-0.0681,0.0316,-0.037,-0.1026,-0.0225,-0.0009,0.0,0.0,0.0,0.0,0.0,0.0,0.0,0.0,0.0,0.0,0.0,0.0],[-0.0146,-0.0246,0.0085,0.0573,0.0451,0.1846,0.1897,-0.2051,0.2062,-0.1685,-0.2621,0.2971,-0.0393,-0.3276,0.0055,-0.0282,-0.0245,0.1739,-0.1169,-0.0218,0.0135,-0.0218,-0.0351,-0.0146,-0.0115,0.0133,-0.0447,-0.031,0.0386,-0.043,0.0362,0.0126,0.0177,0.035,0.0058,-0.029,0.0631,-0.0236,0.0505,-0.0832,0.0205,0.0096,-0.0214,0.0417,0.0522,-0.028,0.0478,-0.0074,0.0532,0.0167,0.0323,0.0365,-0.0476,-0.0273,0.0074,-0.0701,0.0262,0.005,-0.0268,-0.0215,0.0025,0.016,-0.0399,0.0679,-0.0142,0.0721,-0.035,-0.0024,-0.0429,0.0126,0.0654,-0.0459,0.0724,0.0113,-0.026,-0.0622,-0.005,0.0006,-0.0184,-0.0208,-0.0251,-0.0814,0.0112,-0.0699,0.004,0.0475,0.0799,-0.008,0.0003,0.0547,-0.0815,-0.0394,0.0524,-0.0209,0.0529,0.0637,0.0286,0.0,0.0115,-0.0761,0.0995,0.0279,0.0605,-0.0296,-0.0793,-0.0117,0.0374,0.0707,-0.037,-0.0142,0.0145,-0.0394,-0.006,0.0211,0.0279,0.0524,-0.0311,0.0231,0.0764,0.0019,0.0455,-0.0083,0.042,0.0161,0.0034,0.0026,0.0281,0.0203,0.0107,0.0396,0.0125,-0.0262,0.0083,-0.004,-0.0071,0.0573,0.0333,-0.0054,0.0118,-0.0091,-0.0047,0.0,0.0,0.0,0.0,0.0,0.0,0.0,0.0,0.0,0.0,0.0,0.0],[0.0615,-0.1119,-0.1138,-0.002,0.006,-0.1316,-0.1857,-0.074,-0.1135,-0.3007,0.2392,-0.1906,-0.0844,0.0369,-0.1594,0.1406,-0.0365,-0.1484,-0.0308,0.0046,-0.0003,0.0103,-0.1159,-0.1185,0.0556,-0.0336,-0.0411,-0.2206,0.0572,-0.0256,-0.0308,0.0773,-0.0001,-0.0562,-0.1553,0.0278,-0.3297,0.0815,0.0298,-0.0244,-0.3375,-0.0373,0.0742,-0.0518,-0.0749,-0.1238,-0.0453,0.0076,0.0047,0.0377,0.03,0.0662,-0.0164,0.0152,0.0265,-0.0763,-0.0602,-0.0202,-0.0495,-0.0812,0.0226,-0.0265,0.0456,-0.0787,0.0184,-0.0038,0.066,0.0755,0.019,0.0755,-0.058,0.0828,0.0334,-0.0833,0.0566,-0.0366,-0.0221,0.0676,0.0109,-0.0816,-0.0582,-0.071,-0.0113,0.0707,0.0792,0.0564,0.0158,0.0403,-0.0697,0.036,-0.0597,0.0662,-0.0777,0.0406,0.0254,-0.0302,-0.0583,0.0,-0.006,0.0127,0.156,0.0676,-0.0831,0.0759,-0.0506,-0.0575,-0.0171,0.0665,-0.0045,0.0564,-0.0412,0.0107,-0.0739,0.01,-0.0275,-0.0711,0.0448,0.1786,-0.0012,-0.043,-0.2356,0.0003,-0.079,-0.0637,0.095,-0.1547,-0.1321,-0.0498,0.0561,-0.09,-0.0519,0.0909,-0.1271,0.0029,0.0913,-0.0461,-0.114,0.0361,0.0228,0.032,-0.1735,0.0,0.0,0.0,0.0,0.0,0.0,0.0,0.0,0.0,0.0,0.0,0.0],[-0.0223,0.0191,-0.004,0.0388,-0.0209,-0.096,-0.1282,-0.3133,0.1966,0.0541,0.0759,0.1072,0.1677,0.3787,0.1863,-0.0381,-0.0587,-0.126,-0.0043,-0.0282,-0.0191,0.0081,-0.0248,0.0368,-0.029,-0.0428,-0.0013,-0.05,0.0245,-0.0072,-0.0391,-0.0181,0.0179,-0.0054,-0.0755,-0.0328,-0.0227,0.0434,0.0335,0.0282,-0.0438,0.0053,-0.0019,-0.0746,0.01,0.0131,0.0327,0.0742,0.0486,-0.0289,0.0057,-0.0025,0.0529,0.0319,-0.0756,0.0369,0.0579,0.0407,-0.0474,0.0268,-0.0238,-0.0445,-0.0445,-0.0573,0.0678,-0.0339,-0.0338,0.0339,-0.0447,0.0575,0.0657,-0.0635,0.0804,0.0349,0.0621,0.0409,-0.0648,-0.0127,0.0583,-0.0382,0.0315,0.0545,0.0709,-0.0581,-0.0842,-0.0071,0.0412,0.0611,-0.0715,0.0717,-0.0082,-0.0232,-0.0406,0.0606,0.0037,0.0063,0.0567,0.0,-0.0219,-0.0245,-0.0113,0.0579,0.0622,-0.0689,0.0337,0.0162,0.0465,-0.077,-0.1425,0.0597,0.0121,-0.0188,0.076,-0.0428,0.0921,-0.0562,0.0436,0.0207,0.0413,-0.0083,-0.0023,0.0091,-0.0517,0.003,-0.0079,-0.0076,0.0466,0.0046,-0.011,-0.0058,-0.0494,-0.0551,0.0346,0.069,-0.0279,0.0554,0.0009,0.0228,0.0762,-0.0384,-0.0127,0.0,0.0,0.0,0.0,0.0,0.0,0.0,0.0,0.0,0.0,0.0,0.0],[0.0072,0.0074,0.0157,0.0411,0.0186,-0.1532,-0.2,-0.0245,-0.217,0.2996,-0.2406,-0.1098,0.2718,0.4709,0.1215,0.0206,0.0239,-0.0578,0.0281,-0.0089,0.0291,-0.004,-0.0108,0.0384,0.0303,0.0274,0.0182,-0.0263,0.0551,0.0223,0.0146,0.0415,-0.0138,-0.0428,0.006,0.0451,-0.0031,0.0127,0.0619,-0.0485,0.0167,0.0129,0.0397,0.0518,0.0417,-0.0506,0.0408,0.0322,-0.0312,0.0405,-0.0496,0.0534,0.0507,0.071,0.0299,-0.0633,-0.0679,-0.0423,0.0716,-0.0097,-0.0472,-0.0452,-0.0096,0.0651,-0.074,-0.026,0.0676,-0.0658,-0.0284,0.0836,0.0098,-0.0226,0.0098,0.0676,-0.0564,-0.0754,0.017,-0.0572,0.002,-0.0076,0.0695,-0.0671,-0.0342,-0.026,-0.0204,0.0468,-0.0607,0.0257,0.0392,0.0272,0.0817,0.0207,-0.0026,0.0736,-0.0379,0.0248,0.0168,0.0,0.0385,0.0047,-0.0508,-0.0131,-0.0345,-0.037,-0.0421,-0.0664,0.0577,-0.0675,0.0791,0.0224,-0.004,0.0772,0.0011,-0.0303,0.0633,-0.0091,0.0329,0.005,0.0392,0.0131,-0.0211,0.0195,0.038,-0.0097,0.031,-0.0202,-0.0319,-0.0235,0.0179,-0.0232,-0.0384,0.0315,-0.0115,0.0274,-0.0067,-0.0194,0.0348,0.0514,0.0428,0.0309,0.0291,0.0,0.0,0.0,0.0,0.0,0.0,0.0,0.0,0.0,0.0,0.0,0.0],[0.0502,0.0394,0.0287,0.0407,-0.0518,-0.3207,0.0367,0.1315,-0.0713,-0.1462,-0.1493,-0.3299,-0.141,0.0686,0.1184,-0.0314,0.0173,0.225,-0.0477,0.064,0.0607,-0.0015,-0.0876,-0.0225,-0.0033,0.0168,0.0047,-0.0197,-0.0191,0.0003,0.039,0.0229,-0.0346,-0.0282,-0.0608,0.0556,-0.0505,0.0842,0.0862,0.063,-0.0191,-0.0329,0.0505,0.0157,-0.0313,-0.1409,0.0182,0.0038,0.059,-0.0152,0.0499,0.0192,-0.0235,-0.0189,-0.0046,0.0202,-0.0264,-0.0382,0.0442,-0.0028,0.0721,-0.0358,-0.0386,0.0027,-0.0314,0.0569,0.0042,-0.0028,-0.0579,0.0032,0.0484,0.0317,0.0795,0.0193,-0.0633,-0.0045,0.0563,0.044,-0.0539,0.0613,0.0763,-0.0768,0.0607,0.0705,-0.0083,-0.0661,0.0067,-0.0554,0.0217,-0.014,-0.0705,0.0322,0.0117,-0.076,-0.018,0.0008,0.0233,0.0,-0.0487,-0.0636,0.0103,0.0559,0.0715,0.0221,-0.0819,0.0455,0.0236,0.0154,0.0906,0.1176,-0.0285,0.0032,-0.0068,-0.073,-0.0336,0.0718,-0.0006,-0.0353,-0.0684,-0.0165,0.0406,-0.0253,0.0489,-0.0498,-0.0096,-0.0129,0.0108,-0.0429,-0.0409,-0.0036,0.0078,0.0772,0.019,-0.0335,-0.0566,0.057,0.092,0.0104,0.0452,-0.0547,-0.0867,0.0,0.0,0.0,0.0,0.0,0.0,0.0,0.0,0.0,0.0,0.0,0.0],[-0.1196,0.0142,0.0728,0.0229,0.0288,-0.0858,0.0976,0.2843,-0.2789,0.1264,-0.1477,0.3206,0.203,-0.0585,-0.2833,-0.0684,-0.0717,0.314,-0.1144,-0.0932,-0.0139,0.0681,-0.0967,-0.04,0.097,0.1064,-0.01,-0.0291,-0.0485,-0.0514,-0.0668,0.0839,-0.0097,-0.0248,0.0018,-0.0012,-0.1275,-0.0525,-0.0504,0.0232,-0.0785,0.0172,0.0284,-0.0689,-0.1717,-0.0161,-0.0236,0.0745,-0.058,0.0338,-0.0832,0.04,-0.0064,0.023,-0.0796,-0.0685,0.0067,-0.0573,-0.0411,0.0257,0.0758,-0.0455,0.0065,0.0031,0.0826,0.0154,0.0541,-0.0669,-0.0064,0.052,-0.0797,-0.0692,0.0039,-0.071,0.0429,-0.0523,0.0172,-0.0556,-0.0395,0.0325,-0.0494,-0.0767,-0.0244,0.048,0.036,0.043,0.0522,0.0536,0.0231,-0.0293,-0.0779,0.0658,-0.0334,0.011,-0.0657,-0.064,-0.0447,0.0,0.001,-0.0818,-0.1123,0.0469,0.0684,-0.064,-0.0194,0.0156,0.0592,-0.0067,-0.2428,-0.0717,-0.1546,-0.048,-0.0328,-0.0604,0.0272,-0.1065,-0.0955,0.0637,-0.0222,0.1208,-0.0844,-0.182,-0.0784,-0.1167,0.0263,0.0165,-0.0394,0.0464,0.0246,-0.0492,0.0066,-0.0164,-0.0372,-0.0147,-0.0069,0.0357,0.0103,0.0359,0.0052,0.0007,-0.1009,0.0,0.0,0.0,0.0,0.0,0.0,0.0,0.0,0.0,0.0,0.0,0.0],[0.0352,-0.0124,-0.0365,0.0237,-0.0114,0.312,-0.1677,-0.1456,-0.3053,-0.1283,0.2603,0.0116,-0.2724,0.2348,-0.1269,0.0492,0.0395,0.1102,-0.1242,0.0081,0.0566,0.0402,-0.0146,0.0469,0.0097,0.0015,0.0198,0.0049,-0.0103,0.0892,0.0329,0.0252,0.0066,0.0224,0.0202,0.0373,0.0139,0.0481,0.0481,-0.0534,0.115,0.0341,0.0034,0.0141,-0.0196,0.0356,0.021,-0.0699,-0.0809,0.0689,0.0563,-0.0008,0.0333,-0.0607,0.0817,-0.0206,-0.0355,0.067,-0.0168,0.0451,0.0135,0.0421,0.0659,0.0709,0.0461,0.0472,0.0203,-0.0366,-0.0262,0.0714,0.042,-0.0339,0.0474,-0.0632,0.0345,0.0057,-0.0463,0.0664,-0.0732,0.0148,-0.0395,-0.0761,-0.0436,-0.0701,-0.0174,0.0254,0.0268,0.0153,0.024,0.0082,0.0303,-0.0064,0.0249,-0.0393,0.0589,-0.0607,0.0763,0.0,0.0074,-0.0719,-0.0188,-0.0508,0.0477,-0.0118,0.0265,0.0303,-0.0515,0.013,0.0203,-0.0639,-0.0068,-0.0689,0.0065,0.0357,0.0422,0.0312,-0.022,0.0365,-0.0025,0.0066,-0.012,0.0158,0.0071,-0.0146,-0.0035,0.0108,0.0036,0.017,-0.0095,0.0285,0.0605,0.0113,0.0097,-0.0632,-0.0094,0.0174,0.0015,-0.0329,0.0083,0.0122,-0.019,0.0,0.0,0.0,0.0,0.0,0.0,0.0,0.0,0.0,0.0,0.0,0.0],[0.0422,0.0674,-0.043,-0.017,-0.0492,0.0692,0.0866,-0.2084,0.0912,0.1449,-0.1934,0.2481,0.0244,-0.3693,-0.2476,-0.1483,0.0039,0.1493,0.0817,-0.0114,0.0605,-0.0096,0.0233,-0.0287,0.0195,-0.0497,-0.0982,-0.061,-0.0027,-0.0865,0.0501,-0.0276,-0.0149,-0.1019,-0.1239,-0.0267,0.172,0.0321,-0.1079,-0.0705,0.1653,0.0498,-0.0555,-0.0331,-0.0265,-0.0003,-0.0661,-0.0607,-0.031,0.0721,0.0624,0.0528,-0.0799,0.0221,0.0488,0.0515,0.0765,-0.0395,0.0721,-0.067,0.0062,0.0263,-0.047,-0.0058,-0.0631,0.046,-0.0374,0.0208,0.0763,0.0647,-0.0377,0.0634,-0.0352,0.0617,0.0361,0.024,-0.0362,0.0,-0.011,0.0694,0.0814,0.0099,-0.0768,0.045,-0.0739,0.0062,0.0599,0.0213,-0.0633,-0.007,0.0625,0.0379,0.067,-0.0699,-0.0619,0.0347,0.0288,0.0,-0.0102,0.0689,-0.0262,-0.0524,-0.0184,-0.0566,0.054,-0.0435,-0.014,-0.0836,-0.0804,0.1911,0.0848,0.1359,-0.0079,-0.086,0.0162,-0.1171,0.1597,-0.1026,0.0876,0.0285,-0.0403,-0.1434,-0.152,0.0294,0.1044,-0.0654,-0.0254,-0.1181,0.0599,0.063,0.0983,-0.0091,-0.0159,0.012,0.0291,0.0412,-0.0257,0.098,0.0038,-0.0187,0.0141,0.0,0.0,0.0,0.0,0.0,0.0,0.0,0.0,0.0,0.0,0.0,0.0],[0.0905,-0.0032,0.0122,-0.0061,-0.0377,0.0182,0.103,-0.0677,0.2508,0.1486,-0.2342,-0.0375,-0.0398,-0.0766,0.1792,-0.0235,-0.0878,-0.36,0.1712,-0.0187,-0.0409,0.0401,0.0427,0.0802,0.0186,-0.0854,0.0721,0.0149,-0.0634,0.0798,-0.068,0.0884,-0.0501,-0.0017,0.108,-0.0112,0.1169,-0.1154,0.0109,0.0611,-0.1833,0.004,-0.0214,0.1118,0.0532,-0.0235,-0.0043,-0.0326,0.0129,-0.0498,0.0241,0.0344,0.0384,-0.0231,-0.0774,-0.0229,0.0696,-0.0726,-0.0398,0.0459,-0.0722,0.0084,0.0308,-0.0372,-0.0185,-0.0248,0.0812,-0.0061,-0.0062,-0.0446,0.0829,-0.0113,0.0223,0.0146,-0.0553,0.0592,-0.0138,-0.0821,-0.0146,-0.0813,-0.0271,-0.0291,0.0636,0.0247,-0.0262,0.043,-0.031,-0.0234,-0.0341,-0.0331,0.0431,-0.0689,0.0548,0.0353,-0.0243,0.0418,-0.0513,0.0,-0.0734,0.0702,0.0445,0.0492,0.0057,-0.073,0.0745,0.0176,-0.0451,0.0139,0.0051,-0.0228,-0.0097,0.0156,-0.0468,-0.059,-0.116,-0.0435,-0.1943,0.0615,0.0089,0.0067,-0.0515,0.0218,0.0129,0.0794,-0.0524,0.0059,-0.0102,-0.024,-0.0092,-0.014,-0.0538,-0.1182,0.0544,-0.0278,0.119,0.047,-0.0245,0.0006,0.0819,0.0178,0.0061,0.0,0.0,0.0,0.0,0.0,0.0,0.0,0.0,0.0,0.0,0.0,0.0],[0.0238,0.0256,-0.0103,-0.0166,0.0454,0.0319,-0.06,-0.1864,-0.0577,-0.0747,-0.1189,-0.2613,0.0723,-0.2537,-0.033,-0.0083,0.005,-0.0558,-0.3306,-0.0019,0.0183,0.0205,0.0135,-0.0117,0.0313,-0.0027,-0.0163,-0.0048,0.0374,-0.0037,0.0294,0.0087,-0.0134,0.003,-0.0498,0.0079,-0.0332,-0.0148,0.0249,-0.0314,0.0012,0.029,-0.0353,0.0033,0.0507,-0.0562,0.0328,0.0306,-0.0233,-0.0362,0.0666,0.0462,0.0802,0.0667,0.0604,0.0604,0.0727,0.0285,-0.0142,0.0231,-0.0138,0.0617,0.0169,-0.0163,0.0763,0.0256,-0.0433,-0.0531,-0.0188,0.0267,0.0457,-0.0604,0.0475,-0.0303,0.0206,-0.0294,-0.0696,0.0287,0.061,-0.0307,0.0785,0.0097,-0.0735,0.0619,0.0466,0.0831,0.0238,0.0646,0.0729,-0.0329,0.0072,0.0782,-0.0681,0.0167,0.0551,-0.0235,0.0138,0.0,-0.003,0.0257,0.144,0.0152,0.0838,-0.0609,0.0594,-0.0284,-0.0362,-0.0074,0.006,0.0019,0.0159,0.0017,-0.0131,0.0212,-0.0015,0.0394,-0.0121,0.0451,0.0436,0.0336,0.0809,-0.0283,0.0133,0.0616,0.0372,0.0054,0.0348,-0.0144,0.0527,0.0385,0.007,0.0759,0.0129,0.0256,-0.0158,-0.0017,0.0476,-0.0519,0.0021,0.0888,-0.0028,0.0,0.0,0.0,0.0,0.0,0.0,0.0,0.0,0.0,0.0,0.0,0.0],[0.0293,-0.0105,-0.036,-0.0289,0.0009,0.0807,0.128,-0.0168,0.1801,-0.284,-0.1338,0.2887,0.2989,-0.2317,-0.0729,-0.0029,-0.0166,-0.2272,0.0081,0.0913,0.0128,0.0442,0.04,-0.001,0.0293,0.0413,0.0375,0.0439,0.0117,0.0163,-0.0034,-0.018,0.0063,-0.0151,-0.074,-0.0509,-0.0115,-0.0113,0.0321,0.0834,-0.0798,-0.0388,0.032,0.0019,0.0318,-0.0137,-0.0135,-0.0124,0.0652,-0.0811,-0.0592,-0.0475,-0.0516,-0.023,-0.0561,0.0319,0.0276,0.0758,-0.0637,0.0663,-0.0074,0.0704,-0.0595,0.0138,-0.0112,0.0396,0.0494,-0.0762,-0.0413,0.0824,0.048,-0.0821,-0.03,0.0237,0.0346,0.0691,-0.0068,0.0761,0.0459,0.0165,0.0307,-0.0368,0.0284,-0.0386,-0.0069,0.0658,-0.0204,-0.004,-0.0022,-0.0041,-0.0687,0.039,-0.0516,0.0504,0.0221,0.029,0.0221,0.0,0.0125,-0.0286,-0.0351,0.0444,-0.0811,-0.0442,-0.0165,-0.0277,0.0416,0.0602,0.0608,-0.0128,-0.0505,0.0552,-0.0109,-0.0642,0.01,-0.0313,-0.0049,0.0209,0.0193,0.0135,0.0203,0.026,0.0102,0.0131,-0.0173,0.0458,0.0454,0.0001,-0.0181,-0.0161,0.0608,0.0107,0.0309,0.0035,-0.0017,0.0303,-0.0032,-0.0136,-0.0155,0.0299,-0.0241,0.0,0.0,0.0,0.0,0.0,0.0,0.0,0.0,0.0,0.0,0.0,0.0],[0.0357,-0.0159,0.0812,0.0314,0.0518,0.0636,0.114,0.3141,0.0114,-0.2434,-0.3438,0.2022,0.0865,-0.0685,0.0666,0.0178,-0.0095,-0.1838,-0.2319,-0.0063,-0.0031,-0.0259,-0.0278,-0.0173,0.0057,0.018,-0.0258,0.0228,0.0212,0.0357,-0.0253,0.0087,0.0127,-0.0125,0.0241,0.0295,0.117,-0.0088,-0.0067,0.0477,-0.006,0.0185,-0.0086,0.0362,-0.0168,-0.0294,0.0158,0.0259,-0.0823,0.0479,-0.0653,-0.0543,0.0676,0.008,-0.0408,-0.0134,0.0641,0.0032,-0.0623,0.034,0.0008,-0.0422,-0.0559,-0.054,-0.0486,0.0014,0.0345,0.0257,0.0654,-0.0383,0.0617,0.0462,0.0146,0.0035,-0.0589,-0.0417,-0.0791,-0.0142,-0.0477,-0.0206,-0.0168,0.0089,-0.0662,-0.0147,-0.0105,-0.0535,0.0414,-0.0365,-0.0269,0.0636,0.0661,0.0309,0.0555,0.0529,-0.0522,0.0821,-0.0381,0.0,0.0602,-0.0651,-0.1069,0.0272,-0.0559,-0.0206,-0.0724,-0.0222,0.015,0.0112,0.1516,0.0151,0.01,-0.0122,-0.0183,0.0008,0.0151,0.0724,-0.0529,0.0176,-0.0123,0.0324,0.012,0.0049,0.0112,0.0521,0.0219,-0.0231,-0.0216,0.0091,0.0123,-0.0062,-0.0007,-0.0437,0.0144,0.0425,0.024,0.022,0.0011,-0.0495,-0.0031,-0.0103,0.0298,0.0,0.0,0.0,0.0,0.0,0.0,0.0,0.0,0.0,0.0,0.0,0.0],[0.0579,-0.0084,-0.127,0.013,-0.0446,-0.3267,-0.1556,0.2272,0.1918,0.2391,-0.4118,0.0466,-0.0986,0.3302,-0.0897,-0.018,-0.0337,0.1401,-0.2022,0.128,-0.0171,0.1078,0.1273,-0.0482,0.0926,0.0007,-0.0427,0.0217,-0.1653,-0.1032,-0.1676,-0.0156,0.0186,0.0999,0.2539,-0.0069,0.0102,-0.1571,0.0166,-0.0839,0.1379,0.065,-0.136,-0.0397,-0.0242,0.089,0.0081,-0.0326,-0.0642,-0.0163,-0.0157,0.0457,0.0366,0.0716,-0.0091,-0.0095,-0.002,0.045,0.0799,-0.0664,0.084,-0.0698,-0.0158,0.0196,-0.0078,0.0181,-0.0351,0.0072,-0.0527,0.0149,0.0617,0.0125,0.0545,0.004,0.0056,0.0242,-0.0318,-0.0229,-0.0418,0.0136,0.0095,-0.0796,-0.0144,0.077,-0.0432,0.0754,-0.0705,0.0492,-0.0739,0.0081,-0.0631,0.045,-0.0193,-0.0252,0.022,0.0275,-0.0808,0.0,-0.0449,0.0075,-0.1917,0.0022,0.0192,0.0672,0.0307,0.0085,-0.0261,0.071,-0.0748,0.0354,-0.1002,-0.0808,-0.1556,0.0146,-0.0318,-0.0722,-0.1068,-0.102,-0.1255,0.1008,0.0802,-0.05,-0.0938,-0.0155,0.0489,0.0268,-0.1119,-0.1336,0.0167,0.0159,0.0547,0.0057,-0.0361,-0.049,0.0299,-0.0371,0.0148,0.0547,-0.0244,-0.1061,-0.0241,0.0,0.0,0.0,0.0,0.0,0.0,0.0,0.0,0.0,0.0,0.0,0.0],[-0.0814,-0.0326,0.0129,-0.0447,0.0165,-0.0721,0.2431,0.0449,-0.2215,-0.0103,-0.1392,0.1163,-0.2863,-0.0909,0.1044,0.0365,0.0698,-0.2134,-0.0425,-0.0929,-0.0894,0.0599,0.0718,0.0224,0.034,-0.0155,-0.0039,-0.0086,0.0612,0.0595,0.001,0.0704,-0.061,0.0844,0.0134,-0.022,-0.1034,0.0723,-0.021,-0.0187,-0.0397,0.0419,-0.0721,0.0441,0.0661,0.0034,-0.0029,-0.0703,0.0822,-0.0189,0.0211,0.0719,0.0506,-0.0236,-0.0293,0.0229,-0.0183,-0.0841,0.0495,-0.0275,-0.0702,0.0156,-0.0539,-0.0193,-0.0145,-0.0748,0.0419,0.0353,-0.02,-0.0718,-0.0624,0.0818,0.0584,-0.0427,0.0061,0.0747,-0.0524,-0.0226,-0.0082,0.0718,-0.0736,-0.0753,0.048,-0.0706,-0.0455,0.0279,-0.0169,-0.0162,0.0293,-0.0756,0.0092,-0.0531,0.0319,0.0776,-0.0744,-0.0282,-0.0804,0.0,0.0767,-0.0034,0.2003,0.0096,0.0758,0.015,0.0276,0.0806,-0.0772,0.0112,0.0401,-0.0654,-0.052,0.0477,-0.0483,0.0208,0.0257,0.0065,-0.0779,0.019,-0.0202,-0.0422,-0.0339,0.0382,-0.0399,0.0165,0.0429,-0.0555,0.0667,-0.0543,-0.0001,0.026,-0.032,0.0816,-0.0232,0.049,0.0202,0.0034,0.0216,0.0048,0.018,0.043,0.0219,0.0,0.0,0.0,0.0,0.0,0.0,0.0,0.0,0.0,0.0,0.0,0.0],[0.0529,0.0635,-0.0835,0.0369,0.0364,0.0963,-0.1993,0.1301,-0.1901,-0.1194,0.2797,0.1364,-0.0834,-0.1911,0.0237,0.0056,0.0679,0.0929,0.0437,0.0304,-0.0045,0.0572,0.0241,-0.0142,-0.0346,-0.0062,-0.0723,-0.0153,0.0386,-0.0562,0.0466,0.0573,-0.0579,-0.0742,0.0265,0.0334,-0.0133,0.0389,0.0155,-0.0295,-0.1265,0.016,-0.0545,0.0058,0.0762,-0.0769,-0.0402,-0.0707,0.0191,-0.0284,-0.0144,0.0649,-0.0166,0.049,0.0805,-0.0772,0.0841,0.0111,-0.0076,0.0336,-0.0744,-0.0601,-0.0209,-0.054,-0.0092,0.0343,-0.0777,-0.0176,-0.0775,-0.0235,0.0348,0.0506,-0.0101,-0.0577,0.0371,0.0192,-0.0776,-0.0301,0.0156,-0.0167,-0.0209,0.0025,0.0039,0.0531,-0.0507,-0.0143,0.0301,-0.0723,0.0584,-0.0014,0.0553,-0.0799,-0.0238,-0.0777,-0.0252,-0.0786,0.028,0.0,0.0471,0.0629,0.1732,0.0058,0.0746,0.0549,0.0431,-0.0187,0.0344,0.0627,-0.0295,0.0334,-0.0144,-0.0877,0.0576,-0.0324,-0.0083,0.0228,0.0629,-0.0064,0.0296,-0.0235,-0.029,0.0547,0.0543,0.0063,0.0189,0.0157,-0.016,-0.0062,-0.0051,0.0585,-0.0401,0.018,-0.0032,0.0439,-0.0028,0.0339,-0.0594,-0.0154,0.0306,0.0539,0.0266,0.0,0.0,0.0,0.0,0.0,0.0,0.0,0.0,0.0,0.0,0.0,0.0],[-0.0268,0.0069,-0.011,0.0031,-0.035,-0.0212,0.2848,-0.1653,-0.2518,-0.2198,-0.0084,-0.1615,0.1267,0.2247,-0.1335,-0.0076,0.0247,0.0401,-0.198,-0.0156,0.057,0.0349,-0.032,0.0385,0.0246,-0.0123,0.0161,0.0405,-0.0058,0.0485,-0.0219,-0.0227,-0.05,0.0011,-0.0122,-0.0384,0.0368,0.0123,0.0519,0.0036,-0.0858,0.0347,-0.0246,0.0588,0.0305,0.0234,0.0438,-0.0083,0.0452,0.0292,-0.0495,0.0552,-0.0427,-0.0729,0.0767,0.0495,-0.0007,0.0567,-0.0061,-0.028,0.0525,-0.0496,0.0142,-0.0584,0.0007,0.0775,0.0518,0.0355,-0.042,0.0553,0.0787,-0.0453,0.0505,0.0605,-0.0589,0.0292,-0.0024,-0.0627,-0.0654,-0.0668,-0.0323,-0.0371,-0.0842,-0.0018,0.0439,0.0153,-0.0468,0.0732,0.0749,0.0396,0.059,0.0814,0.0071,0.0304,-0.0337,0.075,0.0513,0.0,0.057,-0.0406,0.084,-0.0618,0.0509,0.075,0.0031,0.0524,0.019,-0.0083,-0.1743,-0.0412,0.0193,-0.0398,0.0116,0.0577,0.0355,-0.0583,0.0538,0.0472,-0.0375,-0.0304,0.0058,0.0817,0.065,0.0721,0.0575,0.0425,0.0624,0.0107,0.0598,0.0022,0.0632,-0.0756,0.0161,-0.0443,0.0703,0.0416,0.0315,0.0207,-0.0176,-0.0269,0.0894,0.0,0.0,0.0,0.0,0.0,0.0,0.0,0.0,0.0,0.0,0.0,0.0],[-0.0799,0.0082,-0.0184,0.0238,-0.0736,-0.2978,0.0959,-0.1228,0.002,0.0237,0.0508,-0.1629,-0.4057,-0.1665,0.0561,0.0459,0.0466,-0.1442,-0.1582,-0.1214,-0.0361,0.0461,-0.0154,-0.0395,0.0385,0.0693,0.0297,0.0609,-0.1173,0.0678,0.07,0.1031,0.0637,0.0942,-0.2616,-0.1096,0.0672,-0.072,0.1125,-0.0181,-0.3824,0.0085,-0.0378,-0.0557,0.244,-0.026,0.0931,0.0283,-0.0459,0.0294,0.0702,-0.0765,-0.0784,0.0603,0.0641,-0.0329,-0.0231,-0.0415,-0.0806,0.0232,0.0702,-0.0037,0.0763,-0.0728,-0.0132,0.0086,0.0059,-0.0578,-0.023,-0.0164,0.0344,0.0693,0.0819,-0.0063,0.043,0.0288,0.049,0.0781,-0.0591,-0.0401,0.0141,-0.0563,-0.0258,-0.0379,0.0139,0.0828,0.0335,-0.0353,0.0072,0.0047,-0.0288,-0.0366,0.0262,0.0582,0.0775,-0.0565,0.005,0.0,0.0222,0.0415,0.0138,-0.0435,-0.0786,0.015,0.0548,-0.0659,-0.0661,0.058,0.0515,0.0182,-0.1141,-0.0334,0.1242,0.1094,0.0143,0.1411,-0.2209,-0.0433,0.0989,0.0929,-0.0306,-0.001,0.0484,0.061,-0.0039,-0.0804,-0.0426,0.1031,0.081,-0.0999,0.0754,-0.0316,0.1617,0.1127,-0.0842,0.0346,-0.0162,-0.0527,-0.0562,0.0922,-0.1513,0.0,0.0,0.0,0.0,0.0,0.0,0.0,0.0,0.0,0.0,0.0,0.0],[-0.0899,-0.0983,-0.0872,-0.0269,-0.0005,0.2601,0.1669,-0.1219,0.2145,-0.2084,0.0711,-0.2495,0.2568,0.2208,0.0041,-0.0454,0.0059,0.2078,-0.277,0.0018,0.0692,0.0325,-0.0192,-0.0612,0.0018,-0.1013,-0.0256,-0.0219,0.0526,-0.0238,-0.0845,-0.0225,0.0347,0.0126,-0.0593,0.0098,-0.0948,0.0089,0.0836,0.0326,0.0003,0.0077,-0.063,-0.0704,-0.054,0.0042,-0.1117,0.0255,0.0195,-0.0191,-0.0814,0.0119,0.0227,-0.0121,-0.0384,0.0595,-0.037,-0.0348,0.0047,-0.0301,0.0629,-0.069,-0.0422,-0.081,0.0839,-0.0559,0.0159,0.0598,-0.0701,-0.0805,0.0791,0.0209,0.0145,0.0655,-0.0646,-0.0803,0.0702,0.0795,0.0684,-0.0357,-0.0457,-0.0193,-0.0489,0.0436,0.066,-0.045,-0.071,-0.0136,-0.0673,0.0002,0.0251,0.0652,0.004,-0.0599,-0.0132,0.0247,0.0073,0.0,-0.0385,-0.0573,-0.2638,0.0136,-0.0635,-0.0552,-0.0221,-0.033,-0.0587,0.0811,-0.0457,0.0436,-0.1378,-0.0453,0.123,0.033,0.008,-0.1541,0.0444,0.0697,-0.0017,0.0704,-0.0105,-0.0389,-0.0401,0.0003,-0.0528,0.0066,-0.0591,-0.0288,-0.0155,-0.0293,0.0353,0.0294,-0.0714,-0.0877,0.0512,0.0288,0.0063,-0.0899,0.0134,-0.0906,-0.0296,0.0,0.0,0.0,0.0,0.0,0.0,0.0,0.0,0.0,0.0,0.0,0.0],[-0.0167,-0.0644,0.0105,0.0575,0.0706,-0.4335,-0.1754,0.1737,-0.2387,0.1474,-0.2065,-0.0192,-0.4953,0.21,0.0536,0.0211,-0.0853,0.2279,-0.1897,-0.0225,0.034,0.047,-0.0058,-0.0036,-0.0263,-0.0169,-0.0184,-0.0402,0.0791,-0.0765,-0.013,-0.0562,0.0066,-0.0145,-0.1027,-0.0243,0.0445,0.0226,-0.0007,0.057,-0.0499,0.0121,-0.0611,0.0842,-0.1062,-0.0164,-0.0514,0.0775,-0.0454,0.0679,0.0829,-0.0452,-0.0381,0.0518,-0.0269,0.0444,-0.0595,0.0743,0.0199,-0.0723,0.0819,0.0562,-0.0753,0.0448,0.0536,-0.0298,0.0696,-0.0077,-0.0436,0.0714,0.0401,-0.0735,0.0793,-0.0686,-0.0823,0.0651,0.0571,0.0782,-0.0486,-0.0451,-0.0636,0.0658,0.0461,0.0593,-0.0218,-0.0411,0.0338,0.0114,0.0506,-0.0698,-0.046,0.0842,-0.0089,-0.0175,0.0442,-0.0551,-0.0596,0.0,-0.0296,0.0458,0.0292,0.0579,0.0311,0.0214,0.0323,0.0457,-0.0422,0.0025,-0.2302,0.0292,-0.0174,-0.0613,0.076,0.0471,0.1057,-0.0954,-0.0049,-0.0263,-0.0115,-0.0848,-0.0473,-0.0612,-0.0504,-0.0621,0.0341,-0.042,0.0167,-0.0228,0.0386,-0.0033,-0.0656,-0.0551,-0.0265,-0.0511,-0.0318,-0.0349,-0.0006,0.0406,-0.0372,-0.0485,0.0,0.0,0.0,0.0,0.0,0.0,0.0,0.0,0.0,0.0,0.0,0.0,0.0],[-0.0627,-0.0043,0.0294,-0.0117,-0.0882,0.0781,-0.2459,0.2433,-0.2773,-0.0726,-0.068,0.1929,0.3006,0.0311,0.1069,0.0273,0.0164,0.0011,-0.1693,0.0974,0.0759,0.0011,0.0339,0.035,0.0547,-0.0797,0.0207,0.0179,-0.0397,-0.0727,-0.0292,-0.0423,0.0206,0.0228,0.0545,-0.0152,-0.0144,0.0056,-0.0578,-0.0412,0.0092,0.0247,-0.0141,0.0312,0.0268,-0.0089,0.0046,-0.0456,-0.0707,0.0669,-0.0715,-0.0814,-0.0442,-0.0605,-0.0594,0.0433,-0.0415,-0.0054,-0.0293,-0.0715,0.0126,0.0244,-0.0091,-0.0157,-0.0182,-0.0707,-0.0116,-0.0606,0.0411,-0.065,-0.0507,0.0264,0.0349,-0.0708,-0.0504,-0.0649,-0.0409,0.0197,0.0312,0.048,0.0035,0.0141,0.023,0.019,0.0468,0.0675,0.0428,-0.0195,-0.0531,0.0576,0.0518,0.0199,0.0652,-0.0635,0.0579,-0.0561,0.0239,0.0,0.0298,0.0162,0.0668,0.0334,0.0679,-0.0628,-0.0638,-0.0195,-0.0025,0.051,-0.0919,0.0057,-0.0349,-0.0302,0.0119,0.0081,0.0014,-0.0574,0.0649,-0.0294,0.0405,0.0105,0.0389,-0.0209,0.0039,-0.0252,-0.0336,0.0149,-0.0291,0.026,0.063,0.0387,0.0175,0.0656,-0.0148,0.1009,-0.0127,-0.0052,0.0243,-0.0549,-0.0186,0.03,-0.0199,0.0,0.0,0.0,0.0,0.0,0.0,0.0,0.0,0.0,0.0,0.0,0.0],[-0.01,-0.0884,-0.0193,0.0048,-0.0273,0.0587,-0.0589,0.2152,-0.3376,-0.2883,0.0324,-0.1504,-0.188,0.0966,-0.2029,-0.0004,-0.0125,0.0078,0.0803,0.111,-0.0415,0.0333,0.0221,0.0374,0.0626,0.0424,0.038,-0.0276,-0.0336,0.0475,0.003,0.0212,-0.0621,-0.0008,0.0973,0.0606,-0.0238,-0.0139,0.0053,-0.0745,0.051,0.0555,-0.0066,0.0814,0.0559,-0.0024,-0.0031,0.0352,0.0091,-0.013,-0.0037,-0.0654,0.0623,0.0283,0.0264,-0.0195,-0.0558,-0.0563,0.0632,-0.0037,0.0504,-0.0299,-0.0202,-0.0553,-0.0402,-0.0455,-0.0412,-0.0032,-0.0442,0.0159,-0.0138,-0.0742,-0.0218,0.0392,-0.0335,0.0481,0.0384,0.0095,-0.044,0.0286,0.0271,0.0397,-0.004,0.013,0.0328,0.0182,-0.0807,-0.0148,0.0392,0.03,0.0239,0.0778,0.0538,0.0288,-0.0044,-0.0247,0.0373,0.0,0.0355,0.0007,0.0451,0.0477,-0.0437,-0.0368,-0.0406,0.0832,-0.0371,0.0796,0.2505,0.0818,0.0028,0.0289,0.0071,0.0116,0.0151,-0.0018,-0.0432,0.0227,-0.0176,0.0325,-0.0113,0.0057,0.0537,0.0082,-0.011,0.0232,-0.0035,-0.0248,0.0209,-0.0322,-0.0342,-0.0262,0.0204,-0.0687,-0.002,0.02,0.0312,0.053,-0.0044,0.0209,0.0155,0.0,0.0,0.0,0.0,0.0,0.0,0.0,0.0,0.0,0.0,0.0,0.0],[0.0317,0.0229,-0.0389,-0.0289,0.0391,-0.1815,0.1568,0.0684,-0.2153,-0.1272,0.0992,0.1957,0.1427,-0.3416,0.0034,-0.0583,-0.0307,0.0726,0.1497,0.0382,0.012,-0.0227,-0.0887,0.0126,0.0601,0.0254,-0.0364,0.0495,-0.0703,-0.0616,0.0326,0.0377,0.0123,0.0138,0.0205,-0.0263,0.044,0.0116,0.0343,-0.0031,-0.0168,0.0569,-0.0237,0.0075,0.0156,-0.0515,-0.0454,0.0265,0.0607,0.0493,0.0069,-0.0714,0.0394,0.0551,-0.0544,0.0564,-0.0684,-0.0493,-0.0017,-0.0373,-0.0579,-0.07,0.0376,-0.0096,0.0542,-0.0559,-0.0677,-0.0485,-0.0471,0.0215,-0.0232,-0.0226,-0.0518,-0.0797,0.0572,0.0386,0.0117,-0.0007,-0.0601,0.0623,0.035,0.0661,0.0474,-0.0479,0.0429,-0.0721,0.0563,-0.0738,0.0198,0.0416,0.0171,-0.0239,-0.0375,-0.0716,-0.0265,-0.0358,-0.0073,0.0,0.0746,0.0005,0.1652,-0.035,-0.0116,-0.0491,-0.0474,-0.0364,0.0595,-0.0728,0.1179,-0.0004,0.0875,-0.037,0.0623,0.0552,-0.0002,-0.0666,0.0201,-0.025,-0.0502,-0.0292,0.0016,-0.0149,0.0228,0.0639,0.0381,0.0792,-0.0041,0.033,0.0543,0.0046,-0.0065,0.0623,-0.0534,0.0438,0.0429,-0.039,-0.005,0.0093,-0.0066,-0.0565,-0.0572,0.0,0.0,0.0,0.0,0.0,0.0,0.0,0.0,0.0,0.0,0.0,0.0],[-0.04,-0.0139,0.0285,0.0289,0.0674,-0.1003,-0.1944,0.0557,0.2885,0.1163,-0.0287,0.3359,0.0227,0.1558,0.1558,-0.0164,-0.0091,-0.117,0.0475,0.0189,0.009,0.0171,0.0268,0.0263,0.0203,-0.0122,-0.027,0.0032,0.0007,-0.0017,-0.0087,0.067,0.0498,0.0369,0.0018,-0.032,0.035,-0.0394,-0.0388,0.0764,0.1824,-0.004,-0.0114,0.0564,-0.0256,0.0472,-0.05,0.0759,0.0556,0.045,-0.0832,0.0173,0.0795,0.074,-0.0174,0.0149,-0.013,-0.0442,-0.0191,0.0677,0.0294,0.0842,-0.0481,-0.0243,-0.0312,-0.0424,-0.0063,-0.0683,-0.0791,0.0575,0.0758,0.0312,0.008,0.0291,0.0831,0.0132,-0.0634,0.0732,-0.0054,0.026,-0.0114,0.0791,-0.0024,0.0412,0.0234,-0.0733,0.0397,0.0442,0.0542,0.0509,0.0555,-0.0385,-0.0702,-0.0162,0.0438,-0.0176,0.022,0.0,-0.0749,0.0574,-0.1143,-0.078,0.0088,0.0375,-0.0636,-0.0453,-0.0121,0.0204,0.1552,0.0283,-0.045,0.0589,-0.0256,-0.0388,0.007,-0.0037,0.0294,-0.024,0.0309,0.047,-0.0065,0.0163,0.0156,0.0001,0.0178,-0.0198,-0.0336,0.0242,-0.0509,-0.0127,-0.0185,0.0147,0.0256,-0.0133,0.0239,-0.0103,-0.0031,-0.0108,0.0334,-0.0336,0.004,0.0,0.0,0.0,0.0,0.0,0.0,0.0,0.0,0.0,0.0,0.0,0.0],[-0.0346,-0.0201,0.0407,0.0262,-0.0404,-0.1878,-0.0929,0.2603,-0.3232,-0.0488,0.2894,0.0633,-0.1204,0.3194,0.1729,0.0296,0.0174,0.0655,0.0003,0.0274,-0.0301,0.0141,0.042,0.0426,-0.0004,-0.0192,0.0066,-0.02,0.0192,0.0412,-0.0064,-0.0504,0.0509,0.0096,0.0467,0.0228,-0.0531,-0.0064,0.0463,0.0761,0.0858,0.0344,0.0812,-0.0407,-0.0104,0.0948,0.0484,-0.05,-0.0798,-0.0264,0.0171,0.0734,-0.004,-0.0007,0.0734,0.026,0.0242,-0.0056,-0.031,-0.0492,-0.0597,-0.0416,-0.0024,0.0081,-0.0271,-0.0561,0.0226,0.0249,0.0336,0.0251,0.0274,-0.057,0.0241,0.0804,-0.0225,0.0123,0.0198,-0.0629,-0.0302,0.0821,-0.0183,0.009,-0.0372,-0.0403,-0.0641,-0.0231,0.0169,-0.0283,0.0306,-0.0048,0.0734,-0.0065,0.0199,-0.0295,-0.0721,0.0486,-0.0403,0.0,0.0206,-0.0704,0.0175,-0.0271,0.0474,0.0683,0.0704,-0.0067,0.0397,0.0034,0.1512,-0.0171,-0.0193,0.0393,0.013,0.0112,0.0506,0.0502,0.0357,0.0035,-0.0194,-0.0264,0.0514,-0.0085,-0.0365,0.0072,0.0091,-0.0464,0.0002,-0.035,0.0475,0.0125,0.021,0.066,-0.0581,-0.0212,0.0046,-0.0477,-0.019,-0.0372,-0.0153,-0.0403,0.0646,0.0,0.0,0.0,0.0,0.0,0.0,0.0,0.0,0.0,0.0,0.0,0.0],[0.0154,0.0585,0.0276,-0.0198,-0.142,-0.2392,-0.1145,-0.0875,-0.0059,-0.2281,0.028,-0.1639,0.3759,0.2538,-0.0951,-0.1178,-0.0968,0.3972,-0.0556,0.1452,-0.1279,-0.177,0.0772,0.092,-0.1451,0.0542,-0.064,-0.0123,0.0284,0.0855,0.0468,-0.1348,-0.1432,-0.1099,-0.0341,-0.0267,-0.1367,-0.0264,0.0351,-0.0184,-0.3905,0.036,-0.0804,0.0497,-0.0059,0.0666,-0.0503,-0.076,-0.0102,-0.0291,0.0176,0.0842,0.0389,0.064,0.0596,0.0717,-0.0371,0.0762,0.0739,0.0649,-0.0353,-0.0818,0.0029,-0.0451,-0.0772,0.041,-0.0192,-0.08,-0.0378,0.0761,0.074,-0.037,0.043,-0.0489,0.0279,0.0761,-0.0042,0.0178,-0.0432,0.0393,0.0235,-0.0666,0.0303,0.0702,0.0771,-0.0757,0.0536,0.0352,-0.0801,0.0816,-0.0235,0.0215,-0.0369,-0.0682,0.0594,-0.0371,-0.0269,0.0,-0.0453,-0.0202,0.0141,0.0681,-0.0199,0.074,0.0182,0.0614,-0.0152,-0.0221,-0.2364,0.0596,-0.0368,-0.0108,-0.0797,-0.0855,-0.0842,-0.0545,0.039,-0.0591,-0.2025,-0.0224,-0.0022,-0.0505,-0.0707,-0.1813,-0.019,-0.094,-0.0158,-0.0644,-0.0092,0.0538,-0.038,-0.0,0.0577,-0.0707,-0.1022,0.02,-0.1625,0.0528,-0.0011,0.0633,-0.0415,0.0,0.0,0.0,0.0,0.0,0.0,0.0,0.0,0.0,0.0,0.0,0.0],[-0.0063,0.0073,-0.0441,-0.0051,0.0775,-0.0984,-0.1215,0.0461,-0.2106,0.2122,-0.1832,-0.2017,0.339,-0.0016,-0.1392,0.0665,-0.0069,-0.2533,0.2926,0.1227,-0.0115,0.064,-0.021,-0.0031,0.0229,-0.0301,0.0621,-0.1261,0.004,-0.0559,-0.0467,0.0243,-0.0118,0.0008,0.0105,0.0695,-0.0292,-0.0236,-0.0124,0.0706,0.1568,0.0189,-0.0282,0.0192,-0.088,0.0016,0.0178,-0.0047,0.0185,-0.0221,-0.0732,0.0096,0.0669,-0.0704,-0.0307,0.0203,0.0745,0.0334,-0.0057,-0.0724,0.0096,0.0062,0.0287,0.0152,0.0118,-0.0589,0.0155,-0.0348,-0.0055,-0.0271,0.0332,-0.0211,-0.0282,0.0748,-0.0498,0.0492,0.0203,-0.076,-0.061,0.0378,-0.0504,-0.0342,0.0208,0.0076,-0.0788,0.074,-0.007,-0.0021,0.0393,0.0831,0.0527,0.0183,-0.0657,-0.0398,0.0731,0.072,0.0476,0.0,0.0481,0.0542,-0.0392,-0.0723,-0.0594,0.0637,-0.0647,-0.0683,-0.0275,0.019,-0.0565,0.0862,-0.0207,0.0585,0.0777,0.0232,0.0013,0.0371,0.0753,-0.0244,-0.0421,-0.0045,0.0397,-0.0175,0.0294,0.0681,-0.0309,0.0355,-0.0402,0.0062,0.0275,0.0019,-0.0831,0.0333,-0.0456,0.0987,0.0656,0.0176,-0.0803,0.0439,-0.0287,-0.0118,0.0753,0.0,0.0,0.0,0.0,0.0,0.0,0.0,0.0,0.0,0.0,0.0,0.0],[-0.1008,-0.098,-0.0517,0.0345,0.0522,-0.4978,-0.2135,-0.077,0.1689,-0.3228,-0.2559,0.0446,-0.1207,-0.1507,0.0513,-0.1247,-0.1275,0.0139,-0.1291,-0.1764,-0.0993,0.0185,0.0594,0.037,0.0108,-0.0431,0.081,-0.0472,-0.0886,0.0751,-0.0151,0.0395,0.0313,-0.0095,0.0652,0.0501,-0.085,-0.0741,0.0398,0.033,0.0022,0.068,-0.0157,-0.0932,-0.1002,-0.0215,0.0846,0.0165,-0.0618,0.0107,-0.0084,-0.0595,0.0809,0.0059,-0.0065,-0.0412,-0.0355,-0.0227,-0.0097,-0.081,-0.0519,0.0305,-0.0321,-0.059,-0.041,-0.006,-0.0076,0.0053,-0.0836,0.0047,0.0379,0.0813,0.0777,-0.0706,0.0411,-0.0467,0.0231,0.0366,-0.0563,0.0615,0.0345,-0.014,0.0685,0.0531,-0.038,0.0067,0.0587,0.0836,-0.0843,-0.019,0.0166,0.0642,0.0026,-0.0419,0.0544,-0.081,-0.0222,0.0,-0.0122,0.0101,0.0575,0.0336,-0.0027,-0.0289,0.0576,0.0314,-0.0182,-0.0274,-0.1569,0.0463,-0.0443,0.0631,0.1027,0.0667,-0.1478,-0.135,-0.025,0.0132,0.0383,-0.0184,-0.0701,-0.0185,-0.0271,0.0698,0.0586,-0.0224,-0.0468,-0.1416,0.0343,0.0581,0.0304,0.1261,0.0214,-0.038,0.0178,-0.0114,-0.1793,-0.0056,-0.0208,-0.0238,-0.0743,0.0,0.0,0.0,0.0,0.0,0.0,0.0,0.0,0.0,0.0,0.0,0.0],[0.0213,0.0169,0.0579,0.0558,0.0448,-0.2575,-0.054,-0.2342,-0.1313,0.0638,0.1697,0.2516,0.1755,0.1191,-0.0719,0.025,0.0108,-0.2284,-0.3428,0.0178,-0.0295,-0.0016,0.0705,0.0243,0.0355,0.0484,-0.0518,0.0326,-0.0015,-0.0175,0.0026,-0.0551,0.0341,-0.001,0.0207,0.0159,0.0718,-0.0265,0.0445,0.0654,-0.1272,0.0222,-0.0337,0.0598,0.0301,0.0249,-0.0184,0.0532,0.0629,-0.0402,-0.0631,0.0788,-0.0361,0.0557,-0.0643,-0.0707,-0.0155,0.0723,0.0333,-0.0281,-0.0053,0.0224,0.014,-0.0105,0.0582,0.0488,0.0817,-0.0837,-0.0588,0.0411,-0.0566,-0.0033,0.0374,0.0355,0.0162,0.08,0.0498,-0.0563,-0.0365,0.0375,0.0107,0.0331,0.0032,-0.0829,0.0101,-0.0621,-0.0118,0.0287,0.0631,0.0794,-0.0786,-0.0159,0.0363,-0.0452,-0.0386,-0.0717,-0.0469,0.0,-0.0797,0.019,0.0368,0.0539,0.0404,-0.0227,0.0038,0.0269,0.0809,-0.0007,-0.058,0.0022,-0.0395,0.0564,-0.0079,0.0169,0.0425,0.0526,-0.0137,0.0215,0.0007,-0.0131,0.0039,0.0029,-0.0059,0.0388,-0.0361,0.0186,-0.0031,-0.029,0.0449,-0.0213,0.0185,-0.006,0.0195,-0.0072,0.0442,-0.0051,0.0214,0.04,0.0466,0.0578,0.0226,0.0,0.0,0.0,0.0,0.0,0.0,0.0,0.0,0.0,0.0,0.0,0.0],[0.0019,0.0988,-0.0168,0.0235,-0.0278,0.1194,-0.2525,0.0749,-0.1485,0.1188,-0.1442,-0.3251,-0.1014,0.0306,-0.1909,0.0498,0.0023,-0.1333,-0.2526,-0.0338,-0.0186,-0.0182,0.0488,-0.037,-0.0044,0.0049,0.0484,0.0619,0.0653,0.0103,0.0206,0.0019,0.0172,0.0177,0.0063,-0.0055,0.0928,0.0395,0.0139,-0.0235,0.0147,0.0413,0.0056,0.0181,-0.0119,0.0317,0.0173,0.0188,0.0772,-0.0589,0.0447,0.0439,-0.026,0.0648,-0.0404,-0.0179,-0.0187,-0.0015,-0.005,-0.0026,0.0776,-0.0815,0.0658,-0.0227,0.0119,0.0249,-0.0265,-0.0356,0.0601,-0.0373,0.0529,0.0736,-0.0423,-0.0425,-0.0647,-0.0131,-0.0452,0.0269,-0.0555,-0.0388,-0.0836,0.0033,-0.0259,0.0069,-0.0632,0.0085,-0.0798,-0.0635,0.042,-0.0816,-0.0526,0.041,-0.0267,-0.0613,0.0099,0.0561,-0.0387,0.0,0.0481,0.0102,0.2071,0.0605,-0.0158,-0.072,-0.0819,-0.0321,0.0774,0.0165,0.013,