{"archetype":"Dvergar_high","input_dim":153,"output_dim":13,"weight_names":["hunger","thirst","pain","fatigue","fear","anger","loneliness","boredom","curiosity","escape","social","rest","limbicInfluence"],"best_val_loss":0.0005488844194103953,"weights":{"net.0.weight":[[0.0708,0.0423,0.0562,0.0277,-0.0365,0.1068,-0.0819,-0.0979,0.2835,-0.191,0.0926,-0.1079,0.1766,0.3428,-0.0344,-0.0075,0.021,0.0119,-0.0026,0.005,0.0128,0.0093,-0.0041,-0.0302,0.0068,0.038,0.0164,0.0348,-0.0088,-0.0096,-0.0278,-0.0092,-0.0082,0.0055,-0.0367,0.053,-0.0398,0.0568,-0.0436,-0.0209,0.1556,0.0092,-0.044,0.051,-0.0098,-0.0269,-0.0072,-0.0316,0.0272,-0.0679,-0.0705,-0.0715,-0.0808,-0.0033,-0.0342,0.0346,0.0169,-0.0714,-0.0644,-0.0193,0.0674,-0.0804,-0.0599,0.0749,0.0467,-0.0581,0.083,0.0369,0.0525,-0.0001,-0.0084,-0.017,-0.0296,0.0293,0.0039,0.0702,-0.0343,-0.0814,-0.0248,0.0579,-0.0154,-0.0193,-0.0799,-0.0341,0.079,-0.0601,0.0681,0.016,-0.0262,0.0112,0.032,-0.033,-0.003,0.0706,-0.0459,0.0377,0.0132,0.0,-0.0119,-0.0374,0.0769,-0.0148,-0.035,-0.0738,0.027,-0.0607,0.0102,0.0191,-0.0362,-0.0249,-0.009,0.0511,-0.0145,-0.0684,-0.0219,-0.0295,-0.0161,0.0336,-0.0025,0.0397,-0.0461,0.06,0.0401,0.0148,-0.0314,0.0106,-0.0017,0.0364,0.0109,-0.009,-0.0443,-0.0438,-0.035,0.0006,-0.0012,-0.0086,0.0451,0.0076,0.0265,0.0353,0.0017,0.0,0.0,0.0,0.0,0.0,0.0,0.0,0.0,0.0,0.0,0.0,0.0],[0.0051,-0.0035,0.0627,0.0496,-0.0387,0.233,-0.0232,0.0558,-0.2148,0.2805,-0.1577,-0.0999,0.0548,0.2256,-0.0982,0.0113,0.0602,0.2885,-0.1118,-0.0272,-0.0606,0.0828,0.0305,-0.0248,-0.01,-0.026,-0.0352,-0.0481,0.0199,0.0523,0.0433,0.0508,-0.0152,-0.0445,-0.0082,0.0187,0.01,0.0294,-0.0315,-0.0238,-0.049,0.0257,-0.0431,0.0172,0.0063,-0.0119,-0.0011,-0.0202,0.0291,0.0781,0.0266,-0.0261,0.0119,-0.0555,-0.0366,0.0484,-0.084,0.0206,0.0314,0.0836,0.0829,0.0338,0.0478,-0.0116,-0.0607,-0.0545,0.052,0.0569,0.072,0.0172,-0.032,0.0842,0.0728,0.0547,0.0554,0.0318,0.0694,-0.0487,0.0543,-0.0738,0.0727,0.0685,0.0527,-0.0386,-0.0565,0.03,-0.0527,-0.0078,-0.0283,0.0181,-0.007,-0.033,0.0735,-0.0136,-0.0456,-0.007,-0.0253,0.0,0.0662,-0.0077,0.0529,0.0326,-0.0351,-0.0789,0.0661,0.0643,0.0704,0.0225,0.0175,0.0139,-0.0013,-0.0074,0.0153,0.0074,-0.0024,-0.0131,0.0327,-0.0467,-0.003,-0.0089,0.0381,0.0009,-0.0264,0.0233,-0.0022,-0.0105,-0.0781,-0.0309,0.0429,0.0461,0.0409,0.0364,-0.0372,-0.0194,0.0377,0.0495,0.0535,0.0188,0.0136,0.0335,-0.0652,0.0,0.0,0.0,0.0,0.0,0.0,0.0,0.0,0.0,0.0,0.0,0.0],[0.0002,-0.0237,0.0192,0.0481,0.0323,-0.0933,0.1375,-0.236,0.1505,-0.2358,0.0207,-0.0242,-0.0019,-0.3981,0.1071,0.039,0.0112,0.0997,0.2734,0.0642,0.0062,-0.0002,0.1016,-0.0236,0.007,-0.0303,0.0543,-0.0159,-0.0468,0.033,0.0483,0.0329,-0.0154,0.0023,-0.0095,0.0356,-0.0935,0.0371,0.0226,-0.0826,0.154,0.0436,-0.0702,-0.0379,-0.0269,0.0438,0.0403,0.0334,-0.0199,-0.0462,-0.073,0.0414,0.0475,0.0689,-0.052,-0.0095,-0.0283,-0.0525,-0.0246,-0.0255,-0.0483,-0.0553,-0.0459,0.0473,0.0133,-0.0177,0.0574,0.0013,0.0083,0.0015,-0.0771,0.0339,-0.0414,0.0825,0.0698,0.0582,-0.0563,0.0772,-0.0575,-0.0387,-0.0404,0.0355,0.0519,-0.0611,-0.0148,-0.0594,0.0643,0.0652,-0.0347,-0.0575,0.059,-0.0161,0.0744,-0.0792,0.0131,-0.0321,0.0494,0.0,-0.059,-0.0714,0.0611,0.0475,-0.0717,-0.1008,-0.0402,0.054,0.0437,0.0543,-0.0246,-0.0273,0.0264,0.0472,0.069,-0.0053,0.023,0.0914,-0.0643,0.0673,0.0169,0.0423,-0.0159,-0.012,0.0106,0.0017,-0.0302,-0.0026,0.0076,0.0364,-0.0058,-0.0072,-0.0127,0.0053,0.0318,-0.0498,-0.0208,0.0317,0.0074,-0.0024,0.0365,0.0001,-0.0263,0.0,0.0,0.0,0.0,0.0,0.0,0.0,0.0,0.0,0.0,0.0,0.0],[0.0386,0.0714,0.001,-0.0098,0.0063,0.1416,0.2101,0.0773,0.1503,0.2519,-0.1872,-0.1776,-0.1318,-0.2857,-0.0905,-0.0186,-0.0369,-0.0334,0.116,-0.0307,-0.0146,-0.0106,0.0423,0.0449,-0.0406,0.0469,-0.0216,0.0581,-0.0173,0.0023,0.0089,0.0272,0.0565,0.026,0.0264,-0.0163,0.0288,-0.0373,-0.0556,-0.034,0.1466,-0.0068,-0.032,0.055,-0.0339,0.0243,0.0254,-0.0025,0.0339,-0.0628,-0.0793,0.0714,-0.0468,0.0816,-0.0714,0.0537,0.0242,0.0843,0.0651,0.0543,-0.0313,-0.0265,-0.0027,0.0802,-0.0653,0.0097,0.0396,0.0589,-0.0609,0.0011,0.0715,-0.0145,0.0313,0.0601,-0.0552,0.0514,-0.0689,-0.0541,-0.0811,-0.0317,0.0748,-0.0784,-0.0687,-0.0727,0.0798,0.0795,-0.0017,-0.0434,-0.0514,-0.0283,0.0405,-0.0127,-0.0193,-0.076,0.0635,0.0703,0.0721,0.0,-0.0596,0.0319,0.016,-0.0426,0.0491,-0.0807,0.0361,0.0542,-0.061,-0.0122,-0.0192,0.0493,-0.0186,0.0402,0.0231,0.0005,0.0371,0.0463,-0.0495,-0.0016,0.012,0.0369,-0.0039,0.0249,0.0206,0.0653,0.0302,0.0079,0.032,0.0145,-0.0034,-0.0004,0.0049,-0.0399,0.0224,0.0411,-0.0005,0.0103,0.0424,0.0107,0.0171,0.0107,0.043,0.0,0.0,0.0,0.0,0.0,0.0,0.0,0.0,0.0,0.0,0.0,0.0],[0.0379,0.009,-0.0579,-0.0717,0.0148,0.2506,-0.06,0.0326,-0.4068,0.2021,-0.1604,-0.2407,0.1466,0.1158,-0.0774,0.0477,-0.0313,0.3276,-0.2785,-0.0478,-0.0322,-0.0533,-0.0586,-0.0081,-0.08,0.0697,-0.0816,-0.0402,0.0493,0.0049,-0.0746,-0.0353,0.0249,-0.0602,-0.0259,-0.0767,-0.0765,-0.0052,-0.0125,0.0206,0.0424,-0.0176,-0.0139,0.0218,-0.1168,-0.0133,-0.0305,0.0786,0.0391,0.0023,0.0255,-0.0076,0.0444,-0.0641,-0.0188,-0.0331,0.0161,-0.0643,0.0566,-0.0328,-0.0806,0.0638,0.0556,0.0261,0.0417,-0.0054,-0.0661,0.0335,-0.0624,0.0095,0.0326,0.0036,0.0476,-0.0092,0.0302,-0.0323,-0.0213,-0.0048,-0.0128,-0.0404,-0.0809,0.08,0.0403,0.0175,-0.0816,0.0324,-0.0549,-0.0395,0.0577,0.0503,-0.0604,-0.0074,0.0465,0.0695,0.066,0.0842,0.0748,0.0,0.0688,0.0448,0.0583,0.0618,0.0439,-0.1009,0.0099,0.0463,0.0231,0.0278,-0.2222,-0.0977,-0.0802,0.0217,0.0425,0.0093,-0.0653,-0.1615,-0.0455,-0.0073,-0.0488,-0.0225,-0.0133,-0.1201,0.1003,-0.0378,0.0106,-0.0431,0.0885,-0.0411,-0.0138,0.0025,0.0479,-0.0073,-0.0279,0.0067,0.021,-0.0488,-0.0493,-0.0529,0.0886,-0.0223,-0.0157,0.0,0.0,0.0,0.0,0.0,0.0,0.0,0.0,0.0,0.0,0.0,0.0],[-0.0137,0.0058,0.0605,-0.01,0.0154,0.0296,-0.0637,0.1572,-0.171,-0.0052,0.0721,0.1705,-0.2303,0.165,0.0474,0.0212,-0.0164,0.3167,0.204,-0.0105,0.0077,0.0007,0.0186,-0.0181,-0.0252,0.0136,-0.0853,-0.0409,-0.0166,0.035,-0.0333,0.0423,0.0146,-0.0072,0.0243,0.0118,0.0389,0.0064,-0.0153,0.0759,0.0694,-0.0662,0.0319,-0.0238,0.0546,-0.0164,0.0463,0.0556,-0.0683,-0.0805,0.0667,0.0581,-0.0115,-0.0817,0.0468,0.0305,-0.0662,0.0724,-0.0436,-0.0749,-0.0346,0.0342,-0.0693,-0.0414,0.045,-0.0085,0.0382,0.037,0.0552,0.014,0.0547,0.0629,-0.0765,-0.005,0.0398,-0.0554,-0.0072,-0.0196,-0.042,0.023,0.0106,-0.0397,0.0222,0.0599,-0.0535,0.0675,0.0248,-0.0138,0.0193,0.0622,-0.0677,0.0436,0.0825,0.0067,-0.0357,0.0816,0.0458,0.0,-0.0002,0.0627,0.0825,-0.0557,-0.0464,-0.1125,-0.0415,0.0678,0.0397,-0.0251,-0.1636,0.0233,-0.0621,0.0144,-0.0297,-0.081,-0.0534,-0.0084,-0.0091,0.0182,0.0533,0.0149,0.0637,-0.0124,0.0119,0.0221,-0.0539,0.0228,0.0403,-0.0553,-0.0062,0.0582,0.0546,-0.0125,0.0297,-0.0183,0.0459,0.0605,-0.0144,0.0335,-0.0331,0.0043,0.0485,0.0,0.0,0.0,0.0,0.0,0.0,0.0,0.0,0.0,0.0,0.0,0.0],[0.0168,-0.0038,-0.0039,-0.0418,0.0063,0.1887,-0.1903,0.0173,-0.258,-0.1098,0.2438,0.2402,0.0276,0.3067,-0.0518,0.0002,0.0346,-0.1089,-0.225,0.0066,-0.0162,0.0573,-0.0559,-0.047,0.0413,-0.0198,0.0253,-0.0464,0.0031,0.0008,-0.058,0.0174,-0.0221,0.0097,-0.0423,0.0273,-0.0022,0.0357,0.0415,-0.0206,-0.1189,0.0074,-0.063,-0.0381,0.0377,0.0103,-0.0209,-0.0568,-0.0573,-0.0805,-0.0617,-0.0718,-0.009,0.0656,-0.0054,0.0666,-0.0216,-0.0615,-0.0745,0.0496,-0.0562,-0.0465,-0.0271,0.0681,-0.0676,0.0803,-0.0372,-0.0399,0.0559,0.0511,-0.0768,-0.0542,-0.0324,0.0539,0.0128,-0.0764,0.0478,-0.0668,-0.0007,0.0101,0.0224,0.0146,0.0514,-0.0226,0.0193,0.0143,0.0212,0.0182,0.0302,0.0727,-0.0248,-0.0387,-0.0095,-0.0104,0.0313,0.0569,-0.0652,0.0,0.0287,0.0833,0.0057,0.0777,-0.0028,-0.0101,0.0645,0.0728,-0.0752,-0.006,0.083,0.0183,0.0398,-0.015,0.0641,-0.0044,0.0278,0.0028,0.0271,-0.0113,-0.0774,0.0253,0.0014,-0.0441,0.0022,0.0019,-0.0307,-0.0112,-0.0143,0.011,0.0413,0.0415,0.0058,-0.0296,-0.0076,0.0171,-0.0196,0.0068,0.041,0.0486,0.081,0.0569,-0.006,0.0,0.0,0.0,0.0,0.0,0.0,0.0,0.0,0.0,0.0,0.0,0.0],[0.0541,-0.0679,0.0199,-0.0005,-0.0163,-0.2495,-0.1842,0.1661,-0.1408,-0.2017,-0.1272,0.0729,-0.1002,0.3654,-0.0522,-0.0343,-0.0466,-0.0327,0.0573,0.0016,0.0394,0.0231,0.0459,-0.0497,-0.0295,-0.0817,-0.0486,-0.0589,0.0623,-0.0159,0.0105,-0.0049,-0.0313,-0.0043,0.0038,-0.0232,-0.0156,0.0037,0.0442,-0.0431,0.2363,0.0336,0.0619,0.0007,-0.0251,0.0068,0.0498,0.0468,-0.0843,-0.0186,-0.037,-0.0281,0.0426,0.0558,-0.0302,0.0507,-0.0648,0.0097,-0.0591,-0.0152,0.0216,0.0321,0.0359,0.0747,0.0592,0.0543,-0.0559,-0.0481,-0.0142,0.0362,0.0818,0.0524,-0.0488,-0.0011,0.0742,-0.0567,0.0475,0.0548,-0.0075,-0.0342,0.0266,-0.0627,-0.0069,-0.0187,-0.019,-0.0331,-0.0106,-0.049,0.0236,-0.0649,-0.0245,-0.0442,-0.0686,0.0507,-0.0574,0.0512,-0.0489,0.0,-0.0351,-0.0078,-0.055,-0.0083,0.0358,0.0207,0.0694,0.0017,0.0548,0.0644,0.1505,0.007,0.0476,0.0134,-0.0317,-0.0108,-0.0557,0.0105,-0.033,0.0365,-0.0344,0.0142,0.0211,0.0272,0.0114,-0.0194,-0.0197,-0.0073,-0.0017,-0.0209,-0.0798,-0.0464,-0.0135,-0.0599,0.0334,0.0603,-0.0136,0.0301,0.0497,0.0125,0.0054,-0.048,0.0098,0.0,0.0,0.0,0.0,0.0,0.0,0.0,0.0,0.0,0.0,0.0,0.0],[-0.0315,-0.0125,-0.0212,0.0368,-0.0423,0.2326,0.1916,-0.1631,-0.1486,0.1322,-0.2061,0.1634,-0.0539,0.0364,-0.161,0.0384,0.0484,-0.0946,-0.2542,0.0264,-0.0146,-0.0179,-0.0141,0.039,0.0155,-0.0266,-0.0203,0.0296,0.0578,-0.0177,-0.0283,-0.0333,-0.053,-0.0334,-0.015,-0.0401,-0.013,-0.0091,0.009,-0.0319,-0.1343,-0.0378,0.0596,0.0581,0.0648,0.0194,-0.0136,0.0754,0.0511,-0.0723,0.0791,-0.0126,0.0321,0.0768,-0.0586,-0.0204,0.0592,0.0814,-0.0761,0.007,-0.0656,-0.0361,0.0486,-0.0457,0.0285,-0.016,-0.0837,-0.0527,-0.024,0.0383,0.0203,-0.0532,0.0026,0.0291,-0.0469,0.039,-0.0685,-0.0295,0.0615,0.0313,-0.0222,-0.0058,0.0433,0.0684,0.0765,-0.0599,0.0446,-0.075,0.0205,0.0695,-0.0275,0.041,0.027,-0.0303,0.0583,0.0316,-0.0207,0.0,-0.0425,-0.0431,0.0147,-0.0439,-0.0279,0.1882,0.063,-0.0518,0.0492,-0.0635,0.0074,0.0159,-0.0107,0.0218,0.0018,-0.0005,0.0844,0.0101,-0.0103,0.0749,-0.0172,0.0257,0.0206,0.0601,0.0173,0.0128,-0.0168,-0.0285,-0.0097,0.0069,0.0253,0.0466,0.0133,0.0294,0.0921,0.0035,-0.0433,0.0137,-0.0193,0.0372,0.0293,-0.0302,0.0722,0.0,0.0,0.0,0.0,0.0,0.0,0.0,0.0,0.0,0.0,0.0,0.0],[-0.0385,-0.0352,-0.1237,-0.0505,0.0618,0.1885,0.1167,-0.2072,-0.1431,0.0799,-0.0752,0.0878,-0.2031,0.2748,-0.1353,-0.002,-0.179,0.2569,-0.1556,-0.0312,-0.0721,-0.0868,-0.0027,-0.0091,0.0932,-0.0449,0.0695,0.0294,-0.017,-0.0294,-0.0626,-0.0872,0.0683,-0.0967,-0.027,-0.0878,0.054,-0.0426,-0.0135,-0.0776,-0.0006,-0.0462,0.0268,-0.019,-0.0232,0.0378,0.0663,-0.0222,-0.0808,0.0414,0.0006,-0.0305,0.08,-0.0425,0.0349,-0.0023,0.0737,-0.0036,-0.006,0.0001,-0.0281,-0.0596,0.0241,0.0514,-0.0152,-0.0574,0.0545,-0.0039,0.0438,0.0202,0.0251,-0.0781,0.0601,0.0171,-0.0798,-0.0276,0.009,0.0063,-0.0624,-0.0286,-0.0494,0.0726,0.0636,0.078,0.0579,0.0669,-0.0332,-0.0116,0.0781,0.0751,0.0508,-0.0267,0.0238,0.0637,0.0147,0.0077,-0.0034,0.0,-0.0017,-0.0795,-0.0327,0.0612,-0.0442,-0.1584,-0.0094,-0.0076,0.0629,-0.0632,0.0781,0.0616,0.0464,-0.0138,0.0885,-0.0857,-0.0219,0.1066,0.083,-0.0383,0.016,0.0367,-0.0083,0.0548,-0.1299,0.0891,0.1091,-0.0989,-0.0181,-0.0377,0.0993,-0.1112,-0.035,-0.0135,-0.1581,-0.0679,0.0167,-0.1084,0.0057,-0.0873,0.044,-0.1499,0.0154,0.0,0.0,0.0,0.0,0.0,0.0,0.0,0.0,0.0,0.0,0.0,0.0],[-0.0691,-0.0445,-0.1285,-0.088,-0.0435,0.1418,0.001,-0.2016,0.0915,0.1864,-0.34,-0.2274,0.0624,0.3205,0.1105,-0.017,-0.1219,0.1638,-0.1766,0.0582,0.0878,-0.0388,-0.1588,0.1102,0.0062,-0.0332,-0.1205,0.0259,-0.167,-0.0867,-0.0641,0.0263,0.0154,-0.0646,-0.0286,0.0831,0.0255,0.0769,-0.0926,0.0008,-0.4496,0.0119,-0.0363,0.0945,0.0307,-0.0335,-0.0481,-0.064,-0.0116,-0.0053,-0.0537,-0.0603,0.0422,0.0556,0.0399,0.0055,-0.0167,-0.0508,0.0133,0.0561,-0.0018,-0.0719,-0.0485,-0.0118,0.0706,-0.01,-0.0508,0.0208,-0.0301,-0.0239,-0.08,-0.0394,-0.0548,-0.0377,0.006,-0.0818,-0.0736,0.0246,-0.08,0.0112,0.0189,0.056,0.0211,-0.0371,-0.0692,0.0619,0.0391,-0.0647,-0.0503,-0.0465,-0.0335,0.068,-0.0067,0.0272,0.0769,-0.0173,0.0508,0.0,-0.0763,0.0345,0.0424,0.0583,0.0599,-0.0061,-0.0569,0.0782,-0.0691,-0.0521,-0.1218,-0.0293,-0.2082,-0.0057,-0.1725,0.1019,0.0425,-0.0232,-0.1286,0.0891,-0.1654,-0.0627,-0.0678,0.0792,-0.1188,0.104,-0.0999,-0.0224,-0.0473,-0.0082,0.0509,0.0152,0.0797,-0.005,0.0178,-0.1905,-0.0799,0.1059,0.039,-0.0574,-0.0699,-0.2232,-0.0421,0.0,0.0,0.0,0.0,0.0,0.0,0.0,0.0,0.0,0.0,0.0,0.0],[0.044,0.0519,0.0211,-0.0124,-0.0773,-0.0969,-0.0332,0.1131,-0.1419,0.0913,0.0333,0.1798,-0.2071,0.1367,-0.0304,-0.0609,0.0977,0.3866,-0.152,-0.0174,0.0839,-0.0328,0.0377,-0.0733,0.0482,-0.0312,0.0092,-0.0563,0.0063,-0.082,-0.0544,0.0323,-0.0076,-0.0397,-0.0459,0.0129,0.0136,0.0653,0.0668,-0.0283,-0.1063,0.0602,0.0708,0.0114,0.0432,-0.0234,0.0056,-0.083,-0.0506,0.0134,0.0519,-0.0842,0.0099,-0.0134,0.0578,0.0502,-0.0432,0.0617,-0.0824,0.049,0.0209,0.0485,0.0579,-0.0427,0.0342,0.0559,0.0506,-0.0601,0.0046,-0.0405,0.0804,-0.0564,0.0291,0.0133,0.0814,0.0538,0.0588,0.0822,0.033,0.0275,0.075,-0.0523,-0.0419,-0.0842,0.0559,0.0698,-0.0058,0.0203,0.0694,0.0236,0.0218,-0.059,0.0103,0.0192,0.0111,-0.0805,0.0065,0.0,-0.0567,-0.0713,-0.0804,-0.0842,-0.0601,-0.1272,0.0224,-0.0517,0.0475,-0.0816,-0.116,0.0164,0.0734,-0.0314,0.0372,0.0416,-0.0466,0.0035,-0.0085,-0.0167,-0.0029,-0.0127,-0.0185,-0.0094,-0.0155,0.0213,0.034,-0.0246,0.0272,0.0457,-0.0555,-0.0382,0.0361,0.0453,0.0136,-0.0201,-0.036,-0.0421,-0.0292,0.0225,0.031,0.0613,0.0455,0.0,0.0,0.0,0.0,0.0,0.0,0.0,0.0,0.0,0.0,0.0,0.0],[0.1028,0.0919,0.0506,-0.0407,-0.0396,0.0811,-0.1665,-0.2762,-0.182,0.057,-0.2062,-0.082,-0.1654,0.2644,-0.0247,0.0343,-0.1019,0.3522,0.1009,0.0241,0.0313,-0.1158,0.0345,-0.1207,0.1928,0.1168,-0.0859,-0.0397,-0.0652,-0.1051,0.0656,-0.0031,0.0848,0.1371,0.0171,-0.0105,0.0221,-0.0644,-0.2762,-0.0437,0.0445,0.0572,-0.0946,0.1278,-0.087,0.1118,-0.1029,-0.0209,0.0674,-0.0517,0.0421,-0.015,0.0631,0.0757,-0.0508,0.033,0.0234,-0.0844,0.0461,-0.0031,-0.0764,-0.0421,0.0542,-0.0775,0.0407,0.0309,-0.0383,-0.0134,-0.0837,-0.0458,-0.0234,-0.0387,0.0829,-0.0587,0.0225,0.0774,-0.0561,0.0203,-0.0121,0.0744,0.0072,-0.0046,0.0776,-0.0492,0.0655,0.067,0.0323,0.0099,0.0683,-0.066,0.0608,-0.0164,-0.0199,0.058,-0.082,-0.0084,0.0745,0.0,0.0775,-0.0093,0.019,0.0004,0.0048,-0.1119,0.0288,0.0709,0.0479,0.0421,-0.0456,0.0079,0.0316,-0.071,-0.0569,-0.1368,-0.0438,0.056,-0.1608,0.0267,0.015,0.0714,-0.042,-0.1113,0.0542,0.0076,-0.1042,0.0782,-0.0213,-0.0528,-0.0056,0.0201,0.0619,-0.1769,0.0002,-0.0371,-0.0538,-0.1195,0.0671,-0.0273,0.003,-0.0203,-0.0904,0.0,0.0,0.0,0.0,0.0,0.0,0.0,0.0,0.0,0.0,0.0,0.0],[-0.029,-0.014,0.0895,-0.032,0.0242,-0.1237,0.0977,0.2124,-0.217,-0.2997,0.0981,0.2278,0.0658,0.0402,0.0025,-0.0121,-0.0189,0.1876,-0.1471,0.023,0.0567,0.0399,-0.0434,-0.0199,0.0061,0.011,-0.0836,-0.0481,-0.0786,0.0191,0.053,0.0049,-0.0607,-0.0272,-0.0148,0.0155,0.0035,-0.0009,0.0663,0.0347,0.1646,0.0341,-0.0259,0.015,-0.0363,0.0046,-0.0437,0.0483,0.0176,0.0161,-0.074,-0.0582,-0.0171,-0.0428,0.0346,0.0644,-0.0664,0.0782,0.0806,-0.0412,-0.0535,-0.0067,0.0584,-0.013,-0.0157,0.0449,-0.0678,0.0691,0.0253,0.0577,-0.0075,0.0379,0.0475,0.0196,0.0477,0.0205,-0.0471,-0.0336,0.022,-0.0662,-0.0172,0.0123,0.0136,0.0225,-0.0042,0.0291,0.0296,0.0093,0.0134,-0.0296,-0.0546,0.0522,0.0651,0.0706,-0.0462,0.0353,-0.014,0.0,-0.0544,0.0604,0.0569,-0.0042,0.0714,-0.0848,-0.0431,0.002,-0.0688,-0.0221,0.1847,0.0281,-0.0498,0.0119,0.0394,0.0982,-0.0037,-0.0923,-0.0496,-0.1035,0.0451,0.006,-0.0289,-0.0019,0.0364,-0.0028,0.0542,-0.0142,0.0123,-0.0811,-0.0742,-0.041,-0.088,0.0387,0.0396,0.0413,0.0082,0.0421,0.0867,-0.0752,-0.0174,-0.053,-0.0457,0.0,0.0,0.0,0.0,0.0,0.0,0.0,0.0,0.0,0.0,0.0,0.0],[0.0265,0.0233,0.0264,0.0121,0.0257,0.0023,0.1542,-0.2902,-0.219,-0.2502,-0.1612,-0.204,0.2075,-0.0517,0.0122,0.0534,0.0333,0.2564,-0.0505,-0.0783,0.0015,0.0273,0.0047,-0.0563,0.0706,0.0012,-0.0342,0.0127,-0.0316,0.0067,0.0205,0.0072,-0.0311,-0.0268,-0.0068,0.0001,-0.0029,-0.0401,-0.0375,0.0025,0.0824,-0.0316,-0.0088,-0.0005,0.0181,0.0033,0.0551,0.035,0.081,-0.0377,0.0588,-0.0518,-0.0209,0.0278,0.0513,0.0784,-0.0481,-0.0604,-0.0259,0.0172,0.0192,-0.077,-0.0015,0.0502,0.01,0.0384,-0.0045,-0.037,0.0387,0.0314,0.0262,0.0172,0.0635,0.0467,-0.0055,0.0357,-0.0763,0.0608,-0.0404,0.0751,-0.0295,-0.0498,0.0204,-0.0465,-0.0297,-0.0272,-0.0517,0.0175,0.0793,-0.0217,0.047,0.0624,-0.0556,0.0116,0.032,-0.0825,-0.0767,0.0,0.0652,-0.0362,0.045,-0.0812,-0.0748,0.1324,-0.0252,0.0728,-0.0824,-0.0355,0.0845,0.0636,0.0077,0.0181,-0.001,0.0568,0.0604,-0.0699,0.0389,-0.0419,0.0497,-0.045,0.0119,-0.0396,-0.0077,0.0263,-0.0232,-0.0021,0.0451,-0.0079,0.0038,0.0058,0.005,-0.0087,-0.0048,0.0441,-0.0161,-0.059,0.062,-0.0172,0.0369,-0.0621,-0.0447,0.0,0.0,0.0,0.0,0.0,0.0,0.0,0.0,0.0,0.0,0.0,0.0],[0.0307,0.0139,0.0076,-0.033,-0.0393,0.0095,0.0008,0.2103,0.2188,-0.3839,0.1025,0.1571,-0.3095,-0.2769,-0.0727,-0.0146,-0.0125,-0.1125,-0.0519,-0.0208,-0.0036,0.0661,0.0103,0.0257,-0.0019,0.0811,-0.0422,0.0205,0.0486,0.0382,-0.0051,0.0482,-0.0339,0.0083,0.0299,0.0121,0.0279,0.0335,0.0041,0.0092,0.1178,-0.0016,0.036,0.0558,0.0374,0.0574,0.0212,0.0351,-0.0415,-0.0524,0.0515,-0.067,-0.068,0.0671,-0.0738,-0.0438,-0.0547,-0.0796,-0.0511,0.0578,0.062,-0.0727,0.0568,-0.0288,-0.008,0.0471,-0.0609,0.0029,0.0032,-0.0246,0.0046,0.0354,0.0474,0.0139,0.0623,0.0355,0.0781,-0.0515,-0.0608,0.0647,-0.0391,-0.0222,-0.0158,0.0313,-0.0456,0.0686,-0.0069,-0.0145,-0.027,-0.0301,0.0605,0.0523,-0.054,-0.08,0.0545,0.0285,0.0768,0.0,0.0084,0.0043,-0.0238,-0.0128,-0.0492,0.0336,0.0194,0.0456,-0.0763,0.079,-0.0513,0.0356,0.0471,0.0058,0.0017,0.0211,0.0368,-0.0057,0.0222,0.0004,0.0347,0.0256,0.0415,0.017,-0.037,-0.004,0.0059,0.0471,0.0297,-0.0178,-0.047,0.0671,0.0547,0.0011,-0.0139,0.0399,0.0149,-0.0602,-0.0249,-0.0181,0.0115,-0.0141,-0.003,0.0,0.0,0.0,0.0,0.0,0.0,0.0,0.0,0.0,0.0,0.0,0.0],[0.0301,0.0438,-0.0781,0.031,0.0135,-0.1126,-0.0075,0.0314,0.0246,0.2027,-0.2227,-0.2053,-0.0624,0.2182,-0.0525,-0.0141,0.138,0.1124,-0.0043,0.0207,-0.0295,-0.0308,-0.117,-0.0198,-0.0924,-0.1277,-0.0033,0.0263,-0.0026,-0.0506,-0.0777,0.0185,-0.0414,-0.0877,-0.0354,0.0847,0.0862,0.0138,-0.0773,-0.0147,0.168,0.0839,0.0835,0.0767,0.0091,-0.0278,-0.0163,-0.0632,-0.0444,-0.0112,0.0213,0.0403,0.0425,0.0193,0.0241,0.0216,0.0729,0.0108,0.0335,-0.0602,-0.0537,-0.0825,0.0434,0.0494,0.016,-0.0444,0.0043,0.0315,-0.0833,-0.2403,-0.0386,0.0488,0.0075,-0.026,-0.0469,0.0206,0.0229,-0.0065,-0.0131,-0.0522,0.0377,-0.0783,0.0499,0.0468,0.0408,0.0048,-0.0834,-0.006,0.0647,-0.0569,0.0426,0.0743,0.0583,-0.0212,-0.0475,-0.0039,-0.0534,0.0,0.007,0.0219,0.0499,-0.0533,-0.01,-0.0447,0.0464,0.0213,-0.0517,0.055,0.1077,0.0179,-0.0742,-0.0414,0.1,0.0246,0.0749,-0.1296,-0.0201,0.0534,0.1581,-0.0211,-0.1568,-0.0502,0.0276,0.0589,0.0249,-0.0313,0.0571,0.0027,0.0485,-0.0614,-0.0182,-0.0137,-0.0211,0.0084,0.0745,-0.078,-0.0588,-0.0406,-0.0952,0.0594,-0.0068,0.0,0.0,0.0,0.0,0.0,0.0,0.0,0.0,0.0,0.0,0.0,0.0],[0.0097,0.0034,0.0147,-0.0138,-0.0136,-0.0409,-0.2412,-0.1139,0.1587,-0.0743,-0.2995,0.1953,0.2439,0.0323,-0.0466,-0.0059,0.0306,-0.0276,0.0953,0.0299,0.007,-0.0309,0.0116,-0.0394,0.0152,0.0297,-0.0168,0.0434,-0.0373,0.0238,-0.0494,0.0242,0.0092,0.0068,-0.0361,0.0421,-0.0244,0.0028,-0.0171,0.0175,0.0546,-0.0114,-0.0349,0.0294,0.0047,-0.0211,0.018,-0.0839,-0.0221,0.0524,-0.0267,-0.032,-0.022,0.0384,0.0294,0.0778,0.0806,-0.0553,0.0557,0.0109,0.0764,0.0105,-0.0381,0.054,0.0636,-0.0808,-0.0086,-0.0436,0.0202,0.019,-0.0717,0.0051,0.0727,0.0821,0.0298,0.045,0.033,0.0421,-0.0491,0.0174,0.0703,0.0662,-0.0393,0.0235,-0.0653,-0.0457,0.0149,0.0557,0.0175,-0.0445,0.0175,0.0684,0.0261,0.0605,0.0181,-0.0199,-0.0566,0.0,0.0169,-0.0815,-0.0405,0.0206,-0.0258,-0.1644,-0.0584,0.0721,-0.0619,-0.071,0.2204,0.0697,-0.0122,-0.0157,0.0418,-0.0244,0.0295,0.051,-0.0257,0.009,0.0618,0.0238,-0.0141,0.01,-0.0024,0.026,0.0247,0.0054,0.0262,0.0019,-0.0102,-0.014,0.0363,0.0316,0.0134,0.0214,0.0455,0.0159,-0.0107,-0.0042,0.0304,0.0131,-0.0217,0.0,0.0,0.0,0.0,0.0,0.0,0.0,0.0,0.0,0.0,0.0,0.0],[0.0877,-0.0176,0.0337,-0.0064,-0.0307,-0.2006,0.1972,-0.0069,-0.2322,-0.0867,-0.1515,0.0236,-0.043,-0.3024,-0.1785,-0.0238,0.0002,-0.0885,0.227,-0.042,0.0177,-0.0465,0.0276,0.0542,-0.0646,-0.0065,-0.0048,-0.0145,0.0744,0.0216,0.001,0.0499,-0.0122,-0.1031,-0.0222,-0.0806,0.0379,-0.0527,-0.0036,-0.0563,-0.0358,0.0133,-0.0371,0.0462,0.0183,-0.0264,0.0131,-0.0607,-0.0368,0.0408,0.0836,0.0742,0.0129,0.0525,-0.0788,0.0437,0.0037,-0.0653,-0.05,0.0418,0.0414,-0.057,-0.0792,-0.0613,0.0728,-0.049,-0.0053,-0.0803,0.0705,-0.0024,0.0524,0.0819,0.0029,0.049,-0.0696,-0.0032,0.0371,0.0524,-0.0445,0.0433,-0.0116,0.0554,0.0314,0.0601,0.012,0.0287,0.0217,0.0546,-0.0341,0.0646,0.0196,-0.059,-0.0364,-0.0652,0.0554,0.0362,-0.0232,0.0,-0.0046,-0.0239,-0.013,-0.0823,0.0506,0.108,-0.0417,0.0422,0.0094,-0.048,-0.0187,-0.0131,-0.0626,0.0569,0.0043,-0.0491,0.072,0.0491,0.0335,-0.0481,0.0331,0.0241,0.0643,0.0427,0.0045,0.0662,0.0471,0.0975,-0.0213,-0.0098,-0.0594,0.0592,0.1161,0.0101,-0.0001,0.0288,0.0543,-0.0092,0.0288,-0.0328,0.0707,-0.0808,-0.0647,0.0,0.0,0.0,0.0,0.0,0.0,0.0,0.0,0.0,0.0,0.0,0.0],[0.0566,-0.0026,0.0414,0.0252,-0.0232,0.032,0.0479,0.0993,-0.2872,0.2886,0.0206,-0.203,-0.1761,0.2404,-0.1055,0.0266,0.0214,0.0556,0.2894,0.0238,-0.0107,0.0029,-0.0289,-0.0184,-0.0145,0.0143,0.015,0.0413,0.0121,0.0761,-0.0374,-0.0743,-0.0333,-0.0414,-0.0258,-0.0124,0.0246,-0.0231,0.0245,0.0133,0.053,-0.0112,-0.0486,0.0293,0.0473,0.03,0.038,0.0456,0.0361,-0.0074,-0.0239,-0.0471,-0.0156,-0.0014,0.0189,-0.0219,0.0584,-0.0829,0.0006,0.0404,0.0112,-0.0195,0.0434,0.0483,0.0288,-0.0649,-0.0756,0.0488,-0.071,0.004,0.0237,0.0085,0.0381,-0.0244,0.0289,-0.0382,-0.0214,-0.0352,-0.063,-0.0273,-0.042,-0.0801,0.0075,0.0222,0.0473,-0.0385,-0.0472,0.0354,0.0375,0.0414,-0.0343,-0.0639,0.05,-0.0795,-0.0329,-0.0106,-0.0139,0.0,-0.0332,-0.0013,0.0278,-0.0141,0.0819,0.0779,0.0535,-0.0492,0.0631,0.058,0.1786,-0.0451,0.0009,-0.0403,0.0103,0.0306,0.0753,0.0331,-0.0172,0.0547,-0.0457,0.0653,-0.0388,-0.0087,-0.0119,0.0128,0.0488,-0.0377,0.0696,0.0256,0.0291,-0.0494,0.0208,0.0355,-0.0118,0.0268,-0.0073,-0.0851,0.0548,0.0439,-0.0251,-0.048,-0.0144,0.0,0.0,0.0,0.0,0.0,0.0,0.0,0.0,0.0,0.0,0.0,0.0],[-0.0105,0.0617,-0.0336,-0.0087,-0.0149,0.0064,-0.1541,-0.0497,-0.1033,0.305,0.1761,0.1045,0.2751,-0.3272,-0.0377,0.0639,0.048,0.0681,-0.3083,-0.0017,-0.0462,-0.0279,0.0637,0.005,0.0096,0.0842,-0.0444,0.0429,0.0142,-0.0179,0.0024,0.0059,0.0293,-0.0159,0.0222,0.0041,0.02,0.0562,-0.0257,-0.0565,-0.1545,0.0439,-0.0438,0.0375,0.0526,-0.003,0.0129,-0.0226,0.0821,0.0001,0.0764,-0.0155,0.0386,0.0267,-0.0352,-0.0377,-0.0459,-0.0446,0.0226,0.0809,0.0407,-0.0694,0.033,-0.0738,-0.0202,0.0691,0.0567,0.0661,-0.0665,0.035,-0.0203,-0.0676,0.0294,0.0039,0.0575,-0.0667,0.0603,0.0639,0.0552,-0.0833,0.0489,0.0444,-0.0736,-0.019,0.055,0.0088,0.0806,0.0785,0.0463,-0.0509,-0.0412,-0.0392,-0.064,-0.0559,-0.0022,0.0301,0.0607,0.0,0.0477,0.024,0.0697,-0.0026,-0.0081,-0.035,-0.07,0.0121,0.004,0.01,-0.1648,0.0148,0.0361,0.0048,0.0268,0.0194,0.0216,0.0098,0.0088,0.0058,0.0549,0.0376,0.0,0.0314,0.0495,0.0321,-0.0113,0.0198,0.0233,-0.0388,0.0268,0.0382,-0.0218,0.0746,0.0574,-0.0217,-0.0046,-0.0157,0.0171,-0.0219,0.0328,0.064,-0.0006,0.0,0.0,0.0,0.0,0.0,0.0,0.0,0.0,0.0,0.0,0.0,0.0],[0.0119,-0.0207,0.0122,0.0763,-0.0262,-0.0183,0.1131,0.1181,-0.2126,0.1597,-0.2255,0.0788,-0.1635,-0.2547,-0.0762,0.0197,-0.0077,-0.0705,-0.1125,0.0315,-0.0286,0.0624,0.0024,0.0028,0.0262,0.0439,0.0341,0.0113,0.0272,-0.0492,0.0282,0.0862,0.0475,0.0603,0.0722,0.069,-0.0191,0.0512,0.0321,-0.0339,-0.3657,0.0669,-0.0696,0.0185,0.0963,0.0182,0.0397,0.0383,-0.0088,0.0192,-0.0777,0.0235,0.0339,0.0239,-0.0021,0.012,-0.0754,-0.0123,-0.0515,-0.0229,-0.0748,-0.0405,0.0629,0.0191,-0.0232,-0.0544,-0.0233,-0.0697,-0.057,-0.0371,0.0112,-0.0038,0.0088,-0.0263,0.048,-0.0246,0.0475,0.0108,0.0564,-0.0742,-0.0291,-0.0786,-0.0367,-0.0129,-0.0097,0.0649,-0.0601,-0.0034,0.0555,-0.0537,-0.0219,-0.0364,0.0286,0.0655,0.0213,-0.0099,0.0014,0.0,-0.0349,0.0672,-0.0029,-0.0511,0.0078,0.0859,-0.071,-0.0267,0.0281,-0.0497,-0.0704,0.0565,0.0919,0.0612,0.0629,0.0421,-0.0534,-0.0166,0.06,0.0644,-0.0268,0.025,-0.0435,-0.0134,-0.0282,-0.0258,-0.0472,0.0153,0.0771,-0.0189,-0.0256,-0.0374,-0.038,0.0346,-0.0488,0.0413,0.0622,-0.0557,0.0376,-0.0149,-0.0349,0.0532,0.0595,0.0,0.0,0.0,0.0,0.0,0.0,0.0,0.0,0.0,0.0,0.0,0.0],[0.0609,-0.0292,0.0157,0.0243,0.0062,-0.1647,0.0374,-0.1336,0.1656,0.1107,0.265,0.1057,0.2533,-0.4223,-0.095,-0.0247,0.0604,0.0819,0.1612,-0.0306,-0.0122,-0.0511,-0.0216,0.0097,-0.0299,-0.0135,0.0061,-0.0097,0.0291,0.0215,0.0349,0.0049,-0.0084,-0.0417,0.017,0.0547,0.0135,0.0102,-0.0145,-0.0106,-0.0269,-0.0013,0.0292,0.0119,0.0313,0.0245,0.0412,-0.0102,-0.0744,-0.0785,-0.0675,-0.0213,-0.0114,-0.081,0.0004,-0.0576,-0.0278,-0.002,0.048,-0.0223,-0.0823,-0.0608,-0.0503,0.0489,-0.0581,-0.0581,-0.0307,-0.0396,0.0384,-0.01,-0.0724,-0.0737,0.0358,-0.0075,0.031,-0.0587,-0.034,-0.0761,-0.0452,0.0117,0.0171,0.0185,0.0765,0.0691,0.0296,-0.0695,-0.0273,0.0453,-0.0458,0.067,0.0027,-0.0093,0.0069,0.0066,0.0196,-0.0203,0.0711,0.0,-0.024,-0.0107,-0.051,-0.0161,-0.067,-0.0894,-0.0061,0.026,0.0281,-0.0479,0.1012,0.065,-0.0155,0.0183,0.025,0.0267,-0.0339,0.0609,0.0323,0.0497,0.0196,0.0015,0.0285,0.0526,-0.0003,-0.0102,0.0245,0.019,-0.0232,0.028,-0.0027,-0.0004,-0.0474,-0.0372,-0.0123,-0.0245,0.0049,0.058,0.015,0.0649,-0.017,-0.031,0.0681,0.0,0.0,0.0,0.0,0.0,0.0,0.0,0.0,0.0,0.0,0.0,0.0],[0.0236,0.0215,0.0128,-0.0125,0.0272,-0.078,0.1666,-0.0626,-0.2873,-0.217,-0.1695,0.1466,0.0655,0.2053,-0.064,-0.0018,-0.0112,0.3151,0.2391,-0.0544,-0.0006,0.0275,0.0984,-0.0113,0.0436,-0.0031,-0.061,-0.0149,-0.0014,0.0726,-0.018,0.0736,0.0204,0.008,-0.0153,0.0631,0.096,-0.0449,0.0757,-0.07,-0.0289,0.043,0.0195,0.0115,0.0043,0.0197,-0.0159,0.0385,0.0616,-0.0367,-0.0721,0.0157,0.0066,-0.033,-0.0772,0.037,0.069,-0.058,-0.0465,0.0766,0.0035,0.0488,-0.0335,0.0797,-0.0681,-0.0441,-0.0439,-0.0153,0.0366,0.0423,0.0399,0.043,-0.0826,0.033,-0.0643,0.0112,0.0593,0.0396,-0.0566,0.0661,-0.0514,0.0584,-0.0827,0.072,0.0406,-0.0135,-0.0567,0.0122,0.0577,-0.0766,0.0451,-0.0004,0.055,-0.0793,0.0088,-0.07,-0.0043,0.0,-0.0706,0.0062,-0.0239,0.0655,-0.0097,0.083,-0.0237,0.0417,0.041,-0.0631,-0.0976,0.0463,-0.0381,0.0465,-0.0559,-0.0145,0.0246,0.0622,-0.0382,0.027,0.0382,0.0682,0.0104,0.0421,0.0051,-0.0436,-0.0348,0.0189,0.0089,0.0186,0.0089,-0.0293,0.023,-0.019,0.0501,0.0884,-0.0515,0.0396,0.0622,0.0489,-0.0063,-0.0291,-0.0182,0.0,0.0,0.0,0.0,0.0,0.0,0.0,0.0,0.0,0.0,0.0,0.0],[-0.043,0.0528,0.0225,0.0915,0.0709,-0.0354,-0.1429,0.0738,-0.1869,-0.2961,-0.2081,0.1897,0.0372,-0.3145,0.0393,0.1599,0.0874,0.0443,0.0855,0.0304,0.0522,0.0035,-0.0503,-0.0835,0.0304,0.0374,0.0079,-0.0054,0.0107,0.0279,0.005,-0.0263,0.0064,0.0477,0.0219,0.0256,-0.1323,-0.0737,-0.0035,-0.0826,0.0214,0.1182,-0.0204,0.0165,-0.0216,0.0116,0.0445,-0.0314,-0.0164,-0.0064,0.0115,-0.01,-0.0712,0.0265,0.0305,-0.0686,0.0494,-0.0118,0.0171,0.0669,0.0105,0.0156,-0.0217,-0.0618,-0.0235,0.0687,-0.0737,-0.0417,0.0231,-0.046,-0.015,0.0158,0.0092,-0.0173,0.0655,-0.0817,0.0005,-0.074,0.024,-0.0704,0.0066,0.0175,-0.0531,-0.0758,-0.0103,0.0754,-0.0361,-0.0652,-0.0731,-0.0289,-0.006,0.0155,-0.0747,0.0503,-0.0469,-0.0679,-0.0447,0.0,-0.0228,0.007,-0.0824,-0.066,-0.084,-0.023,0.0576,-0.0118,0.0354,-0.0323,0.0787,-0.0311,0.016,-0.0405,-0.066,0.0792,-0.0272,0.0599,0.05,-0.0338,-0.0319,-0.0361,-0.0265,-0.0895,0.0092,-0.0923,0.0679,-0.1325,-0.0193,0.0367,0.0299,0.0042,-0.0101,-0.0592,0.091,-0.1054,-0.0557,0.0045,0.0174,0.0098,0.0838,0.0857,-0.0241,0.0,0.0,0.0,0.0,0.0,0.0,0.0,0.0,0.0,0.0,0.0,0.0],[0.0537,-0.0812,-0.0373,0.0278,0.0274,0.2617,-0.2606,0.2471,-0.0832,-0.1926,-0.0279,-0.0732,0.0511,0.0386,-0.0233,0.0369,0.0036,0.0173,0.2003,-0.0081,-0.0811,0.0168,0.0107,0.0012,0.02,0.0202,0.0312,0.0699,-0.0544,-0.0503,-0.0006,0.0242,0.0252,0.0365,0.0342,-0.0504,-0.0302,0.0361,-0.0128,-0.0466,0.0116,-0.0499,0.0439,-0.0466,-0.0166,0.0749,0.0224,-0.0533,0.0785,-0.0081,-0.0784,-0.0212,-0.0488,-0.0185,-0.0436,0.0343,-0.0775,-0.0649,0.0543,0.053,-0.006,-0.0239,0.0401,-0.0019,0.0546,-0.0233,0.0821,0.0402,-0.0115,-0.0169,-0.047,0.0087,-0.078,0.0044,-0.0158,-0.0478,0.0764,-0.007,-0.0556,0.0671,-0.042,-0.0076,-0.0645,-0.0564,-0.0156,-0.0558,-0.0833,0.0203,-0.0347,-0.0217,-0.0322,0.0493,0.0433,-0.054,-0.0551,0.0065,-0.0111,0.0,-0.0479,-0.0433,-0.0277,-0.0427,-0.0421,0.0354,-0.071,-0.0363,0.0501,-0.0564,0.0266,-0.0117,0.002,0.0635,-0.0655,-0.0123,0.0277,0.0262,0.0188,-0.0554,0.0233,-0.0861,-0.0724,-0.0476,-0.0498,-0.0402,-0.0371,-0.0032,0.0149,-0.0113,-0.0564,0.0172,-0.0181,-0.0619,0.026,-0.0357,-0.03,-0.0556,0.0504,0.0097,0.01,0.0253,-0.0423,0.0,0.0,0.0,0.0,0.0,0.0,0.0,0.0,0.0,0.0,0.0,0.0],[0.0094,0.0136,0.0519,0.0147,-0.0804,-0.2522,0.2072,-0.0721,-0.0958,-0.2702,-0.1146,-0.1978,-0.0194,-0.0097,-0.3114,0.0025,-0.0588,0.1485,-0.1838,-0.0022,-0.0316,0.0981,-0.0326,0.0078,0.0766,0.0068,-0.0184,-0.1085,0.0224,-0.0513,-0.0395,0.0039,0.0503,-0.0462,0.0231,-0.0394,0.0762,0.0812,-0.0449,0.0298,-0.0353,0.1534,-0.0617,0.0244,-0.0282,0.0168,0.0073,-0.0637,-0.0663,0.0508,0.055,-0.0776,-0.0378,-0.0704,0.0186,-0.0362,0.0426,-0.0143,0.0667,-0.0703,0.0043,-0.0208,-0.0563,0.0228,0.0137,0.0473,-0.0262,0.0572,0.0168,0.0348,0.0261,-0.0074,-0.0274,0.0653,0.0767,-0.0366,-0.0838,-0.0105,0.0549,0.0258,0.0286,-0.0821,-0.0464,-0.0751,-0.0795,-0.0304,0.0674,-0.0559,0.0593,-0.0796,0.0413,-0.0348,0.0094,0.0089,0.069,0.0455,0.0347,0.0,0.0527,0.0769,0.018,0.0736,0.0383,0.0174,-0.0811,0.0827,-0.0628,-0.046,0.114,0.0237,0.0687,0.0233,0.0976,0.0844,-0.018,0.0732,-0.0562,0.0769,0.058,0.0399,0.0759,-0.0135,-0.056,0.0741,-0.0632,0.031,0.0793,0.0666,-0.0005,0.0839,-0.0115,-0.0719,0.0472,0.0122,0.0112,-0.0101,-0.0012,0.1368,0.0288,0.0388,0.0207,0.0,0.0,0.0,0.0,0.0,0.0,0.0,0.0,0.0,0.0,0.0,0.0],[0.0056,-0.0129,0.0568,0.0051,-0.0204,-0.0926,-0.2062,-0.0079,0.0819,-0.0579,-0.0434,0.2931,0.3068,0.0901,0.1188,0.0067,-0.0187,0.2163,-0.0063,0.0726,-0.0286,0.0245,0.0488,0.0186,0.0279,-0.0023,0.0135,0.0027,0.0166,-0.0219,0.0259,-0.0078,-0.0258,0.0163,-0.0498,-0.0146,-0.0076,-0.0069,-0.0259,-0.0824,-0.1303,0.0492,-0.0325,0.0044,-0.0532,-0.0344,0.0584,-0.0551,-0.0383,0.0125,-0.0025,0.042,-0.0732,0.0677,-0.0431,0.0603,0.0599,-0.0526,0.0375,-0.0195,-0.0398,-0.0715,-0.0068,-0.0428,-0.0648,0.0183,0.062,-0.0127,-0.0573,0.0118,-0.0324,-0.0123,-0.0476,0.032,0.0533,0.0779,-0.0095,0.0352,-0.0037,-0.0274,0.0032,-0.0809,-0.0744,0.014,-0.0541,0.0529,-0.0613,0.0307,0.0062,-0.0441,-0.0538,0.0448,0.0496,0.0108,0.0252,-0.0698,0.0162,0.0,0.0631,-0.0021,-0.0205,-0.0202,-0.0755,-0.1214,0.0065,-0.0376,-0.0627,-0.0309,-0.1434,-0.0144,0.0427,-0.0013,0.063,-0.0376,0.0205,0.0703,0.0764,0.0091,-0.0093,-0.0242,0.03,-0.0106,0.0078,-0.0547,-0.0096,0.0238,0.0536,0.033,0.0097,0.0697,-0.0397,0.0282,0.0303,0.0009,0.0062,0.0245,0.0044,-0.0132,0.0288,-0.0318,-0.0317,0.0,0.0,0.0,0.0,0.0,0.0,0.0,0.0,0.0,0.0,0.0,0.0],[-0.0305,-0.0064,-0.0061,0.0115,0.0061,-0.1351,-0.0966,0.2063,-0.2325,-0.3475,0.1289,0.2843,0.2791,0.0102,-0.0818,0.0216,0.0485,-0.0625,0.2207,-0.0271,-0.0103,0.0311,0.0039,0.0265,0.0462,0.0127,0.0323,0.0434,0.0145,0.0295,0.0086,0.0181,0.0534,0.0268,-0.0191,0.0306,-0.0004,0.0266,0.0355,-0.0121,-0.0574,0.0357,-0.0142,0.0115,0.0623,0.0642,0.0361,0.0082,0.0454,0.0246,0.008,-0.075,0.0063,0.036,0.0458,-0.0169,-0.0181,-0.0008,0.0048,0.0289,0.0464,-0.0819,0.0446,-0.0436,0.002,0.0527,0.0249,0.0248,-0.0035,0.0028,0.0212,0.0686,0.0439,-0.0065,-0.022,0.0513,0.0656,0.0709,0.0159,-0.0485,-0.0503,0.0618,0.0721,-0.0556,0.052,-0.0451,-0.0183,0.0806,-0.047,-0.004,-0.0306,-0.0605,-0.0762,-0.0605,-0.0309,0.067,0.0719,0.0,0.0381,0.0052,-0.0762,-0.002,-0.0573,-0.0593,-0.0184,0.0138,-0.0319,0.0655,0.2292,0.0487,-0.0278,0.0403,-0.0332,-0.0273,0.012,0.0273,0.0037,0.0074,-0.0207,0.0417,0.0062,0.0039,0.0086,0.0114,-0.0253,-0.0335,-0.0004,0.002,0.0004,-0.0164,-0.0205,-0.0116,0.0081,0.0327,0.0373,-0.0262,-0.0442,-0.014,-0.0035,0.0392,0.0206,0.0,0.0,0.0,0.0,0.0,0.0,0.0,0.0,0.0,0.0,0.0,0.0],[-0.0768,0.0245,0.0019,-0.0093,-0.0576,-0.1,-0.0076,-0.1346,0.0486,-0.0509,-0.2248,-0.4276,-0.0919,-0.0173,-0.0128,0.0176,-0.1549,0.5115,-0.333,0.0264,0.0082,0.0632,0.004,0.04,-0.0499,0.0263,-0.0862,-0.0121,0.0255,-0.0165,-0.1194,0.0979,-0.047,0.0102,-0.0666,-0.0365,0.0394,-0.036,0.0135,-0.0045,-0.0107,-0.0013,-0.1159,0.0559,-0.1162,-0.0411,0.0028,0.0077,0.0247,0.0827,0.0822,0.0649,-0.0527,-0.0341,-0.0157,-0.0417,-0.0465,0.0336,-0.0693,-0.0138,0.0048,0.0426,-0.0152,0.0603,0.0408,-0.0524,0.0799,0.0272,0.0122,0.0303,0.0178,0.0172,-0.079,-0.0607,0.0005,-0.0312,0.0734,0.0766,0.0544,0.0349,-0.0065,0.0649,-0.0476,-0.0747,0.0398,-0.0336,0.0206,0.0725,0.0203,-0.0311,0.0815,-0.0382,0.0335,0.0445,0.0778,0.0063,-0.0751,0.0,0.0754,0.0574,-0.0453,-0.0468,0.0755,-0.1328,-0.0003,0.0308,0.0157,0.0616,0.0929,-0.0695,-0.071,0.0202,-0.0319,-0.0703,-0.0176,0.0012,-0.0604,-0.049,-0.0545,-0.035,0.027,0.0033,-0.0043,0.0776,-0.0448,0.0047,-0.072,-0.0455,0.0465,0.0111,-0.0168,-0.0329,-0.0662,-0.0355,0.0106,0.0332,0.0513,-0.0471,-0.0949,-0.007,-0.0076,0.0,0.0,0.0,0.0,0.0,0.0,0.0,0.0,0.0,0.0,0.0,0.0],[-0.0192,-0.0153,0.0525,0.0147,-0.0194,0.1428,-0.0461,-0.0509,0.2176,-0.2148,-0.1757,-0.0581,-0.3108,0.1286,-0.012,-0.0236,-0.0565,0.3177,0.1138,-0.0289,0.0549,-0.0114,0.0141,-0.0537,0.0123,0.0136,0.0178,-0.0046,0.0461,0.0081,0.0274,0.0269,0.0052,-0.0289,-0.0058,0.034,0.0222,0.0315,-0.0251,-0.0242,-0.0832,0.045,-0.0056,-0.0059,0.0637,-0.0109,-0.0272,-0.0524,0.0656,-0.0601,-0.0562,-0.044,0.0635,0.0352,0.0476,0.0043,0.0151,0.024,0.04,-0.0567,0.0581,-0.0052,0.0488,-0.0072,0.0616,-0.0528,0.0297,0.0143,0.0133,0.0314,-0.013,0.0778,-0.0792,-0.042,-0.0293,0.0273,0.064,0.0638,-0.0182,0.0103,0.0767,0.0641,0.0063,0.0434,0.0389,0.0515,0.0521,-0.0842,-0.0075,-0.0305,0.0405,-0.0245,-0.0568,-0.0581,0.0224,0.0544,0.0244,0.0,0.0327,-0.0792,0.0263,-0.0807,0.0656,-0.0704,0.0636,-0.0579,0.0249,-0.0224,0.024,0.0075,0.0089,0.0094,0.0426,0.0156,0.0281,0.0295,0.0136,0.0384,0.0624,0.0248,0.0721,-0.0403,0.0055,0.0511,0.0436,-0.021,-0.0379,0.004,-0.0387,0.0344,-0.0877,0.0258,-0.0007,0.0627,0.0373,0.045,-0.014,-0.0627,-0.0535,0.0594,-0.0026,0.0,0.0,0.0,0.0,0.0,0.0,0.0,0.0,0.0,0.0,0.0,0.0],[0.0043,0.0021,0.0502,0.0384,-0.0272,0.167,0.1341,-0.0491,0.3509,-0.1751,0.1647,0.0654,-0.1804,-0.0708,-0.0772,-0.0227,-0.0358,-0.0357,0.171,-0.0158,0.0498,-0.0026,0.06,-0.0268,0.0415,-0.0527,0.0717,0.0461,0.0691,-0.0065,-0.0476,-0.0188,-0.017,-0.0264,-0.065,0.0154,-0.0221,0.0124,0.0291,-0.0706,-0.0866,0.0194,-0.0116,0.0872,0.0081,-0.0069,0.0256,-0.0379,0.0655,-0.0422,0.0317,-0.0199,0.0152,-0.0772,0.0406,0.0825,0.0805,0.0249,-0.0366,-0.0243,0.0374,-0.0191,-0.0574,0.0799,-0.0312,-0.0627,-0.0831,-0.0623,0.0222,-0.0,0.033,-0.0582,0.0424,0.0001,-0.0342,-0.0745,0.009,-0.0383,-0.0786,-0.0767,-0.0122,-0.0048,0.0006,-0.0705,-0.0267,0.0678,-0.0756,-0.0003,-0.0379,-0.0556,0.0647,-0.0742,0.0118,0.0622,-0.0073,-0.0057,0.0058,0.0,0.0147,0.0091,0.0809,0.0731,0.0053,-0.1613,-0.0816,0.01,-0.0105,-0.0108,0.021,0.0597,0.057,0.0446,0.0576,-0.0213,0.018,0.079,0.0593,-0.0076,-0.0453,0.0447,-0.022,0.0649,-0.0134,0.0033,0.0395,-0.0,-0.0056,0.0359,-0.0291,-0.002,0.0084,0.0345,0.0372,0.0106,0.0401,-0.045,0.0506,0.0538,0.0476,0.0425,-0.0291,0.0,0.0,0.0,0.0,0.0,0.0,0.0,0.0,0.0,0.0,0.0,0.0],[0.0074,0.0518,0.0288,0.0396,0.0322,-0.1393,0.0525,-0.0922,0.0647,-0.2245,0.1064,-0.2201,-0.2065,0.384,-0.0566,-0.0347,0.0471,0.0254,0.242,0.052,0.0063,0.0061,-0.027,0.0093,0.036,0.0023,0.0491,0.0354,-0.0048,0.0455,0.0185,0.0223,0.0144,0.0234,-0.0153,0.0396,0.0129,-0.012,0.0034,-0.0494,0.1267,-0.0417,-0.0184,-0.0354,-0.0023,0.0903,-0.0335,0.0139,0.0271,-0.047,0.004,-0.0542,0.046,-0.0055,0.0492,-0.0801,0.027,-0.0332,0.0158,-0.0271,-0.0047,-0.0741,-0.0685,0.0051,-0.0465,0.0128,0.0735,0.0333,-0.0094,0.0067,-0.0224,-0.0044,0.0231,-0.0238,-0.0251,0.0052,0.059,0.0767,0.0016,0.0169,-0.0385,0.0412,-0.0489,-0.0279,0.0417,0.0491,-0.0072,-0.0483,0.0323,-0.0425,0.0536,0.0714,0.0293,-0.0705,-0.0034,-0.0772,0.0386,0.0,0.0798,0.0087,-0.0506,0.0232,0.017,-0.154,-0.0597,0.0211,-0.0106,-0.0315,-0.1089,0.0301,-0.0135,0.0249,-0.0044,0.036,0.0434,-0.0154,-0.0256,0.0082,0.0323,0.0148,0.0108,0.019,0.0266,0.0073,-0.0189,-0.0227,-0.0013,-0.0069,0.0302,-0.0241,0.0234,0.033,-0.0097,-0.0049,0.0273,0.0652,0.0521,0.069,0.0207,0.0123,0.0336,0.0,0.0,0.0,0.0,0.0,0.0,0.0,0.0,0.0,0.0,0.0,0.0],[-0.0979,0.0624,-0.0609,0.0086,0.0273,-0.1094,-0.0835,-0.2109,-0.3121,-0.1118,-0.0725,-0.2281,-0.1176,0.3179,-0.1696,-0.0002,-0.0614,0.2795,0.0773,0.0243,-0.0764,-0.0047,-0.0611,0.0226,-0.0251,0.0764,-0.0759,-0.1,0.0765,-0.0839,0.0011,0.0122,-0.0056,-0.0256,0.0388,0.0329,-0.0604,0.019,-0.0637,0.058,0.0546,0.0959,-0.0663,0.0786,-0.1457,-0.0864,0.0152,-0.0775,0.0078,-0.0255,-0.019,0.0793,0.0172,-0.0709,-0.0808,-0.0205,0.0185,0.0153,0.0228,-0.0614,0.0401,-0.0716,0.0318,0.0058,0.0413,-0.0769,-0.0382,-0.0489,0.0493,0.051,0.0607,0.0677,-0.0456,0.0299,0.0545,-0.0446,0.0455,-0.0204,0.0413,0.0391,-0.0416,-0.0455,-0.0509,-0.011,-0.073,0.0015,0.0207,-0.0553,0.0309,-0.0537,-0.0633,-0.0065,0.0298,-0.054,0.0661,0.0401,0.0022,0.0,-0.0754,0.0527,0.036,0.0213,0.0061,-0.0401,-0.0239,-0.0671,0.0058,0.0124,-0.1272,-0.0629,-0.0324,0.0397,0.0507,-0.1469,0.0263,-0.0283,0.0086,0.0365,-0.0025,0.0456,0.0503,-0.058,0.0098,-0.0916,-0.0097,0.0073,-0.0086,-0.0319,0.0533,0.0328,0.0329,-0.0057,-0.1271,-0.1216,-0.0415,-0.0206,-0.1104,-0.0902,-0.0253,-0.1215,-0.0937,0.0,0.0,0.0,0.0,0.0,0.0,0.0,0.0,0.0,0.0,0.0,0.0],[0.0585,-0.0468,-0.0442,0.0257,-0.0072,-0.3002,0.1768,0.131,0.0751,-0.0694,0.1626,0.1376,0.215,-0.2668,-0.1505,-0.0497,0.1086,-0.1452,-0.0193,0.0486,0.046,-0.0101,-0.0254,-0.0083,-0.0276,-0.0756,0.0847,0.0032,0.0112,-0.0187,-0.0234,-0.0947,-0.0214,-0.0116,-0.0071,0.0146,-0.0716,-0.0044,0.0618,-0.0145,-0.0949,0.0261,0.0289,0.0039,0.0814,0.0963,-0.0156,0.0567,0.0605,-0.043,-0.057,-0.05,0.0299,0.072,0.0515,-0.0321,0.0394,-0.0655,-0.066,0.0511,0.0535,-0.0584,-0.0038,-0.0278,0.0266,0.0561,-0.0652,0.0138,-0.0833,0.0854,-0.0292,0.0798,-0.0772,0.05,0.0085,-0.0079,0.0091,-0.0072,0.0308,-0.083,-0.0275,0.0008,0.0588,-0.0502,-0.0335,-0.0697,0.0206,0.0665,-0.022,0.0327,-0.0117,0.0473,0.0364,-0.0596,-0.0834,0.0586,0.0622,0.0,0.0168,0.0839,-0.0511,0.0306,0.0375,0.003,-0.0047,-0.0035,0.0196,0.0166,-0.1573,0.0382,-0.1218,0.0243,-0.0568,0.0365,-0.0406,0.0102,-0.0199,-0.0337,-0.0289,0.0005,-0.042,0.0303,0.005,0.0332,0.0277,-0.063,0.0709,0.0177,0.0006,0.017,-0.0645,0.0027,0.0476,-0.0316,0.0107,0.0493,-0.0041,0.0689,0.0601,0.0535,0.0589,0.0,0.0,0.0,0.0,0.0,0.0,0.0,0.0,0.0,0.0,0.0,0.0],[0.0319,0.0325,0.0124,0.0672,-0.0237,0.1799,0.0068,-0.4865,-0.2648,-0.1641,0.2076,-0.218,-0.0321,-0.0072,0.0463,0.0115,0.0192,0.059,-0.2838,0.0955,0.0166,0.0127,0.0749,0.0544,0.0248,0.0319,0.0574,-0.0041,0.0148,0.0496,0.0252,0.0058,0.0281,0.0353,-0.0471,0.0367,0.0129,0.0717,0.0225,0.0538,-0.1894,0.0254,-0.0283,-0.0172,-0.0067,0.0333,0.0468,0.0369,-0.0045,0.0794,-0.0234,0.0045,-0.014,0.0617,0.0091,-0.0741,0.0238,0.0442,-0.0427,0.0141,-0.008,0.0608,0.0395,-0.0804,0.0638,-0.061,0.0033,-0.0676,-0.0048,0.0083,-0.0066,-0.0544,-0.0279,-0.0671,0.0501,0.078,0.0694,-0.022,0.0439,-0.0279,-0.0756,0.0182,-0.0178,0.0078,-0.0231,0.0591,-0.028,-0.0715,-0.0106,-0.0327,0.0729,-0.0316,-0.0716,0.0261,-0.0571,-0.0018,-0.0433,0.0,0.0574,-0.0509,-0.0026,-0.0286,-0.0318,0.0005,0.016,-0.0495,0.0234,-0.0551,0.0425,-0.0291,-0.0052,0.0194,0.0536,-0.0057,-0.0028,0.0211,-0.0273,0.0507,0.0006,0.0269,-0.0057,-0.0141,0.0261,-0.0153,0.0504,0.0357,-0.0155,-0.0187,0.0108,-0.0521,-0.0081,-0.0254,-0.0024,0.019,0.0574,-0.0065,0.0705,0.0408,-0.0086,0.0188,0.0533,0.0,0.0,0.0,0.0,0.0,0.0,0.0,0.0,0.0,0.0,0.0,0.0],[-0.0126,-0.0422,0.0593,-0.0408,0.0399,0.2184,-0.1472,-0.2345,-0.294,-0.0653,0.1073,-0.199,-0.1109,0.0918,0.0523,0.027,-0.0426,0.1369,-0.2091,0.0191,0.0605,-0.0067,0.0402,-0.0373,0.0578,0.0146,-0.0045,0.0727,0.0078,0.0638,-0.032,-0.0084,-0.0015,0.0171,0.0388,-0.0512,-0.009,-0.0457,0.0112,-0.0206,0.0351,0.0169,-0.0021,0.0135,0.005,0.064,0.0569,-0.0206,-0.0823,0.0736,0.0325,0.0561,-0.0069,0.0434,-0.082,0.0248,0.0393,-0.0682,-0.0295,0.0433,-0.0766,-0.0017,-0.0643,-0.0522,0.0611,0.0234,0.0642,-0.0618,0.0725,-0.0234,-0.0522,-0.0825,-0.084,-0.0484,0.0228,-0.0421,0.0326,0.0594,-0.0457,0.08,-0.0167,0.0267,-0.0039,-0.0571,0.019,-0.0584,0.0324,0.0309,0.0225,0.0832,0.0382,0.0137,0.035,-0.0333,-0.0751,-0.0544,0.0569,0.0,0.0325,-0.069,0.0741,-0.0685,0.0096,0.0982,0.0236,0.0824,0.0368,-0.0232,-0.0303,-0.0035,0.0243,0.0876,0.0269,-0.025,-0.0033,-0.0095,0.0074,-0.0255,0.0199,0.0212,0.0094,-0.0031,-0.0134,0.0434,-0.0138,-0.0218,0.0278,-0.0137,-0.0211,0.0507,0.0381,0.0578,-0.0366,0.0262,0.015,0.0451,-0.0325,0.055,0.0392,0.0723,-0.0397,0.0,0.0,0.0,0.0,0.0,0.0,0.0,0.0,0.0,0.0,0.0,0.0],[0.0641,0.0253,0.0256,0.0533,-0.0649,0.186,-0.1338,-0.0339,0.0039,0.1727,-0.0241,-0.0992,-0.2484,-0.3921,-0.147,-0.0118,0.0274,0.1465,0.0229,-0.0163,-0.0686,-0.0021,0.0722,0.0277,0.0783,0.0505,0.0443,-0.0017,0.018,-0.034,0.0344,-0.0507,0.0171,0.0657,-0.074,0.049,-0.0847,-0.0373,0.0229,0.0175,0.1742,-0.0242,0.006,0.0274,0.0037,0.0518,0.0887,0.0247,-0.0494,0.0309,0.0515,0.0414,0.0019,-0.0447,0.0742,-0.0026,0.0112,0.0506,-0.0359,-0.0504,0.0471,-0.0427,-0.0404,-0.0798,0.0549,-0.0372,0.0589,0.08,0.0483,-0.0468,0.0695,0.0261,-0.0754,-0.0037,-0.0686,-0.0723,0.0232,0.0662,0.0365,-0.0171,-0.0784,-0.0549,-0.0606,-0.0008,0.036,-0.0269,-0.0283,-0.0513,-0.0512,0.0218,0.0612,-0.0161,-0.0271,0.0014,-0.0386,-0.0774,0.0098,0.0,-0.0107,0.0208,-0.024,-0.063,-0.0254,0.1182,0.0297,-0.0706,-0.0715,0.0722,-0.1622,0.0368,0.0184,0.0345,-0.0097,-0.0134,0.0301,0.0503,-0.0453,0.0029,-0.0005,0.0597,0.0187,-0.0278,0.0029,0.0008,0.0629,0.0065,0.0301,-0.0406,0.0063,0.0115,0.0101,-0.0387,-0.0244,-0.0487,0.0518,0.0108,0.0097,0.0038,-0.0301,0.0172,0.0382,0.0,0.0,0.0,0.0,0.0,0.0,0.0,0.0,0.0,0.0,0.0,0.0],[0.0756,-0.0424,0.0354,0.0515,0.0395,0.1384,-0.1296,0.1256,-0.2973,-0.2258,0.1755,-0.0996,0.1196,-0.406,-0.0116,-0.0199,0.0234,-0.0045,-0.0324,0.0686,0.088,0.0259,0.047,-0.0388,-0.0575,-0.101,0.0181,0.0329,0.0352,-0.0136,0.0597,-0.0802,-0.0183,0.0264,-0.0043,-0.0581,0.0097,-0.0628,-0.0121,0.0345,0.2667,0.0063,0.0099,0.0797,-0.0043,0.0086,0.0335,0.0842,0.057,-0.0347,0.0733,0.0773,0.0736,0.01,0.0588,-0.0639,-0.064,0.0053,-0.0184,-0.0216,-0.0833,0.0652,0.0592,0.01,-0.0442,-0.0789,-0.0521,-0.0423,0.0314,0.0516,0.0261,-0.0047,0.0411,0.0806,0.0814,0.0479,-0.0351,-0.0544,-0.0135,-0.0007,-0.0175,0.0117,0.0723,0.0635,-0.0523,-0.0719,-0.0497,0.0273,-0.0819,0.0334,-0.0346,-0.0491,0.0111,0.0011,-0.0299,-0.0105,0.0469,0.0,-0.0091,-0.0081,-0.0371,0.0202,0.067,-0.0159,-0.0513,-0.0211,-0.0358,0.0481,-0.1213,0.0067,-0.0079,0.0299,-0.0293,-0.0209,-0.0019,0.0449,0.045,-0.0136,0.0346,0.0184,-0.0357,0.0267,0.0594,0.0948,0.0126,0.0359,0.0488,0.0169,-0.0343,-0.0382,0.0298,-0.0352,0.0068,0.0278,0.0044,-0.0204,0.059,0.0763,-0.0307,-0.0072,0.0021,0.0,0.0,0.0,0.0,0.0,0.0,0.0,0.0,0.0,0.0,0.0,0.0],[0.0613,0.0131,-0.0214,-0.0453,0.0135,-0.1926,-0.0768,-0.0724,0.3262,-0.1056,-0.0134,0.1324,0.0573,-0.42,0.1804,0.0193,0.023,0.0011,-0.1093,0.134,-0.0043,0.001,-0.0089,0.0795,0.0662,0.0868,0.0006,0.0049,0.0208,0.0702,-0.025,-0.0371,-0.031,0.0898,-0.1048,0.0211,0.0618,-0.0064,0.0451,0.0435,0.1397,0.0661,0.0464,-0.0506,0.0796,-0.0143,-0.0589,0.0505,-0.0563,-0.0336,-0.06,-0.0783,0.0126,0.0664,0.0795,0.0381,0.005,0.0146,0.0119,0.0601,0.0842,0.0428,0.0769,0.0418,-0.0661,0.0565,-0.0642,0.0463,-0.0772,0.0393,0.058,0.0356,-0.0559,-0.0563,0.0268,-0.0608,-0.0573,0.0817,0.0335,-0.0109,0.0501,0.0079,-0.0687,-0.0343,-0.0067,0.0626,-0.0198,0.0155,0.0033,0.0668,-0.0192,-0.077,-0.0287,-0.0544,0.0836,-0.0657,0.0662,0.0,0.0071,0.0675,0.0507,0.029,-0.0731,0.0012,0.072,-0.0325,-0.0275,0.0152,0.0692,-0.0214,-0.0536,0.0059,-0.0048,-0.0572,0.0706,-0.0434,-0.0428,0.0551,-0.07,0.1375,-0.0371,-0.0056,0.0118,-0.0037,-0.0599,-0.0009,-0.0226,0.0067,0.0804,0.0194,-0.0494,0.0473,-0.0771,-0.0118,-0.031,-0.0548,-0.0147,-0.0244,-0.0159,0.091,-0.021,0.0,0.0,0.0,0.0,0.0,0.0,0.0,0.0,0.0,0.0,0.0,0.0],[-0.0347,-0.0256,-0.015,0.0105,0.0373,0.1005,0.2171,0.0561,-0.1347,0.27,-0.1607,0.1557,-0.2687,0.2326,0.1817,0.002,-0.0218,-0.0175,0.1155,0.0077,-0.0209,-0.0139,0.0282,-0.002,0.011,0.029,0.0439,0.0195,-0.0205,-0.021,0.0081,-0.0221,-0.0267,0.0097,0.009,-0.0123,-0.0082,0.003,0.0088,-0.0473,-0.0579,0.014,0.0092,0.0525,-0.0241,-0.0099,0.0101,-0.0011,-0.0418,-0.0334,-0.0601,0.0582,0.0234,0.0188,0.0219,-0.0762,-0.0092,0.0691,-0.0308,0.0684,0.0085,-0.0371,0.0609,-0.0681,0.0455,-0.0013,-0.0374,-0.0798,-0.006,0.058,-0.0023,0.013,0.0407,-0.072,-0.015,-0.0032,0.051,0.0672,-0.0371,-0.0222,0.0833,0.008,0.0329,0.0713,-0.0455,-0.068,0.0415,-0.0196,-0.0159,-0.0566,-0.047,0.0351,-0.0449,0.0411,0.083,0.0665,-0.0691,0.0,-0.0217,-0.0107,0.0195,0.0614,-0.0016,-0.2159,0.0247,-0.0218,0.0702,0.0786,0.0626,-0.0187,0.0421,0.0625,0.0456,0.0113,0.0473,0.0155,-0.049,-0.0099,0.0026,-0.0281,0.0303,-0.0007,-0.0083,0.055,-0.0137,0.0359,-0.0043,-0.0009,-0.0183,0.0573,0.0056,-0.0392,0.0319,-0.0007,0.0445,0.0306,0.02,-0.0027,-0.0129,0.0453,-0.0423,0.0,0.0,0.0,0.0,0.0,0.0,0.0,0.0,0.0,0.0,0.0,0.0],[-0.0081,0.0111,-0.0031,-0.0457,-0.0259,0.1212,-0.1849,0.184,0.2913,-0.0814,-0.1069,0.0985,0.0235,-0.327,-0.0528,0.0418,-0.0777,0.1494,0.0928,-0.0234,-0.0531,0.0549,-0.0258,0.065,-0.0009,0.0547,-0.0162,-0.0092,-0.0417,-0.0515,-0.0582,-0.0487,0.0262,0.0818,-0.049,0.0169,-0.0725,0.0251,0.0016,0.062,-0.0619,0.0438,0.0471,0.1078,-0.0325,0.0108,0.0276,0.0394,-0.0023,0.0381,0.0641,-0.0281,0.0739,0.0545,-0.0121,-0.078,-0.0493,-0.0457,0.056,-0.0689,0.0541,-0.0826,0.0024,-0.0198,-0.0525,-0.0056,0.0213,-0.0627,0.005,0.032,0.0546,0.0275,0.069,-0.0136,-0.0255,-0.0705,0.0736,-0.0177,-0.0005,0.0271,0.0699,0.0236,0.0075,-0.0338,0.0301,0.0109,0.01,0.0446,0.0783,0.0791,-0.0841,-0.0129,0.0057,0.0336,0.0757,0.0387,-0.0392,0.0,-0.0514,0.056,0.0249,0.0497,-0.0437,0.1048,0.0045,-0.0347,-0.0025,-0.042,-0.0677,0.0035,0.0371,-0.0818,-0.0075,-0.0122,0.0134,-0.044,-0.0565,0.0617,0.0438,0.0567,-0.0019,-0.0366,-0.0573,0.0668,-0.0211,0.007,-0.0276,0.0758,-0.0377,0.0704,-0.0406,0.0177,0.01,-0.0813,-0.0019,0.0133,-0.0091,0.0437,-0.0295,0.0534,-0.0172,0.0,0.0,0.0,0.0,0.0,0.0,0.0,0.0,0.0,0.0,0.0,0.0],[-0.0142,0.0376,0.0152,0.0242,-0.0114,0.2822,-0.2398,0.1689,-0.2507,-0.2376,-0.1945,-0.0567,-0.1872,0.3288,-0.0168,0.0136,0.0026,-0.2108,-0.0299,0.0111,0.0477,0.0325,0.0244,0.0168,0.0051,0.0481,-0.0125,0.0074,0.0172,-0.0187,-0.0235,-0.0221,0.0328,0.0345,0.0657,0.0157,-0.0233,-0.033,0.0211,-0.024,0.171,0.0385,-0.0385,0.055,0.0589,0.0154,-0.0345,0.0174,0.0703,0.0702,-0.046,-0.0321,-0.0543,0.0318,-0.0712,-0.0402,0.0041,-0.005,-0.0199,0.0376,0.0718,-0.0611,0.0434,-0.0422,0.0104,-0.0498,0.0697,-0.0172,0.0646,0.0272,-0.0334,-0.0254,0.043,0.0438,0.0303,-0.0117,-0.0002,0.0167,-0.0618,-0.0704,-0.0515,0.027,0.0233,0.0309,-0.0061,0.077,0.0167,-0.0686,-0.0252,-0.0761,-0.0366,0.0138,-0.0279,-0.0124,-0.0385,-0.0063,0.0824,0.0,0.0512,-0.0122,0.0615,-0.0109,0.0314,-0.0043,0.0814,0.005,0.0244,-0.0513,-0.0838,0.0171,0.0261,-0.0124,0.0508,-0.0216,-0.0032,0.018,-0.0211,0.0022,0.0995,0.0656,-0.0614,-0.0213,0.0433,0.0029,-0.0141,0.0141,0.0909,0.0177,-0.0244,0.0038,-0.0141,0.0457,-0.0039,0.0312,-0.0348,-0.0154,0.0369,-0.0242,0.024,0.0329,0.0177,0.0,0.0,0.0,0.0,0.0,0.0,0.0,0.0,0.0,0.0,0.0,0.0],[0.0584,-0.0445,-0.0369,-0.044,-0.0022,-0.1103,-0.0468,-0.0247,0.1653,-0.154,-0.1905,0.0931,-0.2259,-0.2517,0.0918,0.007,0.0288,-0.1217,0.0713,-0.023,0.1385,-0.0224,-0.0597,0.0377,0.0182,0.0419,0.0174,-0.0129,0.0157,0.0237,0.0639,-0.073,-0.0633,-0.0303,-0.06,0.0211,-0.0805,0.0422,0.05,0.025,-0.0639,-0.065,-0.0221,0.0035,0.0745,0.0482,-0.0212,0.0147,0.0675,-0.0502,0.0267,0.0582,0.0737,0.0239,0.0385,-0.0303,0.0113,0.034,0.0174,0.0569,0.0395,-0.0777,-0.0172,-0.0789,-0.0474,0.0389,0.0608,0.0012,-0.0158,0.0124,0.083,0.0199,-0.0178,0.042,-0.0015,-0.0583,-0.0157,0.008,-0.0719,0.0792,-0.0247,0.0084,0.0026,-0.002,-0.0008,-0.0773,-0.0458,-0.0829,0.0662,0.0183,-0.0156,0.0314,-0.0013,0.0661,-0.0336,-0.0147,-0.0176,0.0,0.0176,-0.0678,-0.0219,0.0027,-0.0446,0.1991,0.034,-0.0369,-0.0367,0.0734,0.0315,-0.0228,-0.055,0.0112,-0.0623,-0.1146,0.0323,0.0702,0.0135,0.0227,0.0919,0.0745,-0.0009,0.0547,0.0576,-0.032,-0.0347,-0.0177,-0.0286,0.0551,-0.04,0.021,-0.0261,0.068,0.0355,-0.0144,-0.0168,-0.045,0.0611,-0.0019,0.0115,0.003,0.0305,0.0,0.0,0.0,0.0,0.0,0.0,0.0,0.0,0.0,0.0,0.0,0.0],[0.0058,-0.049,0.0137,-0.0245,0.0466,-0.065,0.0217,0.1325,-0.0513,-0.3124,0.2712,0.0332,-0.1635,0.2043,-0.1456,-0.0076,0.0103,0.1981,-0.2425,-0.0339,-0.0438,0.0131,0.0285,-0.0233,0.0777,0.0369,-0.0027,-0.0172,0.0052,0.0283,0.0065,0.0621,-0.0093,-0.0577,-0.0612,-0.0056,0.0242,-0.002,-0.0188,0.0772,0.1007,-0.041,-0.0078,0.0755,-0.043,0.0712,-0.0029,0.0131,-0.0352,-0.0328,0.0461,0.0054,0.0422,-0.0447,-0.071,0.077,-0.0429,-0.0317,0.0196,-0.0225,0.0535,-0.0481,0.046,0.0,-0.0117,-0.045,0.018,0.0487,-0.0483,0.0132,0.043,0.0736,-0.0477,0.0634,0.055,-0.0451,0.066,-0.0655,0.0271,-0.0004,-0.0098,-0.0445,0.0667,0.0289,-0.0473,-0.0492,0.0324,-0.0767,0.0206,-0.0497,0.0697,-0.0538,0.0827,-0.0152,0.0153,0.044,-0.0373,0.0,-0.0494,-0.0098,-0.0098,0.0009,0.0101,0.18,-0.0636,0.0161,-0.0094,-0.003,-0.0625,0.0,-0.0682,-0.0079,0.021,0.0382,0.0146,0.0469,0.0547,0.0602,-0.0496,0.046,0.0733,0.0323,0.0751,0.0547,0.0032,0.0502,0.0654,-0.0299,0.0278,0.0433,-0.0582,0.0793,-0.0153,0.0631,-0.0083,0.0378,-0.0188,-0.0284,0.0493,-0.0285,-0.0382,0.0,0.0,0.0,0.0,0.0,0.0,0.0,0.0,0.0,0.0,0.0,0.0],[-0.1992,-0.0327,-0.0437,-0.1202,0.0379,0.0352,0.1466,-0.1543,-0.1695,0.0937,-0.1057,-0.0223,0.3003,0.0428,0.1951,0.1177,0.0138,0.2138,-0.0571,-0.0103,-0.1045,0.0623,0.007,-0.0242,0.0377,0.1167,0.0301,0.0995,0.0452,-0.0097,0.0272,-0.0377,-0.0399,-0.037,-0.0428,0.1186,0.0112,-0.0138,-0.0125,0.0339,0.0458,-0.0236,-0.0023,-0.0906,-0.1065,-0.1263,0.0084,0.0772,0.0534,-0.0306,-0.0497,-0.0348,-0.0691,0.049,0.0357,-0.0166,0.0626,0.0428,0.0761,0.0179,0.0614,0.0319,0.0748,0.0011,-0.0701,0.0028,0.0535,-0.0481,-0.0479,0.0582,0.0468,0.0313,0.0497,0.0001,-0.0328,-0.0471,0.0575,-0.0453,-0.08,-0.0249,0.0045,0.0658,-0.0211,0.0434,0.0509,0.0175,0.0615,-0.0399,-0.018,-0.0715,0.0704,0.0212,0.0076,0.08,-0.046,0.0245,-0.036,0.0,0.0769,0.0642,0.0661,-0.0484,0.0489,-0.0063,0.0048,-0.0009,0.079,0.0298,-0.1492,0.1003,0.0427,-0.0198,0.0404,-0.053,0.0056,-0.0134,0.0769,0.0772,0.1306,0.0004,-0.0156,-0.1305,0.0972,0.028,-0.0701,0.0048,-0.1145,0.0023,-0.0388,0.107,0.0564,0.0067,0.0534,-0.1807,0.0166,-0.0622,-0.0277,0.0141,0.0358,-0.0301,0.016,0.0,0.0,0.0,0.0,0.0,0.0,0.0,0.0,0.0,0.0,0.0,0.0],[0.0783,0.0635,-0.0397,0.0082,-0.0372,0.1881,0.0613,-0.1044,0.3033,-0.1856,0.1651,0.2204,-0.0791,-0.0864,-0.1853,0.0527,0.0811,0.295,0.2012,0.0578,0.0285,-0.0147,0.0473,0.0188,0.0269,-0.0167,-0.0198,-0.0242,0.0145,-0.0418,0.0146,-0.0244,0.0423,-0.0096,0.0199,0.0459,-0.0361,-0.0093,-0.0213,-0.0366,0.0674,0.0644,0.0337,-0.0126,-0.0211,-0.0029,0.0061,-0.0644,0.012,0.0457,0.0818,-0.0581,-0.0713,-0.0468,0.0217,0.0702,-0.024,0.0792,0.0063,0.0619,-0.0117,0.0833,-0.082,-0.021,0.0773,0.0658,-0.0295,0.0051,0.0345,0.0074,0.0148,-0.0729,0.0485,-0.047,0.0577,-0.0236,-0.0196,-0.0156,0.077,-0.0039,0.0349,-0.0709,0.0474,-0.0537,0.0078,0.0673,-0.0798,0.0019,-0.0771,0.0559,-0.0423,0.0173,0.0153,-0.0805,-0.0222,0.0314,0.028,0.0,0.0782,0.0283,0.019,-0.0608,-0.045,-0.0553,-0.0285,-0.0678,0.0429,0.0657,0.0126,0.0412,0.0084,-0.0385,0.0219,0.0149,0.0204,-0.0004,-0.0129,0.0407,0.1033,0.0038,-0.0826,-0.0522,-0.0123,-0.02,0.05,0.0244,0.002,0.0099,-0.0264,0.0091,-0.0353,0.062,0.0082,-0.0208,0.0018,-0.0139,0.0112,0.069,0.0569,-0.0031,0.055,0.0,0.0,0.0,0.0,0.0,0.0,0.0,0.0,0.0,0.0,0.0,0.0],[-0.0441,-0.0763,-0.0236,-0.0416,0.0306,-0.0865,-0.0082,-0.0217,0.1249,0.196,0.0653,0.0724,0.2137,-0.2748,0.2246,0.1173,0.024,-0.1315,-0.1527,0.007,-0.0042,-0.0512,-0.0121,-0.0043,0.117,-0.0143,0.0981,0.0107,-0.1049,-0.0207,0.0052,0.0103,0.0081,0.0623,-0.0254,0.0816,-0.017,0.0564,-0.0272,-0.026,-0.104,-0.0324,-0.0041,0.0601,0.0161,-0.0193,0.0381,0.0262,0.0063,-0.0394,-0.0165,0.047,-0.0099,-0.0406,-0.0034,-0.0129,-0.0546,0.0637,0.0796,-0.022,0.0642,0.0508,-0.0582,0.0097,0.0036,0.0702,-0.0202,0.0698,-0.0195,-0.071,-0.0228,0.0505,-0.0587,0.0048,0.0438,0.0125,-0.0029,0.0119,-0.037,0.0293,-0.0024,-0.0136,0.0158,0.0039,0.0753,-0.0347,0.0507,-0.0813,-0.0759,0.0078,0.0294,-0.0131,-0.0179,-0.0301,0.0407,0.054,-0.0244,0.0,-0.0833,-0.0225,0.0803,-0.0507,0.0824,0.0536,-0.0444,0.0168,0.0551,-0.0691,-0.2232,0.0338,0.1024,-0.088,-0.1332,-0.001,0.0247,0.0186,-0.0182,-0.0145,-0.0447,0.078,0.0026,0.0081,-0.0175,-0.0157,-0.0017,-0.0286,0.0457,0.0643,0.0603,-0.0358,0.0096,-0.0715,-0.0624,-0.0621,-0.0059,-0.0839,-0.0753,0.085,0.0043,0.0578,0.0015,0.0,0.0,0.0,0.0,0.0,0.0,0.0,0.0,0.0,0.0,0.0,0.0],[-0.0128,-0.0164,-0.0151,-0.0389,-0.0577,-0.1918,0.0313,0.0621,-0.0041,-0.0424,-0.2634,-0.3323,0.2672,0.4002,-0.0702,-0.0293,0.123,0.1711,-0.0332,0.093,0.0447,-0.0745,-0.0051,-0.0159,-0.0091,0.0144,0.0022,-0.0704,-0.0318,-0.0267,-0.0357,-0.0006,0.0225,0.0436,0.0468,-0.0981,-0.0241,-0.065,-0.0254,-0.0131,-0.088,-0.0238,-0.0137,0.0338,-0.0184,-0.0399,-0.0629,0.0136,0.0429,0.0756,0.0624,0.0073,0.0748,0.0604,0.0436,0.0838,-0.0421,0.0745,0.0141,-0.0175,0.0043,0.0649,0.0763,-0.008,-0.0689,-0.0657,-0.0243,-0.0021,0.0279,0.0287,-0.0567,0.065,0.0364,-0.0102,-0.0722,-0.0328,-0.0413,-0.0724,0.0703,-0.0261,0.0492,0.0634,0.0573,0.0,0.0836,-0.0516,0.0371,0.0784,-0.0736,0.0772,0.0019,-0.013,-0.0306,-0.0811,0.0117,-0.0798,-0.0657,0.0,-0.0543,-0.0531,0.0071,-0.0434,0.0424,-0.1437,0.061,-0.0136,0.0215,0.0305,-0.1855,0.0655,-0.0544,0.0421,0.0237,-0.1238,-0.0705,0.0261,0.0213,0.0984,-0.0261,0.0673,0.0814,-0.081,-0.0108,-0.0246,0.0336,0.0193,-0.0565,-0.0067,-0.0775,-0.0349,0.0395,0.0609,-0.0269,-0.076,-0.0521,0.0075,0.0009,-0.0159,-0.0216,0.0057,-0.002,0.0,0.0,0.0,0.0,0.0,0.0,0.0,0.0,0.0,0.0,0.0,0.0],[-0.0754,-0.0627,0.013,-0.0697,-0.1255,-0.0362,0.22,-0.1756,0.0808,0.1138,-0.2004,-0.1553,-0.1853,0.15,-0.1873,0.1407,0.0179,0.0408,0.1716,-0.2961,0.0605,-0.0433,-0.1439,0.0807,0.124,0.0326,-0.1329,0.0118,0.1642,0.1422,0.001,0.0938,0.0116,-0.1446,-0.04,-0.0258,0.2163,-0.0107,-0.0714,0.0022,-0.1249,-0.0539,-0.0817,0.0234,0.0149,-0.036,-0.035,0.0341,-0.0841,0.0386,0.0544,-0.0811,0.0711,0.0547,-0.0186,-0.0821,-0.0339,0.0307,-0.0491,0.0263,-0.0437,-0.0712,0.0668,-0.022,-0.0339,-0.0404,-0.0288,0.0183,0.0312,-0.113,-0.0045,-0.0728,0.0188,0.0042,-0.0789,0.0383,-0.0527,-0.0491,0.0807,0.0455,-0.034,-0.0802,0.0587,0.0221,-0.0573,0.0409,0.0,0.0066,0.0493,0.0345,-0.0436,0.0073,0.0177,-0.0723,-0.0619,0.0568,0.0688,0.0,-0.0517,0.0113,-0.0781,-0.0422,-0.05,-0.0892,-0.0203,0.0537,-0.0501,-0.0151,-0.1119,-0.1381,-0.3303,-0.138,0.0767,-0.1813,-0.0468,0.2167,0.0584,-0.1331,0.0788,-0.1004,0.1733,0.0883,-0.1139,-0.097,-0.1865,-0.0963,-0.1708,0.0349,-0.1413,0.006,-0.0084,0.0025,-0.0762,0.1525,-0.1828,-0.0161,0.0477,-0.0806,-0.0587,-0.034,0.009,0.0,0.0,0.0,0.0,0.0,0.0,0.0,0.0,0.0,0.0,0.0,0.0],[-0.0063,-0.0403,-0.0022,-0.0516,-0.0342,0.173,-0.0176,0.1839,-0.1707,0.3028,-0.1037,0.1185,0.2881,-0.0791,-0.21,0.0393,0.0684,-0.2286,0.3016,0.0658,-0.0468,-0.0049,-0.0039,0.0417,0.0082,0.0677,0.0132,0.0137,-0.0227,0.0664,0.0612,-0.0514,0.0255,0.0003,-0.0452,-0.0229,-0.0062,-0.0117,-0.0052,-0.0325,0.1547,0.0142,0.0274,-0.0087,0.0192,-0.0063,-0.0023,0.0364,-0.0829,0.0332,0.0456,0.083,0.0163,0.0156,0.0777,-0.0794,0.0217,0.0452,0.0501,-0.0265,-0.0076,-0.0096,0.0106,0.0375,0.0836,0.0096,-0.0199,-0.0034,0.044,0.0325,-0.0535,-0.0612,-0.0679,0.0095,-0.0052,-0.0128,-0.0761,-0.0434,-0.0134,-0.0404,0.0415,-0.0508,0.0459,0.0146,-0.0333,-0.0524,-0.0468,0.0028,0.0799,0.0077,-0.0656,-0.0094,-0.0506,-0.0691,0.0012,-0.061,0.0343,0.0,0.0662,-0.0411,0.0309,0.0125,0.035,-0.0483,-0.0759,0.0054,0.0026,0.0338,0.1319,0.0319,-0.084,0.0578,-0.0074,-0.0021,-0.0438,0.0522,-0.0302,0.0155,-0.0069,-0.0189,-0.0326,-0.0214,-0.0367,0.0045,0.0007,-0.0437,-0.0359,-0.016,0.0485,0.0133,-0.0015,0.0647,-0.0319,-0.0111,0.0034,0.0471,0.0524,-0.0648,0.0102,0.0825,-0.007,0.0,0.0,0.0,0.0,0.0,0.0,0.0,0.0,0.0,0.0,0.0,0.0],[-0.0093,-0.0338,-0.0143,-0.0606,0.0252,0.2893,0.1271,-0.1143,0.2084,0.1051,0.1429,0.1418,-0.2179,-0.1273,-0.0485,-0.0178,-0.0082,-0.255,0.2166,-0.0307,0.034,-0.0368,-0.0429,-0.0172,-0.0585,0.0547,-0.0185,0.0675,0.0323,0.018,-0.0188,-0.0103,0.0426,-0.0315,-0.0403,-0.0623,0.0847,0.0269,0.0642,0.0081,0.1611,-0.0282,0.003,-0.0337,0.0219,0.0115,-0.0056,-0.0096,-0.0413,-0.0602,-0.065,0.0431,0.0196,-0.0064,0.0675,-0.0705,-0.0625,0.0149,0.0141,-0.0267,0.0209,-0.0018,-0.0531,-0.0363,-0.0795,-0.0235,-0.0792,0.0207,-0.0207,0.0331,0.0224,-0.0476,-0.0527,-0.04,0.0552,0.0636,0.0672,0.0094,0.0122,0.0581,-0.0049,0.074,-0.0629,-0.0598,0.0074,-0.0455,0.0331,0.0533,0.0653,0.0695,0.0256,-0.0071,0.0045,-0.0658,-0.0434,0.0653,0.0592,0.0,0.0315,-0.0237,0.0804,0.0238,-0.0781,0.0442,-0.0043,-0.0747,0.0715,0.0345,-0.1584,-0.0314,-0.0115,-0.0269,-0.0092,-0.0522,0.057,0.0283,0.0126,-0.0231,0.0114,-0.0513,0.0377,-0.011,0.0259,-0.006,-0.0093,0.0391,0.0117,0.0182,0.0544,0.0433,0.0586,0.0803,-0.0395,0.0387,-0.0343,0.03,0.0033,-0.0174,0.0363,-0.0194,-0.0344,0.0,0.0,0.0,0.0,0.0,0.0,0.0,0.0,0.0,0.0,0.0,0.0],[-0.021,-0.0383,-0.0004,0.0276,0.0395,-0.0881,-0.2679,-0.0689,0.3096,0.1142,-0.1757,-0.0187,-0.2287,0.0415,0.154,-0.0276,-0.0092,-0.1991,0.0874,0.017,-0.0473,0.0309,0.0122,0.078,-0.0445,0.0612,0.0279,-0.017,-0.0073,0.0296,-0.0373,0.0203,0.0671,-0.0294,0.0275,-0.0315,0.0004,0.0167,-0.0072,0.0133,-0.0298,0.0384,0.0079,0.0036,0.0541,0.0356,0.0126,-0.0383,-0.0677,-0.0798,-0.0071,0.0625,-0.0141,0.0548,0.0293,-0.0176,-0.0014,-0.0508,-0.0728,-0.0675,0.0016,-0.0523,0.032,0.0657,0.0351,-0.0483,-0.045,-0.012,-0.0465,0.0175,-0.0357,0.0734,0.0153,-0.0048,0.0764,-0.0796,0.0073,-0.0452,-0.0358,-0.0235,0.0599,-0.0839,0.0097,0.0198,-0.0747,0.0087,-0.0163,0.0802,-0.0371,-0.0452,-0.0794,0.0167,-0.0698,-0.0243,-0.0727,-0.0295,-0.0019,0.0,0.0007,-0.0185,0.067,-0.0116,-0.0108,0.1826,0.0405,-0.0368,0.0595,-0.0075,-0.0346,0.0513,0.04,0.068,0.0352,-0.0018,-0.0184,0.0057,-0.0203,0.0428,-0.0237,0.0286,0.0379,0.0806,0.0246,0.0075,0.0181,0.1059,-0.0218,-0.0309,-0.0255,-0.0302,0.0713,0.0125,-0.055,-0.0211,-0.0082,-0.0173,0.0219,-0.0418,0.0318,0.0259,0.0189,0.0,0.0,0.0,0.0,0.0,0.0,0.0,0.0,0.0,0.0,0.0,0.0],[0.021,-0.0904,-0.0022,-0.0646,0.0568,-0.2547,0.1836,-0.2069,0.2899,0.1206,0.1364,0.1684,0.118,0.1248,-0.3081,0.0694,-0.1348,0.1714,0.2212,-0.1642,-0.0533,0.0811,-0.1798,0.2313,-0.0914,-0.1627,-0.1772,-0.0249,-0.0166,0.0631,-0.1011,-0.078,-0.1623,-0.1633,0.1829,-0.0079,0.1266,-0.0736,-0.069,0.0801,0.0368,0.0016,0.1341,-0.0733,-0.0278,-0.1349,0.0046,-0.069,-0.0435,0.0734,-0.0066,0.0586,-0.0417,0.0377,-0.0711,0.0116,-0.0012,-0.0174,-0.0198,0.0617,0.063,0.0642,0.0035,0.025,-0.0791,0.0686,-0.049,-0.0796,0.0192,-0.2293,0.0308,-0.0689,-0.0572,-0.0559,0.0483,-0.0012,-0.0806,-0.0738,0.0232,-0.0097,-0.0046,0.0628,-0.0679,0.0299,0.0749,-0.0001,0.0136,-0.0559,0.0169,0.0456,-0.0527,0.0463,0.0293,-0.0726,-0.0355,0.0562,0.0172,0.0,0.0191,0.0388,0.0315,-0.078,0.0095,-0.1055,0.03,0.0055,-0.0477,-0.0052,-0.0466,-0.0731,0.145,0.1076,0.232,-0.3031,0.127,-0.2438,-0.0792,0.1065,-0.1469,0.0546,0.0849,-0.0505,-0.0186,-0.0746,-0.0624,-0.0373,-0.1264,-0.1184,0.0335,-0.0086,0.0769,-0.0756,-0.1206,0.0718,0.1588,-0.0613,-0.1189,-0.0278,0.1394,-0.0848,-0.0896,0.0,0.0,0.0,0.0,0.0,0.0,0.0,0.0,0.0,0.0,0.0,0.0],[0.0098,0.0069,-0.0146,0.0347,0.0296,0.2576,-0.161,0.0029,-0.2107,-0.1887,0.139,0.0931,-0.2549,0.2264,0.2133,0.0358,-0.0041,-0.0115,0.0212,0.0717,-0.0252,-0.0682,0.01,0.0489,0.0026,0.0708,-0.0286,0.0773,-0.0592,-0.0728,0.0365,-0.0349,-0.0599,0.0258,0.0154,-0.0213,0.0394,-0.0109,-0.0379,-0.0354,-0.0134,-0.0565,-0.0302,0.055,0.0321,-0.1196,0.0073,-0.019,-0.0522,-0.0076,0.0583,-0.0607,-0.0271,0.0118,0.066,0.0783,-0.0184,0.0211,0.0677,-0.0421,-0.0618,-0.035,0.0045,0.0294,0.0597,-0.0135,0.0173,-0.0713,0.0729,-0.0277,-0.0182,-0.001,0.0714,-0.0704,0.0455,-0.0516,0.009,-0.0377,0.0794,-0.0344,0.0831,0.0383,0.0305,-0.017,-0.0333,0.0301,-0.0584,-0.0539,0.0524,0.016,-0.0814,-0.0778,0.0525,0.0126,0.0422,-0.0135,0.0835,0.0,-0.0649,0.0142,0.0277,-0.0397,0.0175,0.0471,0.075,0.0089,-0.031,-0.0295,0.1701,0.0192,-0.0158,-0.0282,-0.0115,0.0329,0.0118,0.0806,-0.0441,-0.0121,0.0532,0.0079,0.0267,0.0615,0.0551,-0.0185,0.0639,-0.0161,-0.0497,0.0511,0.0434,0.0165,0.0383,0.0351,-0.0389,-0.0105,0.0188,-0.0654,-0.0483,-0.0137,-0.0641,0.0521,-0.0473,0.0,0.0,0.0,0.0,0.0,0.0,0.0,0.0,0.0,0.0,0.0,0.0],[-0.0338,-0.0257,-0.0207,0.0305,-0.0158,0.1896,-0.1365,-0.0061,0.2929,-0.2231,0.1004,0.0262,0.0426,0.2759,0.0368,0.0064,0.0392,0.0598,-0.0415,0.0163,0.0537,-0.0124,-0.0067,-0.0099,0.0126,0.0203,-0.0115,-0.0245,0.0041,0.0358,0.0615,0.0224,-0.0208,0.0316,0.0713,0.0254,-0.034,-0.045,-0.0099,0.0252,-0.0892,0.0356,0.006,-0.022,0.1014,0.0464,0.0087,0.0645,-0.0692,0.048,0.0289,-0.0042,-0.0651,-0.0239,-0.0356,-0.0377,-0.0165,-0.0249,-0.0204,0.0623,0.0038,0.0336,0.0441,0.0153,0.0701,-0.0073,0.0734,-0.0142,0.0444,0.0363,-0.0553,0.0006,0.029,-0.0411,0.0449,-0.0445,0.0287,0.0598,-0.0241,0.074,0.0713,-0.0547,-0.0144,0.0361,0.0347,0.0579,0.0789,-0.0757,0.0539,0.0362,0.012,0.0661,0.0312,-0.0818,-0.0523,0.0772,0.0009,0.0,0.0221,0.0638,0.0693,-0.0149,-0.0157,-0.1947,0.0722,0.0234,-0.0436,0.0704,0.103,0.0197,0.0175,-0.0622,-0.0199,0.0001,-0.031,0.0289,-0.0011,0.032,0.0608,0.0057,-0.0126,-0.0437,0.0207,-0.0262,-0.0223,-0.0559,0.0324,0.0178,-0.0138,0.0475,0.0727,0.0271,-0.0134,-0.0021,-0.0341,0.0511,0.0024,0.0244,-0.0164,-0.068,0.012,0.0,0.0,0.0,0.0,0.0,0.0,0.0,0.0,0.0,0.0,0.0,0.0],[0.0621,0.0529,0.0293,-0.0042,-0.0398,-0.0082,-0.1011,-0.2094,-0.2749,0.1839,-0.0591,-0.2433,0.1633,0.1518,0.0209,0.0734,-0.0205,0.3238,0.0876,0.0176,-0.0258,-0.0422,0.0348,0.0346,0.0783,-0.0299,0.0394,-0.063,-0.0403,-0.0302,0.0632,0.0352,-0.0182,-0.0235,-0.0447,0.0407,0.0746,0.0679,0.0024,-0.0656,-0.0925,0.0144,-0.0282,0.0521,0.0796,0.0049,0.0097,0.0741,-0.0055,0.074,-0.068,-0.014,-0.0615,-0.023,0.0087,0.0073,0.0754,0.0105,-0.0241,0.0289,-0.0638,-0.0625,0.0074,0.0253,-0.0311,0.022,0.0364,-0.0825,-0.0153,0.0528,-0.0651,0.066,-0.0332,0.0688,-0.0066,0.0284,0.0004,-0.0487,0.0694,-0.0013,-0.0601,-0.0383,0.0549,-0.0449,0.0082,-0.0679,-0.0106,0.0279,-0.003,0.0816,-0.0442,0.0553,0.0644,-0.0341,-0.03,0.0058,-0.0634,0.0,-0.0208,0.0127,-0.0525,0.0409,0.0194,0.1513,-0.0335,-0.0613,-0.0513,0.004,0.1195,0.0606,0.0257,-0.0471,-0.0054,0.0422,-0.0581,0.0492,-0.0006,-0.0317,0.0468,0.028,0.0257,0.0232,-0.0425,-0.0843,0.0104,0.069,0.0292,-0.0535,-0.025,0.0399,-0.0536,-0.0127,-0.023,-0.0225,0.0194,0.028,0.0576,-0.0176,0.0749,0.0351,-0.0242,0.0,0.0,0.0,0.0,0.0,0.0,0.0,0.0,0.0,0.0,0.0,0.0],[0.0316,-0.1234,-0.0119,0.0176,-0.0556,-0.0945,-0.1428,0.0267,0.3415,0.1015,-0.0693,-0.0652,-0.016,0.0848,-0.1976,0.0232,0.0399,-0.1577,0.171,0.0001,0.0846,-0.0466,-0.0382,0.0258,0.0404,0.056,-0.0329,-0.0251,0.0691,0.0371,0.0425,0.0277,0.0341,-0.0132,0.0063,-0.0192,-0.0022,-0.0111,-0.0524,-0.0703,0.0187,0.0143,-0.0576,0.0314,0.0863,-0.0208,-0.0324,0.0543,-0.0342,0.0784,0.0716,-0.0763,0.0254,-0.06,-0.0625,0.0511,-0.0292,0.0536,0.0721,-0.0772,0.0193,-0.0596,0.0225,-0.0783,-0.0697,-0.0562,-0.0225,0.0735,-0.0773,0.0593,0.0664,0.0624,0.0192,0.0532,-0.0572,0.0608,-0.0377,0.0709,0.012,0.0385,-0.015,-0.0764,-0.0373,-0.0317,-0.0615,-0.0304,-0.0702,0.0066,0.0074,-0.0736,0.0264,-0.0353,0.0791,0.0043,-0.0056,-0.0562,0.0141,0.0,-0.0733,0.047,-0.0189,0.0018,-0.0581,-0.0187,0.0163,0.008,-0.023,-0.0732,-0.1294,0.1279,-0.0428,0.011,0.092,0.043,0.004,0.0555,0.0053,-0.0479,0.1161,0.0537,0.0546,-0.0002,0.0101,0.0246,-0.0111,0.0568,0.0641,0.0092,-0.0833,0.0079,-0.0065,0.0383,0.0596,-0.0039,0.0369,0.0276,-0.0522,-0.012,0.0558,0.0503,0.001,0.0,0.0,0.0,0.0,0.0,0.0,0.0,0.0,0.0,0.0,0.0,0.0],[0.0312,0.0232,0.0399,-0.0753,0.0083,0.2354,0.218,0.1988,0.0433,-0.1157,0.0376,0.1352,0.2269,-0.0487,0.0161,0.0318,0.0257,0.1757,-0.3989,-0.1064,-0.0238,-0.0426,0.0695,-0.0038,0.0164,-0.0335,0.0493,0.0478,0.0052,-0.0396,-0.0001,0.0325,0.0572,0.0696,-0.0446,-0.0163,0.0748,-0.0366,0.0212,-0.0346,0.0948,0.0316,0.0237,-0.0699,0.0085,0.0144,0.0575,0.0096,0.0692,0.0166,-0.0355,-0.0483,0.0758,-0.0041,0.0298,0.0811,-0.0695,-0.0043,0.0654,0.0158,-0.042,-0.0769,0.0437,0.0524,-0.0156,-0.058,0.0206,0.0013,-0.0611,0.0032,-0.0762,-0.0726,0.0591,-0.0805,0.0645,0.0131,-0.0024,-0.0259,0.0201,-0.015,0.0753,0.0152,0.0032,0.0774,0.0284,-0.0316,0.0487,-0.0432,0.048,0.0576,-0.0537,-0.0828,-0.0305,0.0268,0.014,0.0551,0.0767,0.0,-0.0088,-0.0462,-0.0757,-0.02,0.0393,-0.0365,0.0303,0.0133,-0.0371,-0.0613,0.0414,0.0201,-0.052,0.0277,-0.0249,0.0016,-0.0273,-0.0128,0.0399,0.0442,-0.0072,-0.034,0.0124,-0.0124,-0.0397,-0.0377,-0.0523,-0.0202,-0.0073,0.0181,0.0196,0.0493,-0.0735,-0.0161,-0.0321,0.0052,-0.0472,0.0057,0.046,-0.0125,-0.032,-0.0178,0.0228,0.0,0.0,0.0,0.0,0.0,0.0,0.0,0.0,0.0,0.0,0.0,0.0],[0.048,-0.0468,0.0295,-0.0407,-0.0175,0.0477,0.007,0.0071,-0.1891,-0.2153,0.0411,0.0334,-0.1941,-0.0867,0.0365,-0.0529,0.0615,0.3165,-0.0688,-0.0649,-0.0132,0.0552,-0.0217,0.0416,0.0622,0.0155,-0.0363,-0.0005,0.0225,-0.0919,-0.0468,-0.072,0.0473,0.0543,0.0344,0.0004,-0.0161,-0.0944,0.0525,0.0052,-0.1543,-0.0629,0.0131,0.0272,0.0364,-0.0194,-0.0241,-0.0548,0.0277,0.0599,-0.0684,0.0255,-0.0814,-0.0134,-0.0153,0.0142,0.0019,-0.084,0.0626,0.0144,0.0479,0.0794,0.0536,0.0518,-0.0217,-0.0765,0.0282,-0.015,0.0128,0.0697,0.0678,0.0529,-0.0376,-0.0053,-0.0271,-0.0597,0.0075,0.0661,-0.0093,0.0329,-0.0118,0.0495,0.0218,-0.0814,-0.0465,-0.0342,-0.0484,-0.0137,0.02,-0.0459,-0.01,-0.0726,0.0843,0.0284,0.0678,-0.0082,0.0149,0.0,0.0467,0.0475,0.0693,-0.0425,-0.0713,0.156,0.0018,-0.0437,0.0476,0.0646,-0.0089,0.0005,0.0392,-0.0753,-0.0702,0.011,0.0491,-0.0255,0.0661,-0.0738,-0.0679,-0.0485,-0.0777,0.071,0.1019,-0.1094,0.0597,0.1074,0.093,-0.0206,0.0117,-0.021,-0.0409,-0.0023,-0.0009,-0.0037,-0.0792,0.0711,-0.0235,-0.0249,-0.0679,0.0409,0.042,0.0,0.0,0.0,0.0,0.0,0.0,0.0,0.0,0.0,0.0,0.0,0.0],[0.0512,0.0166,-0.0137,-0.042,0.0134,-0.0286,0.1476,-0.0341,-0.1127,0.1453,-0.023,-0.2635,-0.2935,0.0217,-0.1575,0.0138,-0.0106,0.2165,0.173,0.0159,0.0677,0.003,-0.0457,0.0417,-0.0494,0.0202,0.0181,-0.0568,-0.0855,-0.0682,0.0057,0.0473,-0.0388,-0.0488,-0.0546,0.0024,-0.012,0.0234,-0.0808,0.0387,0.1012,0.0237,0.0541,0.0438,0.0709,0.0634,-0.0951,0.0297,0.0391,0.005,-0.02,0.0333,-0.0375,0.0832,-0.0062,-0.0082,-0.061,-0.0216,0.0062,0.0678,0.0284,0.043,0.0109,0.0817,-0.0095,0.0461,0.0084,0.0039,-0.0247,-0.0635,0.0193,-0.0208,0.076,0.0366,0.0015,-0.0625,0.0482,0.0696,0.0634,0.0252,0.0467,-0.0044,0.0246,-0.0735,-0.0459,-0.0416,0.0648,0.0329,-0.0566,0.0701,0.0062,-0.0203,-0.065,0.0684,-0.0085,0.0162,-0.0272,0.0,0.0186,-0.0546,-0.0521,-0.072,-0.0349,0.0634,-0.0559,0.0803,-0.0762,-0.0797,-0.0084,-0.0552,0.0272,0.0354,-0.0655,0.0158,-0.0767,0.0265,0.0616,-0.0198,0.0748,-0.0923,-0.0442,-0.0147,0.0504,-0.0079,-0.0264,-0.013,-0.0006,-0.0516,-0.0429,0.0134,-0.0293,0.0351,0.0042,-0.0695,0.0623,0.0559,0.0397,-0.0007,0.0715,0.0469,0.038,0.0,0.0,0.0,0.0,0.0,0.0,0.0,0.0,0.0,0.0,0.0,0.0],[-0.0432,0.046,0.0334,-0.0175,0.0461,-0.0527,-0.3788,0.2093,-0.0404,-0.093,-0.2003,-0.0287,0.1389,-0.0216,-0.0237,-0.0019,0.0464,0.311,0.1737,-0.069,0.0132,0.0268,0.0306,-0.0542,0.0319,0.0029,-0.0081,-0.0463,-0.0359,-0.0091,-0.0041,0.0596,-0.0194,0.0307,-0.0222,0.0014,-0.0023,-0.0248,-0.0121,-0.0266,-0.0979,-0.0559,-0.03,-0.0033,-0.0556,0.0438,-0.0054,-0.0378,-0.0414,-0.0179,0.0012,-0.0488,-0.051,-0.0274,-0.0059,0.0037,0.0662,-0.0371,0.0816,-0.0788,0.0817,-0.0175,0.0756,-0.0704,-0.0221,0.0265,-0.0216,0.0122,0.0517,0.0467,-0.0037,-0.0538,0.0472,-0.0838,-0.0748,0.04,-0.0797,-0.0106,0.0301,0.0759,0.0613,-0.033,-0.0538,0.0644,0.0407,0.0078,-0.0665,0.0578,-0.0126,-0.0064,-0.0267,0.0581,0.0191,0.0172,0.0201,0.0361,0.0678,0.0,0.0624,0.0037,0.0052,-0.0035,0.0067,-0.111,0.0307,-0.0177,0.0402,0.0405,0.1646,0.0324,-0.0039,-0.0248,-0.0009,0.0862,0.013,-0.0185,0.0126,-0.0228,0.03,0.0679,0.0194,0.0023,-0.0009,0.0325,-0.0768,0.0047,0.021,-0.0481,0.0439,0.069,0.0116,0.023,0.0154,0.0251,-0.077,-0.0063,0.038,0.0384,-0.0138,0.0374,0.0625,0.0,0.0,0.0,0.0,0.0,0.0,0.0,0.0,0.0,0.0,0.0,0.0],[-0.0618,0.0622,-0.0387,0.03,0.0251,-0.1294,0.2422,0.0175,0.0537,-0.2118,0.1718,-0.0224,-0.1954,-0.1384,0.0102,0.0289,-0.0238,-0.2594,-0.1456,0.0035,0.0461,0.0709,0.0468,-0.0135,0.0303,-0.0262,0.06,-0.0454,-0.0262,-0.0608,-0.0556,0.0152,0.0119,0.0183,0.0283,0.0664,-0.0687,-0.0538,0.0071,-0.033,-0.0372,0.0758,-0.042,-0.0135,-0.0045,-0.0313,0.0569,0.0785,-0.0253,-0.0806,-0.0052,-0.0314,-0.0197,0.0118,-0.0364,0.0071,-0.0313,-0.0594,0.0607,0.0167,0.0309,-0.0007,-0.0758,-0.0276,0.0069,0.0259,0.0463,-0.0718,0.0323,0.0556,0.0817,-0.0337,0.054,-0.0733,0.0068,-0.0267,0.0143,0.0349,0.057,0.0731,0.0365,0.0026,0.0418,-0.0027,-0.0573,-0.034,0.0364,-0.0418,0.0764,0.0368,-0.0216,-0.0006,-0.0805,-0.0243,0.0227,0.0297,-0.0167,0.0,0.0706,-0.04,0.0039,-0.0021,-0.0389,0.1542,0.0157,-0.0311,0.0832,0.0153,0.1998,-0.0022,0.0767,-0.0686,0.0822,-0.0116,0.0109,0.0056,-0.0809,-0.0179,0.0784,0.0061,0.0176,-0.0182,0.0051,0.0661,-0.0527,0.0059,0.0498,-0.0415,-0.0638,-0.0446,0.0338,0.0647,0.0381,-0.058,0.0084,-0.0252,0.0588,-0.0216,0.0581,0.0756,-0.0483,0.0,0.0,0.0,0.0,0.0,0.0,0.0,0.0,0.0,0.0,0.0,0.0],[0.0555,0.0087,0.0222,-0.0379,-0.0135,-0.1482,-0.0295,0.2011,0.2835,0.0856,-0.2618,-0.1268,0.1234,0.239,-0.0519,-0.0188,0.0586,-0.0932,-0.27,0.0324,0.0661,0.0217,0.0248,0.0225,-0.025,0.0573,-0.0261,0.0004,0.0244,-0.0211,0.0313,0.0622,-0.0404,-0.0102,0.0505,0.022,-0.097,0.0011,0.0226,0.0077,-0.0323,0.0194,0.0128,0.0559,-0.0034,0.0514,0.0203,-0.0043,-0.0363,0.0593,0.046,0.0812,0.032,-0.0149,-0.0812,-0.0624,0.0529,-0.0354,0.0629,-0.0468,-0.0675,-0.0502,0.0658,0.0645,-0.0427,-0.0619,0.0818,-0.0439,-0.0316,-0.0079,0.0345,0.0057,0.021,-0.0136,-0.0322,-0.0463,0.069,-0.0124,0.0264,-0.0065,0.061,-0.0081,0.0029,-0.0296,-0.0788,-0.0427,-0.0526,0.0386,0.0485,-0.0256,-0.0198,0.0291,-0.0232,0.033,-0.03,0.0704,0.0205,0.0,-0.0398,-0.0518,0.0407,0.0509,-0.0764,-0.1081,0.0241,-0.0718,0.0038,0.0217,0.0156,0.0001,0.0159,0.0045,-0.0065,-0.0327,-0.0243,0.0245,0.0054,-0.0451,-0.0112,0.0091,0.0431,0.0348,0.0557,-0.01,-0.0668,0.014,0.0257,0.0334,0.0222,-0.0144,0.0178,-0.0002,-0.0315,0.0332,0.0335,0.0788,0.0712,0.0352,0.0587,0.0157,-0.0503,0.0,0.0,0.0,0.0,0.0,0.0,0.0,0.0,0.0,0.0,0.0,0.0],[0.0134,0.0216,-0.0197,0.0284,-0.0069,0.2581,0.2806,0.1653,-0.3259,0.1098,-0.0174,0.0962,-0.0579,-0.1922,0.3427,-0.0277,0.0267,-0.2137,0.0141,-0.0745,0.0689,-0.0702,-0.021,-0.0088,0.0197,-0.0202,0.0575,-0.0424,-0.0261,0.0628,-0.0242,0.0286,-0.011,0.0087,-0.0064,0.03,0.0628,-0.0375,0.1019,-0.0841,0.0189,0.0009,-0.0356,-0.048,0.0763,-0.0131,0.0097,0.0416,-0.0693,-0.0055,-0.0704,0.0298,-0.0691,-0.0079,0.0645,0.0733,0.0509,-0.062,0.0803,0.0416,-0.0567,-0.0113,0.0778,-0.0273,0.0769,0.0839,-0.0606,0.0607,0.036,0.0285,0.0279,-0.0239,-0.0783,0.0341,0.0358,-0.0833,-0.0386,-0.0193,-0.0125,0.0726,-0.034,0.0143,0.0431,-0.0807,0.011,-0.0718,-0.0083,-0.0577,0.0111,0.0663,-0.0561,-0.0588,-0.0735,-0.0074,0.0231,0.0531,0.0429,0.0,0.057,0.0791,0.0666,0.0406,-0.0164,-0.1006,-0.075,0.0687,0.07,-0.0201,-0.0227,-0.0549,0.0619,-0.0595,-0.0568,-0.0838,0.0253,0.0505,-0.0382,-0.0745,0.0753,0.0503,-0.0317,0.044,0.0808,-0.0702,-0.0302,0.0071,-0.0126,-0.0451,0.0187,-0.0474,0.0372,0.0476,0.0377,0.0009,-0.0445,-0.0215,0.0077,0.0374,0.0467,-0.0025,0.0639,0.0,0.0,0.0,0.0,0.0,0.0,0.0,0.0,0.0,0.0,0.0,0.0],[-0.0752,-0.0848,-0.0237,-0.0322,-0.0645,-0.2457,0.0504,0.1053,0.0499,-0.0352,0.0971,0.1068,0.2116,-0.1023,0.2082,0.0416,-0.1137,0.3465,-0.2015,-0.1267,-0.0888,0.0642,0.0346,-0.0588,-0.0047,-0.0411,-0.0648,-0.0017,-0.0182,0.0421,-0.0662,0.1012,0.0359,-0.0602,0.0135,-0.1345,0.1417,0.0642,-0.021,-0.073,-0.1042,0.072,0.0215,0.1428,-0.0059,0.1294,0.0956,0.0721,0.0831,-0.0464,-0.0384,0.0821,-0.0131,0.02,-0.0762,0.0726,-0.0558,-0.0747,-0.0072,0.0247,0.0282,0.0022,-0.0756,0.0626,0.024,-0.0641,-0.0444,-0.0354,0.0795,0.0121,0.0605,0.0125,0.0719,-0.0731,0.0236,0.0441,0.073,-0.0258,-0.0082,-0.0699,0.0155,0.0436,-0.0006,0.0523,0.0516,-0.06,0.0099,-0.054,-0.0376,-0.0262,0.016,0.0337,-0.0091,0.0404,0.0617,-0.0034,-0.0198,0.0,-0.0543,-0.0463,0.0606,0.0365,0.0683,-0.129,0.0382,-0.0433,-0.0369,-0.0059,0.0422,-0.1367,0.0463,0.0907,-0.0583,0.0552,0.0143,-0.1078,0.2077,-0.0653,0.0306,-0.3127,-0.0099,-0.0239,-0.0854,0.0726,-0.0076,0.061,-0.0889,-0.0248,-0.0784,0.0844,0.0752,-0.0966,-0.0432,-0.1462,0.1662,0.0604,-0.0467,0.074,0.0228,0.0922,-0.0956,0.0,0.0,0.0,0.0,0.0,0.0,0.0,0.0,0.0,0.0,0.0,0.0],[0.0583,0.0215,-0.0871,-0.0453,0.0183,0.2382,-0.0707,-0.0737,-0.0656,0.0836,-0.0329,-0.3239,-0.2535,0.4674,-0.2094,0.0134,0.0224,0.1624,0.0108,-0.1221,-0.0063,-0.0171,-0.012,-0.0576,0.0953,-0.0828,-0.0568,-0.0006,-0.0485,-0.0149,-0.0831,-0.0691,0.0668,0.0069,-0.0133,0.0247,-0.109,-0.0377,-0.0245,-0.032,-0.1363,0.0545,0.0304,-0.1373,0.0182,-0.022,-0.0142,-0.0374,0.06,-0.0239,0.0623,-0.0806,0.0241,0.0446,0.0329,-0.0376,-0.0338,-0.0148,-0.0567,0.069,-0.0013,-0.0516,-0.0764,-0.0078,-0.0782,-0.0585,0.0132,-0.0242,0.0482,-0.0485,0.0266,-0.0596,0.0053,0.0752,0.034,-0.0273,0.0433,-0.0668,0.0647,0.0123,0.0381,0.0738,0.0584,0.0624,0.0819,0.0468,-0.0472,-0.0601,0.0539,0.058,-0.0239,0.064,0.0708,-0.081,0.0365,-0.0184,0.0443,0.0,-0.044,-0.037,0.0632,0.0212,0.0161,-0.2161,0.0469,-0.0343,0.0047,0.0708,-0.0553,0.0411,-0.0994,0.0013,-0.0206,0.1438,-0.07,-0.0544,-0.067,-0.0716,-0.0203,-0.0724,0.0705,0.02,0.0869,-0.0627,-0.0169,0.0595,0.0295,-0.1094,-0.012,-0.0327,0.0506,-0.028,-0.0138,-0.0448,0.018,-0.01,-0.0497,-0.0666,0.029,-0.0087,0.046,0.0,0.0,0.0,0.0,0.0,0.0,0.0,0.0,0.0,0.0,0.0,0.0],[0.0392,-0.0117,0.0444,0.024,0.0164,0.1503,0.0775,0.1507,0.0567,-0.2705,0.1364,0.0456,0.3516,-0.1238,-0.0798,-0.0764,-0.0413,0.1924,-0.0058,0.1045,0.0559,0.0074,0.0469,0.0789,0.0326,0.104,0.016,-0.0246,-0.0067,-0.0326,-0.0441,0.064,-0.0684,-0.0742,-0.0984,0.0879,-0.0211,-0.0793,0.018,0.0396,-0.1246,-0.0632,-0.0201,-0.0267,-0.0513,0.0642,-0.0453,0.0409,0.0796,0.0014,-0.07,-0.0551,-0.0208,-0.0138,-0.0553,0.0477,-0.0409,0.0827,-0.0472,0.0783,0.0512,0.0047,0.0565,-0.0594,0.0695,0.0543,0.0552,0.0766,-0.0665,0.0038,-0.0164,-0.0232,0.0603,-0.0255,-0.0557,-0.0344,-0.0373,-0.0455,-0.0404,0.0842,-0.0459,0.0786,-0.0062,-0.0202,0.0795,0.0284,0.0481,-0.0764,0.0387,0.0291,-0.0061,-0.073,0.0371,0.0057,-0.0702,0.0582,0.0372,0.0,0.0671,-0.0338,0.0803,0.0657,0.0749,-0.064,-0.055,-0.0198,0.0306,-0.0186,-0.0246,-0.0044,-0.0667,-0.0192,-0.0515,-0.0468,0.0084,0.0013,0.0136,0.0508,0.0992,-0.0174,0.0207,0.0491,-0.0041,-0.1047,0.023,-0.0012,-0.0501,0.057,0.0356,-0.0387,0.01,0.0146,0.0223,-0.0298,0.0683,-0.0822,-0.0788,-0.1305,0.0221,-0.0308,-0.0122,0.0,0.0,0.0,0.0,0.0,0.0,0.0,0.0,0.0,0.0,0.0,0.0],[-0.0026,-0.0478,0.0226,-0.0438,0.0239,-0.1716,0.2737,0.0911,-0.1443,0.1194,0.1283,0.1798,0.1553,0.4018,0.0046,0.0026,-0.0325,-0.0507,-0.1235,-0.0058,0.0426,-0.025,-0.0179,0.0592,-0.0068,0.0744,0.0249,0.0119,0.0367,0.0492,-0.0121,0.0505,0.0243,0.0427,0.0037,-0.0352,0.0051,0.018,0.0414,-0.0372,0.0003,0.058,-0.0238,0.0226,0.0735,-0.0024,-0.0242,-0.084,-0.0348,-0.0678,-0.0297,-0.0176,-0.0578,0.0222,-0.0317,-0.0123,-0.0521,0.0516,-0.0325,0.0081,0.0689,-0.0033,0.0677,-0.0753,0.0506,0.0347,-0.0684,-0.0195,-0.0425,0.0139,-0.0721,-0.0191,0.033,0.0046,-0.0841,0.021,-0.0156,0.0817,-0.0059,-0.0098,-0.0784,0.0552,0.041,-0.0163,0.0107,-0.0622,0.0801,0.0553,0.078,-0.0326,0.0527,0.0339,-0.0018,-0.0588,0.0088,-0.0231,-0.0488,0.0,-0.018,-0.0403,0.0461,0.0086,-0.0365,-0.1578,0.0176,-0.0769,-0.0312,0.0761,0.0897,0.0042,0.0132,0.0402,-0.0242,0.0541,0.049,0.0926,0.0073,0.0142,0.0414,0.0582,0.0132,0.0218,0.0175,0.0153,-0.0159,-0.0385,0.0738,0.0307,-0.0233,0.0303,0.0154,-0.0085,-0.0143,0.0311,-0.0046,0.0213,0.0097,0.0374,0.0484,0.0556,-0.022,0.0,0.0,0.0,0.0,0.0,0.0,0.0,0.0,0.0,0.0,0.0,0.0],[-0.0387,0.0337,-0.041,0.0172,0.0659,0.1906,-0.0856,0.1469,-0.1117,0.1259,-0.1791,0.0655,0.1514,0.0171,-0.0817,0.0144,-0.0136,-0.3058,0.0912,-0.0311,-0.0353,0.0541,0.0173,-0.0501,0.0632,-0.003,0.0079,-0.0238,0.0322,-0.0248,0.032,-0.0472,-0.0709,0.0249,-0.0285,-0.0008,-0.0202,0.1101,-0.0469,0.0063,0.2709,0.0046,0.0103,0.0094,0.041,-0.0448,0.0435,0.0085,0.0595,-0.0312,0.0069,-0.0595,-0.0013,-0.0003,-0.0083,0.0175,0.0504,0.0771,-0.0673,-0.0831,-0.0523,0.0509,-0.0739,0.0471,0.0467,0.0724,0.0578,0.0443,0.0635,-0.0171,-0.046,0.0537,0.0288,-0.0764,-0.0585,-0.0516,-0.0018,0.037,-0.0232,-0.0245,0.0482,0.053,0.0067,-0.0731,-0.0632,-0.0297,-0.0814,-0.0576,-0.0811,0.0698,-0.044,-0.0586,0.0841,-0.0078,-0.0129,0.004,-0.0593,0.0,0.0804,0.036,-0.0279,-0.064,0.0783,0.0556,0.0423,-0.0445,0.0395,-0.0568,-0.2271,0.0347,0.0686,-0.0311,-0.0406,-0.003,0.1092,-0.0074,-0.0275,-0.0419,0.0529,0.0729,0.1247,0.085,0.0231,-0.0343,0.032,0.0856,0.0349,0.0001,-0.0886,0.0929,0.0032,0.0107,-0.0389,-0.0367,0.0277,-0.048,0.0049,0.049,0.0197,-0.0237,-0.0209,0.0,0.0,0.0,0.0,0.0,0.0,0.0,0.0,0.0,0.0,0.0,0.0],[-0.0124,0.0741,-0.0085,-0.0028,-0.0465,0.0894,0.0404,-0.4262,-0.161,-0.0197,-0.0588,0.0908,-0.2256,0.1351,-0.1042,0.0116,-0.0214,0.0138,0.2291,-0.0043,0.0515,0.093,-0.0329,-0.0744,0.0139,-0.0212,0.0191,-0.0242,-0.0379,-0.0176,-0.0222,0.0507,0.0389,0.0273,0.0606,-0.0119,-0.0986,-0.0508,-0.0509,0.0446,0.0044,0.0014,0.035,-0.0249,-0.0452,0.0504,0.0674,-0.0339,0.0515,-0.0176,0.0055,0.0803,0.0111,-0.0455,-0.06,0.0396,0.0298,0.0464,-0.0469,-0.0005,0.0675,0.0098,-0.0295,-0.0105,-0.0822,-0.0236,-0.0015,-0.0445,0.0313,0.0349,-0.0536,-0.0779,-0.076,-0.0747,-0.0163,0.0591,-0.0647,-0.0245,-0.0119,0.0672,-0.0589,0.0121,-0.0539,0.0386,-0.0552,-0.0122,0.0577,-0.0637,0.0584,-0.0587,0.022,0.0357,0.0047,0.0009,0.0548,-0.0829,0.0457,0.0,0.0497,-0.0136,0.0211,0.015,0.0464,0.075,0.0428,-0.0433,0.0376,0.0523,0.0303,-0.0265,0.0712,0.0543,-0.0981,0.0281,0.0076,-0.041,0.0515,-0.0433,-0.0957,0.0423,-0.025,0.0742,0.0126,0.01,-0.0733,0.0661,0.0409,-0.0172,-0.0381,-0.0038,-0.013,-0.0935,0.0321,-0.0325,0.0525,-0.0691,0.0274,0.0095,0.0309,-0.0382,-0.0234,0.0,0.0,0.0,0.0,0.0,0.0,0.0,0.0,0.0,0.0,0.0,0.0],[0.0013,0.0659,-0.0173,0.0149,0.0356,0.2113,-0.2034,0.1558,-0.1804,0.0447,-0.1398,0.0963,0.1202,0.2017,0.0103,-0.0055,-0.0492,0.2699,0.0439,-0.088,-0.0039,-0.0556,-0.0507,-0.0187,0.0785,0.0178,0.0136,0.0767,0.0446,-0.0276,-0.0293,0.0353,0.021,0.0314,0.008,0.0453,0.0955,-0.0406,-0.0311,0.0542,-0.0127,0.0116,-0.0045,0.0215,0.0114,0.0467,-0.0047,0.0508,0.0815,0.0221,0.0082,0.0228,-0.0571,-0.0386,-0.0515,0.0613,0.0351,0.0836,-0.0747,0.0842,0.0434,0.0082,0.0824,0.0287,0.0016,-0.0415,-0.055,-0.0044,-0.0331,-0.0336,0.0427,-0.0808,-0.0804,0.0653,-0.0712,-0.0039,-0.008,-0.0435,-0.0623,0.0448,0.047,0.0042,-0.0347,0.0221,0.0421,-0.0548,-0.0129,-0.0457,-0.029,-0.0537,0.0424,0.0576,-0.061,-0.0357,-0.0094,0.0348,0.0779,0.0,0.0792,-0.0047,0.0734,-0.0553,0.052,-0.1157,-0.0169,0.0432,-0.0416,-0.0831,0.0172,0.0297,0.0086,0.0559,0.0355,-0.0192,-0.0042,0.0052,-0.0045,0.0259,0.074,-0.0009,0.0161,-0.0206,0.0467,0.0578,0.0423,-0.012,0.0125,0.0037,-0.0207,-0.051,-0.0371,0.0373,-0.03,0.0083,0.0649,0.0142,0.0314,0.0014,0.0778,-0.0078,-0.0222,0.0,0.0,0.0,0.0,0.0,0.0,0.0,0.0,0.0,0.0,0.0,0.0],[-0.0063,0.0664,0.0053,0.1887,-0.1567,0.0214,-0.0827,0.1471,-0.0375,0.0915,-0.132,0.0721,-0.1292,0.2111,-0.0107,0.0407,-0.242,0.4351,0.064,-0.0535,-0.1344,-0.1206,0.0998,-0.1984,-0.0484,-0.2312,0.0015,0.1437,0.0966,-0.0453,0.108,-0.0161,0.0884,-0.098,0.0434,0.1395,0.1661,0.0864,-0.1085,-0.0297,-0.0473,0.1504,-0.1596,-0.0065,0.1466,0.1303,-0.0593,-0.0565,-0.0614,0.0454,0.0353,-0.0399,0.0222,0.0542,0.043,0.0559,0.0795,-0.0473,0.0768,-0.0209,-0.0094,0.0337,0.0407,0.0673,0.0701,-0.067,0.0182,-0.0197,0.0751,0.2601,0.0776,-0.075,0.0764,-0.0749,0.0066,0.0288,0.0017,0.0798,0.0827,-0.0038,-0.0166,0.0475,-0.0342,0.0065,0.0028,-0.0476,0.003,0.0158,0.0483,-0.0469,0.074,-0.0165,-0.0036,0.0795,0.0467,-0.0305,-0.0502,0.0,0.0745,0.0375,0.0836,-0.0592,-0.0524,-0.1351,-0.0742,0.007,-0.0514,0.0671,-0.0107,0.0659,-0.0261,0.0996,0.0139,0.0924,-0.0709,0.1869,0.1346,-0.0342,-0.0209,-0.0397,-0.0246,-0.1422,-0.2443,0.0181,-0.0298,-0.1356,-0.0446,-0.1108,-0.1728,0.0772,-0.0035,-0.0422,0.0539,-0.0675,0.0193,-0.0011,-0.0678,-0.1162,-0.058,0.0358,0.0009,0.0,0.0,0.0,0.0,0.0,0.0,0.0,0.0,0.0,0.0,0.0,0.0],[-0.0247,-0.0463,0.0093,-0.062,0.0193,0.0194,-0.0173,-0.2017,0.3504,-0.1602,-0.0121,0.0765,-0.1933,0.0574,-0.0085,-0.0714,0.0095,-0.2653,0.0003,0.0792,-0.0737,-0.0453,-0.0088,0.0811,-0.0506,0.0504,0.0386,-0.0325,0.0029,0.0037,-0.0026,-0.0166,0.0498,0.1047,0.0689,0.0576,-0.058,-0.0201,0.0188,-0.0484,0.1873,0.0191,0.0508,0.0476,0.0378,0.0299,0.0235,-0.034,0.0659,0.052,-0.083,-0.0339,-0.0314,0.0092,0.083,0.0382,0.082,0.0224,-0.0353,-0.0633,0.084,0.058,-0.0437,-0.0122,-0.049,-0.0524,0.009,-0.001,-0.0423,0.1284,-0.0679,-0.0291,0.0434,-0.0798,0.0057,-0.0706,0.0796,0.0546,-0.0797,0.0779,0.056,0.0286,-0.0328,-0.0138,0.0503,-0.0517,-0.0407,-0.0058,0.0723,-0.0158,-0.0418,-0.0399,-0.0595,0.0618,0.0498,-0.0703,-0.0128,0.0,-0.0544,-0.078,-0.0726,-0.0157,0.0447,-0.1248,-0.0108,-0.0515,-0.0156,0.015,0.1137,0.1093,-0.115,-0.008,0.0627,-0.0305,0.0729,0.0706,-0.0641,-0.0121,-0.0606,-0.0914,0.0008,-0.0221,-0.0219,0.0549,-0.0348,-0.0704,-0.0397,0.0302,0.1151,0.0606,-0.0657,-0.004,-0.0086,-0.0313,-0.0166,0.0514,0.0671,-0.0066,-0.0473,0.0671,-0.0218,0.0,0.0,0.0,0.0,0.0,0.0,0.0,0.0,0.0,0.0,0.0,0.0],[-0.0696,-0.1169,0.0672,-0.0441,0.0425,0.1279,-0.0298,0.0528,-0.2496,-0.0519,-0.1793,-0.1015,0.2449,-0.1083,-0.0418,0.0037,-0.0627,-0.3602,0.3335,0.1098,0.0661,0.0475,-0.0084,0.088,-0.0118,-0.0276,0.081,0.0313,0.0134,-0.0891,0.0045,0.0149,0.0733,0.0197,0.0836,0.0871,-0.0308,0.0581,0.0324,-0.0102,-0.0548,0.0102,-0.0508,-0.0039,0.0114,-0.0069,0.0191,-0.042,-0.0341,-0.0417,-0.0603,0.0683,-0.0027,-0.0206,-0.0706,-0.0615,0.011,-0.0658,-0.0705,-0.0533,-0.047,-0.0015,-0.0222,-0.0582,-0.011,0.0409,0.0358,0.074,0.0586,-0.0048,-0.0484,-0.0182,0.0569,-0.0139,-0.0258,0.0351,-0.0349,-0.0743,-0.044,0.0732,0.0536,-0.0488,0.0258,0.0536,-0.0569,-0.0582,0.0455,0.0793,-0.0561,0.0295,0.0816,0.052,0.0472,-0.0001,-0.0635,0.0686,0.0397,0.0,0.0009,0.057,-0.0303,-0.0688,0.0291,-0.0491,0.0427,0.0049,-0.0801,-0.0487,0.0175,0.0698,0.1084,0.007,0.0194,-0.0026,-0.0747,0.0512,0.0021,0.0467,0.02,-0.0365,-0.013,0.067,0.0192,0.0456,0.083,-0.001,-0.016,0.0372,0.0412,0.0064,0.0297,-0.0006,-0.0068,0.0441,0.0462,-0.0141,0.0212,-0.0101,-0.0162,0.0362,-0.0188,0.0,0.0,0.0,0.0,0.0,0.0,0.0,0.0,0.0,0.0,0.0,0.0],[0.0017,0.0174,0.0123,-0.0564,0.0106,-0.148,-0.133,0.1449,-0.2056,0.3036,-0.1077,0.0028,0.2236,-0.4259,0.0904,-0.0168,0.0209,0.1352,0.0397,0.0206,0.0562,-0.0207,0.0394,0.0088,0.0276,-0.0001,-0.0337,0.0495,-0.0185,-0.0307,-0.0121,0.0208,-0.0245,-0.0482,0.0405,-0.0077,-0.0486,-0.0265,0.05,0.0356,0.1897,0.0096,-0.0435,0.0716,0.0342,-0.009,0.077,-0.0445,0.0097,0.0645,-0.0205,-0.0501,0.002,-0.0469,-0.051,-0.0756,0.0209,0.0079,-0.0575,0.0475,-0.0699,-0.0725,0.0825,-0.0713,-0.0371,-0.0551,-0.0509,-0.0059,-0.0113,0.0366,-0.066,0.0355,0.076,0.0632,0.084,-0.0353,-0.0135,-0.0592,-0.0574,0.003,-0.0123,0.04,0.0636,0.0501,0.0436,-0.0517,-0.0752,-0.0128,0.0318,0.0303,-0.0211,0.0535,-0.0391,0.0259,-0.0287,-0.0588,0.0123,0.0,0.0729,-0.0189,0.0019,-0.0701,-0.0567,-0.0307,-0.0427,-0.0392,-0.0784,0.0639,0.166,0.0095,-0.0027,-0.0419,0.0247,-0.0351,0.0504,0.0654,0.0487,-0.0386,0.0426,0.0477,-0.0114,0.056,0.0369,0.0374,0.0089,0.057,0.0076,0.0003,0.0131,-0.0052,-0.0133,0.0093,0.0261,-0.0127,-0.0361,0.0758,-0.0394,0.056,-0.0304,0.0345,-0.0449,0.0,0.0,0.0,0.0,0.0,0.0,0.0,0.0,0.0,0.0,0.0,0.0],[0.0204,-0.0219,-0.0032,-0.0375,0.079,-0.0994,-0.0433,0.0753,0.2528,0.2587,-0.0478,0.1959,-0.1747,0.3149,-0.2779,0.0205,-0.1025,0.1329,-0.0214,-0.1258,0.1289,-0.0374,0.0354,-0.0874,-0.1478,0.1024,0.0941,-0.0284,0.0257,-0.0104,-0.0127,-0.0025,-0.0404,0.0567,-0.0458,-0.0106,0.0701,0.0421,-0.0574,0.079,-0.1657,0.0727,0.0236,-0.0395,-0.0972,-0.1196,0.0064,-0.0094,-0.0542,-0.0777,0.0154,-0.0399,0.0592,0.0193,0.0637,0.0332,0.0042,-0.0551,-0.0776,0.0128,0.0403,-0.0277,-0.0189,0.0755,0.0407,0.0039,-0.045,0.041,-0.043,-0.0142,-0.0744,-0.0275,0.0687,0.0159,-0.0739,0.0343,-0.0332,-0.0721,0.0576,-0.0386,0.0274,0.0237,-0.0586,0.0771,-0.0532,0.0753,-0.0397,-0.0452,-0.041,0.0449,0.0126,-0.0066,-0.0309,0.049,-0.0778,-0.0598,0.0246,0.0,0.0311,0.0267,0.0619,-0.0003,0.0714,-0.2446,0.0255,-0.0703,-0.0382,0.0258,-0.1608,0.044,-0.1129,0.0147,-0.0859,0.1005,-0.0689,-0.0359,-0.1289,0.0644,0.1741,0.0154,-0.07,0.0224,0.0096,0.007,-0.0655,-0.0398,0.0595,-0.0756,-0.0579,-0.1087,-0.1025,0.0128,0.018,0.0792,0.058,-0.1019,-0.1022,-0.028,-0.08,0.0075,0.0142,0.0,0.0,0.0,0.0,0.0,0.0,0.0,0.0,0.0,0.0,0.0,0.0],[0.0364,0.0079,-0.0316,-0.0519,-0.0179,-0.1032,-0.089,0.1117,-0.0618,-0.278,0.1909,0.1148,-0.1097,-0.1663,0.0292,0.0615,-0.067,-0.2683,0.188,0.0533,0.0567,-0.0702,0.0384,0.0288,0.0287,-0.0091,-0.025,0.0636,0.0412,0.0309,-0.0385,-0.0026,0.0705,-0.0223,-0.0542,-0.0549,0.0104,0.0257,0.0475,0.0115,0.1733,-0.0439,-0.015,-0.0445,-0.0033,-0.1352,-0.0104,-0.0826,-0.0328,-0.065,-0.0575,-0.0372,0.081,-0.0275,-0.0808,-0.0095,-0.068,-0.0153,-0.0081,0.0519,0.0302,0.0581,-0.0544,-0.0081,0.0051,0.0278,-0.0025,-0.067,-0.0068,0.0083,0.0099,-0.0253,0.0075,-0.0519,0.0182,-0.011,0.0281,-0.0202,0.0124,-0.0478,-0.0835,-0.0367,-0.0417,0.0482,0.0203,0.0469,-0.0548,-0.0443,0.0416,0.002,0.0678,-0.0491,0.0783,-0.0472,0.0428,0.0422,0.0649,0.0,0.0516,-0.0017,-0.0251,0.0442,0.072,0.1983,0.0419,0.0096,0.0816,0.0142,-0.0336,-0.0863,0.0708,-0.0226,0.0421,-0.1235,-0.0152,0.0365,0.0334,0.0448,0.0582,0.0077,-0.1009,0.014,-0.0324,-0.0831,0.0336,0.0076,-0.0608,-0.0218,-0.0247,-0.0438,0.1052,0.0103,0.001,-0.0107,-0.0661,0.001,0.01,-0.0042,-0.0781,0.0142,0.102,0.0,0.0,0.0,0.0,0.0,0.0,0.0,0.0,0.0,0.0,0.0,0.0],[-0.0169,0.0501,0.0005,0.0423,0.0038,0.1756,-0.0047,0.1767,0.3582,-0.0404,-0.162,-0.1849,0.1713,0.0555,0.1772,0.0059,-0.0001,0.021,-0.0423,0.077,-0.0351,-0.0142,-0.0082,-0.022,-0.0019,-0.0282,0.0312,-0.0268,0.0163,-0.004,0.0323,-0.0088,-0.0217,-0.0048,-0.0387,0.0631,0.0375,0.0384,0.0344,-0.0624,0.0943,0.0331,-0.0433,-0.0256,-0.0568,0.0228,0.0115,-0.0261,0.0484,-0.0467,0.083,-0.0474,-0.0013,0.0101,0.0665,0.0336,0.029,0.0598,0.0319,-0.0127,-0.0782,-0.0463,0.0374,-0.0808,0.0164,-0.0769,-0.015,-0.0176,-0.0748,-0.026,-0.0438,0.0174,-0.0054,0.0506,-0.0506,-0.0824,-0.0598,0.0147,0.0,0.023,0.0042,-0.0348,0.0267,-0.0667,-0.0165,-0.0652,0.0373,0.0372,-0.0508,-0.0386,0.0423,0.0666,-0.0245,0.0764,0.0491,0.012,-0.0209,0.0,-0.0652,0.0192,0.0761,-0.0165,0.0003,-0.1826,0.0154,0.0274,0.0272,0.0786,0.1658,-0.014,0.0414,0.0271,0.071,0.0239,0.0287,-0.0315,0.0035,0.0205,0.0051,0.019,0.021,-0.0102,0.0112,0.006,0.0039,-0.0164,0.0186,0.0053,-0.0249,-0.0067,-0.0356,-0.0003,0.0383,0.023,-0.0312,0.0421,-0.0122,-0.0349,0.0006,0.0027,0.0095,0.0,0.0,0.0,0.0,0.0,0.0,0.0,0.0,0.0,0.0,0.0,0.0],[-0.019,-0.0431,0.0096,0.0365,-0.0086,0.0618,-0.0984,0.0951,0.2132,-0.2086,-0.1053,-0.1851,0.1669,0.1926,0.0698,0.0402,-0.0399,0.1951,0.0712,-0.1191,0.0242,-0.0056,-0.0207,-0.0129,0.0522,0.0916,-0.0675,-0.0368,-0.0458,-0.0379,-0.0055,-0.0777,-0.0236,0.0074,-0.0702,-0.0739,0.1224,0.0488,0.1064,-0.0653,-0.2065,-0.0449,0.0187,-0.053,0.0599,-0.0473,-0.0056,-0.0739,0.0775,0.033,-0.0749,0.0726,0.0105,-0.0397,-0.0244,0.0309,-0.0612,-0.0571,0.0059,-0.0544,-0.0555,-0.0379,0.009,-0.0444,0.0467,0.0253,-0.0262,-0.0427,0.063,-0.0183,-0.0505,0.0326,-0.0,0.0346,-0.0714,-0.009,-0.0449,0.0717,0.0447,0.0369,0.0607,0.0482,0.0701,-0.0627,0.0475,-0.0184,-0.0103,-0.0426,-0.0276,0.0751,0.0727,0.0199,-0.0265,-0.0455,-0.0343,-0.0352,0.058,0.0,0.0695,0.0836,0.0138,-0.0644,0.0548,-0.1163,0.0821,-0.018,0.0024,0.0757,-0.0739,-0.1186,-0.0938,-0.0162,0.0261,-0.0794,0.0452,0.0245,0.0673,-0.0091,-0.0815,0.0451,-0.0491,0.0942,0.1008,0.1465,0.0074,0.0199,0.1072,-0.1105,0.0335,0.0526,-0.0365,0.0616,-0.0053,0.0054,0.0186,0.0721,0.0021,0.0148,0.0267,0.0901,0.0501,0.0,0.0,0.0,0.0,0.0,0.0,0.0,0.0,0.0,0.0,0.0,0.0],[-0.0573,0.0493,-0.1074,0.1058,-0.0013,-0.3242,0.0036,-0.2562,0.1826,0.4228,-0.0024,-0.0131,0.2095,0.0792,-0.4164,0.0162,-0.1273,0.2809,-0.0459,0.147,-0.0413,-0.0584,0.1299,-0.0899,-0.0737,0.0209,-0.0148,-0.0439,-0.1144,-0.0349,-0.0399,-0.0803,-0.0025,0.1229,0.1241,-0.1019,0.0385,-0.0944,-0.0713,0.0121,-0.0956,0.0255,0.0458,-0.1392,0.0738,-0.1793,0.0162,-0.0156,0.079,0.0466,0.0554,-0.0459,-0.0461,-0.0251,-0.0419,0.0067,-0.0745,0.0369,0.0422,-0.0648,-0.0217,0.0624,-0.034,0.029,-0.0438,0.0004,-0.0526,0.0466,0.0753,0.0694,0.0042,-0.0154,0.0481,-0.0586,-0.0368,-0.0475,0.0151,-0.0324,0.0643,-0.0432,-0.0825,-0.0151,-0.0676,0.0281,-0.0057,0.0656,-0.0069,-0.0844,0.0563,-0.0036,-0.0076,0.0714,-0.0632,0.0623,-0.0817,0.0268,-0.0231,0.0,-0.0705,-0.0188,-0.0024,-0.0131,0.0578,-0.0928,-0.071,-0.0665,-0.0317,-0.0402,-0.156,-0.0403,-0.0601,0.1314,-0.1362,0.0163,0.0192,0.0016,0.022,-0.047,0.019,-0.0196,0.0271,-0.1156,0.0158,0.0513,-0.1488,-0.0054,0.0083,-0.0216,-0.0703,-0.065,0.0544,-0.0197,0.0122,-0.0306,-0.0754,-0.0682,0.0482,-0.0145,-0.0147,-0.0872,-0.0123,0.0,0.0,0.0,0.0,0.0,0.0,0.0,0.0,0.0,0.0,0.0,0.0],[0.0432,-0.0511,-0.028,-0.0532,0.0073,-0.2074,-0.0628,-0.0319,0.312,-0.0493,-0.1609,-0.3121,0.0979,0.3048,-0.178,-0.0576,-0.0212,0.1357,-0.1383,0.03,-0.0767,0.1434,-0.0911,0.0911,-0.0926,-0.0064,0.0144,0.0087,-0.0046,0.009,-0.0068,-0.0192,-0.0077,-0.0776,0.0482,0.0331,-0.2546,0.0287,0.0002,-0.0491,-0.4252,-0.0686,-0.0086,0.0001,-0.1772,0.1099,0.1139,0.0665,-0.0616,-0.0776,-0.0457,0.0474,0.0321,0.0128,-0.001,0.0817,-0.0071,-0.0539,-0.0351,-0.0396,-0.0329,-0.073,-0.051,0.0078,-0.027,-0.0242,0.0485,0.0503,0.0385,0.081,-0.0768,0.0392,0.0557,0.0798,-0.0755,0.0778,-0.0553,-0.0479,0.0208,-0.0762,0.0813,0.0196,-0.0184,-0.0127,0.0039,0.0305,-0.0085,0.0804,0.0696,-0.0151,0.0684,-0.0197,0.0313,0.0665,-0.042,0.0613,-0.009,0.0,-0.0484,-0.0247,0.0832,-0.0507,0.0672,-0.034,-0.0351,0.0757,0.0799,0.0193,-0.0927,-0.0029,0.0609,-0.0787,0.0842,-0.0167,-0.0447,-0.0796,-0.2132,0.0619,-0.0211,-0.078,-0.0043,-0.0805,-0.1245,0.032,0.0084,-0.0043,-0.1694,-0.0928,-0.004,-0.0041,0.0221,-0.0763,-0.0636,-0.0873,0.0574,-0.2017,-0.0725,-0.007,0.0185,-0.0127,-0.0436,0.0,0.0,0.0,0.0,0.0,0.0,0.0,0.0,0.0,0.0,0.0,0.0],[0.0311,-0.0778,0.0134,-0.0109,0.0319,0.0044,0.04,-0.0611,0.1433,0.1536,0.0398,-0.2928,-0.2919,0.1054,0.0966,0.0431,-0.0804,0.2049,0.0713,0.2119,-0.0463,-0.0372,0.0309,0.074,0.0425,-0.0311,0.0155,-0.0254,-0.0259,0.0108,-0.0449,0.0075,0.0439,0.033,0.0168,-0.0175,0.0243,0.0037,0.0696,0.0319,0.0631,0.0365,-0.0404,-0.022,0.0123,-0.0092,-0.0044,0.0358,0.008,0.0132,-0.052,-0.0745,0.055,-0.0239,-0.0241,-0.0323,0.0278,0.0536,-0.053,0.0622,-0.0301,-0.0013,-0.0079,-0.0834,-0.0301,-0.056,-0.0746,0.0564,0.0097,0.073,0.0799,-0.084,0.0203,0.0173,-0.047,0.0106,0.0768,0.0103,-0.0413,0.0212,-0.0566,0.0703,0.0822,-0.0078,-0.0807,-0.013,0.0031,-0.0774,0.0299,0.0161,-0.0561,0.0517,-0.021,-0.0782,0.0303,-0.0112,0.0623,0.0,-0.0147,-0.0421,-0.0689,0.0779,-0.0459,-0.0628,0.0431,0.073,0.0653,0.0016,-0.2166,-0.0162,0.0199,-0.0062,0.0175,-0.0327,0.0482,0.0312,-0.0297,0.0205,-0.0092,0.0267,-0.0273,0.0398,-0.0457,-0.001,-0.0139,0.0211,0.0267,0.0658,0.0502,-0.0158,-0.0128,0.0601,-0.0047,-0.0483,-0.0045,0.0164,0.0463,-0.0423,-0.0007,-0.0391,-0.0623,0.0,0.0,0.0,0.0,0.0,0.0,0.0,0.0,0.0,0.0,0.0,0.0],[0.0069,0.0143,0.0058,0.0787,-0.0455,0.1252,-0.0625,0.0004,-0.2302,-0.0324,0.0696,-0.1051,-0.1819,0.0133,-0.169,0.0087,0.0354,-0.3631,0.0411,-0.05,0.065,-0.072,0.0036,-0.0531,-0.1048,-0.0079,-0.1178,0.0884,0.0725,0.0415,0.0373,0.0517,-0.03,-0.0256,0.0962,-0.0511,0.017,-0.0787,0.0977,-0.0471,0.1335,-0.0633,-0.0104,-0.0494,0.042,0.0153,0.1239,-0.0593,0.0422,-0.0415,-0.0771,0.0226,0.0326,-0.0165,0.0584,0.015,0.0567,-0.0517,0.065,-0.005,-0.0219,0.0187,-0.0151,0.0289,-0.0374,-0.0516,0.0717,0.0415,0.08,-0.0032,0.0346,-0.0799,0.0652,-0.0596,-0.0833,0.0675,-0.0672,0.0095,-0.0318,-0.006,0.0724,0.0268,-0.0694,-0.0815,-0.0535,0.028,-0.0166,0.0238,-0.0608,0.002,-0.0318,0.018,0.0458,0.0213,-0.0133,-0.0291,0.0843,0.0,-0.07,-0.0456,0.0662,-0.0383,-0.0327,0.1739,0.0083,-0.0503,-0.0674,-0.0047,0.0969,0.0757,-0.012,0.0755,0.0037,-0.029,0.0272,0.0687,-0.1086,0.063,0.0052,-0.0658,0.0441,0.0491,-0.0073,0.0652,-0.0796,0.0041,-0.1535,0.0286,-0.0528,0.0239,-0.019,0.0772,-0.0358,0.1235,-0.068,0.0654,-0.0435,-0.0494,-0.0261,-0.0554,-0.0864,0.0,0.0,0.0,0.0,0.0,0.0,0.0,0.0,0.0,0.0,0.0,0.0],[0.0132,0.0296,-0.0088,-0.0192,-0.0373,0.3326,-0.0907,0.142,-0.0862,0.1693,0.1488,-0.0193,-0.156,-0.1625,-0.0175,-0.071,-0.0026,0.3022,-0.0212,0.0367,-0.0035,-0.0045,0.0761,-0.0251,-0.0637,0.0549,-0.0287,-0.0333,-0.01,-0.0091,0.0046,0.029,0.0517,0.0445,0.0323,0.0088,0.0298,-0.0619,-0.0156,-0.016,-0.1916,0.037,-0.0106,0.0415,0.0016,-0.0475,0.034,0.0604,0.0019,-0.076,-0.0413,0.0363,0.0422,-0.0482,0.0397,-0.0144,-0.0097,0.0255,0.0654,0.0268,-0.0667,-0.0793,0.0296,0.0257,0.0755,0.0615,-0.0568,-0.075,0.0766,0.0147,0.0354,-0.0065,0.0369,0.0786,-0.0162,0.0731,-0.0295,-0.0144,-0.0381,-0.0413,0.028,-0.0664,-0.0279,0.0557,0.0482,-0.0225,-0.0624,-0.0189,-0.0545,0.0723,0.0404,-0.0675,-0.003,0.0029,0.0096,0.0737,-0.0766,0.0,-0.0515,-0.0612,-0.0633,-0.0163,0.0406,0.0074,-0.0065,-0.0683,0.0572,-0.073,0.0516,-0.0255,0.0255,0.0797,-0.0597,-0.0861,0.0369,0.0372,0.0059,0.0178,0.0144,0.0345,-0.0035,-0.0357,-0.0572,-0.0257,-0.0017,0.0166,-0.0962,-0.0521,0.0389,-0.0152,-0.0416,0.0087,-0.056,0.0309,0.0631,-0.0109,-0.0154,-0.0404,-0.082,0.0496,0.0157,0.0,0.0,0.0,0.0,0.0,0.0,0.0,0.0,0.0,0.0,0.0,0.0],[0.0659,0.06,0.0105,0.0482,0.0453,0.0368,-0.2437,-0.103,-0.0506,0.0383,0.1495,0.1643,-0.2426,-0.1794,-0.0568,-0.0269,-0.0053,-0.2256,0.3117,0.0281,-0.0107,0.0401,0.0401,0.0021,0.0426,-0.0222,0.0498,-0.0318,0.0251,0.0295,0.0214,0.0093,-0.0517,-0.0417,-0.0222,-0.0077,-0.0139,-0.0184,-0.0132,-0.0785,-0.309,0.0061,-0.0141,0.0347,-0.0048,-0.0125,0.0099,-0.0142,0.0317,0.0102,-0.0717,-0.0386,-0.0621,-0.0372,0.0456,-0.0508,0.0619,-0.0585,-0.0618,0.021,0.0558,-0.0121,-0.0439,-0.0106,-0.0194,0.0294,0.0103,-0.0061,-0.0361,0.0106,-0.0358,-0.0652,0.0601,-0.0225,-0.0181,-0.0705,-0.004,0.0404,0.073,0.0109,-0.0725,0.0275,0.0377,0.0229,0.0174,-0.0508,-0.0676,-0.0037,-0.0168,0.0193,-0.0009,0.0305,-0.0673,0.0831,0.0169,0.0106,-0.0438,0.0,-0.0775,-0.0209,-0.0416,-0.028,-0.0011,0.0647,-0.0081,0.0147,-0.0425,0.0149,0.0726,0.0118,-0.0035,0.0189,-0.0376,0.0042,-0.0006,-0.0371,-0.0298,-0.0132,0.0142,0.033,0.0175,0.0093,0.0104,0.0169,0.0062,0.0103,0.0783,-0.001,0.0075,-0.0015,0.0937,0.0021,-0.0423,0.0271,0.0111,0.0454,-0.0043,-0.0158,-0.0101,0.0029,-0.0404,0.0,0.0,0.0,0.0,0.0,0.0,0.0,0.0,0.0,0.0,0.0,0.0],[-0.0211,0.0931,-0.0857,-0.0703,-0.0005,-0.0194,0.1044,-0.0094,-0.2952,0.1468,-0.1061,-0.1612,0.2665,-0.199,-0.1644,0.0233,-0.0142,0.2817,-0.0114,-0.0358,0.0319,-0.0266,-0.0635,-0.0416,-0.0076,0.0861,0.0644,-0.0226,-0.1039,0.0094,0.033,-0.0487,0.0867,0.0619,0.0992,-0.0401,0.0991,-0.0667,-0.0134,-0.0338,-0.2649,0.0265,0.0634,0.0193,-0.0312,0.0645,0.0366,-0.0755,-0.032,-0.0705,-0.0089,-0.0288,-0.0057,-0.0054,-0.046,0.0821,0.0465,-0.011,0.0442,-0.006,-0.0142,-0.0092,-0.0514,0.0502,0.0797,0.0559,-0.0817,-0.0174,-0.0661,0.0553,0.0165,0.0036,-0.0602,0.0112,-0.078,-0.031,0.0341,0.0044,0.0363,0.063,0.0763,-0.0289,0.0232,0.0238,0.0187,0.0176,0.0353,-0.0238,0.0751,-0.0807,0.0607,0.0022,0.0249,0.0699,0.0513,0.0334,-0.0596,0.0,-0.0775,0.0817,0.0335,0.025,0.0671,-0.0347,-0.0647,-0.0633,0.0449,-0.0733,0.0052,-0.1147,0.0846,-0.0016,-0.0509,-0.0739,0.0497,0.0216,-0.024,0.0496,0.0809,0.0731,0.0851,0.1061,0.0439,-0.0154,0.1135,-0.0556,-0.042,0.0268,-0.0138,0.0542,-0.0494,-0.0596,-0.1212,0.0234,-0.01,0.0631,0.0824,0.0395,-0.0002,-0.1056,-0.0203,0.0,0.0,0.0,0.0,0.0,0.0,0.0,0.0,0.0,0.0,0.0,0.0],[0.0394,0.0216,-0.0055,-0.028,0.0152,-0.0281,-0.018,0.15,-0.2551,-0.2172,0.0238,0.1068,0.1613,-0.3641,0.0963,-0.0202,-0.0434,0.087,-0.0798,0.066,-0.0602,-0.0266,-0.0192,-0.0247,0.0149,0.0221,0.0457,0.0514,0.0501,-0.0019,0.014,-0.0195,0.0297,-0.0766,0.0436,-0.0015,-0.0582,0.0479,-0.0671,-0.0709,0.0583,-0.0012,0.0297,0.0387,0.0455,-0.0093,0.022,0.0516,0.0068,0.0719,-0.0612,-0.049,0.0579,-0.0244,0.0044,0.0259,0.0487,0.018,0.0433,0.0204,0.0342,-0.0281,0.0377,-0.0115,-0.0724,-0.0428,-0.0581,0.0826,-0.0542,0.0242,0.0012,0.066,0.0302,-0.041,0.0332,0.0552,-0.0199,-0.0671,0.0216,-0.0348,0.0475,0.0436,-0.0225,-0.0525,-0.0295,-0.0724,0.0661,0.0154,-0.0751,-0.0027,-0.0505,-0.0819,-0.0016,-0.044,-0.0358,0.0508,0.0843,0.0,-0.0202,-0.0097,-0.016,-0.0798,0.0662,0.167,-0.0357,-0.0259,0.0686,0.0681,0.1264,-0.0128,-0.0228,0.0587,-0.0396,-0.0112,-0.015,0.0006,-0.0215,0.079,-0.0488,-0.0033,0.0023,0.0038,-0.0445,0.0179,0.0183,-0.0082,0.0518,0.0088,0.0161,0.0249,0.0718,-0.0298,-0.0223,-0.0165,0.0001,0.0511,0.0438,0.0284,-0.0695,0.0118,0.0662,0.0,0.0,0.0,0.0,0.0,0.0,0.0,0.0,0.0,0.0,0.0,0.0],[-0.03,-0.0327,0.0139,-0.0371,-0.0171,0.3282,-0.153,-0.1595,-0.2389,-0.2276,0.3052,-0.152,-0.2479,-0.2002,0.0653,0.0099,0.0508,0.0848,0.1498,-0.0116,-0.0073,0.0192,-0.0546,0.0356,-0.0071,0.0286,-0.0213,0.0176,-0.0484,-0.0344,-0.0123,0.0654,-0.0142,0.026,0.0696,0.0662,0.035,0.0319,0.0136,-0.055,0.0886,0.0423,0.0362,0.0233,0.0851,0.0279,-0.0256,-0.0386,-0.0243,0.0138,-0.036,-0.0451,-0.0678,-0.0256,-0.082,0.057,0.0207,-0.0257,0.0262,0.0619,-0.0843,-0.0145,0.0529,-0.0334,-0.0773,0.023,-0.052,0.0631,-0.0336,0.037,0.0233,0.0015,-0.0653,-0.0641,-0.0812,-0.079,0.0522,0.0771,0.0619,0.0491,0.02,-0.0339,-0.0103,0.0678,0.0277,0.0472,-0.0639,-0.0796,-0.0518,0.0354,0.0215,-0.0707,-0.0609,-0.0369,0.0721,-0.0452,0.0747,0.0,0.008,-0.0644,-0.0783,0.0264,0.0514,0.0859,0.0296,-0.0474,0.0634,0.084,0.1268,0.0354,0.0063,-0.0439,0.0183,0.011,-0.001,0.0084,0.0316,0.0216,0.0221,0.058,0.0188,0.0237,0.0154,0.0223,-0.0144,0.0189,0.046,-0.0279,-0.0405,-0.0167,0.0403,0.0625,0.0518,-0.0035,-0.0361,0.0279,-0.0013,-0.0005,0.0334,-0.0143,0.0126,0.0,0.0,0.0,0.0,0.0,0.0,0.0,0.0,0.0,0.0,0.0,0.0],[0.0747,-0.0902,0.0186,0.0668,-0.0494,0.0857,-0.1596,-0.0058,0.0982,-0.1521,-0.0652,0.1223,0.0076,-0.13,-0.0715,-0.0105,0.0096,-0.2542,0.0699,-0.1201,0.062,0.0051,-0.0977,0.0838,-0.0954,-0.0271,-0.0829,-0.005,0.1013,0.0445,-0.0657,0.0741,0.1041,-0.1061,0.0761,-0.0634,0.193,-0.0387,0.0096,0.0302,-0.1815,-0.0781,-0.0144,0.0327,0.0354,-0.0213,-0.0065,0.0285,-0.0376,-0.0809,0.0837,-0.0375,-0.0698,0.011,0.0057,-0.0544,0.0109,0.0492,-0.0795,-0.0332,0.0312,0.0492,0.0471,-0.0786,-0.028,-0.0132,0.0246,-0.0098,0.041,-0.0246,0.0275,-0.062,-0.0261,-0.0416,0.0119,0.0371,-0.06,0.0237,-0.083,-0.07,0.0166,0.0553,-0.0259,-0.0286,0.0486,0.0004,0.0416,-0.0834,0.0104,0.0574,0.0722,-0.0437,-0.0495,0.0781,0.0093,-0.0323,-0.0427,0.0,-0.0138,-0.0728,0.0185,-0.0669,0.0648,0.147,0.0196,-0.068,-0.0648,0.0761,0.2243,-0.0379,-0.0483,0.0011,0.0228,-0.0174,-0.0007,-0.0213,0.0656,-0.0576,0.0184,-0.1424,0.0951,0.1073,0.0158,0.0102,0.1394,0.0146,0.0477,-0.0469,-0.1122,-0.0032,-0.0051,0.0846,-0.0919,0.0925,0.0297,0.0241,0.021,0.0228,-0.0095,-0.0528,0.0026,0.0,0.0,0.0,0.0,0.0,0.0,0.0,0.0,0.0,0.0,0.0,0.0],[0.0305,-0.0284,-0.0239,0.0421,0.0313,-0.2264,-0.0632,-0.1661,-0.2567,-0.1234,-0.0834,0.139,0.1983,0.2647,-0.0915,0.0504,0.0466,-0.1583,-0.0849,-0.0144,0.0283,0.0004,-0.0178,0.0534,-0.0131,0.0696,0.0868,0.0363,0.001,-0.0753,-0.1024,0.0332,0.0016,0.0458,0.0394,0.0253,-0.0475,0.0643,0.0117,0.0667,0.2215,-0.0059,-0.0478,-0.0004,0.065,0.0759,0.0384,0.0303,0.0811,0.0433,-0.083,0.0697,0.013,0.032,0.071,0.067,0.0209,-0.054,-0.0031,-0.077,0.0482,0.0514,0.0306,0.0019,-0.0671,0.0663,0.0426,-0.0182,0.0555,-0.025,-0.0108,0.0193,-0.0076,-0.0631,0.0478,-0.0064,0.0118,-0.0262,0.026,-0.0007,0.0348,-0.052,0.0241,0.0726,-0.007,0.0051,-0.0107,-0.0574,0.0226,-0.0348,0.0821,-0.0168,-0.0067,-0.0449,-0.045,-0.0287,0.0655,0.0,0.0103,0.0539,-0.005,-0.0714,-0.0695,0.0941,0.0069,-0.0312,0.069,-0.035,-0.1618,0.0597,-0.1021,-0.0949,0.0067,0.0558,-0.0434,-0.0971,0.0294,-0.0151,0.0081,-0.0006,-0.0348,0.0032,0.0156,0.0447,-0.0005,0.0152,-0.0334,0.0698,-0.021,0.0175,0.0979,0.0265,-0.026,-0.0347,0.0144,-0.0335,-0.0252,-0.0176,0.03,0.0509,0.0586,0.0,0.0,0.0,0.0,0.0,0.0,0.0,0.0,0.0,0.0,0.0,0.0],[-0.0225,-0.0422,0.0046,0.0146,-0.0389,-0.1387,-0.0284,0.1058,-0.2501,-0.0547,0.0642,-0.3114,-0.158,-0.1446,-0.2019,0.0534,0.0385,0.1797,0.2192,-0.0046,0.0735,-0.0031,0.0417,-0.0529,0.0429,-0.0268,-0.0054,0.0015,0.0429,0.078,-0.0583,-0.0115,-0.0066,-0.0398,-0.0491,-0.0233,0.1081,-0.01,-0.0237,-0.0601,-0.1601,-0.0091,0.0595,0.0786,-0.0611,-0.0601,0.028,0.0362,-0.0585,0.0258,0.0512,0.0117,0.0577,0.0449,0.049,0.0723,0.0726,-0.0692,-0.0056,0.0429,-0.0131,-0.0268,-0.0353,-0.0253,-0.0599,0.0465,0.0393,-0.079,-0.0388,0.0249,0.0279,0.0639,-0.0613,-0.0741,0.0196,0.0116,0.0523,0.0232,0.0375,0.054,0.0404,0.0082,-0.0808,-0.0553,0.0347,-0.002,-0.0658,0.0557,-0.0484,-0.0194,-0.0464,0.0785,0.0093,0.0646,0.0167,-0.0081,-0.0589,0.0,0.0649,-0.0142,-0.0646,-0.0379,-0.0035,0.1118,0.0103,0.0813,-0.029,0.0685,-0.1559,0.0217,0.0231,0.0413,-0.0173,-0.0116,0.0675,0.0047,0.0293,0.0482,0.065,0.0392,