{"archetype":"Norn_low","input_dim":153,"output_dim":13,"weight_names":["hunger","thirst","pain","fatigue","fear","anger","loneliness","boredom","curiosity","escape","social","rest","limbicInfluence"],"best_val_loss":0.0005412635927062551,"weights":{"net.0.weight":[[-0.0002,-0.0256,0.0212,0.0084,-0.0423,0.2486,0.0501,-0.211,0.1018,0.1336,0.1788,0.184,-0.3187,0.1603,-0.3227,0.0308,0.0096,-0.2204,-0.194,0.0284,-0.0251,0.0097,0.0368,0.0685,-0.1332,0.0351,0.0012,-0.0607,0.0667,-0.0239,0.0582,-0.0741,0.0854,0.0485,0.006,-0.0608,-0.1255,0.0094,-0.0656,0.0357,0.2208,-0.0908,-0.0621,-0.0871,-0.0139,0.002,0.0227,0.0824,-0.0503,-0.0677,0.0075,0.0659,0.0704,0.0734,-0.0588,-0.0136,0.056,0.064,-0.0083,-0.0789,-0.0398,-0.0077,-0.0425,0.0122,0.027,-0.073,-0.0454,0.0822,-0.0046,0.0529,0.0216,-0.0613,-0.0545,-0.0446,0.0185,-0.0208,-0.0199,-0.067,-0.0508,0.055,0.0641,0.0577,-0.0035,-0.0163,0.0395,-0.0114,-0.0549,0.0133,-0.0006,-0.0483,0.0075,0.0055,0.0822,-0.0054,-0.0273,-0.0751,0.0141,0.0,0.0734,-0.0782,0.0225,-0.0246,0.0552,0.0185,0.0575,0.0232,-0.0113,-0.0793,0.1568,0.0217,-0.1372,-0.0347,-0.0484,0.0653,-0.0989,0.024,0.0296,0.0867,-0.0047,0.0714,-0.0653,-0.1044,0.0491,0.0168,0.0485,0.0109,-0.0362,-0.0492,-0.0138,0.072,0.0029,0.0116,0.0385,0.1123,-0.0331,-0.1157,0.0389,0.0127,-0.0832,-0.0998,0.0614,0.0,0.0,0.0,0.0,0.0,0.0,0.0,0.0,0.0,0.0,0.0,0.0],[0.0005,-0.0252,0.0118,0.0383,-0.0038,-0.097,0.1398,-0.1361,0.1743,0.2234,0.3416,0.07,0.2092,0.0816,-0.1185,-0.0168,0.0381,-0.0467,-0.1175,0.0542,0.0272,-0.0039,0.0101,0.0864,0.0197,-0.0075,-0.0047,0.0716,0.0145,0.0039,0.0272,0.0767,0.0361,0.0162,0.0049,0.0012,0.0156,-0.026,-0.0397,-0.0163,-0.0823,0.0116,0.0145,-0.0238,-0.0149,0.0517,-0.0385,0.0173,-0.0057,-0.0607,-0.0109,-0.0495,0.0692,0.057,0.0574,-0.0764,-0.0735,-0.0061,0.0518,-0.0659,0.0154,-0.0146,0.0124,-0.0211,0.0487,0.0497,0.0344,-0.0599,0.0211,0.0155,-0.0284,0.0614,0.0271,-0.043,0.0082,-0.038,0.082,0.0415,0.0285,-0.0633,-0.0245,0.0255,0.0132,0.046,-0.0263,0.0768,0.0692,-0.0099,-0.0016,0.0636,-0.05,-0.0774,-0.0496,0.007,-0.0534,0.0303,0.0588,0.0,-0.2009,-0.0539,-0.0574,0.0747,0.0335,0.0779,0.0815,-0.0292,-0.0527,0.049,-0.1968,-0.0133,-0.0291,0.0077,0.0942,0.0026,0.0211,-0.0271,0.0274,0.0674,0.0528,0.0246,-0.0722,0.0471,-0.007,0.0693,0.0433,0.0197,0.0221,-0.0054,0.054,0.0195,-0.0503,-0.037,-0.06,-0.0086,-0.0316,-0.0105,0.0075,0.0356,0.0164,-0.0377,0.0486,0.0,0.0,0.0,0.0,0.0,0.0,0.0,0.0,0.0,0.0,0.0,0.0],[0.1225,-0.1133,0.006,-0.0501,-0.2009,0.2084,-0.3076,0.0475,0.1397,0.2509,0.0149,-0.4605,0.15,-0.0946,-0.2585,0.0086,-0.0555,0.2719,0.2164,-0.2934,-0.3094,0.0677,0.1321,0.0949,-0.0671,0.0563,0.02,-0.0684,-0.0499,-0.1525,-0.1161,0.0201,-0.1119,-0.1617,0.17,-0.0259,-0.1756,0.0452,-0.0949,0.0193,-0.0731,-0.0227,-0.0771,-0.1082,0.0542,0.0553,-0.1003,0.0364,-0.0701,-0.0403,-0.0093,0.0713,0.035,0.0391,0.0689,0.0234,-0.0486,-0.043,0.0002,0.0385,-0.0749,-0.0034,-0.0378,0.0629,0.0005,-0.009,-0.0207,0.0576,0.0698,0.0438,0.0027,-0.0334,-0.0744,0.0075,-0.0364,0.014,0.0596,-0.0093,0.015,-0.0584,0.0496,0.015,-0.0024,0.0487,0.0266,-0.0799,0.0479,0.0157,0.0798,-0.0319,-0.016,-0.0616,0.0412,-0.0832,-0.0133,0.0386,-0.0421,0.0,-0.07,-0.0271,0.0118,-0.0198,-0.0242,0.0659,0.0386,0.0622,-0.0,-0.0813,0.0268,-0.0427,-0.3057,0.0093,0.0018,-0.0978,0.0871,-0.0447,0.1241,0.2096,0.1174,-0.2221,-0.0864,0.1549,0.0139,0.1141,-0.138,-0.0417,-0.008,-0.0515,0.0934,0.0806,0.0554,0.0989,-0.0417,0.0665,0.0534,0.1445,0.078,0.1029,-0.1397,-0.0674,0.0718,0.0,0.0,0.0,0.0,0.0,0.0,0.0,0.0,0.0,0.0,0.0,0.0],[0.0672,-0.0916,-0.0161,-0.0244,0.0684,0.087,-0.0895,0.335,-0.2926,-0.2871,0.1383,0.0878,0.1743,-0.1902,-0.0767,0.0184,-0.042,0.3145,-0.0014,-0.0694,0.0327,-0.019,-0.0302,0.0564,-0.0211,0.0038,-0.0144,0.0353,0.0127,-0.0525,-0.0402,0.0415,0.0061,-0.01,-0.0065,0.0231,-0.008,0.0503,0.0148,0.0346,0.1247,0.034,-0.0517,0.032,0.0231,0.0894,-0.006,0.0694,-0.0656,-0.0758,0.0638,-0.0224,0.0324,0.0323,0.0334,0.0198,-0.0471,0.0307,-0.0495,-0.0791,-0.0235,0.0269,-0.0536,-0.0291,-0.0091,0.0454,-0.0265,0.0041,0.0413,0.0637,-0.0818,0.0411,0.0593,-0.0379,-0.0186,-0.033,0.0498,-0.0357,-0.0096,-0.0151,-0.0345,0.0059,0.0402,0.03,-0.0162,-0.0011,0.0716,-0.0657,-0.054,0.0484,0.0711,-0.0411,0.0062,-0.0056,0.0415,-0.0725,0.069,0.0,-0.0211,0.0729,-0.0401,0.0581,0.0093,-0.0573,-0.0082,-0.0474,-0.0713,0.0019,-0.0606,-0.0142,0.044,0.0121,-0.0019,0.0659,0.0163,0.018,-0.0485,-0.0685,0.0002,-0.0291,0.0441,-0.0175,0.0092,-0.0259,0.0149,0.0341,0.0062,0.0021,0.0278,0.0314,0.0313,-0.002,-0.0328,0.0176,-0.0225,0.026,-0.0182,0.0177,-0.0245,0.0264,0.0445,0.0,0.0,0.0,0.0,0.0,0.0,0.0,0.0,0.0,0.0,0.0,0.0],[0.0512,-0.0088,-0.0348,-0.0107,-0.0293,-0.1504,0.0716,-0.1324,-0.1165,-0.0298,-0.2934,0.2715,0.1853,0.3048,-0.0133,0.0037,0.0215,0.1089,-0.0035,-0.012,-0.0103,-0.0004,-0.026,0.0343,-0.0294,-0.0719,-0.0329,0.0421,-0.0185,0.0154,-0.017,0.0157,0.0453,-0.045,0.0355,0.0313,0.0633,0.0469,0.0413,-0.0491,0.1316,-0.0347,0.0147,0.0407,-0.0312,0.0027,0.0071,-0.0624,-0.0292,-0.0114,-0.015,-0.0495,-0.0673,-0.0087,0.0162,-0.0102,-0.0324,0.0465,-0.0507,0.0392,-0.0513,0.0364,-0.0202,0.0689,-0.0774,-0.0325,-0.0777,0.0459,0.0085,-0.0691,-0.0642,0.0289,0.0605,0.041,0.049,0.076,0.0233,-0.0133,0.0387,-0.0044,0.0072,0.0723,0.0654,0.0353,0.0349,-0.0382,0.043,-0.0206,0.0701,-0.0341,-0.0189,-0.0565,-0.0215,-0.0065,0.076,0.0492,-0.0282,0.0,0.0259,0.015,0.0021,0.0277,0.0283,0.0693,-0.0403,0.0129,-0.074,0.0,-0.007,-0.0288,0.0264,0.0759,0.0087,0.017,0.0111,0.0138,0.0302,-0.0502,0.0132,-0.0399,0.0064,0.0484,0.0229,0.032,-0.0131,0.0035,0.0157,0.0215,0.0244,-0.0321,-0.0066,0.0025,-0.0226,0.0477,0.0732,0.0315,0.019,0.0147,-0.0781,-0.0089,0.0909,0.0,0.0,0.0,0.0,0.0,0.0,0.0,0.0,0.0,0.0,0.0,0.0],[-0.034,0.0528,0.0071,-0.0616,-0.04,-0.0323,-0.1697,-0.0014,0.0276,-0.2381,0.079,0.2208,-0.17,-0.3292,0.018,-0.0142,0.0246,-0.0264,-0.1144,-0.0073,-0.015,-0.0517,-0.0073,0.0305,-0.0332,0.0487,-0.0706,-0.0257,-0.0109,-0.0623,0.0703,0.0529,0.0237,0.069,0.0232,0.062,-0.0254,-0.0144,-0.0278,0.0741,0.2233,0.0544,0.054,0.0106,0.0315,0.0375,-0.0111,-0.0371,-0.0785,-0.0232,-0.0165,0.0579,0.0644,0.0304,-0.0247,0.033,-0.0375,0.0645,0.0019,-0.0712,0.0365,0.0291,-0.0676,0.028,0.0827,0.0743,0.0437,-0.0629,0.0642,-0.0628,0.0076,-0.0483,0.0224,0.0007,0.0406,0.0584,0.0034,0.0457,0.033,-0.0118,0.0397,0.0806,-0.0406,0.051,0.0478,0.0721,0.0315,-0.0615,-0.0576,0.0098,-0.0194,0.0803,0.0346,-0.037,0.0799,0.0763,0.0164,0.0,0.1398,-0.0032,-0.0825,-0.0118,-0.0042,-0.0641,0.0674,-0.0414,0.0355,-0.0347,0.2102,-0.043,0.0111,0.0026,-0.0246,-0.0144,-0.0084,0.0146,-0.0228,-0.0344,0.087,0.0607,0.0601,-0.0323,0.0085,-0.0883,-0.0273,0.0417,-0.003,0.0545,0.0234,0.0661,-0.0244,0.0016,0.0031,-0.0401,-0.0167,0.0019,0.0838,0.0192,0.0228,0.0444,-0.0478,0.0,0.0,0.0,0.0,0.0,0.0,0.0,0.0,0.0,0.0,0.0,0.0],[-0.0005,0.0526,0.0385,0.0841,0.0729,0.1202,0.1743,-0.0209,-0.2064,0.218,-0.0591,0.048,-0.1966,-0.3134,-0.0207,0.0316,0.0019,0.1408,0.0696,-0.059,0.0646,-0.0648,-0.0322,-0.0072,-0.0699,-0.0306,0.0164,0.0359,-0.0827,-0.0399,0.0558,0.0352,0.042,-0.0114,-0.0034,0.0159,0.006,0.0414,0.0652,-0.0616,0.1397,0.0412,0.0637,-0.0106,-0.0373,-0.0023,0.0503,-0.0327,0.032,-0.0819,-0.0294,0.0141,-0.0806,0.0768,-0.0056,-0.073,-0.0454,-0.053,0.0249,-0.0411,0.0627,0.0788,-0.0167,0.0489,-0.0004,0.0436,-0.0534,0.0017,0.0452,0.0145,-0.0288,-0.0538,-0.0348,0.0732,0.051,0.0007,0.0797,-0.0141,0.0327,0.0626,0.0784,-0.0637,0.0185,-0.0723,0.0083,0.0196,-0.0049,0.0537,-0.0559,0.0536,-0.0262,-0.0389,0.016,0.0302,0.061,0.056,0.0324,0.0,0.1512,-0.0161,-0.0484,-0.0183,-0.0534,0.0612,-0.0149,-0.001,0.0804,-0.0144,-0.2305,-0.0733,-0.0053,-0.0535,0.0464,-0.0076,-0.0236,-0.0095,-0.0439,-0.0162,0.0477,0.0245,-0.0588,-0.0012,-0.0373,-0.0307,0.0018,0.0445,-0.0419,-0.0025,0.0073,0.0329,0.0431,0.0084,-0.0046,-0.0267,0.0805,0.0532,-0.0566,0.0396,0.046,0.0627,0.0406,0.0,0.0,0.0,0.0,0.0,0.0,0.0,0.0,0.0,0.0,0.0,0.0],[0.0116,0.1248,-0.0034,-0.0345,-0.0528,-0.0737,-0.0508,-0.0594,0.2284,0.0017,0.1456,-0.0967,-0.1639,-0.2496,-0.1323,-0.1113,-0.0636,0.1678,-0.0309,-0.1176,0.0183,-0.0103,0.0389,0.0158,0.0615,0.1325,-0.0653,-0.0316,0.1,0.0377,-0.0532,-0.0162,-0.0965,-0.0212,-0.009,-0.0149,0.0539,0.1121,-0.0663,0.0711,-0.0186,0.0829,0.097,-0.0393,0.0563,-0.0583,0.0226,0.0691,-0.0147,-0.0624,-0.0658,0.0683,0.0831,0.0014,0.026,-0.0613,0.004,0.0154,-0.0001,0.0407,0.0719,0.0286,-0.0709,-0.0584,0.0319,-0.0669,0.0587,-0.0187,-0.0048,-0.0557,-0.0119,-0.0241,-0.0332,-0.0101,-0.0807,-0.0519,-0.0378,-0.0107,0.0529,0.0176,-0.0337,-0.0189,-0.0784,-0.0724,0.0803,0.0041,0.0183,0.0145,-0.0414,0.0736,0.0009,0.0487,-0.0334,0.0473,-0.0525,-0.021,-0.079,0.0,0.131,-0.0373,-0.0113,-0.0821,-0.0561,-0.0197,-0.0589,-0.0656,-0.0237,-0.0268,-0.0551,-0.0209,-0.0162,0.0142,-0.0403,0.0151,-0.038,0.0586,0.0119,0.0982,-0.0465,-0.0896,-0.0034,-0.0177,-0.0014,0.0115,0.0129,-0.0752,-0.0078,0.0672,-0.0067,-0.0127,0.0367,-0.025,-0.0601,-0.0136,-0.0478,-0.0222,-0.0318,0.0474,0.1577,0.0344,0.0812,0.0,0.0,0.0,0.0,0.0,0.0,0.0,0.0,0.0,0.0,0.0,0.0],[-0.0259,-0.0209,-0.0145,-0.0041,-0.0843,0.0204,-0.051,-0.0936,0.2445,0.1642,-0.0864,-0.0301,-0.3498,-0.3188,0.111,-0.0015,-0.0466,-0.0032,0.1985,0.0629,0.0304,-0.0888,-0.0766,-0.0002,-0.064,-0.0224,0.0759,0.0923,0.1213,-0.043,0.0539,0.1015,-0.0042,-0.0917,0.0284,-0.0097,0.1101,0.1132,-0.0588,0.0682,0.1322,-0.0368,0.0081,0.0735,-0.0454,-0.0594,0.0097,-0.0192,0.0773,0.0191,0.0373,-0.0626,0.0671,0.0201,0.0802,-0.0513,0.0233,0.0111,-0.0089,-0.0454,-0.0757,0.0217,-0.0527,-0.0834,0.0754,0.0256,-0.0654,0.0542,-0.0584,0.0725,-0.0358,-0.0134,0.0301,0.0607,-0.0245,0.0439,-0.0072,-0.0609,0.0507,0.08,-0.044,-0.0138,0.008,0.0217,-0.019,0.0712,-0.0797,0.0222,0.0085,0.0044,0.0444,0.0504,0.0739,0.0415,0.0016,0.0155,-0.0083,0.0,0.0057,0.0438,0.0282,0.0725,-0.0415,0.054,-0.0582,0.03,-0.0315,-0.049,-0.0506,-0.0435,-0.0975,-0.0203,-0.0633,-0.118,0.1391,0.1509,-0.1957,0.1558,-0.0978,0.002,-0.1104,0.1154,-0.0504,0.0813,-0.0376,-0.0101,-0.0978,0.048,0.0952,0.0887,0.0612,0.0142,0.1015,0.0134,-0.0546,-0.0402,-0.0401,0.0975,0.0155,0.0744,0.1226,0.0,0.0,0.0,0.0,0.0,0.0,0.0,0.0,0.0,0.0,0.0,0.0],[0.0326,0.0102,-0.0229,0.0388,-0.0218,0.2046,-0.0181,0.2354,0.2836,-0.1773,-0.2976,-0.1527,-0.2679,0.1799,-0.0916,0.0677,-0.0296,-0.2702,-0.1021,-0.0041,0.0401,-0.0253,0.0333,0.0223,-0.074,0.0044,0.0152,0.034,0.0082,-0.0111,0.0243,0.0241,0.0451,0.0584,0.0409,0.0548,0.0263,0.0107,-0.0277,0.0338,-0.0751,0.0319,-0.0239,0.0297,0.0405,0.0207,0.0648,-0.0771,0.04,0.0255,0.0709,-0.02,0.0843,-0.0821,0.0265,-0.0699,0.0436,0.0014,-0.0419,-0.0656,0.0152,-0.071,0.0329,0.0131,-0.0499,0.067,-0.003,0.0444,-0.071,-0.0131,0.0267,-0.0021,-0.0077,0.034,0.0497,0.048,-0.061,-0.0015,0.0056,-0.0709,0.0237,-0.0441,0.0267,-0.0473,0.0789,-0.0834,-0.0295,-0.0097,-0.005,-0.064,0.0147,0.0219,0.0628,0.0688,-0.0306,0.0751,-0.0402,0.0,-0.0224,-0.0448,0.0439,-0.0475,0.0295,-0.054,-0.0253,-0.0455,-0.0271,0.0085,0.075,-0.0191,0.0093,-0.0143,0.0447,-0.0339,-0.0078,-0.0369,0.0351,0.0033,0.0314,0.0009,-0.0067,0.0149,0.0174,0.013,-0.037,0.0415,0.0087,0.007,0.0424,-0.0049,0.0599,0.0124,0.0547,-0.0082,-0.0147,0.0132,0.0866,-0.0192,0.0024,-0.0459,0.011,0.0,0.0,0.0,0.0,0.0,0.0,0.0,0.0,0.0,0.0,0.0,0.0],[0.0806,0.0149,-0.0554,-0.0335,-0.0356,-0.1211,-0.1436,-0.0998,-0.2059,-0.3081,0.0702,0.2147,0.1378,0.0733,-0.0783,-0.0052,-0.0251,0.2234,0.0989,-0.0001,-0.0559,0.0745,-0.0606,-0.08,0.0313,-0.0446,0.0911,0.015,-0.0337,0.0748,0.0066,-0.0058,-0.007,0.0347,-0.108,0.0346,-0.0781,0.051,-0.034,-0.0752,-0.1473,-0.0039,-0.0795,-0.0608,-0.0075,-0.0191,0.0849,-0.0118,-0.0123,-0.0342,0.0121,0.0836,0.0064,-0.0704,-0.0752,-0.0561,0.0483,-0.027,0.068,0.0664,-0.0163,-0.0407,0.0131,-0.0523,0.0665,-0.0114,-0.0197,0.032,0.025,0.018,0.0718,-0.0826,-0.0528,-0.0682,-0.0687,-0.0173,-0.0812,-0.0023,0.0131,0.0798,0.0657,-0.0805,-0.0781,0.0756,0.0172,0.0132,-0.0786,0.0553,-0.0088,0.0504,-0.0078,0.0253,-0.0181,-0.0342,-0.0164,-0.0383,-0.0516,0.0,0.017,0.068,-0.0548,0.0012,-0.0424,-0.0177,-0.0776,0.0131,0.0679,-0.023,0.3033,-0.0662,0.0794,-0.148,-0.1538,-0.0914,0.0192,-0.0127,0.1181,0.0361,-0.0565,0.0235,-0.0099,-0.0384,0.0381,0.0517,-0.026,0.0048,0.0321,0.0331,-0.0449,0.0929,0.0446,0.072,-0.056,-0.0346,0.1095,0.0524,0.0563,-0.0061,-0.0294,-0.0404,-0.0349,0.0,0.0,0.0,0.0,0.0,0.0,0.0,0.0,0.0,0.0,0.0,0.0],[0.0286,-0.0124,-0.0203,-0.139,-0.0906,0.2987,0.001,-0.2299,-0.0183,-0.1588,-0.1997,-0.2038,0.1954,0.1721,-0.0185,-0.0514,-0.0339,0.2306,-0.0346,-0.0615,0.1042,-0.0402,-0.1024,0.1022,0.0192,0.0539,0.1234,0.0497,0.0556,-0.0644,-0.0774,-0.0734,0.0532,0.0529,-0.1217,0.0809,-0.0879,0.0416,0.0144,-0.031,-0.1906,0.0039,0.0971,-0.0407,-0.0645,-0.0915,0.014,0.0068,-0.0269,-0.0688,-0.0804,0.0819,-0.0404,0.0142,0.047,0.0783,0.0791,-0.0541,0.0535,0.011,0.0038,0.05,0.0678,-0.0003,0.0058,-0.0463,-0.0739,-0.0516,-0.0406,-0.0781,0.0492,0.0544,-0.0216,0.0558,0.0767,-0.0564,-0.0555,-0.0405,0.0526,-0.0791,0.0027,0.0831,0.077,0.0723,-0.0332,-0.0754,0.0011,-0.0097,0.0645,0.0334,-0.0483,-0.0512,-0.0747,-0.0125,-0.0226,0.0111,0.0342,0.0,-0.1579,0.0374,0.0116,-0.0828,-0.026,0.0588,-0.0238,-0.0464,0.0461,-0.0781,-0.1404,-0.0751,-0.0494,0.1378,-0.0257,-0.0037,0.2006,-0.142,-0.0734,0.0722,-0.0145,-0.0374,0.0567,0.0071,-0.0618,-0.1235,0.0203,0.0113,0.009,-0.1075,0.0002,-0.0049,-0.016,-0.1027,-0.0184,0.0184,-0.0309,-0.1277,-0.1446,-0.0714,0.092,-0.0019,-0.0175,0.0,0.0,0.0,0.0,0.0,0.0,0.0,0.0,0.0,0.0,0.0,0.0],[-0.0123,-0.209,0.1036,0.0042,-0.0102,0.1828,-0.005,-0.118,-0.1286,-0.1869,-0.1956,0.0546,-0.1537,0.2086,-0.0785,-0.1583,-0.0768,0.2978,-0.3009,-0.1193,-0.0097,0.1351,0.0404,0.0962,0.0553,-0.0602,0.2031,-0.044,0.0311,-0.0774,0.1289,0.2381,0.0293,0.0235,-0.4033,-0.0077,0.0319,-0.0762,0.0206,0.0758,0.0225,-0.008,0.0618,-0.1653,0.0936,-0.0728,-0.0059,-0.0482,-0.0041,0.0483,-0.0315,0.0273,0.0738,-0.0124,0.0831,0.0753,0.062,-0.0097,0.0483,-0.0595,-0.0753,0.0099,0.0384,-0.0258,-0.0487,-0.0839,0.0229,0.0744,-0.0267,-0.0409,0.0109,-0.0718,-0.0723,-0.0602,-0.0162,0.0304,0.0475,0.0214,-0.0514,-0.0624,-0.0232,-0.0145,-0.0473,0.0041,-0.0041,-0.035,0.041,-0.059,-0.0357,-0.0664,0.0487,-0.0609,-0.0647,0.0755,-0.0223,0.0619,0.061,0.0,-0.0942,-0.075,-0.0294,-0.0561,-0.0369,-0.0339,0.0305,-0.0231,-0.0775,0.0334,0.0639,0.0967,0.0977,-0.0615,-0.0127,0.0924,-0.127,0.1173,-0.0698,-0.0491,0.0808,0.0654,0.0752,-0.1148,0.055,0.1077,-0.0231,-0.0579,0.0041,0.0318,-0.0499,-0.08,0.0848,-0.0367,0.0481,0.0546,0.0033,-0.1664,0.0637,0.0628,0.0098,-0.0592,0.1057,0.0,0.0,0.0,0.0,0.0,0.0,0.0,0.0,0.0,0.0,0.0,0.0],[-0.0437,0.0195,-0.0506,0.0803,0.1066,0.164,0.1183,0.0719,-0.1261,-0.1451,0.0084,-0.0048,0.3282,-0.3225,-0.0421,0.0378,-0.0085,-0.1881,0.011,0.1326,0.0152,-0.0767,0.0609,-0.0301,-0.0102,-0.0606,0.0169,-0.0098,-0.0214,-0.0514,0.0357,0.0689,0.0305,0.0321,-0.0418,-0.0005,-0.0314,-0.0232,0.008,-0.0122,-0.1451,0.0898,-0.0319,0.0478,-0.0003,0.0888,0.0037,0.0171,0.0234,-0.0102,-0.0742,0.057,0.0336,-0.015,0.0571,-0.0642,0.0282,0.0277,-0.0576,0.0547,-0.0648,0.07,-0.0588,0.0016,0.0676,0.0812,0.0343,-0.0313,-0.0496,-0.0622,0.0781,-0.0172,-0.0412,0.0815,-0.0253,0.0784,0.0107,0.0522,-0.041,-0.0438,-0.0718,0.0483,-0.0201,-0.0711,0.063,0.0517,0.0748,-0.0209,0.0809,-0.0825,0.0268,-0.0296,-0.0508,0.0037,0.0798,-0.0618,-0.0339,0.0,0.1768,-0.0505,0.045,0.0087,0.0552,-0.0638,0.0136,-0.0161,0.0312,-0.0135,-0.1009,0.0101,0.0489,-0.0543,-0.0653,-0.065,0.0283,-0.031,-0.0207,-0.0261,0.049,0.06,-0.0085,-0.0506,0.0292,-0.0952,0.009,0.0663,-0.0272,-0.0657,0.071,0.0776,-0.0564,0.0299,0.0447,-0.0165,0.0333,0.0482,0.0888,-0.0084,-0.048,-0.029,0.0343,0.0,0.0,0.0,0.0,0.0,0.0,0.0,0.0,0.0,0.0,0.0,0.0],[-0.0522,0.0402,0.0133,-0.0018,-0.0185,0.0452,-0.1321,-0.157,0.2994,-0.0985,-0.0292,0.2106,0.3218,-0.073,0.0105,-0.0233,-0.0012,0.0073,0.1219,0.0622,0.0453,0.0109,0.0472,0.0205,-0.0353,0.0291,0.0288,0.066,0.0349,-0.0062,-0.0308,-0.006,-0.0301,-0.0465,-0.0225,0.047,-0.0039,-0.0098,-0.0252,0.0779,0.0691,0.0262,0.0395,-0.0279,-0.0354,0.0427,-0.0036,-0.0563,-0.0055,-0.0563,0.0539,-0.0063,0.0333,-0.0405,0.0737,-0.0136,-0.0117,0.0841,0.0642,0.0566,0.0498,0.0305,-0.0662,0.0315,-0.048,-0.0795,-0.026,0.0165,0.0493,0.0696,0.0347,0.0726,0.0035,0.0236,-0.0784,0.047,0.0073,0.0614,0.01,0.0002,-0.0268,0.0363,-0.0533,-0.0191,0.028,-0.0626,-0.0396,0.0827,0.0128,-0.0238,-0.0636,0.0084,-0.0089,0.0685,-0.0178,0.0487,-0.0524,0.0,-0.024,0.0725,0.0763,0.0097,0.0006,0.0195,-0.0283,0.0692,0.0165,-0.0147,0.1067,0.0757,-0.0421,-0.0025,0.03,-0.0655,0.0228,0.0655,0.0472,0.0287,0.1122,-0.0986,-0.0184,0.0534,0.0207,-0.0038,-0.045,0.0557,-0.0499,0.046,0.0085,-0.0155,-0.0117,-0.0276,-0.0181,-0.0706,-0.0432,-0.0169,-0.0645,0.0558,0.0727,0.0462,0.0396,0.0,0.0,0.0,0.0,0.0,0.0,0.0,0.0,0.0,0.0,0.0,0.0],[-0.1859,-0.1713,0.1433,0.0531,0.0497,-0.0742,-0.2326,-0.5969,-0.0306,0.0708,-0.0311,0.0113,-0.1126,-0.127,-0.2184,0.1492,0.166,-0.0189,0.0742,-0.0652,-0.0046,0.0623,-0.0528,-0.1101,-0.1081,0.1072,0.0193,0.1297,-0.0007,0.0196,-0.0602,0.1559,0.1514,-0.1749,-0.2045,-0.0281,-0.3158,-0.0383,0.2716,0.0169,0.1221,0.1225,-0.1451,0.0392,-0.0712,0.2276,0.0545,0.0323,-0.0096,0.0091,-0.0318,0.0452,-0.0021,0.0617,-0.023,0.0571,-0.0318,0.0447,-0.0104,0.0312,0.0793,0.0375,0.052,0.0541,0.0557,-0.0358,-0.0054,-0.0441,0.0699,-0.0759,0.026,0.0242,-0.0754,-0.0008,-0.0239,0.0512,-0.0485,0.0509,-0.0671,0.0074,0.0355,-0.0649,-0.0717,0.0394,-0.0278,0.0379,-0.0746,0.0155,-0.0465,0.0645,-0.0369,-0.0739,-0.0241,-0.031,-0.0605,0.0617,0.0222,0.0,-0.1173,0.0201,0.0706,-0.0593,-0.0478,0.0539,-0.0187,-0.0784,0.0002,0.0518,0.0791,-0.005,-0.217,-0.0528,-0.0603,-0.0502,-0.0137,0.1351,0.208,-0.1579,0.0083,0.0462,-0.0811,0.1199,-0.1962,-0.0372,-0.0908,-0.0367,-0.0467,0.0864,0.0237,0.1274,0.0915,-0.0144,0.2487,0.0681,0.0521,0.0083,-0.009,0.0559,0.1177,0.1936,-0.3666,0.0,0.0,0.0,0.0,0.0,0.0,0.0,0.0,0.0,0.0,0.0,0.0],[0.0552,0.0027,0.01,-0.0356,0.0034,-0.2962,0.1916,-0.2983,-0.1143,0.3174,0.2087,0.063,-0.2062,0.1051,0.5321,0.0046,0.0212,0.0513,-0.0827,0.0635,0.0613,-0.0024,-0.0407,0.0319,0.0641,0.0314,-0.0412,-0.0307,0.0082,-0.0315,0.0154,-0.1531,0.0006,-0.0425,0.0624,-0.0423,-0.022,0.0245,0.0521,-0.0732,-0.2152,0.0923,0.0265,0.0453,0.1282,0.051,-0.0526,0.0271,-0.0019,-0.0087,-0.0032,-0.0824,0.0135,-0.0661,0.0714,-0.0348,0.042,-0.0758,-0.0627,-0.0794,-0.003,0.0671,-0.0523,0.0331,0.0238,0.0046,-0.062,0.0484,-0.0648,0.0762,-0.0253,0.0555,0.0679,0.0291,0.0582,-0.0107,-0.0723,0.0226,0.0187,0.0082,-0.0474,-0.0657,0.0819,-0.0572,0.0396,-0.0102,0.0217,0.0384,0.0737,-0.0551,-0.0566,-0.0435,0.077,-0.0763,0.0591,0.0778,-0.0703,0.0,-0.0896,-0.0116,-0.0682,-0.0733,0.0685,0.0152,-0.0468,0.0059,-0.0299,-0.0452,0.172,0.0584,-0.1023,0.017,0.0121,-0.0023,0.0699,0.0052,-0.0791,0.0619,-0.0459,-0.0374,-0.0113,-0.1107,0.1129,0.0212,-0.0644,0.02,0.054,-0.1192,-0.0303,-0.0639,-0.0268,-0.0496,0.0307,0.0765,0.0795,-0.0084,-0.0091,0.0059,-0.0348,-0.0449,-0.1139,0.0,0.0,0.0,0.0,0.0,0.0,0.0,0.0,0.0,0.0,0.0,0.0],[-0.0005,-0.0316,0.0525,0.0004,0.0067,0.1408,-0.2195,0.164,-0.2631,-0.0993,-0.183,0.0151,0.0008,0.2656,0.1715,0.0577,0.0322,-0.0128,-0.1738,0.0021,0.024,-0.0452,0.004,0.0441,0.0104,-0.0052,0.0026,0.0117,-0.0166,0.0438,0.0073,-0.0662,0.0866,0.0689,-0.0488,0.0552,0.0658,-0.0044,-0.0319,-0.0491,0.1235,-0.0255,-0.0032,-0.0196,0.0493,-0.008,-0.0217,0.0057,0.0533,-0.0035,0.0599,-0.0392,0.0179,0.0666,0.0821,0.0767,-0.0196,-0.0587,0.0753,0.0257,0.0354,0.0799,-0.0761,0.0104,-0.0531,-0.0773,-0.0792,0.0585,-0.0767,0.0019,0.07,-0.0272,0.0703,0.06,-0.0157,-0.0035,0.0587,-0.0231,0.081,0.0169,-0.0289,0.0295,-0.0386,-0.0548,-0.0813,-0.0316,0.0785,0.013,0.0661,0.0131,-0.0833,0.0642,-0.0789,0.0548,0.0696,0.0709,-0.0737,0.0,0.1151,0.0276,-0.0205,0.055,0.0334,-0.0123,-0.0372,0.0046,0.0524,-0.0225,0.225,0.0277,-0.0118,0.0453,-0.0407,0.0012,-0.0405,0.0008,0.0216,0.0157,0.0718,0.0545,0.0749,0.0019,-0.0552,0.0765,0.0333,0.0372,0.0724,-0.0555,0.048,0.0421,-0.0259,-0.015,0.0017,0.026,0.0408,-0.0436,0.0633,-0.0088,-0.0673,0.0275,0.0487,0.0,0.0,0.0,0.0,0.0,0.0,0.0,0.0,0.0,0.0,0.0,0.0],[0.0716,0.0294,0.0043,-0.0194,-0.0051,-0.0806,0.0637,-0.0413,-0.1246,-0.2031,0.0345,-0.1294,-0.1131,0.2915,0.085,0.019,0.0557,0.363,-0.0994,0.0104,0.0429,-0.0376,0.1017,-0.021,0.0314,-0.0475,-0.0365,-0.0455,-0.0519,0.0225,0.0051,0.0101,0.0519,-0.024,0.0614,-0.0303,-0.0661,0.0839,-0.05,0.0539,0.0755,0.0059,0.0021,0.018,-0.0839,0.0042,-0.0578,-0.0155,-0.0729,0.0533,-0.046,0.0601,0.0048,0.0118,0.0083,0.0507,-0.0012,0.0327,0.0609,-0.0022,0.0764,0.0617,-0.0812,-0.0811,-0.04,0.0263,0.0841,-0.0596,0.0627,0.0095,-0.0489,0.0578,0.0586,-0.04,0.0006,0.0541,-0.0303,0.0695,0.051,-0.0225,0.014,0.0555,-0.0187,0.0732,0.0657,-0.0105,-0.0174,-0.0444,-0.0395,-0.0529,-0.0486,0.0715,-0.0432,-0.0351,-0.073,-0.027,-0.0092,0.0,0.1533,-0.0619,-0.0649,-0.0268,0.0824,-0.031,-0.0231,-0.0528,-0.057,0.0515,-0.1691,-0.0055,0.0433,0.033,-0.0077,-0.0073,-0.0204,-0.0272,0.0301,-0.0901,-0.058,-0.0043,0.0317,0.0095,0.0522,0.0226,-0.0243,0.0084,0.0556,0.0518,0.0174,0.0239,0.0563,0.0269,0.069,0.0913,-0.0279,0.0582,0.0223,-0.044,0.0897,-0.0107,-0.0479,0.0,0.0,0.0,0.0,0.0,0.0,0.0,0.0,0.0,0.0,0.0,0.0],[0.0034,0.0572,-0.0879,0.0747,0.0582,-0.257,-0.0588,-0.0711,-0.1877,0.1603,0.0265,-0.0387,-0.0349,0.1681,0.0173,-0.0104,-0.0343,0.4261,-0.2071,0.0355,0.0101,-0.075,-0.1165,0.0021,-0.0396,0.0538,0.0798,0.0619,-0.014,0.0484,-0.084,0.0129,0.0032,0.0664,0.0489,-0.012,-0.0599,0.0343,-0.046,-0.0394,-0.0681,0.0121,-0.0295,0.0927,0.0488,0.0509,0.0171,0.0089,0.0481,-0.047,-0.0093,-0.056,0.0828,-0.0579,-0.0709,0.0587,-0.0773,-0.0182,0.0791,0.0091,-0.0013,-0.029,-0.0603,-0.0609,-0.0336,-0.0741,-0.011,0.031,-0.0545,0.0165,0.0659,-0.0056,0.0306,0.0805,-0.0676,0.0765,-0.0395,-0.0715,0.0526,-0.0136,0.0114,0.0202,0.0111,-0.031,-0.0677,0.0658,-0.0455,0.0089,-0.0661,0.0076,0.0622,0.0064,0.0644,-0.003,-0.0575,-0.0797,-0.054,0.0,-0.1396,0.0678,-0.0172,-0.0165,-0.0814,-0.0273,-0.0218,-0.0145,0.0408,0.0341,0.0585,0.0219,-0.0602,0.0172,0.0136,-0.0618,-0.0709,-0.1144,0.0067,0.0797,-0.0194,0.008,0.0288,-0.009,-0.0046,-0.0608,-0.0221,0.0705,-0.0417,-0.0828,-0.0715,-0.0628,0.0018,-0.0679,0.0195,0.1012,0.0132,0.0458,0.021,0.0307,-0.0216,-0.049,0.0404,0.0,0.0,0.0,0.0,0.0,0.0,0.0,0.0,0.0,0.0,0.0,0.0],[-0.0041,-0.0584,0.0425,0.0084,0.0542,-0.0666,-0.0558,-0.1834,0.1682,0.1449,-0.163,-0.0374,0.2533,0.2233,0.0828,-0.0312,-0.0084,0.1536,0.095,-0.0278,0.0204,0.0343,0.0165,-0.028,0.0617,-0.008,-0.0074,0.0403,-0.0004,-0.0204,0.0231,-0.018,0.0034,0.0054,-0.0506,0.035,0.0218,-0.0013,0.0449,0.0494,-0.1424,0.0267,-0.0055,0.0128,0.0484,0.0293,0.0097,0.0309,-0.0368,0.0246,-0.0521,0.0194,0.078,-0.0413,0.0738,0.0101,-0.0299,-0.0833,-0.0085,0.01,0.0155,0.0637,0.01,-0.03,0.0833,-0.0004,0.0204,0.0577,-0.0349,-0.0641,-0.0617,-0.0393,-0.0402,-0.0453,-0.0778,0.0094,0.0133,0.0479,-0.0403,0.0352,0.0343,0.0208,0.0445,-0.0709,-0.0014,-0.0447,-0.0382,0.0475,-0.0002,0.0421,0.0472,0.0155,0.0138,0.0261,0.0403,-0.0429,0.0619,0.0,-0.0945,-0.0104,-0.0048,0.0232,0.0413,0.0158,-0.0756,-0.0789,0.0633,-0.0599,-0.0505,-0.0317,-0.0537,0.0011,0.0472,0.0098,0.0057,0.0435,-0.038,0.0413,0.0978,-0.0293,-0.0152,-0.0168,-0.0279,-0.0412,0.0223,-0.0049,0.0203,0.0348,0.0327,0.0214,-0.0018,0.0628,-0.0144,0.0011,0.0445,-0.0207,0.0549,0.0954,-0.0628,-0.0031,-0.0259,0.0,0.0,0.0,0.0,0.0,0.0,0.0,0.0,0.0,0.0,0.0,0.0],[-0.006,0.0068,-0.0272,0.0418,0.019,0.1664,-0.0233,0.0261,0.0901,-0.0565,0.1356,0.21,0.0998,0.3248,0.1818,0.0793,0.0553,-0.312,-0.0749,-0.068,0.0456,0.0477,-0.0627,0.0279,0.0425,-0.0184,0.0124,-0.004,0.0123,0.0232,-0.0008,0.0293,-0.0038,0.0068,0.0443,0.0261,-0.098,0.0234,0.0225,-0.0466,-0.0625,0.0342,-0.0283,-0.0637,0.0222,-0.0262,0.0317,-0.0529,0.0804,0.0539,-0.0556,0.0162,-0.0381,0.015,-0.0422,-0.032,0.0828,0.0155,0.0805,-0.022,-0.0795,0.0219,-0.0562,0.0686,-0.0688,-0.0241,0.0539,0.0188,0.0324,0.0512,0.0403,0.0414,0.0043,0.0057,-0.0113,0.0037,-0.0766,-0.0421,-0.0027,-0.0326,-0.0186,0.0539,-0.041,-0.0677,0.0212,-0.0106,-0.0403,-0.0108,0.0804,0.0412,0.068,0.0593,-0.024,0.0007,-0.0256,-0.0704,0.0113,0.0,-0.0198,-0.0109,-0.0209,0.0732,-0.0341,-0.0328,-0.0612,-0.0036,0.0059,-0.0758,-0.5914,-0.039,0.0273,-0.0445,-0.0371,-0.085,0.0445,0.0752,0.1394,-0.0126,-0.0141,-0.0156,0.0405,-0.0534,-0.021,0.0135,-0.0128,0.0387,0.0032,0.0434,0.0119,0.0302,-0.0394,0.075,0.0199,-0.0254,0.0985,0.0391,-0.0326,0.0431,0.0354,0.0272,0.0205,0.0,0.0,0.0,0.0,0.0,0.0,0.0,0.0,0.0,0.0,0.0,0.0],[-0.0269,0.0421,-0.0012,0.0749,0.0285,0.1422,-0.009,0.1335,0.2971,-0.4386,-0.1389,0.1081,-0.1169,-0.3049,-0.126,0.037,0.005,0.0372,-0.0639,-0.0247,0.0824,0.0098,-0.0328,-0.0225,0.0046,-0.0237,0.0841,-0.0899,0.0639,0.0657,-0.0184,0.0607,0.0563,-0.0011,0.0857,-0.0284,-0.0195,-0.0094,-0.0366,-0.0171,0.1497,0.0122,0.0291,0.0204,0.0175,-0.0587,-0.0149,-0.0166,-0.0449,-0.0093,-0.0511,0.0376,0.0484,0.0429,0.0775,-0.0686,-0.0751,-0.0019,0.022,-0.0398,0.0594,-0.071,0.0143,-0.0026,-0.0362,0.0686,0.0703,0.014,-0.0172,0.0823,0.0006,-0.0774,-0.0684,-0.0094,-0.0728,0.0329,0.0662,0.0671,0.0279,0.0826,-0.007,-0.0141,0.0588,0.0302,-0.024,-0.0173,0.0572,0.0215,0.0043,-0.0525,0.0066,0.069,-0.0231,-0.0301,-0.0329,0.0542,0.0286,0.0,0.0035,0.0021,-0.036,-0.0564,0.0046,-0.0694,-0.0167,0.0295,-0.0734,-0.0555,-0.023,-0.0089,-0.0019,0.035,-0.0377,-0.0204,0.057,0.037,0.0363,-0.0045,0.0521,-0.0221,-0.0148,-0.0072,0.0249,0.0791,-0.0012,-0.0321,-0.0173,0.0359,0.0835,0.013,0.0681,0.0314,0.0243,-0.038,-0.0025,0.0594,0.0262,-0.0284,0.0381,-0.0435,-0.0274,0.0,0.0,0.0,0.0,0.0,0.0,0.0,0.0,0.0,0.0,0.0,0.0],[0.0936,0.0362,0.0343,0.0337,0.0413,0.0096,0.1899,-0.1803,-0.1439,0.2702,-0.2652,0.0028,-0.189,-0.0429,0.0243,-0.0424,-0.0574,0.0085,-0.0575,-0.0835,-0.0222,-0.0662,-0.03,-0.0231,0.0608,-0.019,0.0817,0.0877,0.0961,0.0732,-0.027,-0.0736,0.0602,0.0271,0.012,-0.0336,-0.0087,0.0289,-0.0234,0.065,-0.0678,-0.0479,0.0077,-0.0504,-0.137,-0.0791,-0.0253,0.0297,-0.0556,0.083,0.003,0.0673,-0.0417,-0.0354,-0.0809,0.0777,-0.0199,-0.0453,-0.0329,0.0756,0.0139,0.0545,0.04,-0.05,0.0828,0.0434,-0.0616,-0.0623,0.0592,0.081,0.0261,-0.0681,-0.0829,-0.0434,0.0824,-0.0575,0.012,0.0627,0.0719,0.0273,-0.0055,0.0068,0.0023,0.0285,-0.0669,0.0128,-0.0304,0.0736,-0.0119,0.0238,0.0677,0.0801,0.0823,0.0217,0.0713,-0.0642,-0.0642,0.0,0.012,0.0039,-0.0429,0.0118,-0.0334,0.0103,0.0661,-0.0769,-0.029,0.0801,0.1057,0.1102,0.0715,-0.0274,-0.0413,-0.045,-0.0324,-0.0036,-0.0678,0.0579,0.0661,-0.0868,0.0365,0.0955,0.0172,0.0832,0.0518,-0.0002,0.1417,-0.0529,0.0808,-0.0971,0.0054,-0.0823,0.0122,0.0816,-0.0268,-0.0521,0.1112,0.0547,0.0242,-0.015,-0.062,0.0,0.0,0.0,0.0,0.0,0.0,0.0,0.0,0.0,0.0,0.0,0.0],[-0.0765,-0.0094,-0.0607,-0.1087,0.0103,-0.23,-0.1663,-0.2335,-0.2729,-0.0201,0.0473,-0.1718,0.1934,-0.0284,-0.1287,0.0914,-0.0095,0.4742,-0.2739,-0.1713,-0.087,-0.1039,0.0873,-0.2021,-0.0428,-0.0056,-0.0898,-0.083,0.0918,-0.0762,0.025,-0.1246,0.0121,-0.1121,0.0401,0.0492,-0.1597,-0.0969,-0.0293,-0.0532,-0.1814,0.0435,-0.0834,-0.1135,0.0738,-0.0382,-0.0261,-0.0777,-0.0673,-0.0389,-0.0304,0.0821,-0.0236,0.0436,0.0452,-0.0265,0.0529,-0.0837,0.0667,0.0338,-0.0105,0.0408,-0.0003,-0.0675,-0.0805,0.0389,0.0573,0.03,0.0331,-0.0056,0.022,-0.0508,0.0326,-0.0776,-0.0497,0.0252,0.0572,0.0733,-0.0457,0.0521,-0.0814,-0.004,-0.0009,-0.0098,0.0768,-0.0836,-0.0588,-0.0405,0.0404,-0.0441,0.032,-0.0536,0.006,0.049,-0.0267,0.0289,-0.0599,0.0,-0.1133,0.0348,-0.0141,-0.0663,-0.0332,0.0298,0.069,-0.072,-0.0379,-0.0388,-0.035,0.0663,0.0303,-0.008,-0.0879,-0.017,-0.1149,0.1207,-0.0906,0.0686,-0.0139,0.0466,-0.0521,0.0081,-0.0531,-0.1036,0.0284,-0.0985,-0.0177,0.0226,-0.0542,0.0467,0.0152,0.0125,0.1044,0.1481,-0.0631,-0.0376,-0.0774,0.096,0.1164,0.0481,-0.0506,0.0,0.0,0.0,0.0,0.0,0.0,0.0,0.0,0.0,0.0,0.0,0.0],[-0.0684,0.0215,0.0414,0.0584,-0.047,0.1101,0.1475,-0.2363,-0.1267,-0.2826,0.1617,-0.1817,0.1731,-0.2179,-0.0359,-0.0366,-0.0317,-0.2092,-0.0922,0.0199,0.0328,0.0121,-0.0569,0.0118,0.0603,0.0691,-0.0122,-0.0248,-0.0268,0.0009,0.0749,-0.0287,-0.0083,-0.0085,0.0354,0.0449,-0.0596,0.0017,0.0444,-0.0602,0.1619,0.0211,0.0681,0.0678,0.0548,0.0226,-0.0133,-0.065,-0.0288,0.0358,0.0051,0.0604,0.0703,0.0368,0.019,0.0765,-0.0133,-0.036,0.0101,0.0084,0.083,-0.0335,0.0075,-0.073,0.0385,-0.0354,-0.0329,-0.0125,0.027,0.0287,0.014,0.078,0.0204,0.0458,0.0454,-0.038,0.0379,0.0788,-0.0263,-0.0702,-0.0819,-0.081,0.0216,0.0317,-0.0724,-0.0814,0.0574,-0.0727,0.0771,0.0098,0.0112,0.0654,-0.0517,0.0018,0.0843,0.0215,-0.0422,0.0,0.1562,0.0669,-0.0296,-0.0781,0.0825,0.0163,0.0593,-0.0529,0.0215,-0.0261,0.0036,0.0374,-0.0466,-0.0405,0.0388,-0.0447,0.0446,-0.031,-0.0104,-0.0432,0.0832,0.0864,0.0022,-0.0008,-0.0163,0.0477,0.0074,-0.0069,-0.0088,-0.0096,-0.042,0.0094,-0.0186,-0.016,0.0422,-0.0022,0.0259,0.0453,0.0549,-0.0275,0.0003,-0.0553,-0.0234,0.0,0.0,0.0,0.0,0.0,0.0,0.0,0.0,0.0,0.0,0.0,0.0],[0.0771,0.0112,-0.0015,0.0236,0.0726,0.047,-0.0209,0.0121,0.3283,0.1301,-0.165,0.2219,0.278,-0.305,-0.0112,-0.0104,-0.0116,-0.0237,-0.0832,0.0922,0.058,-0.004,-0.018,0.0637,0.0154,-0.0497,0.0074,-0.0228,0.0356,-0.0152,-0.0043,0.0229,0.0577,0.018,-0.0033,-0.0197,0.1032,-0.0049,0.0057,-0.0575,-0.0457,-0.0394,-0.035,-0.0068,0.0465,0.04,0.0074,-0.0186,0.0547,-0.041,-0.0202,0.0502,-0.0507,0.0111,0.0209,0.0118,0.0469,-0.0281,0.0652,0.0204,0.0551,-0.056,0.0293,-0.0135,0.0609,-0.0298,-0.0375,0.0441,0.0112,-0.0386,0.068,0.0458,-0.0137,0.0416,-0.062,0.0161,-0.0036,0.0719,-0.0345,0.0843,0.0691,0.0327,-0.025,-0.0773,-0.0516,0.0067,-0.0336,0.0522,0.0141,-0.0398,-0.0284,-0.067,-0.0541,-0.0575,-0.0405,-0.0722,-0.0785,0.0,-0.1381,0.0442,-0.037,-0.0096,0.0049,0.036,0.0626,-0.0193,-0.0506,0.0688,-0.0927,-0.0321,0.0113,0.0106,0.0446,0.0611,-0.0035,-0.0037,0.0215,0.0067,-0.0044,0.0072,0.0394,0.0397,-0.0343,-0.0246,0.0086,-0.0333,-0.0058,-0.0434,0.0114,0.0643,0.0025,0.0806,-0.0098,0.064,0.0754,0.021,0.0251,0.0342,-0.0084,0.0272,-0.0427,0.0,0.0,0.0,0.0,0.0,0.0,0.0,0.0,0.0,0.0,0.0,0.0],[0.0704,-0.1163,0.0231,0.0031,0.0053,0.185,0.223,0.0962,0.1752,0.142,-0.316,-0.2688,-0.1111,0.2541,-0.1983,-0.0548,-0.0833,-0.0162,-0.1135,-0.081,0.118,-0.0412,-0.053,0.032,-0.0005,0.0818,-0.1693,-0.0269,0.0136,-0.0124,-0.0004,-0.0885,-0.0084,-0.038,-0.0046,-0.0067,-0.0475,-0.1004,-0.0561,-0.0455,-0.2982,-0.0656,0.17,-0.0972,0.0221,-0.0757,0.0368,-0.018,0.0642,-0.0283,-0.0623,-0.027,0.0642,-0.0487,0.0567,0.0556,0.0017,-0.059,-0.0444,0.026,0.0032,-0.0296,0.0345,-0.0345,0.0331,0.05,-0.0314,-0.0399,-0.0383,0.0668,-0.004,-0.0292,-0.0274,-0.0799,0.0158,0.033,0.0322,0.0776,-0.0168,0.0772,-0.0524,0.0827,0.0612,-0.0024,-0.0069,0.0085,-0.0145,-0.0497,0.0155,0.048,-0.06,0.0313,0.0063,0.0483,-0.0551,0.0469,0.0041,0.0,-0.1975,0.0665,-0.0023,-0.0528,-0.009,-0.0046,0.0001,0.0432,0.0396,-0.0189,0.0207,0.0836,-0.1177,0.071,-0.0139,0.0546,0.1239,0.0528,0.0541,0.0491,-0.0858,0.0559,-0.007,-0.0143,-0.0051,0.0032,0.0924,0.0469,-0.0537,-0.0759,0.0696,0.0094,-0.0487,-0.0465,0.0125,-0.0364,0.0154,-0.0768,-0.0119,-0.0604,-0.0311,-0.084,-0.0438,0.0,0.0,0.0,0.0,0.0,0.0,0.0,0.0,0.0,0.0,0.0,0.0],[0.0178,0.0664,0.0104,-0.0455,0.0143,-0.1322,0.0348,-0.4372,-0.1338,-0.03,0.089,-0.0232,-0.1149,-0.4124,0.1394,0.0219,0.0045,0.0873,0.0021,0.062,-0.0252,0.0212,0.054,-0.0146,0.0493,-0.0502,0.0411,-0.016,0.0032,0.0551,-0.0017,0.0557,0.0201,0.02,0.0746,0.0026,0.0782,0.0301,0.0654,-0.0038,0.1807,0.0669,-0.0239,-0.0117,-0.0673,0.0167,-0.0258,0.0321,-0.0349,0.0697,0.0792,-0.0031,0.0639,0.0774,-0.0413,-0.0166,-0.0208,0.051,-0.058,0.0742,-0.0099,-0.0816,0.0286,0.0571,0.0059,-0.0434,0.0081,0.0018,-0.042,0.0301,0.0839,0.0334,-0.0741,0.0244,-0.0173,-0.0641,-0.0489,-0.0011,0.0436,-0.0791,-0.0525,-0.0757,0.0229,0.0272,-0.0557,-0.0322,0.008,0.0672,0.0003,0.0777,-0.0809,0.0296,0.0513,-0.0336,-0.0835,0.0589,0.0027,0.0,0.1384,0.0506,-0.0649,0.0591,-0.0449,0.0537,-0.0686,0.084,-0.015,0.0301,-0.1063,-0.043,0.0005,0.0432,-0.0277,-0.0678,-0.0257,0.0169,-0.0367,0.0025,0.0022,-0.0126,-0.0256,0.0134,0.0118,-0.0131,-0.0351,0.0089,0.0645,0.0509,0.0233,-0.0161,0.0539,0.0695,0.0133,-0.0471,0.0357,-0.0051,0.0239,0.0149,-0.0244,0.0486,0.0549,0.0,0.0,0.0,0.0,0.0,0.0,0.0,0.0,0.0,0.0,0.0,0.0],[0.0025,0.0141,-0.0501,-0.0641,0.0432,-0.0821,-0.2206,-0.0986,-0.201,0.2441,0.0537,0.1351,0.0743,-0.3849,-0.1656,-0.0218,0.0172,0.1402,0.2749,0.027,-0.0165,-0.0287,0.0044,-0.0108,0.0475,0.0195,0.0116,-0.019,-0.036,0.0494,0.0326,-0.0051,-0.0115,-0.0344,-0.0071,-0.0271,0.0507,0.0262,0.0413,0.0126,0.0861,0.018,-0.0035,-0.031,0.0021,-0.0073,0.0459,0.0184,0.0358,-0.0631,-0.0074,0.0261,0.0628,0.0088,0.0036,0.0704,0.0446,0.0733,-0.0018,0.0685,-0.0097,-0.0139,0.0728,0.0236,0.0712,-0.0568,-0.0266,-0.0545,0.0744,-0.0141,0.0458,-0.0313,0.0588,-0.0512,0.022,0.0139,0.0298,-0.0478,-0.0834,0.0444,0.0339,0.0575,-0.0648,0.0032,0.0437,-0.0561,0.0171,0.0798,-0.0579,0.0806,-0.0072,0.0337,0.0691,-0.049,-0.0019,0.044,-0.0248,0.0,0.0199,-0.0707,-0.0479,-0.0354,0.0742,0.0104,0.0607,0.0689,0.0392,0.0647,-0.1393,-0.0317,-0.0637,0.0464,0.0378,0.017,0.0007,-0.0564,-0.0134,0.0021,-0.0164,-0.0081,0.0317,0.004,0.04,-0.0235,0.0312,0.019,-0.0177,-0.0196,0.0386,0.0656,0.0288,-0.0547,-0.0146,0.0935,0.0077,0.0062,-0.0054,-0.0106,0.0443,-0.0349,0.0386,0.0,0.0,0.0,0.0,0.0,0.0,0.0,0.0,0.0,0.0,0.0,0.0],[0.059,-0.0454,-0.0545,-0.0394,0.0679,0.2169,-0.2256,0.0956,-0.3233,0.2754,0.0757,-0.0069,0.0396,-0.1314,0.0815,0.0228,-0.0447,-0.1119,-0.0022,0.0147,-0.0346,0.0016,-0.0486,0.0513,-0.0426,0.0269,-0.0122,-0.0426,-0.0752,-0.0102,0.0046,0.0872,0.0568,-0.0518,0.0725,0.0163,-0.0202,-0.0542,-0.0048,0.0515,-0.1047,0.0506,-0.0272,-0.0408,-0.0944,0.0738,-0.0565,0.0532,-0.0426,0.0029,-0.0563,-0.073,-0.0289,0.0494,-0.0131,-0.0684,-0.019,-0.0208,0.0708,0.0254,-0.0475,0.0778,-0.0386,0.0757,-0.0741,-0.0423,-0.0764,0.0256,-0.0691,0.0196,0.0744,-0.042,0.0818,-0.0671,0.0434,0.0555,-0.0699,-0.0066,-0.0772,0.0628,-0.0694,-0.0601,-0.0559,-0.0738,-0.0764,0.0309,0.0452,0.0535,0.076,-0.0356,0.03,0.0607,0.027,-0.0744,0.0198,0.0371,0.0382,0.0,0.0426,0.0735,-0.0781,-0.0367,-0.0013,-0.0096,0.0813,-0.0196,0.0565,0.0806,0.0415,-0.0081,-0.022,0.0015,-0.0286,-0.069,0.0749,0.008,-0.0002,-0.0271,-0.049,0.0794,0.1072,0.0181,0.0676,0.0093,0.011,0.0541,-0.0193,0.0381,0.0597,-0.0196,0.0605,-0.108,-0.0728,-0.0149,0.0944,0.0051,-0.0039,-0.0421,0.0221,0.045,-0.0118,0.0,0.0,0.0,0.0,0.0,0.0,0.0,0.0,0.0,0.0,0.0,0.0],[-0.0325,0.0016,0.0741,-0.0191,-0.0059,-0.1989,0.1415,-0.1092,0.103,0.1967,-0.1366,-0.0518,-0.1621,-0.1563,-0.0603,0.0223,0.07,-0.0935,-0.2627,0.0219,0.0107,-0.0329,-0.0298,0.0725,-0.0296,0.0677,0.0282,0.0199,0.0212,-0.0059,0.029,-0.048,-0.0378,0.0548,0.1665,0.0898,-0.1237,-0.0527,-0.0109,0.0472,0.1865,-0.0408,-0.0163,0.0444,0.0191,-0.0504,0.0315,0.0082,-0.0363,0.0486,-0.031,0.0195,0.0557,0.0686,0.0141,-0.0644,-0.0179,-0.0662,-0.0407,-0.074,-0.0041,0.0353,-0.0654,0.0095,0.0022,-0.027,0.0047,-0.0237,-0.0254,-0.0597,0.0238,-0.0387,-0.0368,-0.0501,-0.0708,0.0558,0.0349,0.0746,0.0708,-0.047,0.0819,0.0729,0.0029,-0.0737,0.0103,-0.0621,0.0463,0.0704,-0.0114,0.0629,0.0521,-0.0839,-0.0336,0.0556,0.0818,-0.056,-0.0668,0.0,0.101,-0.0656,-0.0505,-0.0012,-0.0337,-0.0725,0.0174,-0.0504,-0.0193,-0.0724,-0.0538,0.0263,-0.0907,-0.0073,0.0384,0.0354,-0.0548,-0.0027,0.0657,-0.078,0.0436,0.0845,0.0039,-0.0269,-0.001,0.0691,-0.0243,0.0404,0.0493,-0.0831,-0.044,0.0683,-0.0647,0.014,0.0589,-0.0327,-0.0126,0.0378,0.0337,0.0107,-0.0473,0.0134,0.0192,0.0,0.0,0.0,0.0,0.0,0.0,0.0,0.0,0.0,0.0,0.0,0.0],[0.0817,-0.0611,0.0215,0.0527,-0.0428,-0.0355,-0.2078,0.0116,-0.172,0.2625,0.0773,-0.0157,-0.2167,0.3228,-0.0497,-0.1053,0.0924,0.3051,-0.1205,0.022,-0.0073,-0.0163,0.04,-0.0858,-0.0491,-0.0113,-0.1498,-0.0365,-0.1155,0.0801,-0.0174,0.0714,0.0617,-0.182,-0.09,0.049,0.0666,-0.0024,-0.0821,-0.0189,0.0521,0.0513,0.0229,-0.0295,-0.0618,0.155,-0.0926,0.0789,-0.0371,0.0767,0.0826,-0.0136,-0.0003,-0.0621,0.0737,-0.0356,-0.0382,-0.057,-0.0088,0.0698,-0.0124,-0.04,0.0671,0.0263,0.0532,-0.0493,0.0134,-0.0253,-0.0832,-0.0543,-0.0667,-0.044,0.0733,-0.0635,-0.0048,0.0725,0.075,0.0603,0.07,0.0691,0.054,0.039,-0.0001,-0.0571,0.0113,0.0484,0.0284,0.0389,-0.0755,0.0708,0.0338,-0.0836,0.0644,0.0323,0.016,-0.0621,0.0128,0.0,-0.2038,0.0348,-0.0393,-0.0473,0.0323,0.0078,-0.0101,0.0747,-0.022,-0.0717,-0.0583,-0.0849,-0.1417,0.1086,0.0389,0.0816,0.0077,0.0287,0.0656,0.1658,-0.0743,0.1035,-0.0739,-0.1146,-0.0315,-0.002,-0.1439,-0.1068,0.007,-0.1968,-0.0297,0.0506,-0.1982,0.1057,-0.1971,0.066,-0.1011,0.0149,-0.0307,-0.0631,-0.0119,-0.0371,-0.0934,0.0,0.0,0.0,0.0,0.0,0.0,0.0,0.0,0.0,0.0,0.0,0.0],[0.0492,0.0648,-0.0657,-0.0512,0.0322,0.2711,-0.2034,0.0758,0.336,-0.1747,0.1222,-0.1413,0.0652,0.2452,0.0731,0.0628,0.0009,0.1331,0.0563,-0.013,-0.0255,-0.012,-0.0036,0.0043,0.0156,0.0053,0.0609,-0.0279,0.003,0.0045,0.0157,0.0295,0.0493,0.0171,-0.0216,0.04,0.0858,-0.0068,-0.019,0.0354,-0.035,-0.0125,0.0219,-0.0408,-0.03,0.0249,0.0187,0.0246,0.0806,-0.0625,0.0748,-0.0223,0.0228,-0.064,0.0659,-0.0582,-0.0346,0.0075,-0.0616,0.0582,-0.0126,-0.009,-0.054,0.0268,-0.0548,-0.0485,0.0084,0.068,-0.0051,-0.034,0.035,-0.0286,-0.0026,0.0761,0.0619,0.02,0.0062,-0.0464,0.0581,-0.0749,0.0324,-0.0623,0.0447,0.0298,0.0552,-0.0508,0.0443,0.0118,0.0834,-0.0666,-0.0603,-0.0327,-0.0656,-0.048,0.0195,0.042,-0.0033,0.0,-0.0035,-0.048,-0.0136,-0.0783,-0.0114,0.0777,0.0326,0.0772,-0.0095,-0.0504,-0.1015,-0.0505,0.0623,0.0319,-0.0928,0.0679,-0.0352,0.0087,-0.0218,0.0356,0.0109,0.027,-0.0081,-0.0002,0.0256,-0.0675,-0.0021,0.06,-0.0715,0.0556,-0.0047,0.0566,-0.028,0.0627,0.0073,0.0033,-0.0236,-0.0053,0.0858,0.043,-0.0444,0.036,0.0073,0.0,0.0,0.0,0.0,0.0,0.0,0.0,0.0,0.0,0.0,0.0,0.0],[-0.0075,0.0401,-0.0077,0.0052,-0.0186,0.0394,0.1944,-0.1114,-0.1009,0.2954,-0.1085,-0.1085,0.0987,-0.242,-0.0416,0.0065,0.0014,-0.2278,0.1837,-0.0876,0.0647,0.054,-0.0119,0.06,-0.0219,0.0209,0.0157,-0.0394,0.0426,0.045,0.0152,0.0319,0.0174,-0.0523,-0.0019,0.0555,0.0912,0.0776,-0.0071,0.0545,0.0914,0.0228,0.0881,0.0389,0.0881,0.0443,-0.0089,-0.0787,-0.0074,0.0473,-0.0496,-0.0365,0.0262,-0.0007,0.0063,0.0166,-0.0184,-0.0642,-0.0078,0.0367,-0.0613,-0.0094,0.0483,0.0234,0.017,-0.0758,-0.0526,-0.0824,-0.0061,0.0329,-0.0656,0.0019,0.027,0.021,-0.0029,-0.0594,-0.0736,-0.05,0.0646,-0.0647,-0.0437,0.0463,0.0073,0.0223,0.0713,0.0201,0.0597,-0.0804,0.06,-0.0435,-0.0424,-0.0769,0.0189,-0.0495,-0.0344,0.0077,-0.0476,0.0,0.0374,-0.0819,0.0304,-0.0359,-0.076,0.004,-0.0317,-0.0082,-0.0174,0.0716,-0.1902,0.0403,0.0514,-0.0082,-0.0618,-0.003,0.0361,0.0163,-0.0179,0.0815,0.0531,-0.0245,-0.053,0.0825,-0.0012,-0.0258,0.0084,0.0019,-0.0325,0.1042,0.1045,0.0427,-0.0433,-0.0291,0.0502,-0.0367,-0.0183,-0.0261,-0.0436,-0.0147,0.0453,0.0435,-0.039,0.0,0.0,0.0,0.0,0.0,0.0,0.0,0.0,0.0,0.0,0.0,0.0],[0.0463,-0.0393,0.0122,-0.0094,-0.0152,-0.0324,0.0552,0.1093,0.1098,0.1517,0.0821,-0.1947,0.2057,0.1666,0.1412,-0.009,-0.0519,0.2025,-0.0079,-0.0523,0.0184,-0.0314,-0.0477,0.0439,-0.0512,-0.0637,0.0516,0.0279,-0.1399,0.015,0.0506,0.0069,-0.1099,-0.0504,-0.2303,0.0736,0.0263,-0.0121,0.0144,0.0722,-0.1192,0.0715,0.0037,-0.0929,-0.0054,0.0497,-0.0039,-0.0631,0.0406,-0.0184,0.0403,-0.0586,0.0004,0.0102,0.0698,0.0214,-0.0288,0.0376,0.0354,-0.0033,-0.0795,-0.0338,0.0312,-0.0405,-0.0009,0.0563,0.049,0.053,0.0678,0.013,-0.0625,0.0779,0.0695,-0.0799,-0.0472,0.0569,0.0087,0.0038,0.0731,0.0814,-0.026,0.071,-0.0689,-0.035,-0.0828,-0.0249,0.0221,0.0465,-0.0356,0.0611,-0.0762,0.0261,-0.0167,-0.0656,0.0434,-0.0229,-0.0184,0.0,-0.1668,0.0244,-0.0431,0.0142,0.0255,-0.0509,0.0493,0.0241,0.0356,-0.0785,-0.0427,0.0334,0.1028,-0.1327,0.0239,0.0328,0.0115,-0.035,0.1629,0.0021,0.0131,0.0412,0.0996,0.1325,0.0691,-0.082,0.0973,0.0008,0.0021,0.0231,-0.0133,-0.0194,0.1099,0.015,0.0705,0.004,-0.0418,-0.0431,-0.001,0.0385,0.0229,-0.0231,0.0361,0.0,0.0,0.0,0.0,0.0,0.0,0.0,0.0,0.0,0.0,0.0,0.0],[0.0386,-0.0409,-0.0326,-0.0104,0.0422,-0.2388,0.0794,0.0244,0.2313,-0.1916,-0.1806,-0.1084,0.0907,0.4511,0.0612,0.0064,-0.0348,-0.2306,-0.0653,0.0734,0.024,-0.0366,-0.0281,0.0144,-0.008,-0.0088,-0.0463,-0.0409,0.0111,0.0357,0.0816,0.0021,0.0278,0.0229,0.0901,0.0049,0.0655,0.0502,-0.0042,-0.0236,0.2043,0.0976,0.0505,0.0083,0.0098,-0.0319,-0.005,-0.0272,0.0465,-0.0509,0.0319,-0.0492,0.0437,-0.0285,0.0612,0.037,-0.0602,0.0235,-0.059,-0.0487,-0.0426,-0.071,-0.0145,-0.0364,0.0294,-0.011,0.0581,-0.0358,0.0344,0.0493,0.0749,0.0273,0.0192,0.0548,-0.0112,0.0089,0.0725,0.081,-0.0384,-0.0449,-0.063,-0.0744,-0.0624,0.0831,-0.0097,-0.0481,0.034,-0.0054,0.0305,0.0178,0.0219,-0.0305,0.0261,-0.0367,0.008,-0.0345,-0.0457,0.0,-0.1198,0.0048,-0.0715,-0.0064,-0.0649,-0.0593,0.0375,-0.0778,0.0199,-0.0366,-0.0711,-0.014,0.0197,-0.0533,-0.0024,-0.0565,0.0599,0.0433,0.0078,0.0516,-0.0162,-0.013,-0.0023,-0.0027,-0.0548,0.016,-0.0109,-0.0364,0.0107,-0.0526,-0.0295,0.0437,-0.058,0.0736,0.044,-0.0009,-0.0247,0.0406,0.0544,0.0374,-0.0111,-0.0072,0.0128,0.0,0.0,0.0,0.0,0.0,0.0,0.0,0.0,0.0,0.0,0.0,0.0],[-0.0335,0.1148,0.0157,0.0242,0.0471,-0.2438,0.1286,-0.3014,0.2294,0.0516,0.0213,0.0971,-0.2124,0.3293,-0.0736,-0.0025,0.0204,-0.2615,0.1725,0.0519,0.0028,-0.0106,-0.0365,-0.0426,0.0012,-0.0207,0.011,-0.0384,-0.02,-0.0088,0.0003,0.0205,0.0166,-0.0108,0.0565,0.0029,-0.0556,0.0184,-0.0216,0.034,0.0178,-0.0107,0.0079,0.0448,-0.0002,-0.0014,0.0502,0.0606,0.0145,0.0092,-0.0824,-0.0179,0.0838,-0.0738,0.0332,0.0633,-0.0644,-0.0619,0.017,0.0776,0.0746,-0.0389,0.0749,-0.0771,-0.0189,-0.0694,-0.0827,0.0573,-0.083,0.0473,0.041,0.0369,-0.0322,-0.0665,0.0441,0.0654,-0.0045,0.0018,-0.0354,-0.0246,-0.0468,-0.0559,0.0029,-0.0686,-0.0447,-0.0592,0.079,-0.0371,-0.0194,0.0021,0.0727,0.0292,-0.0086,0.0543,-0.0291,-0.0251,-0.0318,0.0,-0.0774,0.0678,-0.0324,-0.0102,-0.0115,-0.0195,-0.0214,-0.0521,0.0395,-0.0526,0.224,-0.0243,-0.0155,0.0127,0.0156,-0.0306,0.0463,-0.0337,0.0271,0.0043,-0.0313,-0.0017,-0.0399,-0.0111,-0.0301,0.0176,0.0215,0.0418,-0.0518,0.0187,0.0092,0.0104,0.009,-0.0246,0.01,-0.0047,0.0549,0.0244,0.0419,-0.0305,0.0402,-0.0125,-0.023,0.0,0.0,0.0,0.0,0.0,0.0,0.0,0.0,0.0,0.0,0.0,0.0],[-0.0246,0.0174,0.0702,-0.0346,-0.0002,0.2579,0.2649,0.2108,0.308,0.342,-0.237,0.0015,0.224,0.1843,0.0949,0.0035,-0.0192,-0.0559,-0.0907,-0.0269,0.0435,0.0003,0.0096,-0.0548,0.0362,-0.0007,-0.0223,0.0275,0.015,-0.0197,0.0451,-0.0002,-0.0494,0.0571,0.0571,0.071,0.0324,-0.0039,0.0501,-0.0298,-0.1087,-0.0167,0.056,0.0433,0.0051,-0.0232,0.0144,-0.0188,-0.0532,-0.0392,0.0232,0.029,-0.0651,-0.0009,0.0811,-0.0129,-0.0685,0.0296,0.0525,0.0621,0.0116,0.0018,0.0253,0.0123,-0.0359,0.0406,-0.0192,0.058,0.0471,-0.0735,0.0269,-0.0698,-0.0487,-0.0079,-0.0429,0.0124,-0.0223,0.0402,0.0685,0.0032,0.0238,-0.0091,-0.0502,0.0707,0.0546,0.0232,0.0361,-0.019,0.0031,0.0456,0.0336,-0.0336,-0.078,0.0682,0.0244,0.0038,-0.0177,0.0,-0.0707,0.0816,0.0328,0.0141,-0.0295,0.042,-0.0264,0.0584,-0.0843,-0.0225,0.166,0.0053,-0.0389,0.029,-0.0425,-0.0036,-0.0113,-0.0008,0.0419,0.0121,-0.0227,0.0147,-0.0135,0.002,0.0176,-0.0039,0.0047,0.0606,0.0108,-0.0132,-0.0587,0.0118,0.0375,-0.0087,0.0709,-0.0245,-0.0002,-0.004,0.0315,0.0941,0.0176,0.0279,0.0269,0.0,0.0,0.0,0.0,0.0,0.0,0.0,0.0,0.0,0.0,0.0,0.0],[0.0684,0.0401,0.0279,-0.0099,0.0082,0.1741,0.1903,0.2071,-0.2878,-0.1228,-0.1669,0.2416,0.0825,-0.1767,-0.0412,-0.0665,-0.0196,-0.0251,-0.1721,0.0156,-0.0238,0.0712,0.0481,0.0243,0.0553,0.1031,-0.0281,-0.0244,-0.0052,0.0618,0.0593,-0.0212,-0.03,0.0498,-0.0111,0.0588,-0.0123,-0.0052,0.0612,0.0611,-0.0873,0.0193,-0.0352,0.0308,0.0123,0.0422,-0.0311,-0.0122,0.0175,0.0111,-0.07,-0.046,-0.0395,0.0296,-0.037,0.0044,0.0169,0.0778,-0.0447,-0.0335,-0.0093,0.0385,0.0246,0.0006,0.0585,-0.0538,0.0101,0.0678,0.0701,0.0163,0.0212,-0.0041,-0.0582,0.069,0.0159,-0.0747,0.042,-0.0253,0.0455,0.0475,-0.0836,-0.068,-0.0073,-0.0446,-0.027,0.0591,0.0021,-0.0462,-0.066,0.0118,0.0003,-0.0353,0.0636,-0.0424,-0.0263,0.0385,-0.0227,0.0,0.0402,0.0802,0.0639,0.0316,-0.0178,-0.0164,0.0576,-0.0173,-0.0052,0.0642,0.1861,-0.0312,0.0553,0.0333,0.0816,-0.0264,-0.0288,-0.0062,-0.0428,-0.0118,-0.029,0.0134,-0.0404,0.0924,0.0687,-0.0077,-0.016,-0.0008,0.0644,-0.0164,0.0124,-0.0289,0.1038,0.0202,-0.0046,-0.0064,-0.0599,-0.0687,-0.003,0.018,-0.0078,-0.0079,0.0267,0.0,0.0,0.0,0.0,0.0,0.0,0.0,0.0,0.0,0.0,0.0,0.0],[0.047,0.0552,-0.0435,0.0185,-0.0692,0.0783,-0.1573,0.1934,-0.1231,-0.0289,0.2751,0.0833,-0.1784,-0.2521,-0.1011,0.0008,0.0043,-0.1004,0.2442,-0.1059,0.0546,0.0594,0.0316,-0.0221,-0.0147,0.0549,0.0296,0.0314,-0.0018,-0.0149,-0.0759,-0.0092,-0.0815,0.0103,0.0622,0.0212,0.0108,-0.0482,-0.0104,-0.0077,0.0018,-0.0105,-0.0805,0.0841,0.0645,0.0099,-0.0107,-0.0436,-0.0292,0.0056,-0.0369,0.0413,0.0336,0.0721,-0.0554,-0.0479,-0.0466,-0.068,0.0424,-0.0189,-0.0273,0.0157,-0.0225,0.0488,0.0613,-0.0239,0.0777,-0.0163,-0.0495,-0.0041,0.0841,0.0717,0.0054,-0.0787,-0.0158,-0.0315,-0.0111,0.0586,0.0308,-0.0324,0.0084,0.0831,0.0172,0.0141,-0.0146,-0.0249,-0.0392,0.062,-0.065,0.0634,-0.0771,0.0408,0.0009,-0.0559,-0.0841,0.0702,-0.0452,0.0,0.1846,0.0691,-0.0631,0.0373,-0.0659,0.0566,-0.0638,-0.0014,-0.003,-0.0355,0.0101,-0.0134,-0.0593,-0.0276,-0.0318,-0.0003,0.02,-0.0039,-0.0144,0.0083,-0.1133,0.0524,-0.0314,0.0044,0.0377,-0.0093,-0.0,0.0171,0.0199,0.0101,0.0175,0.0098,0.0062,0.0437,0.036,-0.0301,0.0456,-0.0385,0.0459,0.048,-0.0311,0.0313,0.0105,0.0,0.0,0.0,0.0,0.0,0.0,0.0,0.0,0.0,0.0,0.0,0.0],[-0.0623,0.1142,-0.1058,-0.1214,-0.0765,0.0132,-0.1163,-0.0907,0.3028,0.231,-0.0195,-0.0681,-0.174,0.0426,-0.29,0.0085,0.0862,-0.0894,0.0061,0.0194,-0.137,-0.081,0.0055,0.0506,0.0852,-0.0634,-0.1437,-0.0363,-0.04,-0.037,-0.0178,0.1075,-0.0747,0.0608,0.0785,0.0279,-0.0648,0.1248,0.0981,-0.0667,-0.0542,-0.0997,0.2209,-0.0913,-0.098,-0.0747,0.0071,0.0537,-0.0112,-0.0204,0.0105,-0.0602,-0.0203,0.0772,-0.0819,-0.0278,0.0724,0.0037,-0.0574,-0.0268,0.0048,-0.0385,0.0192,0.0266,0.0076,-0.0683,-0.05,0.0055,0.0348,-0.0429,0.0686,0.0215,-0.053,0.0333,-0.0034,-0.064,0.0639,-0.0742,0.0803,-0.0305,-0.0645,0.0133,0.0229,0.0192,0.0337,0.0784,0.0091,0.0698,0.0338,0.012,-0.0313,-0.0064,0.0352,0.036,0.0706,-0.0213,-0.0538,0.0,-0.0443,-0.0247,-0.0506,0.0751,0.0763,0.0821,-0.0729,-0.0055,0.0602,-0.0506,0.1387,-0.0407,-0.0552,0.0556,0.0504,0.01,-0.1081,-0.1623,-0.1357,-0.0729,-0.0557,-0.0424,-0.0365,0.0771,0.0237,0.0077,0.0701,0.0534,0.024,-0.0447,0.0982,0.0811,0.1356,0.0356,-0.0681,0.0527,0.1239,-0.0713,-0.0773,0.0253,0.0187,-0.0809,0.136,0.0,0.0,0.0,0.0,0.0,0.0,0.0,0.0,0.0,0.0,0.0,0.0],[-0.0824,-0.0196,-0.0355,-0.0337,0.0235,-0.2433,-0.1316,0.1052,-0.0924,-0.1427,-0.2125,-0.2044,0.2447,0.2825,-0.139,0.0049,-0.0574,0.3519,-0.1979,0.0268,-0.0136,-0.0954,-0.0434,-0.1101,-0.0186,0.0065,0.0071,-0.1073,0.0644,-0.0368,-0.071,-0.1095,-0.0202,0.0242,-0.0763,-0.0488,0.0314,0.0172,0.0222,-0.0833,-0.123,0.0517,-0.0652,-0.0639,0.0301,-0.0028,-0.014,-0.0129,-0.0245,0.0259,0.0687,-0.0377,0.0792,-0.0231,-0.0136,-0.0051,0.0338,-0.01,-0.0191,0.0789,-0.0826,-0.0408,-0.0444,-0.0716,0.0615,0.0259,0.0639,0.0519,0.0652,0.0365,-0.0034,-0.0686,-0.0333,0.007,0.0617,0.0539,0.0353,-0.0105,0.0369,0.027,-0.0423,0.0516,-0.0669,-0.0589,0.0318,0.0515,-0.0216,0.069,0.0161,0.0112,0.0071,0.0111,0.0091,-0.0214,0.0781,0.0827,0.069,0.0,-0.102,-0.0321,0.0222,0.0288,0.0064,-0.0379,0.0275,-0.0391,0.0503,-0.021,-0.015,-0.0319,0.1095,0.0578,-0.0138,-0.022,-0.0275,0.1012,-0.0637,-0.1353,-0.0246,-0.087,-0.0425,-0.0835,-0.0226,-0.0734,-0.0505,0.0892,0.0387,-0.0881,0.0436,0.0439,-0.1058,0.0731,0.0613,0.0768,0.0201,0.0245,-0.0674,-0.0015,0.0081,-0.0826,-0.0584,0.0,0.0,0.0,0.0,0.0,0.0,0.0,0.0,0.0,0.0,0.0,0.0],[-0.1107,-0.0183,-0.101,0.0314,-0.0071,0.115,0.0598,0.1623,0.1616,-0.1859,0.1862,0.1304,-0.167,0.0232,0.0387,0.0031,-0.0133,0.3828,-0.1714,0.0373,0.0402,-0.0299,-0.027,0.0589,-0.0456,0.0581,-0.0119,-0.0405,0.0258,-0.0226,-0.0896,0.1141,-0.0094,0.0814,-0.1174,-0.0239,0.0123,0.001,-0.0406,0.0366,0.0859,0.014,-0.0813,-0.0026,-0.0055,-0.1036,0.0403,-0.0734,0.0051,-0.0775,-0.0796,0.0358,-0.0322,-0.0796,0.0311,-0.0018,-0.0686,0.0716,-0.038,0.0104,0.0436,-0.0408,-0.0516,-0.0741,-0.0471,-0.0243,0.0231,0.0585,-0.0608,-0.0216,-0.0798,-0.0201,-0.0717,-0.0264,-0.0642,0.0521,0.0406,-0.024,0.0659,-0.0696,0.0731,0.0453,0.0286,0.0679,0.0448,0.0535,0.0059,-0.0786,-0.0477,-0.0403,0.0242,0.0281,-0.0184,0.0735,-0.0181,0.0366,-0.0574,0.0,-0.1299,-0.0051,0.0054,0.055,-0.0037,0.0733,-0.0256,-0.0339,-0.0818,-0.0641,-0.0951,-0.0092,0.0663,-0.1756,-0.0229,0.0435,-0.0955,-0.0183,-0.0362,-0.1494,0.1009,-0.062,0.0944,0.0648,-0.0076,0.0986,-0.0515,0.0252,-0.0782,0.0206,-0.0219,-0.0283,0.0608,0.0033,-0.0487,0.0414,0.0164,-0.0275,0.0101,-0.1034,0.0594,-0.0155,-0.0245,0.0,0.0,0.0,0.0,0.0,0.0,0.0,0.0,0.0,0.0,0.0,0.0],[-0.018,-0.0088,0.0409,-0.0193,-0.0461,-0.033,-0.0933,0.0541,-0.1436,-0.1964,0.0996,0.1111,-0.1597,0.1889,0.048,0.0389,-0.0384,-0.1872,-0.2758,0.0849,0.0982,0.0237,-0.0683,-0.0065,-0.0,0.0405,0.0558,-0.0003,0.0393,0.0527,-0.0453,0.0711,-0.0458,-0.0459,0.1519,-0.0048,0.0929,0.027,-0.0277,0.0246,-0.0597,-0.0264,0.0521,-0.0099,0.0084,-0.0894,-0.0401,0.0686,-0.0615,-0.074,0.0374,0.0453,0.0283,0.0739,0.0118,0.0415,0.0575,0.0831,0.0348,-0.0209,-0.0357,0.0799,-0.0248,0.0279,-0.0696,-0.0246,-0.0271,0.0618,-0.0546,0.0806,0.0625,-0.0479,0.076,0.0449,0.036,0.0716,-0.0042,0.0244,0.0403,0.0528,-0.0644,0.0833,-0.0292,-0.0076,0.0835,-0.0696,-0.0283,-0.0305,0.0714,-0.0486,0.0691,0.0725,0.0474,-0.0158,-0.0753,-0.0273,-0.0736,0.0,0.1388,0.0087,-0.0554,-0.0607,0.0695,-0.0409,0.0339,-0.0064,0.0489,-0.0637,-0.1443,-0.014,-0.0038,0.0669,0.027,0.0441,-0.0789,0.0569,-0.0052,0.0217,-0.0745,-0.0992,-0.0202,-0.0094,-0.0253,0.0551,-0.0515,0.0756,-0.0071,0.0994,-0.0719,0.0146,0.0734,0.0013,-0.0507,-0.0029,-0.0084,-0.0171,0.0029,0.0559,-0.0064,0.0831,-0.0245,0.0,0.0,0.0,0.0,0.0,0.0,0.0,0.0,0.0,0.0,0.0,0.0],[0.0357,0.0023,0.0309,0.0398,0.0428,0.1707,0.1217,-0.0471,-0.0325,-0.2062,0.1272,0.0958,-0.1807,0.2434,-0.011,0.0168,-0.0562,0.2846,0.165,-0.0054,0.0848,-0.0269,-0.0454,-0.0113,0.0243,-0.0713,0.0166,0.0685,0.0232,-0.007,-0.0056,0.0142,0.0427,0.0211,-0.0454,0.0157,-0.0472,0.017,0.0587,0.0732,-0.1351,0.0089,-0.0154,0.0343,0.0023,0.0462,0.0147,0.0831,0.0106,-0.0601,-0.057,0.0186,0.0045,-0.0208,-0.0404,0.04,0.0106,-0.0654,0.0297,0.0552,0.041,-0.014,0.0035,-0.0491,-0.0708,0.0065,0.0792,0.0705,-0.0111,0.0626,0.0451,-0.0108,0.0228,0.0761,0.0817,-0.0043,0.0202,-0.0653,-0.0101,-0.0444,0.0104,-0.0152,-0.0339,0.0207,0.0209,-0.0385,0.034,-0.0037,-0.0823,-0.0816,-0.0308,-0.0015,0.0593,0.036,0.0016,0.0702,-0.0763,0.0,-0.1912,0.0639,0.0721,-0.0811,0.0355,0.0566,-0.0087,-0.0068,0.0645,-0.0451,-0.0806,-0.0494,-0.0528,-0.0196,0.0503,0.0558,-0.0599,-0.0567,-0.0123,0.0323,0.0425,-0.0265,-0.0573,-0.0212,0.0118,-0.0699,-0.0021,0.0498,-0.0239,0.0375,-0.0149,-0.0012,-0.0001,-0.0348,-0.0243,0.117,0.0047,0.0394,0.054,0.0373,-0.033,0.0365,0.0039,0.0,0.0,0.0,0.0,0.0,0.0,0.0,0.0,0.0,0.0,0.0,0.0],[0.0161,0.1272,-0.0055,-0.0193,0.0694,0.033,0.2284,-0.0657,0.2272,0.0953,-0.1604,-0.0274,-0.1823,0.1706,-0.2165,0.0712,0.0727,0.0793,0.0647,-0.0576,-0.0202,0.0621,0.0474,-0.0256,0.0208,-0.0033,-0.0862,-0.0169,-0.1052,0.0203,-0.0304,-0.0421,0.0003,-0.0617,-0.0047,-0.0302,0.1775,0.0639,-0.0525,-0.0567,0.0784,0.0243,-0.002,0.0519,0.0295,0.1114,0.0071,-0.076,-0.0044,-0.0108,0.0262,-0.0002,0.0203,0.0426,0.0718,0.0366,0.0055,-0.0634,-0.0298,-0.0343,-0.0492,-0.0206,-0.0072,-0.0586,0.0842,0.0574,0.052,0.0123,-0.038,0.077,0.0577,0.0155,-0.0691,-0.0014,-0.0001,0.0482,0.0471,0.0455,-0.0794,0.035,0.0558,-0.0071,-0.0614,-0.0413,-0.0268,-0.0666,0.0523,-0.03,0.0009,-0.0799,-0.0172,-0.0013,-0.0348,0.0833,0.0214,0.0426,0.0039,0.0,-0.0637,0.0574,0.07,-0.0272,-0.0517,0.03,-0.0662,0.0241,0.0378,-0.0438,0.1541,-0.0771,0.0792,0.0104,-0.0277,-0.0041,0.064,0.0592,0.0693,-0.0389,-0.0313,0.0388,0.0092,0.0835,0.0335,-0.051,-0.0976,-0.0349,0.0948,-0.0604,0.0508,-0.0161,0.0271,0.0025,-0.0362,0.0505,-0.0605,0.0015,-0.0042,0.0259,-0.0423,0.0537,0.0312,0.0,0.0,0.0,0.0,0.0,0.0,0.0,0.0,0.0,0.0,0.0,0.0],[0.0031,0.0068,0.0067,-0.0031,0.0393,-0.1482,0.0686,0.0702,0.0375,0.1367,-0.1946,-0.2049,-0.2338,-0.276,-0.0366,-0.0179,-0.0495,0.0274,0.0992,0.0751,-0.0034,0.0362,-0.0038,-0.0727,0.0126,0.0088,0.0692,0.0598,-0.0185,0.0066,-0.0133,-0.0236,0.0205,0.0106,0.0273,-0.0306,0.0298,0.0464,0.041,-0.0004,0.2362,0.0067,-0.0332,0.0324,0.0435,0.112,-0.0113,-0.0419,-0.0655,-0.0475,-0.0094,0.0665,-0.0265,0.0563,0.0285,-0.063,-0.0047,0.0401,0.0251,0.08,-0.0164,0.0187,0.0048,0.0647,0.0609,-0.0297,0.0287,0.048,-0.0619,-0.046,0.0302,0.0573,-0.0772,0.0557,-0.0643,-0.0001,0.0657,0.0498,-0.0444,-0.051,0.0297,0.0236,0.0001,-0.0752,-0.0713,-0.0166,0.084,-0.0235,-0.0582,0.0623,0.0426,-0.0334,-0.0417,-0.0004,-0.0419,-0.0568,-0.0296,0.0,0.2023,0.0613,-0.0653,0.0421,-0.0145,-0.0704,-0.0622,0.0032,-0.0528,0.0541,-0.1933,0.0017,-0.0606,0.0274,-0.0262,-0.0272,-0.0032,-0.0013,0.008,0.0135,-0.014,0.0118,-0.0371,0.071,-0.0112,0.0166,0.0239,0.0112,0.0107,0.0687,-0.0095,-0.0043,0.0623,-0.0097,0.0299,-0.0586,-0.0058,-0.0045,-0.0087,0.0944,-0.0016,0.0532,-0.0075,0.0,0.0,0.0,0.0,0.0,0.0,0.0,0.0,0.0,0.0,0.0,0.0],[0.0272,0.0044,0.0581,-0.0191,0.0039,0.1747,-0.0695,-0.1668,0.2734,-0.0646,-0.2994,-0.1276,0.2739,-0.1787,-0.0845,0.048,-0.0323,0.0589,-0.1041,-0.0692,0.0428,0.0283,0.0105,0.0202,0.02,0.0864,-0.0396,0.0803,0.0131,0.0181,0.0707,0.0514,-0.0172,-0.0205,0.0423,-0.0053,-0.0325,0.0192,-0.0312,-0.0091,0.0533,0.0009,0.0091,0.0178,0.0044,0.0268,-0.015,-0.0328,0.0111,0.033,-0.0569,0.043,0.0616,0.0351,-0.0267,0.0135,-0.0323,0.0639,-0.074,-0.0219,-0.0606,0.055,-0.0733,-0.0727,-0.0327,-0.0032,-0.0694,0.0141,0.0334,0.0811,0.0322,-0.0308,-0.0819,0.005,-0.04,0.0832,0.0417,-0.0819,-0.0343,-0.0387,0.0789,0.0038,-0.0071,0.0228,0.0175,-0.0555,0.0198,-0.0521,0.0813,-0.0719,-0.0552,0.0677,0.0759,0.0457,0.0677,-0.034,0.0308,0.0,0.0291,0.0691,0.0571,0.0083,0.0468,-0.001,0.0153,0.0526,-0.0764,-0.0057,-0.1427,0.0016,0.0704,-0.0744,0.0511,0.0109,0.0478,0.0757,0.0439,0.042,-0.0039,0.0043,-0.0356,-0.0266,-0.0207,-0.0049,-0.0115,-0.0086,0.0303,-0.0458,0.0618,0.0257,0.0389,-0.0069,-0.0021,0.0291,0.0207,0.0199,0.0496,-0.0044,0.0594,-0.0159,0.0473,0.0,0.0,0.0,0.0,0.0,0.0,0.0,0.0,0.0,0.0,0.0,0.0],[0.0458,-0.0436,-0.0542,-0.011,0.0246,0.0556,0.0874,-0.1129,-0.0869,0.2578,0.1727,0.1112,-0.1406,0.0767,-0.3594,-0.079,0.09,-0.2948,0.089,-0.0264,0.084,0.113,-0.024,-0.0242,0.1572,0.0709,-0.0346,0.0235,0.0142,0.0548,-0.1064,-0.0473,0.0404,-0.0753,-0.1254,-0.0774,0.109,0.0011,0.0862,-0.0032,0.011,-0.0821,-0.096,-0.0299,-0.0392,-0.0142,-0.0807,-0.0832,-0.0735,-0.0732,-0.0655,0.0324,0.0654,0.0356,-0.0696,-0.0625,-0.0195,0.0677,0.0182,0.0605,0.0316,-0.0672,0.0669,0.0433,-0.0022,-0.0166,-0.0462,-0.0379,0.0268,-0.0737,0.0221,-0.0483,0.0699,-0.0791,-0.021,0.0511,-0.0305,-0.0343,-0.0103,-0.0191,-0.0741,-0.0553,0.0838,-0.0744,0.0377,-0.0829,-0.0495,0.0465,-0.0288,0.0532,-0.0349,0.0339,-0.076,0.069,0.03,-0.0441,-0.0562,0.0,0.0297,0.0821,-0.018,-0.0112,0.0389,-0.0763,-0.0826,-0.0233,0.034,0.0404,0.0592,0.052,0.1658,-0.0235,-0.1709,0.0111,0.1055,-0.0709,0.1065,-0.0769,0.0119,0.0409,0.0523,-0.0535,-0.0351,0.0606,0.02,-0.0453,-0.0746,0.0945,0.069,-0.0142,0.0382,-0.1148,-0.0538,-0.0927,-0.0807,0.0151,-0.0815,0.0414,-0.0963,0.0061,-0.0379,0.0,0.0,0.0,0.0,0.0,0.0,0.0,0.0,0.0,0.0,0.0,0.0],[-0.0176,0.0482,-0.018,-0.0473,-0.04,0.0792,0.0234,0.2005,0.1118,0.1814,-0.1365,0.1952,0.1238,-0.0519,-0.014,0.1239,0.0161,0.1405,-0.1911,-0.159,-0.0279,-0.0436,0.003,0.0255,0.0082,-0.033,0.0632,-0.0788,-0.1081,0.0274,0.018,-0.0248,0.1583,-0.0862,0.0351,0.0509,-0.0206,0.0016,-0.0087,0.0489,-0.0158,-0.051,-0.0386,0.038,-0.0881,0.1497,-0.1382,-0.0562,-0.0223,0.0789,-0.0184,-0.0316,0.056,-0.0617,-0.0513,0.026,0.0259,0.0565,0.0801,-0.0457,0.0434,-0.0601,0.0224,0.0746,0.023,-0.0616,-0.08,-0.0509,0.0386,0.0584,-0.0132,-0.0421,-0.0264,-0.0117,0.031,0.0304,0.0589,-0.0365,0.0761,0.0229,0.0646,-0.0214,0.0747,-0.0032,-0.0539,-0.0771,0.0063,-0.0088,0.0467,0.0783,-0.0778,-0.0819,-0.0328,0.0345,0.0627,0.0546,0.0748,0.0,-0.1235,-0.0037,-0.0051,0.0683,0.0626,0.0322,-0.0471,0.0661,0.0711,-0.0527,-0.4184,-0.147,-0.1574,-0.0641,0.1474,-0.1304,-0.0964,0.0013,-0.0475,0.0254,-0.0718,-0.048,-0.1301,-0.1682,-0.2194,0.1192,-0.1086,0.0173,-0.0953,0.0172,-0.0639,-0.0086,-0.0592,-0.1371,0.108,0.1316,-0.1939,0.0068,-0.2254,-0.1117,-0.1237,-0.1331,0.0488,0.0,0.0,0.0,0.0,0.0,0.0,0.0,0.0,0.0,0.0,0.0,0.0],[0.0347,-0.0473,-0.0364,-0.0162,0.023,0.1564,0.1133,-0.3814,0.0884,-0.0558,-0.382,-0.1806,0.0126,-0.0573,0.0061,-0.0642,0.0106,0.0703,0.0978,0.0849,-0.0722,0.035,0.0188,0.0513,-0.0048,0.026,0.0313,-0.0044,0.0631,-0.0156,0.0173,0.0651,0.0585,0.0497,-0.0,0.0462,0.0116,0.0214,0.0117,-0.0359,-0.0457,0.0086,-0.0614,-0.0675,-0.0408,-0.0131,0.0229,0.0629,0.0284,0.0657,-0.0321,0.0546,0.0823,-0.053,0.0204,-0.0159,0.0377,0.0575,-0.0311,0.0711,-0.049,-0.037,-0.037,-0.003,-0.0576,-0.0676,0.0453,0.0731,0.0344,0.0782,-0.0044,-0.0061,0.0778,-0.0348,0.0353,-0.0234,0.0614,-0.0437,-0.0017,-0.0778,-0.043,0.0497,-0.0511,0.0443,0.0815,-0.0742,-0.0187,0.0114,-0.0686,-0.0059,-0.0535,-0.011,0.0666,-0.0697,-0.0144,-0.0397,0.0531,0.0,0.1039,-0.0294,0.0082,-0.0321,-0.0798,-0.0684,0.083,-0.0264,-0.0455,-0.0209,-0.1869,0.0597,0.0071,0.0064,-0.0058,0.0744,0.0008,-0.0002,0.0321,0.0008,0.0168,-0.0203,0.0364,0.0114,0.0524,0.0247,0.0027,-0.0243,0.0228,0.009,0.0157,0.0415,-0.0342,0.0321,-0.0336,0.0389,-0.0851,0.0181,-0.0044,-0.0614,-0.0427,-0.0145,0.0012,0.0,0.0,0.0,0.0,0.0,0.0,0.0,0.0,0.0,0.0,0.0,0.0],[0.0883,-0.1247,-0.0601,0.0422,0.0049,0.0086,-0.0674,-0.1288,0.3195,-0.2747,-0.2942,-0.144,0.2434,0.0351,-0.0735,-0.029,-0.094,0.1494,-0.1148,-0.0853,-0.0029,0.0058,-0.0302,0.0049,0.0654,-0.0247,-0.0349,-0.112,-0.0706,-0.0419,0.0364,-0.1046,-0.0364,-0.0128,0.0189,0.0183,-0.04,0.0589,0.0322,0.0799,0.0603,-0.0133,0.1275,0.0043,-0.032,-0.1012,-0.0178,-0.0136,0.0161,-0.0243,-0.0353,0.0263,-0.0195,-0.0296,-0.0823,0.0043,0.0635,-0.0518,0.0236,-0.0661,0.014,-0.0736,0.0192,-0.0399,0.0006,-0.0563,-0.0799,-0.0678,-0.0346,0.0448,0.0622,-0.0206,0.0316,0.0831,-0.0129,0.0042,0.0691,-0.0008,-0.0449,-0.0753,-0.021,0.0384,0.0023,-0.0115,-0.0546,0.0223,0.023,0.0473,-0.0015,0.0255,0.0819,-0.0186,0.0814,0.0182,0.0357,0.067,-0.0184,0.0,-0.2074,-0.0446,0.0027,-0.0441,0.0,-0.0634,-0.0417,0.0001,-0.0002,-0.0766,-0.1013,0.0837,-0.0614,0.0326,-0.0647,0.0407,0.0078,0.0011,-0.0987,-0.0351,-0.0742,0.012,0.0982,0.072,-0.0984,0.0018,0.0465,-0.0376,-0.0069,-0.0191,0.0296,-0.0235,-0.0255,-0.0158,-0.0605,-0.0464,-0.0082,0.09,-0.0126,-0.0162,-0.0683,0.0753,-0.039,0.0,0.0,0.0,0.0,0.0,0.0,0.0,0.0,0.0,0.0,0.0,0.0],[0.0393,0.0542,0.059,0.0224,0.0452,-0.006,0.0805,0.0713,-0.3679,0.0824,0.1544,0.1207,-0.2849,-0.5023,-0.0813,0.0256,0.0387,0.0173,-0.1521,-0.0025,0.0563,0.0426,-0.0271,0.0133,0.0163,0.0592,0.0623,0.0194,-0.0217,-0.0001,-0.0386,0.0778,0.022,0.0352,0.0144,0.0022,0.0168,0.0469,0.0056,0.028,0.0715,-0.0164,0.0667,-0.0087,0.0085,0.0506,0.0509,0.0197,-0.0543,-0.0703,0.0155,-0.0275,0.0519,0.0078,-0.0741,-0.0548,-0.0362,0.037,-0.0213,-0.0567,-0.0786,-0.0186,-0.0294,0.0658,-0.0748,0.0805,-0.0475,0.0785,0.0203,0.0835,-0.0621,-0.029,0.0059,-0.0586,0.0559,0.0823,-0.0256,0.0306,-0.0287,0.0551,0.0133,-0.0648,-0.083,0.0655,0.0204,0.0688,0.0026,0.0675,0.0525,-0.0772,-0.0432,0.0286,0.0702,-0.0523,-0.0468,0.0604,0.069,0.0,-0.019,0.0146,0.0321,-0.043,-0.0523,0.0403,0.0054,0.0223,0.0074,-0.081,0.2285,0.0912,0.0556,-0.0455,-0.0045,0.0426,-0.0326,-0.0684,0.0634,0.0157,0.0054,0.0006,-0.0415,0.0181,0.017,0.0066,0.0344,0.025,-0.0584,0.0028,0.0494,0.0334,-0.0279,-0.0178,0.0081,0.0266,-0.0361,-0.0108,-0.0609,-0.0104,0.0422,0.0233,0.012,0.0,0.0,0.0,0.0,0.0,0.0,0.0,0.0,0.0,0.0,0.0,0.0],[0.0505,-0.0059,0.0177,-0.0541,0.0244,0.2967,-0.1766,-0.1728,-0.3322,-0.0889,-0.2111,-0.182,-0.1246,0.1,0.0954,-0.0043,-0.0278,0.0025,0.2757,-0.0374,0.0325,0.0665,0.0569,-0.0716,-0.0117,0.0466,-0.0062,-0.0297,0.0113,0.0458,-0.0349,-0.0141,-0.0242,-0.0085,0.0901,0.0345,0.0324,-0.0026,0.0238,-0.0043,-0.0371,0.0346,-0.007,0.0586,0.0337,0.0768,0.0071,0.0188,-0.0595,0.0499,-0.0058,0.0142,-0.0073,0.0436,-0.0272,0.0467,0.0254,-0.0088,-0.0298,-0.0814,0.018,-0.0222,0.0162,-0.0154,-0.0259,-0.0255,-0.0535,-0.0168,-0.0646,-0.013,-0.0011,0.0821,-0.0121,-0.0548,-0.0255,-0.0837,0.0608,-0.0457,-0.0394,0.0289,0.0043,0.0644,-0.055,0.0843,-0.0798,0.0436,-0.0182,0.0473,-0.0836,-0.0759,-0.0177,0.015,0.0165,-0.0557,0.044,-0.0642,0.0132,0.0,0.1158,-0.0027,0.0151,-0.0332,-0.0076,0.0106,-0.0516,0.0305,-0.0226,-0.0729,0.1079,0.0483,-0.023,0.049,-0.0151,-0.0626,-0.0744,0.0169,-0.0013,-0.0425,-0.0657,-0.0179,0.0128,-0.0181,-0.0243,-0.0093,-0.0679,0.0269,-0.017,-0.026,0.0307,0.0122,0.003,0.048,0.0614,0.0455,-0.0126,0.0255,0.058,0.0306,-0.0224,0.029,0.0148,0.0,0.0,0.0,0.0,0.0,0.0,0.0,0.0,0.0,0.0,0.0,0.0],[0.0499,-0.0309,-0.0547,0.0508,-0.0701,-0.0887,0.1775,0.1258,-0.056,0.1956,0.0464,-0.0145,-0.1369,-0.3977,-0.2515,-0.092,-0.0193,0.0396,-0.0139,-0.0502,-0.0229,-0.0583,0.0417,-0.0296,0.0568,-0.0177,0.0143,0.0652,0.0074,0.0178,-0.03,0.0855,-0.0648,-0.0743,-0.0358,0.0549,-0.0153,0.0511,0.0517,0.0085,0.1714,-0.0392,-0.0397,0.0681,-0.0592,0.0175,-0.0632,-0.0718,0.0531,0.0408,-0.0763,-0.0539,-0.0538,-0.0631,-0.051,-0.0327,0.039,-0.0554,0.027,-0.017,0.05,0.0783,-0.0485,0.0385,-0.0286,-0.0681,-0.0173,-0.018,0.0011,0.0639,-0.048,0.0393,0.0134,0.0696,-0.0795,0.0693,-0.0628,-0.0673,0.0632,-0.0266,-0.026,0.0502,0.0218,-0.011,-0.0651,-0.0271,-0.0205,-0.0658,0.0311,-0.0033,0.0835,-0.0415,0.0267,-0.0105,-0.0162,-0.0658,0.0147,0.0,0.0419,-0.0408,-0.029,-0.0234,-0.0707,-0.0783,-0.084,-0.065,0.025,-0.0058,0.2233,0.0018,-0.0924,0.0335,-0.0372,0.0491,0.1265,-0.0514,0.0102,0.0368,-0.058,0.0106,0.0865,0.0876,0.0147,0.1499,0.0321,0.0267,-0.0271,-0.0418,-0.06,-0.0155,0.0106,-0.0838,-0.042,0.059,0.0613,0.0477,0.0003,0.0199,-0.0678,-0.0353,-0.0188,0.0,0.0,0.0,0.0,0.0,0.0,0.0,0.0,0.0,0.0,0.0,0.0],[0.0466,0.0251,-0.0005,-0.0151,-0.031,0.305,-0.045,-0.2135,0.1871,0.134,-0.059,0.0531,0.0409,-0.4426,0.0175,0.0935,0.0104,0.1152,0.0514,-0.0187,0.0857,0.0044,0.0355,-0.0263,0.0001,-0.0613,-0.0187,-0.0561,-0.1022,0.024,0.0425,-0.019,0.0255,-0.0244,-0.001,-0.0009,-0.1275,-0.0551,0.0458,0.0408,0.1059,0.007,0.0106,-0.0088,-0.0326,-0.051,0.0002,0.0232,-0.0029,0.0834,0.0468,-0.0271,-0.0515,0.0635,-0.0134,0.0062,0.0765,0.0755,-0.0487,0.0815,-0.0727,0.06,0.0755,0.0145,-0.0677,0.0622,0.0426,-0.0319,0.0309,-0.0523,-0.0453,-0.0321,0.0238,0.0325,0.0019,0.0618,0.0018,0.0756,0.0722,0.0836,-0.0017,0.0397,0.0296,0.053,0.0805,0.0103,0.05,-0.0058,0.0444,0.0595,0.0589,0.0281,-0.0338,0.0087,-0.054,0.0141,0.016,0.0,-0.0102,0.0326,-0.0408,0.0103,-0.02,-0.0379,0.0464,-0.001,0.0425,-0.073,0.1527,0.0008,-0.0028,0.0478,0.0238,0.0231,-0.0041,0.0007,-0.0199,-0.0341,0.0643,0.0026,-0.0395,0.0288,0.0168,-0.0417,-0.0929,0.0342,0.015,-0.019,-0.0122,0.0059,0.0262,0.0028,0.0635,0.0165,0.032,0.0725,0.0596,-0.0185,0.0083,0.0229,-0.0896,0.0,0.0,0.0,0.0,0.0,0.0,0.0,0.0,0.0,0.0,0.0,0.0],[0.024,0.0044,-0.0618,0.0788,0.0038,-0.1559,-0.2627,0.0057,-0.1336,-0.0461,0.1282,-0.1578,0.0622,0.2691,0.1184,0.0,0.0234,0.2221,0.1318,0.0377,0.0147,0.0145,-0.0751,0.038,-0.0245,-0.1105,0.0373,0.0679,0.0353,-0.0476,-0.0593,0.0185,-0.0432,0.0075,-0.1338,-0.0153,0.0516,0.0085,-0.0184,-0.0428,-0.0866,0.0914,0.0192,0.0115,-0.0161,0.0456,0.016,-0.0756,0.0681,0.0761,-0.0007,-0.042,0.0104,-0.0808,0.0429,0.0584,-0.0309,-0.0284,0.0064,-0.0383,-0.0585,-0.076,-0.0752,-0.0807,-0.0259,-0.0088,0.0801,0.0749,0.0636,0.0008,-0.0782,-0.0765,-0.0608,-0.0835,0.0212,-0.0009,-0.0463,-0.0071,-0.0637,-0.0073,0.0006,-0.0508,-0.0102,-0.0218,0.0629,-0.0276,0.0829,0.042,-0.0129,-0.0163,0.0475,-0.0584,-0.081,-0.0033,0.0647,-0.0033,0.0454,0.0,-0.0838,-0.0273,-0.0007,-0.0188,0.0093,-0.0144,-0.0699,0.0812,0.0208,0.0009,0.0399,-0.0566,0.0013,-0.1031,-0.0254,0.0097,0.0012,-0.0333,0.1098,-0.0348,0.0034,-0.0782,0.0639,0.0093,0.0927,-0.0477,0.0619,0.0814,0.0344,-0.0342,-0.0201,0.0468,0.0795,-0.0327,-0.0808,0.0432,0.0512,-0.029,-0.0046,0.0125,-0.0135,0.0018,0.0298,0.0,0.0,0.0,0.0,0.0,0.0,0.0,0.0,0.0,0.0,0.0,0.0],[0.0214,-0.0525,0.0331,-0.1415,-0.0211,-0.237,-0.2034,-0.001,0.2309,0.1418,-0.0202,-0.1505,-0.4436,0.4147,-0.1397,0.0502,0.0354,0.155,-0.2131,-0.183,0.0018,-0.0199,-0.0504,-0.0235,0.0591,-0.2591,-0.1028,0.0636,-0.0649,-0.0871,-0.0567,-0.0991,-0.0059,-0.0809,-0.0174,0.0026,-0.0001,-0.007,-0.0787,0.0488,0.0465,0.0113,-0.0705,-0.0546,0.0436,-0.0232,-0.0429,0.0131,-0.0176,0.0621,-0.0441,0.032,0.0808,-0.0448,0.0835,0.0532,0.0835,-0.0047,0.0457,-0.0686,0.0685,-0.0569,-0.0738,0.0448,0.0635,0.0514,0.0483,0.0769,0.0715,0.057,-0.0285,-0.0063,-0.0045,-0.0223,-0.0156,0.0504,0.0378,-0.0512,-0.0556,0.0583,0.0465,-0.0353,-0.0817,0.0549,0.0135,-0.0368,0.0202,0.037,-0.0048,0.0507,0.0439,0.0652,-0.0022,-0.0452,-0.0019,-0.074,0.0238,0.0,-0.1181,0.0283,0.0537,0.0103,0.0194,0.0223,-0.0756,-0.0555,0.0794,-0.0789,-0.0242,0.0796,0.0417,0.0551,-0.0751,-0.0257,-0.0133,-0.051,0.0358,0.0761,-0.0271,0.0171,0.1111,0.0074,-0.1062,0.02,0.0775,0.0099,0.0963,0.04,-0.0211,-0.0844,0.0422,-0.0364,0.0067,-0.017,-0.0298,-0.0601,0.1022,-0.0104,0.0741,-0.038,-0.0026,0.0,0.0,0.0,0.0,0.0,0.0,0.0,0.0,0.0,0.0,0.0,0.0],[-0.0172,0.0579,-0.0317,0.0375,0.0599,-0.097,-0.1807,-0.1303,0.2223,0.1461,-0.1584,0.2183,-0.1578,0.2873,0.113,0.0562,-0.0126,0.2006,0.0886,0.0018,-0.0385,-0.0052,-0.0091,-0.0292,0.0081,-0.0033,0.0207,0.005,-0.0133,-0.0019,-0.0006,0.0032,-0.0006,0.0448,0.0121,0.043,-0.0188,0.0267,-0.0697,-0.017,0.0818,0.0187,0.0006,0.0233,-0.0189,-0.0197,0.0712,0.0472,0.0496,0.0682,0.0058,0.0094,-0.0755,-0.0018,-0.0514,0.0237,0.0041,0.0798,0.0643,0.0744,0.0624,-0.0241,-0.0493,-0.0781,-0.0627,-0.0349,0.0331,0.0466,-0.0669,0.0609,-0.0111,0.0396,0.063,-0.0555,-0.0218,-0.0138,-0.0594,0.0073,-0.0147,-0.0203,0.0797,0.071,-0.0223,0.0668,-0.0015,-0.0205,0.0459,-0.0761,0.0382,0.0685,-0.074,0.0014,-0.0079,0.0031,0.0653,-0.0142,-0.07,0.0,-0.1683,-0.0418,-0.0183,0.005,0.012,0.0703,0.0132,-0.0224,0.0183,-0.0809,0.05,0.0096,0.0473,-0.0527,-0.0198,-0.0094,-0.0299,-0.0523,-0.018,0.0429,-0.0744,-0.0399,0.0486,-0.0183,0.0053,0.0131,0.0054,0.0283,-0.0416,0.0561,0.0353,-0.0358,0.034,0.0533,-0.0189,-0.0391,-0.0121,0.0154,0.0113,-0.0274,0.0538,-0.0043,0.0453,0.0,0.0,0.0,0.0,0.0,0.0,0.0,0.0,0.0,0.0,0.0,0.0],[0.0329,0.0121,0.022,0.027,0.0584,0.0838,-0.0097,-0.0894,0.2682,-0.1414,-0.0224,0.1683,0.1334,0.3059,-0.0436,0.0453,0.0256,0.1149,0.1058,-0.0381,0.028,0.0572,-0.0036,-0.0185,-0.0473,-0.0083,0.0552,0.0435,-0.0198,0.0116,-0.015,0.0685,0.0128,0.0111,-0.058,-0.0422,-0.0126,0.0583,0.0496,-0.0682,-0.0942,0.0038,-0.0392,0.0088,0.0727,0.0321,-0.0224,-0.0718,0.0808,0.0585,0.0565,0.0623,-0.0617,-0.0837,0.019,-0.0361,0.0528,0.0179,0.022,-0.0497,-0.0301,-0.0303,0.0554,-0.0638,0.0293,-0.0579,0.0493,0.0301,-0.0699,-0.0543,-0.0212,-0.0023,-0.0214,0.0829,-0.075,0.0769,-0.0754,-0.0842,-0.077,0.0079,0.0275,-0.082,0.0684,0.0097,-0.0511,-0.0697,-0.0367,-0.0569,0.0284,-0.0346,0.0319,0.0704,-0.0002,0.0363,-0.0725,-0.0477,-0.0379,0.0,-0.2016,-0.0452,0.0772,0.0212,-0.0667,-0.034,-0.0054,-0.0392,-0.0493,-0.0047,0.0531,0.0058,0.0871,-0.0649,0.0302,0.0824,-0.0053,0.0215,-0.0396,-0.0347,0.0051,0.0098,0.0487,0.0587,0.0245,0.0458,0.03,-0.0442,0.0625,0.0096,-0.0329,0.0013,0.0403,0.02,0.0356,0.0057,-0.0582,0.0104,0.0434,-0.0347,0.0523,0.048,-0.0683,0.0,0.0,0.0,0.0,0.0,0.0,0.0,0.0,0.0,0.0,0.0,0.0],[-0.0275,0.1048,0.0174,0.0551,-0.043,-0.2286,-0.1035,-0.1701,0.2073,0.1917,-0.2891,-0.0824,0.2191,0.0076,0.0828,0.0559,-0.0173,0.0231,0.1262,-0.0234,0.0783,-0.0016,0.0318,-0.0587,0.0022,-0.0573,0.0203,-0.014,0.0282,0.0844,0.0846,-0.0477,-0.0201,0.083,0.0414,-0.0399,-0.0391,-0.0398,-0.0168,0.0162,0.0487,0.0441,0.0343,-0.03,0.0188,-0.0437,0.0161,0.0097,-0.0613,-0.0265,0.047,-0.0205,0.052,-0.0683,-0.057,0.0775,0.0416,-0.044,-0.045,0.0615,-0.0111,0.0839,-0.0156,-0.0105,-0.0515,-0.0499,0.0136,0.0168,0.0218,-0.0143,-0.063,0.0118,0.0604,-0.0631,0.078,-0.056,0.0287,0.0694,-0.0134,-0.0234,-0.0222,-0.0763,0.0464,0.0371,-0.0493,0.0535,0.0104,0.0739,-0.0349,0.0226,0.0262,-0.0289,0.0131,0.0639,-0.0078,-0.0181,-0.0752,0.0,-0.0388,0.0125,0.0358,-0.0686,0.0189,0.0185,-0.0129,-0.0285,0.0119,-0.0287,-0.0692,0.0174,0.0231,-0.0272,-0.0287,-0.0108,-0.0909,0.0323,-0.0605,-0.0424,-0.0381,-0.0427,-0.0099,-0.0487,0.0799,-0.0696,-0.0472,0.0164,0.0324,-0.0247,-0.0494,-0.0156,0.0489,0.0388,0.0535,0.0387,0.0515,-0.0202,0.0297,-0.0094,0.0131,-0.0521,0.0252,0.0,0.0,0.0,0.0,0.0,0.0,0.0,0.0,0.0,0.0,0.0,0.0],[-0.0373,-0.0865,-0.0441,0.0164,-0.0187,0.1101,-0.0499,-0.0109,0.3617,0.1309,0.0253,0.0648,0.0927,0.0723,-0.11,-0.1274,0.0147,-0.0739,0.0001,0.0365,-0.1076,-0.0578,0.0301,-0.0279,0.0181,-0.0457,0.0465,-0.0108,-0.0336,0.0792,-0.0377,-0.0682,-0.0451,-0.0141,-0.0548,-0.0068,-0.0756,-0.0441,-0.016,0.0533,-0.0198,-0.0264,-0.0643,-0.0448,-0.0493,-0.02,-0.0805,0.036,-0.035,-0.0033,-0.0795,0.0358,0.0047,0.0165,0.0163,-0.0222,0.0711,0.024,-0.0007,0.0629,-0.0377,-0.0326,-0.037,0.0114,-0.0084,0.0112,0.0242,-0.0431,0.0133,-0.0607,-0.0813,0.0357,0.0653,0.079,-0.0569,0.0082,0.0506,0.0596,-0.0309,-0.0218,-0.0474,0.0178,-0.0311,-0.0287,-0.0172,-0.065,0.0379,-0.0111,0.084,0.0141,-0.0478,0.0836,0.0411,0.0249,0.0709,-0.0288,-0.0249,0.0,-0.171,-0.0275,-0.0381,0.055,0.0599,0.0011,-0.0118,-0.022,0.023,-0.0002,-0.146,0.0044,0.0351,-0.1172,0.0101,0.0609,-0.0128,0.0993,-0.0574,-0.0478,0.0418,-0.0499,-0.1934,0.0686,0.0528,-0.0698,-0.0163,-0.0764,0.0568,0.0017,0.0524,0.0228,-0.1079,0.0155,-0.0618,-0.0706,-0.0327,0.0699,0.0735,-0.1145,0.0284,-0.0149,-0.0719,0.0,0.0,0.0,0.0,0.0,0.0,0.0,0.0,0.0,0.0,0.0,0.0],[-0.0713,0.0172,-0.0172,-0.013,-0.0478,-0.0911,0.2265,0.0705,-0.2044,-0.2416,-0.1561,0.0448,0.0936,0.3141,0.0926,-0.004,0.0521,-0.073,-0.0176,0.0094,0.0311,-0.0131,-0.0891,0.0511,0.0262,0.003,0.0264,0.0666,0.0782,-0.026,0.0039,-0.0328,0.0482,-0.0689,0.1085,0.0247,-0.0777,0.0135,-0.0632,-0.0365,-0.0504,0.0587,0.0053,0.0648,-0.0183,0.0294,0.03,-0.0206,-0.0049,0.0611,0.0718,0.0404,-0.0012,0.0487,-0.0667,0.0514,-0.0694,0.0447,0.034,-0.0775,-0.0139,-0.0584,-0.065,-0.0658,0.0001,-0.0006,-0.0209,0.0449,-0.0223,0.0789,-0.062,0.0153,0.0821,-0.0282,-0.0497,-0.0532,0.0449,-0.084,-0.0154,-0.0268,-0.0685,-0.0821,-0.0638,0.0524,0.0085,0.0051,0.0672,0.0247,0.029,-0.0615,0.0459,0.0595,0.0106,0.0678,0.0752,0.0437,-0.0336,0.0,0.1151,0.0758,0.0138,-0.0179,-0.0258,-0.0802,0.02,-0.0258,0.0572,0.0189,0.0058,-0.02,-0.0003,-0.0051,0.0074,-0.0254,0.0763,-0.0328,-0.0414,-0.0791,0.0384,-0.0891,0.013,-0.0158,0.059,0.0911,0.0579,0.0062,0.0572,-0.0922,0.0238,0.036,-0.0508,0.0191,-0.064,0.0865,-0.0313,-0.0519,0.0438,-0.0313,0.0074,0.0237,0.0027,0.0,0.0,0.0,0.0,0.0,0.0,0.0,0.0,0.0,0.0,0.0,0.0],[0.0402,-0.036,-0.0336,0.0831,0.062,-0.2031,-0.0575,0.0357,0.4321,-0.1642,-0.1522,0.0631,-0.1303,-0.1928,0.1097,0.0266,0.0188,0.0959,-0.1955,-0.0114,-0.0884,0.0305,-0.0097,0.0553,-0.0187,0.0356,0.035,0.0438,-0.057,-0.0321,0.0614,-0.0059,0.0448,0.0068,-0.0625,0.0141,0.0411,0.0028,0.0708,0.0653,0.1838,-0.0316,0.0099,-0.0426,0.014,-0.0502,0.0263,0.0816,-0.0134,0.0071,-0.0308,-0.0569,-0.0062,-0.045,0.056,-0.0664,0.0664,-0.054,-0.0046,0.0219,-0.035,0.0051,-0.0454,0.0498,0.0405,-0.0421,0.0171,-0.0423,-0.0609,-0.0741,-0.0288,-0.0,-0.0619,-0.019,0.0042,0.0614,0.0487,0.0764,0.0067,-0.0068,0.0187,-0.012,-0.0071,-0.0286,-0.0624,0.0837,0.0743,0.0465,0.0041,0.0699,-0.0652,-0.0575,-0.0142,-0.0063,0.0637,-0.0741,0.0371,0.0,0.0626,-0.0315,0.08,0.0714,-0.0709,-0.0396,-0.0631,-0.0449,-0.0429,-0.0077,0.173,0.0312,0.0276,-0.021,0.0413,-0.0069,0.0605,0.0396,0.003,-0.0025,-0.0009,0.0126,0.0338,0.0234,0.0132,-0.0251,-0.0262,-0.0396,0.0622,-0.0006,0.0078,-0.0193,-0.0416,0.0008,-0.0127,-0.017,0.0199,-0.0065,0.0315,0.0248,-0.0029,-0.0466,0.0019,0.0,0.0,0.0,0.0,0.0,0.0,0.0,0.0,0.0,0.0,0.0,0.0],[0.0182,-0.0194,-0.0704,-0.0257,0.0366,-0.0419,-0.147,-0.1655,0.1944,-0.3422,0.0402,0.2282,0.0504,-0.2934,-0.0054,0.0234,0.0445,-0.053,-0.0195,0.0052,0.0207,0.0258,0.0577,0.0355,0.0471,-0.0243,0.0364,0.0317,-0.0881,-0.0047,-0.0323,0.0017,-0.0291,0.0194,-0.0642,0.0304,0.0823,0.0945,0.0216,0.0748,-0.1949,0.0193,-0.0017,0.012,0.0172,0.048,0.024,-0.0497,0.0195,-0.0524,0.038,0.0527,-0.0278,-0.0696,0.0383,-0.0588,-0.0832,-0.0096,0.0674,0.0534,0.0076,-0.0325,-0.0651,0.0544,0.0551,0.0661,0.0476,-0.0031,0.0728,-0.0449,0.0612,-0.0581,-0.0562,-0.0803,0.0678,0.0496,0.0843,0.0737,-0.0447,-0.0402,0.0594,0.0031,0.0295,0.0228,-0.0762,-0.0571,-0.0793,-0.0068,-0.0482,-0.0365,-0.0469,0.0252,0.0826,0.0704,0.0414,0.0606,0.0457,0.0,0.1697,0.0394,-0.0499,0.0102,0.0396,0.0743,0.0011,0.0254,-0.0738,0.0292,0.115,0.0557,-0.0199,0.0457,-0.0571,0.0196,-0.0052,-0.0727,-0.067,0.0446,-0.0702,-0.0323,-0.037,-0.0629,0.005,-0.0787,0.0594,-0.0169,-0.0245,-0.0512,0.0432,0.057,0.0208,0.0027,0.0534,0.0541,0.0433,-0.0216,0.055,-0.0021,0.0062,-0.0226,-0.0404,0.0,0.0,0.0,0.0,0.0,0.0,0.0,0.0,0.0,0.0,0.0,0.0],[-0.0048,-0.0038,-0.0341,0.034,0.0717,0.2564,0.1813,0.1115,-0.0556,0.1119,0.2891,-0.2062,-0.1956,0.1754,0.0651,0.0388,0.0396,0.1946,0.3046,0.0819,0.0126,-0.0053,0.0413,0.0665,0.0245,0.0388,0.0172,0.0432,-0.0165,0.0434,0.0174,0.0124,0.0596,-0.0314,-0.0185,0.0589,-0.008,0.0113,0.0298,-0.0837,-0.1232,-0.0309,0.025,-0.0028,0.0474,0.0067,-0.017,0.0839,0.0382,-0.0166,-0.0218,-0.0409,0.0574,-0.0813,-0.0793,0.0524,-0.0094,0.0528,0.0838,0.0597,-0.0738,-0.0559,-0.0741,0.0454,0.0835,-0.0043,-0.0587,0.0518,0.0497,0.0323,0.0506,-0.0422,-0.0363,-0.0391,0.051,-0.0584,-0.0805,0.0568,0.0295,0.0505,0.0276,0.0669,0.0169,0.0793,0.0578,-0.0839,0.0384,-0.0523,0.0273,-0.0189,-0.0826,-0.0833,-0.0064,0.0611,0.075,0.0515,-0.0127,0.0,-0.1164,-0.0213,-0.0269,0.0161,-0.0715,0.0775,-0.0808,-0.0656,-0.0012,0.0286,0.1297,0.0376,0.0685,0.002,-0.0399,0.0595,-0.0334,0.006,0.0402,-0.0256,0.0695,0.0315,-0.0069,0.0282,-0.0015,0.0299,0.0384,-0.054,-0.0088,0.0349,0.0492,-0.0238,-0.0195,0.0678,-0.0223,-0.0061,-0.0409,0.0034,0.0635,0.0117,0.0256,0.0002,-0.0303,0.0,0.0,0.0,0.0,0.0,0.0,0.0,0.0,0.0,0.0,0.0,0.0],[0.0021,0.014,-0.0234,-0.0143,-0.0282,-0.2156,0.0351,0.1424,0.2736,0.2358,-0.142,0.1014,-0.2005,-0.17,0.0795,-0.0172,0.092,-0.2489,-0.1281,-0.0722,0.0968,0.0649,-0.0276,0.0923,0.0123,0.1001,0.0064,0.0297,0.0619,0.0514,-0.0223,-0.034,0.0304,-0.0059,0.0415,0.0838,0.0547,-0.0431,-0.0205,0.0425,-0.0276,-0.0375,0.0574,-0.0209,0.041,0.0154,-0.0087,-0.0164,-0.0527,0.0273,0.0045,0.0129,0.0575,-0.0305,-0.03,-0.0271,-0.0261,-0.0782,0.0741,-0.0603,-0.0157,0.068,-0.0149,-0.0468,-0.0316,-0.0327,-0.0392,0.0392,0.0441,0.0169,-0.031,0.0108,-0.0399,0.0224,-0.0378,0.0025,-0.0103,0.0488,0.0174,-0.07,0.0803,-0.0041,0.0203,-0.0467,-0.0697,-0.0773,-0.0263,0.0429,0.0377,-0.0031,-0.0516,0.0207,-0.0714,-0.0293,0.0641,0.051,0.0376,0.0,0.1821,-0.0815,0.0297,-0.0242,0.0512,0.0064,-0.0267,-0.0085,0.0445,-0.0703,0.0445,0.0699,-0.0149,-0.0625,0.0068,0.0071,-0.0328,0.034,0.0328,0.0676,0.0332,0.0719,-0.0135,-0.079,0.0293,0.0557,0.0477,0.0204,-0.0791,-0.0642,0.0467,0.026,0.0262,0.0367,0.0488,0.0349,-0.0062,0.0146,0.0165,-0.0598,-0.035,-0.0267,-0.0292,0.0,0.0,0.0,0.0,0.0,0.0,0.0,0.0,0.0,0.0,0.0,0.0],[0.1075,-0.0006,-0.0045,-0.0043,0.0023,-0.1619,-0.03,-0.0534,-0.2506,0.3172,0.1786,0.011,-0.1129,0.1634,0.0723,0.0662,-0.0243,-0.3371,-0.2098,0.0472,-0.0268,0.0893,-0.0326,0.052,0.0057,-0.0198,0.0355,0.0167,-0.0149,0.0817,-0.0452,0.0273,0.0317,-0.0282,0.0046,0.0177,0.0183,0.0073,0.046,0.0172,0.1492,0.05,0.0214,0.0604,0.0119,0.1003,0.0162,-0.0238,-0.0219,-0.0597,-0.0773,0.0283,-0.0429,0.0355,-0.0112,-0.0737,-0.0533,-0.0345,-0.0756,-0.0775,0.0442,-0.0252,0.02,-0.0147,0.0651,0.0668,-0.0791,-0.0725,-0.0048,0.0516,-0.0663,0.069,0.0541,0.0029,0.012,-0.0432,0.0447,0.0373,-0.0482,-0.0143,-0.0438,0.0753,-0.0412,0.0488,-0.0676,0.0793,0.0699,-0.0655,-0.0634,0.0767,0.0761,-0.0326,0.0405,-0.0706,-0.0675,0.0569,-0.0031,0.0,0.1527,0.05,-0.072,0.0025,0.0189,0.0726,0.0169,0.0703,0.0544,0.0084,-0.1329,0.0099,0.0982,0.0041,-0.0194,0.0159,0.0865,-0.0344,0.0084,-0.042,0.0743,-0.021,0.0295,0.0957,0.0783,0.0009,-0.0234,0.0074,0.013,0.01,0.0109,0.0565,0.0495,-0.0161,0.0085,-0.0717,-0.0025,0.0114,0.0472,0.0375,0.0326,0.025,-0.0063,0.0,0.0,0.0,0.0,0.0,0.0,0.0,0.0,0.0,0.0,0.0,0.0],[0.0128,0.0537,0.0318,-0.0141,0.0807,-0.0161,-0.3152,0.1844,-0.2166,-0.2688,-0.3101,0.1653,-0.2904,0.177,-0.0183,0.0561,0.0202,-0.275,0.2214,-0.0247,0.0164,0.0007,0.0079,-0.0071,0.0304,0.0002,-0.0049,-0.0241,-0.0111,0.0335,0.0065,0.0179,0.0098,0.0079,0.0935,0.0184,-0.0188,-0.0053,0.0592,-0.0099,0.0832,0.0458,0.0462,0.038,-0.037,0.0531,0.046,-0.039,0.0138,0.058,0.067,-0.0668,-0.0419,0.013,0.0009,-0.0305,0.0044,0.0399,0.049,0.0265,-0.022,0.016,0.048,0.0001,0.0689,-0.0048,-0.0393,0.0668,0.0356,0.0735,-0.011,0.0224,-0.0782,-0.0015,-0.058,-0.0176,0.0429,0.0436,0.0352,-0.0534,0.0837,-0.0829,-0.031,0.0009,-0.0158,-0.0126,-0.0063,-0.0245,0.0813,0.0363,0.0317,0.0209,-0.0524,-0.0414,-0.0393,0.019,0.0043,0.0,0.1118,-0.0149,0.0353,-0.0539,0.0146,-0.0498,0.0157,-0.0394,-0.0797,0.0793,-0.1537,0.0225,0.0057,-0.0623,0.0056,-0.0507,-0.0111,-0.008,0.0232,-0.0078,-0.0214,-0.0166,-0.002,-0.0037,0.0151,-0.0174,-0.0237,0.0173,0.0409,-0.0219,0.0309,0.028,0.0047,0.0387,0.0618,0.0029,0.0405,0.0208,0.0291,0.0437,0.0198,0.0051,0.0026,0.0,0.0,0.0,0.0,0.0,0.0,0.0,0.0,0.0,0.0,0.0,0.0],[-0.0384,0.0944,0.0422,0.0248,-0.0324,0.1346,-0.1984,0.1385,0.1355,0.1857,-0.068,0.0853,-0.2491,0.095,-0.0349,0.0199,0.0608,0.0661,0.2495,0.0561,-0.0417,0.0655,0.0762,-0.0007,0.0914,-0.0073,-0.0159,-0.0018,-0.0284,-0.0702,-0.0236,0.0104,0.0722,-0.0516,-0.0271,-0.0723,-0.0061,0.0456,-0.107,0.006,-0.218,0.0998,0.0485,-0.0688,0.0331,0.068,-0.032,0.0432,0.0238,0.0144,0.0713,-0.0199,0.0111,0.0387,0.0214,-0.0046,-0.0514,-0.0112,0.0218,-0.0478,0.0089,0.0582,-0.0481,-0.0438,0.009,-0.0678,0.048,0.014,0.0079,0.0658,-0.0692,0.062,-0.0011,-0.0828,-0.0814,0.0699,-0.0283,0.0828,-0.0711,0.0664,0.0038,0.0001,0.0565,0.0234,0.068,-0.0755,0.0153,-0.0166,0.0784,0.0274,-0.0437,0.0086,-0.0254,0.0196,-0.0713,-0.0589,0.0447,0.0,-0.1063,0.0528,-0.0496,-0.0039,-0.0621,-0.0655,-0.0097,-0.0409,0.0031,-0.0794,-0.0637,-0.0397,0.0337,-0.0223,-0.0936,0.0945,0.0113,0.0206,-0.0138,-0.0661,-0.029,0.0116,-0.0093,0.0045,-0.0336,0.0271,-0.0127,0.0005,-0.0026,0.0092,0.0604,0.0685,0.0279,0.0503,-0.0018,0.0283,0.0127,-0.0769,0.0037,0.0663,0.0291,-0.0082,-0.1141,0.0,0.0,0.0,0.0,0.0,0.0,0.0,0.0,0.0,0.0,0.0,0.0],[-0.0581,-0.0482,-0.059,0.0343,-0.0136,0.1998,-0.0421,0.28,-0.2773,-0.0191,-0.2261,0.0848,0.2284,-0.0796,0.0363,0.026,0.0504,-0.1762,-0.0141,0.0852,0.0643,-0.0335,-0.0632,-0.0347,0.0837,-0.0172,0.045,-0.0053,-0.0542,0.0041,-0.0191,0.0405,-0.0086,-0.0173,-0.0554,-0.0057,0.0786,0.0853,0.0337,-0.025,0.1178,-0.0058,0.0264,-0.0701,0.0378,0.0056,-0.0402,-0.0797,0.0796,-0.0077,-0.0138,-0.082,0.0821,0.0335,0.0558,-0.0527,-0.0003,-0.072,-0.023,0.0749,0.0417,-0.0749,0.036,-0.0392,0.0565,-0.0651,0.0683,-0.0037,0.0596,-0.0718,-0.0286,0.0095,-0.0162,-0.0822,-0.0248,-0.017,0.0334,-0.0004,-0.0068,0.0098,0.0796,0.0191,0.029,0.0545,0.0663,0.0291,-0.0589,0.0819,0.0276,-0.0125,0.0544,-0.0758,-0.0131,-0.0761,0.0049,-0.022,0.0184,0.0,0.1769,-0.0196,-0.0013,-0.0804,-0.006,0.0173,-0.0615,0.0692,-0.0521,0.0328,0.0694,0.0234,-0.0596,0.0004,-0.0323,-0.014,0.0428,-0.01,-0.0643,-0.0193,-0.005,-0.026,0.0349,0.0359,-0.0732,-0.01,-0.0066,-0.0298,-0.0097,-0.0294,-0.036,0.0454,0.0448,-0.029,0.037,0.0663,0.0024,0.0179,0.0409,0.0534,0.0775,0.037,-0.0379,0.0,0.0,0.0,0.0,0.0,0.0,0.0,0.0,0.0,0.0,0.0,0.0],[0.0263,-0.0526,0.0133,-0.0054,0.0438,-0.1951,0.1177,0.0686,-0.1627,0.3028,-0.0766,0.0207,-0.2304,0.0267,-0.0586,-0.0182,0.0349,0.3143,-0.2266,0.0125,0.0285,-0.0025,0.0873,-0.0254,-0.0305,-0.0539,0.0231,0.0514,-0.032,0.0033,0.0625,-0.041,0.0261,-0.0342,0.0071,-0.0241,0.0338,-0.0106,0.0108,-0.0258,-0.1254,0.0326,0.006,0.0006,0.0811,-0.0061,0.0061,0.0097,-0.0586,0.0242,0.0257,0.0041,0.0287,-0.0738,0.0773,-0.0629,-0.0232,-0.0153,0.037,0.0079,-0.0387,-0.0486,0.0272,0.0793,-0.0042,-0.0181,-0.0033,0.0332,0.0626,0.0815,0.0615,0.0454,0.0647,-0.0018,0.0358,0.0698,0.0115,-0.0316,0.0577,0.0273,-0.0442,-0.0461,0.0272,0.0631,0.0249,-0.0245,0.0765,0.0486,0.0608,-0.0232,0.0794,0.0202,-0.0601,-0.0438,-0.0454,-0.0044,-0.0062,0.0,-0.0458,0.0613,0.0647,-0.0724,-0.0429,-0.0747,0.0267,0.0624,0.0056,0.05,0.3103,-0.0412,0.02,-0.0318,-0.0193,0.0741,-0.0205,0.0023,-0.0479,-0.026,-0.0559,-0.0899,-0.0066,0.0652,0.0216,-0.0819,-0.0326,-0.042,-0.0359,0.0115,0.0355,0.006,0.09,0.0542,-0.018,0.0024,-0.0043,0.0697,-0.0111,0.0548,0.051,-0.0002,-0.0062,0.0,0.0,0.0,0.0,0.0,0.0,0.0,0.0,0.0,0.0,0.0,0.0],[0.009,0.0533,0.053,0.0633,0.0698,-0.1445,-0.0828,0.169,0.3111,-0.0001,-0.3147,-0.2247,-0.0996,0.17,0.1554,0.0546,0.0126,-0.1186,-0.2816,0.052,-0.0177,0.0275,-0.0469,-0.0428,0.0327,-0.0267,-0.0125,-0.0498,-0.0128,0.0266,-0.0242,0.0707,-0.0103,-0.0556,0.0254,-0.0325,-0.0753,0.0333,0.0089,0.0558,-0.1908,0.0357,-0.0027,-0.0104,-0.0237,-0.0047,0.0396,0.0068,-0.0386,0.0838,-0.0522,0.005,0.0579,-0.0424,-0.0489,0.0622,0.0683,0.0184,-0.0458,-0.0653,-0.0798,-0.0513,0.0311,-0.0017,-0.0405,0.0131,-0.0306,-0.062,0.0749,-0.0247,0.0622,-0.0001,0.0353,-0.0808,0.0267,0.0545,0.0689,-0.0023,-0.0735,0.0157,-0.0115,-0.0651,-0.0473,-0.0364,-0.0322,0.0286,0.0786,0.0574,-0.0274,0.0582,-0.0835,-0.0295,-0.0598,-0.0334,0.0152,0.0439,-0.0238,0.0,0.0942,-0.0324,0.0818,-0.0505,0.068,-0.0099,0.0497,0.0195,0.0581,-0.0178,0.0998,-0.0508,-0.0076,-0.0315,0.0135,-0.071,0.0328,-0.0071,0.0531,0.0074,-0.0221,-0.0276,-0.002,0.0354,-0.0082,-0.0078,-0.013,0.0429,0.0014,0.0678,0.0047,0.0217,-0.0294,0.0311,0.0286,-0.0499,0.0513,0.0133,-0.0439,0.0114,0.0528,0.0626,0.0082,0.0,0.0,0.0,0.0,0.0,0.0,0.0,0.0,0.0,0.0,0.0,0.0],[0.0865,0.0104,-0.0201,0.0658,-0.0477,-0.1062,-0.0371,0.1604,0.3345,0.0307,0.0177,0.1343,0.1352,0.1385,0.0513,0.0489,0.0247,0.0799,0.19,0.0204,0.0475,-0.001,-0.0293,0.0495,0.0385,-0.03,0.0271,0.0543,0.0463,-0.0125,-0.0241,-0.0126,0.0415,0.0172,0.049,-0.0062,-0.042,-0.0034,0.0098,-0.0232,0.0537,0.0347,0.0252,-0.0266,0.0289,0.0345,-0.0287,-0.0388,0.0155,-0.0799,-0.0824,-0.0147,-0.059,-0.0178,-0.0728,-0.0294,-0.0089,0.0191,-0.0007,0.083,-0.06,-0.0642,0.0174,-0.0499,-0.0251,0.0754,-0.0445,-0.0476,-0.0073,0.056,-0.0368,-0.0069,0.0164,-0.0672,0.0041,-0.0047,-0.0792,-0.0431,0.0396,-0.0326,-0.0837,-0.0019,0.0379,-0.0626,-0.008,0.0809,-0.0312,-0.0447,0.0457,0.0476,-0.0512,-0.0163,-0.0275,-0.0826,-0.0254,0.0083,0.0138,0.0,-0.2096,-0.011,0.036,0.0618,-0.0306,-0.0709,0.0178,-0.0243,-0.0568,-0.0815,-0.031,0.0693,-0.0293,-0.0202,-0.0135,-0.0084,0.0141,-0.0323,-0.0034,-0.0543,0.0057,0.0134,-0.0271,0.0558,-0.0016,-0.0814,-0.0079,-0.0074,-0.0033,0.0768,0.0335,0.0589,0.0528,0.0054,0.0412,-0.0207,0.0122,-0.0102,0.0354,0.0456,0.0063,0.0226,0.0358,0.0,0.0,0.0,0.0,0.0,0.0,0.0,0.0,0.0,0.0,0.0,0.0],[0.0205,0.0235,0.0119,0.0773,0.0055,0.0828,0.1316,0.1213,0.2412,0.2635,0.2298,-0.0881,0.1056,-0.1829,-0.0723,0.0473,-0.047,-0.3052,0.1984,0.0146,0.0084,-0.0446,-0.0601,-0.0151,0.0023,0.0126,-0.0262,-0.0381,0.0363,-0.0274,0.0069,-0.0165,0.0039,-0.0286,-0.0365,-0.0387,-0.1081,0.0334,-0.0607,0.0354,-0.115,-0.0136,-0.0059,0.0597,0.0558,0.0294,0.0515,0.049,-0.0696,-0.0824,-0.07,-0.0396,0.0825,0.0252,0.0142,0.0078,0.052,0.0322,-0.0633,0.035,-0.0347,0.0554,0.0726,0.0249,0.0175,0.0673,0.0213,0.0602,0.0712,0.0745,0.0083,-0.0328,-0.0396,0.0331,0.078,0.0066,-0.0588,-0.0341,0.082,0.0043,0.0827,0.0085,-0.0433,-0.0791,-0.0301,-0.0232,0.077,0.0407,-0.0274,0.017,-0.044,0.061,-0.0731,-0.0293,0.0018,0.0181,-0.0177,0.0,-0.0181,0.0812,0.0195,0.0663,-0.017,0.0322,0.0527,-0.0625,0.0068,-0.0083,0.1532,0.0417,-0.023,0.0247,-0.0049,-0.0661,0.0643,0.0795,-0.0023,0.0287,0.0103,-0.029,0.0408,0.0274,0.0514,-0.0101,-0.0475,0.0058,-0.037,0.0104,0.0316,-0.0022,-0.0187,-0.0625,0.0317,0.039,0.0852,0.0376,0.0183,-0.0237,-0.0504,-0.0669,-0.0465,0.0,0.0,0.0,0.0,0.0,0.0,0.0,0.0,0.0,0.0,0.0,0.0],[0.0106,0.0223,0.0206,0.0456,-0.0144,-0.0476,-0.1079,0.2086,-0.1755,0.1918,-0.0339,0.2441,-0.0489,0.0329,0.03,-0.0121,0.0188,-0.3218,-0.334,-0.0398,0.0177,0.0097,-0.0326,-0.0369,0.032,-0.0061,0.0526,0.0944,0.0281,0.003,0.025,-0.1149,0.0252,0.0389,-0.0384,-0.046,-0.0427,-0.0337,-0.0513,0.0757,0.1606,-0.0147,-0.0387,0.0104,0.0279,0.056,0.015,-0.0391,0.045,0.0773,0.0396,-0.0079,-0.0774,0.0345,0.0718,0.039,0.0544,-0.0737,0.0112,0.0454,0.0334,0.0726,0.0243,0.0721,0.0383,-0.0395,-0.057,0.0077,0.0538,0.014,-0.0481,0.0231,0.0606,0.0796,0.0634,0.0292,0.0571,-0.0157,-0.037,-0.0336,0.0664,-0.0807,-0.0775,-0.0828,0.0359,-0.0375,-0.0311,-0.0211,0.025,0.0185,0.0023,-0.065,-0.039,-0.0716,-0.0668,0.0179,0.0491,0.0,0.0123,0.0245,0.0278,-0.034,0.0195,0.0672,0.0698,-0.0736,-0.0475,0.0364,0.0299,-0.0128,-0.054,-0.0146,0.0154,0.0288,0.1324,0.0172,0.0132,0.0259,-0.0518,0.021,0.0,-0.0466,0.0611,0.0289,-0.0116,-0.0011,0.0546,-0.0205,0.0418,-0.0472,0.0043,-0.016,0.0104,0.0205,0.0195,0.0205,-0.0106,-0.0298,0.0212,-0.0662,0.0428,0.0,0.0,0.0,0.0,0.0,0.0,0.0,0.0,0.0,0.0,0.0,0.0],[-0.0038,-0.0196,0.0326,0.0679,0.0364,0.2179,0.2168,0.0745,0.0739,-0.0136,0.0584,0.2401,-0.003,0.1672,0.0352,0.0171,0.0149,-0.0155,-0.3411,-0.0255,0.0104,0.0516,-0.0088,0.0323,0.0278,-0.002,0.0038,0.0069,-0.008,-0.0227,-0.0091,0.0639,0.0512,0.0151,-0.0307,0.0463,-0.0293,-0.0436,0.0223,-0.0461,-0.32,-0.0403,-0.019,-0.0085,0.0299,0.0557,0.0103,-0.0272,-0.067,0.0703,-0.0169,0.0145,0.063,-0.0144,-0.0619,-0.0588,-0.0401,0.0332,0.0568,0.0248,0.0689,0.02,-0.0786,0.045,-0.0696,0.0099,0.0554,-0.084,-0.0247,0.0583,-0.0384,0.0065,0.0485,0.0261,0.0247,-0.0658,0.057,-0.0159,0.0287,0.0182,-0.0516,-0.0067,-0.0426,0.0341,0.0586,-0.0033,-0.0634,-0.0142,-0.0281,-0.0352,0.0842,-0.0566,-0.0839,-0.0076,-0.0585,0.0821,0.0043,0.0,-0.1657,-0.0764,-0.0317,-0.0659,0.0215,0.0749,-0.0032,-0.0089,-0.0298,0.0031,0.3527,0.0527,0.0268,-0.023,0.0131,0.0373,0.0429,0.0682,0.0106,0.0544,0.0403,-0.0172,-0.023,-0.0282,-0.0482,-0.012,-0.0123,-0.0004,-0.0185,0.0319,0.0351,-0.0107,-0.1026,0.0088,-0.0644,-0.0171,0.0207,0.0046,-0.001,0.0236,0.0105,0.0466,-0.0172,0.0,0.0,0.0,0.0,0.0,0.0,0.0,0.0,0.0,0.0,0.0,0.0],[0.0451,0.0504,-0.0258,0.0241,-0.0346,-0.0409,0.0363,-0.0275,-0.0758,-0.125,0.1422,-0.0263,0.3805,0.4016,-0.1248,-0.0358,0.0366,0.0743,-0.2882,-0.0473,0.0995,0.0341,0.0872,-0.0246,0.0639,0.0062,0.082,0.0073,0.0633,0.0297,-0.0056,0.0495,-0.0322,0.0219,0.0056,0.0315,0.0175,-0.0471,-0.0212,-0.0711,0.1705,0.0472,-0.0389,0.0377,0.0673,0.0544,-0.0257,-0.0015,-0.0255,0.0257,-0.0187,0.0337,-0.0008,0.0716,0.0351,-0.0098,0.0045,-0.0781,0.056,-0.0717,0.0343,0.0029,0.0132,0.0197,-0.0337,-0.0733,0.0409,0.0265,0.0463,-0.0611,0.0843,-0.0219,-0.0742,-0.0264,-0.0048,-0.0749,-0.035,0.0102,0.0182,-0.0637,-0.053,0.0467,-0.0448,0.0381,-0.0126,0.0502,-0.0599,0.0803,-0.0359,0.0754,0.0513,-0.0291,0.0717,-0.0218,0.0368,0.0453,0.0475,0.0,0.1246,0.0703,0.0289,-0.0669,0.0218,0.0498,0.0471,-0.0222,0.0492,0.0119,0.0136,0.0309,0.0085,0.072,0.0594,-0.013,0.0208,-0.0008,-0.0021,0.0397,-0.0382,-0.017,-0.002,0.0272,0.0123,-0.0245,0.0732,0.0246,0.0003,-0.0079,0.0533,0.0151,0.0197,0.0381,-0.0259,-0.0584,0.032,0.0861,-0.0082,-0.0256,0.0575,0.0635,-0.0067,0.0,0.0,0.0,0.0,0.0,0.0,0.0,0.0,0.0,0.0,0.0,0.0],[-0.002,-0.093,0.0435,0.0404,0.0539,0.105,-0.2392,0.0778,0.3515,0.1664,0.112,-0.1449,-0.0955,-0.2357,-0.0383,0.0238,-0.0082,-0.0106,0.0299,-0.0591,0.1025,-0.0345,-0.0299,0.0142,0.0729,0.0162,0.0248,0.0117,-0.0025,0.0583,-0.0004,-0.015,0.0323,0.0622,-0.0821,-0.022,-0.0546,-0.016,-0.0301,0.0724,0.0497,0.0471,-0.0647,-0.0545,0.0169,0.1141,0.0201,-0.0498,-0.0506,0.0459,0.001,0.0039,-0.0423,0.0119,0.0001,-0.0631,-0.0775,-0.0136,-0.0065,-0.0105,0.083,0.0544,-0.0723,-0.0335,0.0702,0.0699,-0.0541,-0.03,-0.0805,0.032,0.0019,0.0583,0.0161,0.0371,-0.0721,0.003,-0.0592,-0.0289,-0.0523,0.0251,-0.0161,-0.0567,0.057,0.0401,0.0802,0.0439,-0.001,0.0737,0.0251,0.0739,0.0694,0.073,-0.0724,0.0682,0.0345,0.0681,0.0456,0.0,-0.1391,0.041,-0.0785,0.0208,-0.0665,0.0497,0.0128,0.0105,0.0598,-0.0453,0.0386,0.0469,-0.0019,-0.0787,0.0144,0.0205,0.0646,-0.0012,0.0509,-0.0717,-0.0521,0.0331,-0.0301,-0.0645,-0.0107,-0.0321,0.0627,0.066,0.0375,-0.0506,-0.0471,0.0073,-0.0462,0.0277,-0.0325,0.0554,-0.0079,0.0486,-0.055,0.0024,0.0527,-0.0119,-0.0853,0.0,0.0,0.0,0.0,0.0,0.0,0.0,0.0,0.0,0.0,0.0,0.0],[-0.0417,-0.0524,0.0828,0.0492,-0.0594,0.0549,-0.0024,-0.0407,0.3667,-0.2559,0.1438,-0.0985,0.2664,-0.3235,0.1138,0.0144,-0.0021,-0.1905,0.2599,-0.0067,-0.0618,0.0523,-0.0704,-0.0103,0.087,-0.0692,0.0488,0.0426,0.0014,0.1014,0.0642,-0.0543,0.0947,-0.0506,0.0387,0.0294,-0.0598,0.0198,-0.0126,0.0309,-0.0786,0.03,0.024,0.0855,-0.0072,0.0165,0.0451,0.063,-0.0421,-0.0808,0.0448,0.0136,-0.0768,0.0365,-0.0184,-0.0115,0.0317,0.0112,-0.008,-0.0718,-0.0606,0.02,-0.0809,-0.0028,-0.0567,-0.0137,0.0503,0.046,-0.0027,-0.0575,0.0037,-0.0235,-0.0027,-0.0649,0.0242,-0.0276,0.0543,-0.0405,-0.0275,0.0143,-0.0004,-0.0451,-0.0817,0.0548,-0.0499,0.0188,-0.0794,0.0678,0.0269,0.0667,0.0843,0.0121,-0.0277,-0.0636,0.0198,0.0631,0.0045,0.0,0.1537,-0.0105,-0.0756,0.0666,-0.0489,-0.0571,0.067,0.0146,-0.0459,0.065,0.0165,-0.0066,-0.0277,-0.0033,0.0915,-0.053,0.0591,0.0653,-0.0321,-0.0859,0.0059,0.0123,-0.0084,0.0205,0.0656,0.1171,-0.0287,-0.0109,0.0828,-0.0133,-0.016,-0.0288,0.0255,0.0515,-0.0456,0.0407,-0.0259,0.0346,0.0158,0.0296,-0.0605,0.0298,0.0419,0.0,0.0,0.0,0.0,0.0,0.0,0.0,0.0,0.0,0.0,0.0,0.0],[0.0123,-0.0307,0.0773,0.0361,0.0062,-0.1472,-0.0123,0.0845,-0.2748,-0.2713,0.0792,0.143,-0.1992,0.2603,-0.0812,-0.0288,-0.0554,0.2536,0.1514,0.0617,0.0324,0.0274,-0.0502,0.0079,-0.0082,0.0387,-0.0647,0.0358,0.0181,0.0736,0.0612,0.0773,0.0662,0.0326,0.0247,0.0471,-0.0165,0.0016,0.0107,-0.0593,-0.2099,0.0227,-0.016,-0.0383,-0.0119,-0.0131,0.0556,0.0735,0.0192,0.0122,0.0482,0.0665,0.027,0.0719,0.0456,-0.003,0.0555,0.0158,0.0184,0.0455,-0.0621,-0.0728,-0.0071,0.045,0.0634,0.0217,-0.0211,-0.0192,-0.0562,-0.0564,-0.0824,0.0627,-0.0445,0.0092,-0.0279,0.0255,-0.0526,0.0376,-0.0119,-0.0613,-0.0132,0.0653,0.0657,0.0308,0.0408,-0.0665,0.0289,-0.0388,-0.0663,-0.022,-0.0163,-0.014,-0.0668,0.076,0.076,0.0836,0.0501,0.0,0.2003,0.0444,0.0252,0.0084,-0.0063,0.0607,-0.0381,-0.022,-0.0721,-0.0222,-0.1686,0.0088,-0.0697,0.0008,0.0476,-0.0159,0.0482,0.1024,-0.032,-0.0336,-0.0379,-0.0087,-0.0282,0.0374,-0.0091,0.0152,0.0033,-0.0473,0.0395,-0.0075,-0.0063,-0.0066,0.0426,-0.0403,0.031,0.0609,0.0093,0.0422,0.0009,0.0464,0.0139,-0.0324,0.0493,0.0,0.0,0.0,0.0,0.0,0.0,0.0,0.0,0.0,0.0,0.0,0.0],[0.0496,-0.0304,-0.0015,-0.0497,-0.0476,-0.1688,-0.0464,0.1644,-0.014,-0.1683,-0.089,-0.1249,0.0429,0.111,0.0653,-0.0406,0.0104,0.2349,-0.2469,-0.0558,-0.0201,-0.0164,0.0911,0.0342,0.0767,0.0069,-0.0466,0.1522,-0.0473,0.054,0.0565,0.0156,0.0048,0.0577,-0.0202,0.0185,0.1174,0.092,0.0964,-0.0483,-0.2083,-0.0446,-0.0125,-0.0544,-0.0624,0.0326,0.0435,-0.012,0.0729,-0.0587,0.0701,0.0355,-0.035,-0.0046,0.0166,-0.0166,0.0193,0.0274,-0.0832,0.0342,-0.0016,-0.0348,0.0,-0.0658,0.0684,0.0156,-0.021,0.0497,0.0456,0.0181,0.0633,0.0091,-0.0208,0.0296,-0.0289,-0.0764,0.035,-0.0429,0.0443,0.054,-0.0245,-0.0831,0.0839,-0.0101,-0.0046,0.0184,0.0195,-0.006,-0.0148,0.0175,-0.0828,-0.0631,-0.0672,0.078,0.0691,0.0108,0.0576,0.0,0.1253,0.0564,0.0728,-0.0837,0.0809,-0.0045,-0.0479,-0.0029,0.0323,-0.0008,-0.3806,-0.0342,-0.0068,-0.0454,0.0188,0.0441,-0.0176,-0.0255,-0.1061,0.0216,0.0643,0.1079,-0.0172,0.0894,-0.0111,-0.1363,-0.0236,-0.1057,0.0059,0.0073,-0.0106,-0.0765,-0.0147,0.0268,0.0782,0.0379,-0.0799,-0.0062,0.0283,0.0468,0.035,0.0148,0.0366,0.0,0.0,0.0,0.0,0.0,0.0,0.0,0.0,0.0,0.0,0.0,0.0],[0.0175,0.07,0.0225,-0.0036,0.0399,0.1239,-0.0036,0.0052,0.274,-0.2216,-0.0085,-0.135,0.4213,0.259,-0.0314,-0.0099,-0.0017,-0.142,-0.0733,0.0148,-0.003,-0.0002,-0.038,0.0315,-0.0448,0.0352,0.0417,-0.0104,-0.0153,0.0171,-0.0411,0.0343,0.0518,0.0853,-0.0484,0.0337,0.043,-0.0434,-0.0267,0.0566,0.1055,-0.0339,0.051,0.0084,0.0052,0.0016,0.0272,0.0144,-0.002,-0.0614,0.0084,0.0561,-0.0621,0.0754,0.0198,-0.0596,-0.0776,-0.0614,0.0073,0.0627,0.0356,-0.0129,0.0502,0.0018,0.0728,0.0762,0.0592,-0.069,-0.0118,0.0726,0.011,-0.0267,0.0238,-0.0435,-0.0292,0.0426,-0.0014,0.005,-0.0797,0.0364,0.0114,0.0386,0.0008,0.0669,0.015,-0.023,0.074,0.0136,-0.0222,0.038,0.0043,-0.0093,0.0777,-0.0523,0.0814,-0.0185,-0.0177,0.0,-0.1666,0.0162,-0.0458,0.0016,-0.0248,-0.0225,0.0559,0.0228,-0.0196,-0.009,0.0335,0.0071,-0.0147,-0.0057,-0.0259,0.0168,-0.0098,0.0388,0.018,-0.0082,-0.0307,0.0053,0.033,-0.0026,-0.017,0.0199,0.0372,0.0004,-0.0287,0.0245,0.0461,0.0435,0.007,0.0016,0.0273,0.0078,0.0429,-0.0408,0.0596,-0.0318,0.011,0.0113,-0.0337,0.0,0.0,0.0,0.0,0.0,0.0,0.0,0.0,0.0,0.0,0.0,0.0],[0.0466,-0.031,-0.0054,0.0322,0.0437,-0.1198,0.0518,-0.0727,-0.0999,-0.0502,-0.0841,0.0419,-0.2291,-0.3217,0.1036,0.0143,0.0357,0.1766,0.214,-0.0383,0.0182,0.0078,0.0166,-0.0261,-0.0086,0.0621,-0.0017,0.0345,-0.0497,-0.0199,0.0264,0.0065,0.0153,-0.0116,-0.049,-0.013,-0.0368,0.032,0.0322,-0.0714,-0.1069,-0.003,0.0108,0.0041,0.0296,-0.0238,0.02,-0.0791,-0.0288,-0.0296,-0.0548,-0.064,-0.0698,0.0796,-0.0159,-0.071,0.0234,-0.0701,0.0632,0.0385,0.0271,0.0284,-0.0191,0.0156,0.0681,-0.0101,-0.0661,-0.0236,-0.075,0.0393,-0.0766,0.0686,0.0712,-0.0052,-0.0015,-0.0203,-0.0509,0.0334,0.041,0.0188,0.0778,0.0697,-0.035,0.0479,0.0689,-0.002,0.0566,0.0414,0.0174,-0.0034,-0.0476,-0.0189,-0.0092,0.0672,0.0643,-0.0561,0.0031,0.0,0.1661,-0.0152,0.0459,-0.0709,0.0715,0.0459,0.0445,-0.0766,-0.0574,-0.0438,-0.4721,0.0443,0.0979,-0.0462,-0.0331,0.0036,0.0549,-0.0207,0.0253,-0.0483,0.0125,-0.0211,-0.0233,0.0534,-0.028,-0.0619,0.0206,-0.0106,-0.0279,-0.0029,-0.0205,0.0005,0.038,-0.0001,0.0013,-0.0185,0.0143,-0.0162,0.0615,-0.0046,-0.0126,0.0122,-0.0111,0.0,0.0,0.0,0.0,0.0,0.0,0.0,0.0,0.0,0.0,0.0,0.0],[-0.0019,-0.0347,0.0141,-0.0045,0.0568,-0.1295,-0.2194,-0.4625,-0.1426,-0.0727,0.1567,0.0796,0.1408,0.0751,-0.0189,0.0473,0.0361,-0.2394,0.078,-0.08,0.0483,0.007,-0.0393,0.0279,-0.0002,-0.0232,-0.0137,0.0486,-0.0268,0.0391,0.0256,0.0586,0.0126,-0.001,0.1064,-0.0122,-0.0003,-0.0082,-0.0518,0.0584,0.1398,-0.0443,-0.0192,0.0554,0.0022,-0.0264,-0.017,-0.0042,-0.0835,0.0197,0.0843,0.0813,0.0311,0.0567,0.0543,0.0398,0.026,-0.0372,-0.0625,0.0692,0.0709,0.0043,0.0251,0.0622,-0.0299,0.0586,0.0105,-0.0335,-0.0539,-0.0074,-0.0477,-0.0055,-0.0635,0.0041,-0.0108,-0.0016,-0.0698,0.0578,0.0073,-0.0538,0.0636,-0.0033,-0.0456,-0.0694,-0.0034,0.0732,0.0353,-0.066,0.0299,-0.0663,0.0149,-0.0461,-0.0039,0.0275,-0.0198,-0.0746,0.0028,0.0,0.1732,0.078,0.0793,0.026,0.0401,0.041,0.071,0.0778,0.043,0.033,0.305,0.0068,-0.04,-0.029,-0.0216,-0.0152,-0.0335,0.0263,0.0024,-0.0352,-0.0932,-0.0301,-0.0187,-0.0174,0.0523,-0.0252,0.0242,0.0496,0.0186,-0.0249,0.0881,0.068,0.0082,-0.0192,0.0132,0.0619,-0.0119,-0.0402,0.0049,0.0466,-0.005,0.0048,0.0095,0.0,0.0,0.0,0.0,0.0,0.0,0.0,0.0,0.0,0.0,0.0,0.0],[-0.0782,-0.0462,-0.066,0.047,0.0492,0.1134,0.1315,0.0023,-0.1578,-0.2879,0.1552,0.0533,0.1185,-0.1824,0.0723,-0.0408,-0.005,-0.0611,0.2456,0.016,0.0271,0.0275,-0.006,-0.0064,-0.0489,-0.0593,-0.0816,0.0643,-0.0122,-0.0811,-0.0404,0.0681,0.0612,-0.0299,0.0192,-0.0431,0.0665,0.0347,0.0145,-0.0311,0.1543,0.0735,0.0394,-0.0185,0.0182,0.0343,0.0622,-0.0452,0.0809,0.0497,-0.0504,-0.0217,-0.0755,0.0602,-0.0295,0.0602,0.0045,-0.0201,0.0514,-0.0663,-0.0202,0.0636,0.0237,0.0764,0.0656,0.0789,0.0758,0.0814,-0.0266,0.0669,0.0294,0.004,0.0639,0.0599,0.0761,-0.0171,-0.0672,-0.0739,-0.0176,0.0146,-0.0789,-0.0385,0.0563,-0.058,-0.0465,0.0623,-0.0207,0.0457,0.0342,-0.0838,-0.0507,-0.0212,0.0311,0.012,-0.0354,0.0061,0.0568,0.0,-0.0787,-0.0256,0.0614,0.0124,0.0064,0.0186,-0.0221,0.0583,0.044,-0.0058,0.1573,0.0248,-0.0151,-0.0308,-0.0621,0.0054,-0.0384,0.0145,0.0152,-0.0342,0.0618,-0.0886,-0.0955,0.0118,0.0044,-0.0519,0.0564,0.0103,0.0595,-0.0074,-0.0459,0.0293,0.0351,0.1197,0.0408,-0.0568,-0.0098,-0.0039,-0.022,0.0816,0.012,-0.0064,0.039,0.0,0.0,0.0,0.0,0.0,0.0,0.0,0.0,0.0,0.0,0.0,0.0],[-0.04,0.0157,0.0182,0.0464,-0.0524,-0.0032,0.1555,0.1324,-0.2093,0.0324,0.1523,-0.0996,0.2274,0.2089,0.0586,0.0546,-0.0563,0.1924,-0.2209,0.0393,0.0765,-0.0522,-0.0536,-0.0016,0.0055,-0.0229,-0.0509,-0.0111,0.0908,0.0592,-0.0051,0.0358,0.0598,-0.0584,0.1239,0.0063,-0.0614,0.0363,-0.0366,0.0331,-0.1266,-0.033,0.0476,0.0669,-0.056,-0.053,0.0354,-0.0681,-0.0193,-0.0574,0.0422,-0.059,-0.0073,-0.0707,-0.0247,0.0289,-0.0289,0.0205,0.025,-0.0112,0.0808,-0.0695,-0.0254,0.0555,0.0016,0.047,-0.0112,-0.0346,0.0422,-0.0363,0.0414,-0.0627,-0.0379,-0.0291,-0.0106,0.0366,-0.0417,-0.0706,0.0543,-0.0701,0.0501,-0.0129,-0.0054,-0.0343,-0.0246,-0.0581,0.0163,0.0362,-0.0265,0.0602,-0.0592,0.0367,0.0085,-0.0547,-0.0647,-0.0617,-0.0077,0.0,-0.1081,0.0606,-0.0643,0.0509,0.021,-0.0742,-0.0564,-0.0519,-0.0296,0.0655,0.1318,0.0632,0.0229,0.0113,0.0703,0.0574,-0.0124,0.0414,0.02,-0.0557,0.0859,-0.0255,0.0066,-0.0337,0.0336,-0.0023,-0.0381,-0.0257,0.0209,-0.0079,-0.0245,0.051,-0.009,0.0628,0.0042,0.0961,-0.0416,0.0249,-0.0723,-0.051,-0.0025,-0.0297,0.0186,0.0,0.0,0.0,0.0,0.0,0.0,0.0,0.0,0.0,0.0,0.0,0.0],[0.0376,-0.0103,-0.0301,-0.0038,0.0618,0.0115,0.0798,0.0352,0.2251,-0.1375,0.1055,0.0738,-0.0235,0.2439,-0.0062,-0.0472,-0.0103,0.3216,0.2138,-0.0072,-0.0053,-0.0453,0.0413,0.0113,-0.0401,0.0444,0.0479,0.0323,-0.012,0.0316,0.0712,-0.0713,-0.0384,0.0531,-0.0375,-0.0199,-0.0174,0.0448,-0.0022,-0.0017,0.0098,-0.0323,0.0673,0.0476,0.0544,0.0085,0.0022,0.0805,-0.0572,-0.081,-0.0138,-0.0747,0.0167,-0.0195,0.022,0.0603,-0.0654,-0.0102,-0.0194,0.0744,-0.0237,0.0558,0.0732,-0.0545,0.0556,0.059,-0.0393,0.0195,0.0599,0.0008,-0.0075,-0.0455,0.0685,0.0439,0.0646,-0.0031,0.0006,-0.0397,0.0798,0.0354,-0.0588,-0.0146,-0.0567,-0.0719,-0.0283,0.0443,-0.0238,-0.0671,-0.0417,0.0495,0.0201,0.0784,0.0539,0.0613,0.081,0.0505,0.0712,0.0,-0.2004,0.0063,0.066,0.0153,0.0135,0.0262,-0.0198,-0.0676,0.065,0.0501,-0.104,0.0122,0.0611,-0.0033,0.0207,0.0884,0.0263,0.0531,-0.0607,-0.0396,0.0707,-0.0514,0.0459,-0.027,0.0098,0.0005,-0.0021,-0.0321,0.0495,-0.0579,0.0134,-0.0383,0.0711,-0.016,-0.0186,-0.0168,0.069,0.0635,-0.0116,0.0479,0.0198,0.0393,-0.0495,0.0,0.0,0.0,0.0,0.0,0.0,0.0,0.0,0.0,0.0,0.0,0.0],[0.0288,0.0497,-0.0248,-0.0371,-0.0078,0.2864,0.0147,0.0503,0.2521,-0.1286,-0.0056,-0.1497,-0.2409,-0.2631,0.0645,-0.0135,0.0595,-0.2067,0.13,0.0972,0.0183,-0.0347,-0.0233,0.0189,0.0173,-0.0162,-0.0577,0.0074,-0.0055,-0.0454,0.0262,0.0545,-0.0081,-0.004,0.0694,0.0448,-0.0149,0.0358,-0.0189,0.0143,-0.003,0.0518,0.0783,0.0596,0.0418,-0.0109,0.0238,-0.06,0.0323,-0.0833,-0.0031,0.0777,-0.0354,0.0137,0.0685,0.0594,0.0092,0.052,-0.0405,-0.0304,-0.0638,-0.072,0.0641,-0.0663,0.0398,-0.0737,0.0743,0.0722,-0.0259,0.0773,0.0086,0.0288,-0.0464,0.0563,0.003,-0.081,-0.0767,-0.0458,0.0721,0.0554,-0.054,-0.0693,0.0712,0.0654,0.0264,0.0155,0.0775,-0.0345,-0.0775,0.0293,0.0129,-0.0067,0.0324,-0.0114,-0.0574,-0.0516,0.0169,0.0,0.0629,-0.0079,0.0021,0.0603,0.0191,0.0225,0.0604,-0.0543,-0.0682,-0.071,-0.078,-0.0477,-0.0002,0.0197,0.0319,-0.0718,-0.0143,0.0252,0.0285,-0.0414,0.0449,0.0211,0.0652,-0.0396,0.0209,0.0599,0.0315,-0.0152,0.0035,-0.0497,-0.0132,0.0093,-0.08,0.0134,0.0102,0.013,-0.0139,0.0683,-0.0061,-0.0563,-0.0123,0.0279,0.0334,0.0,0.0,0.0,0.0,0.0,0.0,0.0,0.0,0.0,0.0,0.0,0.0],[0.022,0.043,0.0617,-0.0344,-0.0252,0.3136,-0.2143,0.2523,-0.1586,-0.2362,0.1551,-0.0061,0.229,0.07,-0.0476,-0.0182,-0.0529,-0.2246,-0.01,-0.0864,0.0406,0.0444,0.0152,0.0081,0.0665,0.0301,-0.0422,-0.0055,0.034,0.047,-0.0511,0.0053,-0.0127,-0.0311,0.0174,-0.0123,-0.0149,0.0057,-0.0329,0.0718,-0.315,-0.0375,0.0236,0.0081,-0.0484,0.0499,0.0309,-0.0519,0.0468,0.0007,-0.0505,-0.0443,-0.0142,0.0677,0.0561,-0.0069,0.037,-0.0575,-0.0817,0.0305,-0.0232,0.0089,-0.0323,0.0518,-0.0766,-0.0214,0.0183,-0.049,-0.042,0.03,0.0694,-0.0129,-0.0826,-0.0649,-0.0267,0.062,-0.0487,-0.0472,-0.0486,-0.0556,0.0051,0.078,0.0255,-0.0654,-0.0328,-0.0253,-0.0789,0.0317,-0.023,-0.0099,-0.0501,-0.0391,0.0765,-0.0267,0.0534,0.033,-0.05,0.0,0.054,0.0457,0.0091,0.0148,0.0507,-0.0205,0.0628,-0.0129,0.0255,0.047,-0.0801,-0.0083,0.0122,0.0315,-0.0397,0.0118,0.0102,-0.0552,-0.0312,0.0136,-0.0369,0.0329,-0.0326,-0.0502,0.0217,-0.0083,0.0452,-0.0068,-0.0192,0.0467,0.0403,0.0137,0.0376,-0.0671,0.0324,0.0063,0.0044,-0.0219,-0.0215,-0.0236,0.0873,0.0167,-0.0124,0.0,0.0,0.0,0.0,0.0,0.0,0.0,0.0,0.0,0.0,0.0,0.0],[-0.019,-0.0122,0.0448,-0.0032,0.0092,0.0152,-0.1032,-0.0794,0.3591,0.1621,-0.0202,-0.1436,0.1655,-0.2237,0.2273,-0.0233,0.0881,-0.1182,0.0817,0.0562,-0.0642,0.0657,-0.0043,-0.0053,0.0482,0.0585,-0.0369,-0.0811,-0.0177,-0.0105,0.027,-0.012,0.0514,0.0514,0.0371,0.113,0.1429,-0.0025,-0.0555,0.0577,-0.0924,0.0062,-0.0105,0.0177,0.0863,-0.0077,-0.038,-0.0343,-0.0345,0.0053,0.0503,0.0327,-0.0572,0.0154,0.0447,-0.0324,-0.0485,0.0064,-0.0492,-0.0284,0.0528,-0.0055,-0.0317,0.0752,0.0366,-0.0112,-0.0196,0.0583,-0.0667,-0.0282,0.0781,-0.0124,0.0786,-0.0127,-0.0606,0.0004,-0.002,-0.0301,0.0457,-0.0544,-0.0794,0.0322,0.0132,-0.0818,-0.0174,-0.0419,0.0701,-0.0692,-0.029,-0.0595,0.0746,0.0284,0.0648,-0.0047,0.0466,-0.0076,0.0705,0.0,-0.0755,-0.0604,-0.0804,-0.0725,0.0704,-0.0684,0.0279,-0.0558,-0.0002,0.0027,0.1315,-0.0083,0.0366,-0.0174,-0.107,-0.0127,-0.0282,-0.0276,-0.0239,0.1376,0.0688,0.0345,0.0605,-0.026,-0.0541,0.021,0.0137,0.0063,0.0154,0.0415,0.0843,0.0566,-0.0416,-0.0201,0.0059,-0.035,-0.0742,