{"species":"Ettin","input_dim":38,"weights":{"net.0.weight":[[0.02448117360472679,-0.12719115614891052,-0.06932578980922699,0.00011604993778746575,0.00036055099917575717,-0.00013435941946227103,0.0007005283841863275,-0.039378535002470016,-0.004218682646751404,0.04666135460138321,0.11028270423412323,-0.13517263531684875,0.156826913356781,-0.09293963760137558,-0.10747863352298737,0.05601179972290993,0.12889455258846283,0.007008464075624943,0.14686129987239838,0.012078892439603806,0.14943358302116394,-0.08376794308423996,-0.15241478383541107,0.006938370410352945,0.1469472050666809,-0.04093620926141739,0.11393656581640244,-0.04026515409350395,0.022774146869778633,0.15078124403953552,-0.08342122286558151,-0.147191122174263,-0.1189599484205246,-0.06031098961830139,-0.06701510399580002,0.03607302904129028,-0.15730543434619904,0.1367693692445755],[0.024745797738432884,-0.014712514355778694,-0.15024244785308838,-0.049105167388916016,0.03961842879652977,-0.13562574982643127,0.010974242351949215,0.050085194408893585,0.023575149476528168,-0.09852674603462219,0.01610381156206131,-0.08900360018014908,-0.10144446045160294,-0.12652406096458435,0.10847209393978119,0.13124975562095642,-0.12405794858932495,-0.1449921578168869,-0.08578892797231674,-0.022293083369731903,0.1531289517879486,-0.08184362202882767,-0.09781302511692047,-0.09044251590967178,0.03796999901533127,0.1415509581565857,0.1355801522731781,0.10486075282096863,-0.03700640797615051,-0.05551045387983322,0.049716681241989136,0.13947054743766785,-0.09865275770425797,-0.11372995376586914,0.07866974920034409,-0.13408775627613068,0.039666276425123215,0.12091819941997528],[0.12143872678279877,0.007417488843202591,0.012638915330171585,0.08793096244335175,0.04995924234390259,-0.0001867634418886155,-0.0015452150255441666,0.13379037380218506,-0.10319247841835022,-0.004340432584285736,0.084175243973732,0.051073625683784485,-0.13697893917560577,0.049414653331041336,-0.056272175163030624,-0.03884366899728775,-0.02653684839606285,0.02751162461936474,-0.025750748813152313,0.04069572314620018,-0.12223987281322479,-0.1460346132516861,-0.08895217627286911,0.005165447946637869,0.10354495048522949,0.10915366560220718,-0.04499699920415878,0.062153372913599014,0.04859048128128052,0.10168245434761047,-0.1347726434469223,-0.13436543941497803,-0.06379284709692001,0.05074569210410118,0.04151616990566254,0.01152277272194624,0.13245591521263123,0.015294363722205162],[0.07046948373317719,0.018864991143345833,-0.10048434138298035,0.04336809366941452,0.1306489259004593,0.08468414843082428,0.055584616959095,-0.13273338973522186,0.0006958548328839242,-0.021988442167639732,-0.08490139245986938,0.10035540163516998,0.13321106135845184,-0.023367634043097496,-0.1086210235953331,-0.10271503776311874,0.056159280240535736,-0.10457398742437363,-0.15699470043182373,-0.009710787795484066,-0.08332745730876923,-0.1306745409965515,0.11188925057649612,-0.1521887481212616,-0.08809344470500946,-0.15897171199321747,0.1131281703710556,0.10288455337285995,0.0279210414737463,-0.0487271249294281,-0.06213388964533806,-0.1310003101825714,-0.1426304578781128,0.04334219917654991,-0.06547848880290985,0.11192597448825836,0.11569689959287643,0.09649210423231125],[0.02648823894560337,-0.08407599478960037,-0.053635112941265106,-0.054793667048215866,0.0005835767951793969,2.98940394714009e-05,-0.015532574616372585,0.02932034246623516,-0.08327845484018326,-0.07495987415313721,-0.09043598175048828,-0.09812398999929428,-0.0848633423447609,-0.12688855826854706,-0.02659515105187893,0.05702211707830429,-0.06862296164035797,0.008185585029423237,0.04599425569176674,0.06299975514411926,0.029415836557745934,-0.06304123997688293,0.03536537289619446,0.14245973527431488,0.01613536663353443,-0.06333668529987335,-0.11435563117265701,0.1547415554523468,0.10484665632247925,-0.11021173745393753,-0.03251359239220619,0.02842128463089466,-0.13989640772342682,-0.13920439779758453,0.07876605540513992,0.033924177289009094,-0.09084676206111908,-0.1072322204709053],[-0.02406792901456356,-0.055603668093681335,0.1535365879535675,-0.10478675365447998,-0.056360650807619095,-0.09251691401004791,-0.09783454984426498,3.6405686842044815e-05,-0.13596610724925995,-0.019677164033055305,-0.06573931872844696,-0.05684616416692734,-0.05861657112836838,0.026312220841646194,-0.012713313102722168,0.08744936436414719,-0.01986529305577278,-0.158495232462883,-0.1135832890868187,0.1538989096879959,-0.10037054121494293,-0.015486652962863445,-0.0061710490845143795,0.09221746772527695,0.1200055256485939,-0.1377994865179062,-0.061580657958984375,0.01654081605374813,0.079060859978199,-0.03957315906882286,-0.061257343739271164,-0.0037305240985006094,0.13958534598350525,-0.021213721483945847,-0.05280371755361557,-0.04177703708410263,0.03809886425733566,0.06170186027884483],[0.09747876971960068,-0.08087868243455887,-0.09621594846248627,-0.03249765932559967,-0.07277751713991165,0.08864781260490417,0.000468732527224347,-0.11005423218011856,-0.10562675446271896,0.01767648197710514,0.14334292709827423,0.05113132297992706,0.013936297036707401,0.09222967177629471,0.1469908207654953,-0.14699243009090424,0.02099585346877575,-0.08386435359716415,0.13882023096084595,0.015402873046696186,-0.005158670246601105,-0.13323430716991425,-0.09443126618862152,0.04549817740917206,0.010325583629310131,0.09551917016506195,0.1498512327671051,-0.0907737985253334,-0.05696644261479378,-0.11421229690313339,-0.14887003600597382,0.0004847240634262562,0.025337494909763336,-0.1603512316942215,-0.016837116330862045,-0.1316794604063034,-0.14792457222938538,0.08694165199995041],[0.05020010843873024,0.03341689705848694,0.050209254026412964,-0.04868672415614128,-0.07700031250715256,-0.0005842908285558224,0.026041610166430473,-0.008418777957558632,-0.007644110359251499,0.10850029438734055,-0.050760988146066666,0.07628299295902252,-0.15557961165905,-0.05578256770968437,0.08251041918992996,0.03447021171450615,0.14652389287948608,0.11860712617635727,0.038250882178545,0.14646539092063904,0.1509927362203598,-0.045259375125169754,0.01636487990617752,-0.15875737369060516,-0.02917763590812683,-0.05536183342337608,0.07320192456245422,0.1301881968975067,-0.14408189058303833,-0.05833430960774422,-0.0567612424492836,0.07604193687438965,0.12531492114067078,-0.04224265366792679,-0.09235450625419617,-0.05091828480362892,0.010013323277235031,0.07827095687389374],[0.11969566345214844,-0.04791342839598656,0.0012806302402168512,0.0791684240102768,0.10508657246828079,-0.1272951364517212,0.12050460278987885,0.10346151888370514,0.06224542483687401,0.033436790108680725,0.0967775359749794,0.08039776235818863,-0.15584313869476318,-0.049664683640003204,0.016624437645077705,0.11585882306098938,-0.07304076105356216,-0.0024521497543901205,0.008298249915242195,0.04777679592370987,0.1199611946940422,-0.1184166818857193,0.01528789009898901,0.09217258542776108,-0.03502492234110832,-0.09467963129281998,-0.1510685384273529,-0.03609546273946762,0.11407561600208282,-0.06112028285861015,-0.16097363829612732,0.040498994290828705,-0.1411994993686676,-0.0287934523075819,-0.0038973584305495024,0.10352884978055954,-0.09837482869625092,0.11165666580200195],[0.1075223982334137,0.07947302609682083,0.019989443942904472,-0.05057461932301521,0.03736818954348564,-0.0540354922413826,0.0760413184762001,0.03923860937356949,-0.043883245438337326,-0.050137899816036224,0.03906245157122612,0.022177433595061302,-0.0753760039806366,0.13017526268959045,0.07031405717134476,-0.05775497108697891,-0.07806150615215302,0.03206104412674904,-0.12932100892066956,0.10580839216709137,0.0023229452781379223,0.09772299230098724,-0.012008819729089737,-0.07737389951944351,0.10857260972261429,0.04875943064689636,-0.14968904852867126,-0.10196436941623688,-0.07524693757295609,0.11407707631587982,0.13437937200069427,-0.013423877768218517,0.0759674608707428,0.1506214290857315,-0.031705524772405624,0.15807653963565826,-0.14817768335342407,0.03794146701693535],[-0.0043773590587079525,-0.07847519218921661,0.12915979325771332,0.0027365374844521284,-0.0035866808611899614,-0.033940136432647705,-0.06454262137413025,-0.029103875160217285,-0.021851621568202972,0.01557853352278471,0.13615837693214417,-0.08812488615512848,0.09928340464830399,-0.10751783102750778,0.14866414666175842,-0.052037689834833145,-0.039227619767189026,-0.10475160926580429,0.09495529532432556,-0.0862901508808136,0.05373918637633324,0.015823064371943474,0.1414203941822052,-0.1390639692544937,0.03404204174876213,0.0350380502641201,-0.0783611610531807,-0.013920720666646957,-0.06080791354179382,0.12714560329914093,-0.15778030455112457,0.08128476142883301,0.11025138944387436,-0.15077778697013855,-0.07751420140266418,0.12354253977537155,0.15221014618873596,-0.005103022325783968],[0.1046946570277214,-0.014119510538876057,-0.04273155331611633,-0.03337489068508148,-0.004865675233304501,0.0584130734205246,0.023601500317454338,-0.019230199977755547,-0.13622494041919708,-0.04375233128666878,0.1246190145611763,0.1161113977432251,-0.006401521153748035,0.16611680388450623,0.027973195537924767,-0.07494756579399109,0.03025401383638382,-0.001468061818741262,-0.04826800152659416,0.1064484640955925,-0.1493741124868393,0.07466042041778564,-0.12302452325820923,0.16171406209468842,0.13238081336021423,-0.033368054777383804,0.06687922030687332,0.07220178097486496,0.02791409380733967,0.01363365538418293,0.051981911063194275,-0.08335541933774948,0.08784772455692291,-0.12119505554437637,0.14731097221374512,0.15814173221588135,0.11083920300006866,-0.07241103053092957],[-0.0970088467001915,-0.07291409373283386,-0.020461009815335274,0.027243275195360184,0.08000025898218155,3.8913572097953875e-06,0.00956359039992094,0.07510266453027725,-0.09864559024572372,-5.396788765210658e-06,0.0015497927088290453,-0.03307557478547096,-0.13016711175441742,-0.060102302581071854,0.1637904793024063,0.10981643944978714,0.08282332122325897,-0.010941932909190655,0.11754743754863739,-0.031187983229756355,-0.06636352092027664,-0.05174585059285164,-0.0954870656132698,-0.11140531301498413,0.09520477801561356,-0.028388172388076782,0.030353255569934845,-0.11019862443208694,0.06850842386484146,-0.1578802615404129,0.0049445233307778835,0.11604686826467514,-0.1424952894449234,-0.07268952578306198,-0.07550250738859177,0.15295003354549408,0.14356862008571625,0.1631634533405304],[-0.07275550067424774,-0.10734798014163971,-0.15851598978042603,0.10393066704273224,-0.133223295211792,0.0006841367576271296,-0.1358574628829956,0.0851462259888649,-0.008750391192734241,-0.05569557845592499,0.016025952994823456,0.13691872358322144,-0.014778172597289085,-0.05652767792344093,0.014971126802265644,-0.039163898676633835,-0.12100522965192795,0.07542580366134644,0.08230162411928177,0.019848739728331566,-0.03609596937894821,0.042108774185180664,-0.0017506020376458764,0.07449880242347717,-0.00799002218991518,-0.013651789166033268,-0.026578392833471298,0.009943938814103603,0.1129203736782074,-0.09015250205993652,0.07361867278814316,0.08850008249282837,-0.08822871744632721,0.025849634781479836,0.02411048859357834,-0.04797068610787392,-0.1181383952498436,0.0985952764749527],[0.10796857625246048,0.12083405256271362,-0.04689270630478859,-0.08701330423355103,-0.07527251541614532,-0.12476406246423721,-0.07704122364521027,-0.09150602668523788,-0.08703011274337769,-0.000887730740942061,0.02097725123167038,-0.12646998465061188,-0.09744472801685333,-0.06233861669898033,-0.0329265370965004,0.04761388897895813,0.12140064686536789,-0.09938867390155792,0.1605842262506485,0.06140502542257309,0.02202095277607441,0.0021840897388756275,-0.15443561971187592,0.1578155755996704,-0.1349046677350998,-0.1309172660112381,-0.10286391526460648,-0.10115513205528259,0.11400134861469269,-0.09647877514362335,-0.10610345751047134,-0.008909322321414948,-0.12209063023328781,-0.10616268962621689,-0.03492316976189613,-0.1424696296453476,0.07407598197460175,-0.114339180290699],[-0.0001811980182537809,-0.08663706481456757,0.041113048791885376,-0.03498580679297447,0.06936118751764297,-3.0389943276531994e-05,0.0699017122387886,-0.020274147391319275,0.026043623685836792,0.11682627350091934,-0.03841932490468025,0.01883287914097309,-0.05085930973291397,-0.11299349367618561,-0.16236612200737,-0.0646338164806366,0.0784180536866188,-0.15314435958862305,0.08398264646530151,-0.15565866231918335,0.16116012632846832,-0.054871510714292526,-0.10144409537315369,0.1144566759467125,0.0879613533616066,0.13629205524921417,0.14292708039283752,0.06881152838468552,-0.0974327027797699,-0.08013889193534851,0.1210232600569725,0.08760365843772888,-0.0545501783490181,0.09024441987276077,-0.14030705392360687,0.03582117334008217,-0.0713457465171814,0.1510624885559082],[-0.00036095091491006315,-0.06878398358821869,0.1400698870420456,0.05532195791602135,0.11813175678253174,0.0047625768929719925,-0.11025422066450119,-0.13688981533050537,0.056387972086668015,-0.09741969406604767,-0.03234618529677391,0.07053188979625702,-0.009393632411956787,-0.05940038338303566,-0.11341328173875809,-0.1210329458117485,-0.14331457018852234,0.1468367874622345,0.14584311842918396,0.1060606837272644,-0.07161924988031387,-0.15434956550598145,0.055752772837877274,-0.14827974140644073,0.16249136626720428,-0.10484562069177628,0.08761265873908997,0.09301159530878067,0.012643019668757915,0.07052355259656906,-0.03722681105136871,-0.06073947995901108,0.030470343306660652,0.13402771949768066,0.13176171481609344,-0.0735049918293953,-0.07639054954051971,0.10313757508993149],[0.0005023747216910124,-0.046567630022764206,0.1021929383277893,0.1336221545934677,-0.11184705048799515,0.08166084438562393,0.0014580258866772056,0.043634407222270966,-0.01622086577117443,0.00141307117883116,0.08004771918058395,0.12772050499916077,0.011639314703643322,0.12861652672290802,0.05560754984617233,-0.16418127715587616,-0.048663102090358734,0.14459282159805298,-0.10992582142353058,0.044595204293727875,-0.13073863089084625,-0.00471062958240509,-0.08639107644557953,-0.10604467988014221,-0.08131353557109833,0.10746417194604874,-0.020297212526202202,-0.02355988509953022,0.14286045730113983,-0.08821460604667664,0.13515134155750275,0.07875369489192963,-0.15339384973049164,-0.07859130203723907,0.045981887727975845,-0.12757955491542816,-0.15481048822402954,-0.07893610000610352],[-0.09028919041156769,-0.05058053880929947,-0.12511323392391205,-0.07321927696466446,-0.050721559673547745,0.08603666722774506,-0.0003811932110693306,0.023465758189558983,-0.13148772716522217,0.06881915032863617,-0.035719603300094604,0.00980039220303297,-0.1473604291677475,0.06236746534705162,-0.03765786066651344,-0.019925450906157494,-0.134609654545784,0.08054951578378677,-0.1629728376865387,-0.10646933317184448,0.03820252791047096,-0.09609018266201019,-0.03829469159245491,0.05391794815659523,0.1484694480895996,-0.1422273963689804,0.10246829688549042,0.061285149306058884,0.06405936926603317,-0.00805952399969101,0.0899883285164833,-0.1238812729716301,0.11882933974266052,0.16189077496528625,-0.0036723746452480555,-0.004731486551463604,0.0353756919503212,0.048332251608371735],[0.009961463510990143,0.026594799011945724,0.1173861175775528,-0.12151369452476501,-0.023360183462500572,-0.010277526453137398,-0.07985911518335342,-0.12939083576202393,0.0009715808555483818,0.00016471586422994733,0.010871963575482368,0.14219437539577484,-0.08506263792514801,0.05245065316557884,-0.08820450305938721,0.022925512865185738,-0.037242744117975235,-0.07453698664903641,-0.03264961391687393,-0.00977285299450159,0.1486889123916626,-0.14500950276851654,-0.03268681839108467,-0.003085134783759713,0.04859002307057381,0.11417633295059204,0.10812422633171082,0.12243462353944778,0.020588278770446777,0.021527204662561417,-0.02330298162996769,-0.000820075161755085,-0.10935302078723907,-0.04847649857401848,0.08111103624105453,-0.1139804944396019,0.09969788789749146,-0.040869973599910736],[0.0016636834479868412,-0.09740128368139267,0.15582042932510376,0.1197177842259407,-0.06408515572547913,0.07115432620048523,-0.11689761281013489,0.07949182391166687,-0.07398228347301483,0.047195639461278915,0.16121947765350342,0.11349985003471375,0.10126839578151703,-0.1183796226978302,0.07850158214569092,0.07432771474123001,0.09065727889537811,0.01834000088274479,-0.154296413064003,-0.1386948674917221,-0.07094836235046387,-0.05314141884446144,0.033609990030527115,-0.15204878151416779,0.1300801783800125,-0.13721880316734314,0.02207418903708458,-0.024640612304210663,0.07249166071414948,0.012843558564782143,-0.054659709334373474,-0.0028877046424895525,-0.08141790330410004,0.13526056706905365,-0.0702865719795227,-0.0013871242990717292,0.14774146676063538,-0.1423257738351822],[0.09144265949726105,-0.10760205239057541,-0.14091730117797852,0.12139850109815598,-0.054030049592256546,0.02514769323170185,0.08144786208868027,-0.018738772720098495,-0.060067787766456604,0.04890540987253189,-0.13667520880699158,0.12090245634317398,0.11022387444972992,0.1150333359837532,0.026523923501372337,0.009884312748908997,-0.022562934085726738,0.04537257179617882,-0.0827796533703804,0.12892737984657288,-0.07356119900941849,0.09747575968503952,0.01590440608561039,0.08930162340402603,0.13812588155269623,0.06318909674882889,0.04788729175925255,0.059551022946834564,0.07601822912693024,-0.13877305388450623,-0.010357039049267769,-0.04120843857526779,-0.08317600190639496,0.1169356033205986,0.06364095211029053,-0.07164835184812546,-0.08515431731939316,0.022023454308509827],[-0.06178046390414238,0.109665647149086,0.1496933549642563,0.005942702293395996,0.09727122634649277,-0.1353999227285385,0.12604963779449463,0.08590992540121078,-0.03552645444869995,-0.07299130409955978,0.02082795836031437,-0.14278903603553772,-0.11581921577453613,-0.048985790461301804,-0.15972325205802917,0.02009010687470436,-0.11647792160511017,-0.056629788130521774,-0.15138934552669525,-0.08402275294065475,0.10236702859401703,-0.010297826491296291,-0.00044421269558370113,0.05822193622589111,-0.05377945676445961,0.015320425853133202,-0.1350153088569641,0.00756837660446763,0.09091660380363464,0.006404847372323275,0.026360739022493362,0.15916667878627777,0.07903281599283218,-0.07952993363142014,0.09829428046941757,-0.051781464368104935,0.05338938906788826,-0.1570144146680832],[-0.00023214601969812065,-0.061249688267707825,-0.06429833173751831,0.049228958785533905,-0.044902294874191284,-0.011506875976920128,-0.05550394207239151,-0.09783221036195755,0.08707728981971741,0.039288271218538284,-0.12214811146259308,-0.020181085914373398,0.1162533089518547,0.15349164605140686,-0.0875818282365799,-0.03667404130101204,0.05868378281593323,0.1515897810459137,0.1521591991186142,0.1337846964597702,0.13045454025268555,0.12275606393814087,0.12962619960308075,-0.023104459047317505,0.15496952831745148,-0.13879430294036865,0.05883364751935005,0.0648307278752327,-0.03136318922042847,-0.1562953144311905,-0.1601724624633789,0.08267046511173248,0.08427267521619797,-0.12528088688850403,-0.003597235307097435,-0.017508763819932938,0.15084344148635864,-7.559845835203305e-05],[-0.12147236615419388,0.03942904248833656,-0.11473183333873749,-0.04615151137113571,-0.13236768543720245,0.1029476448893547,0.005543362814933062,-0.0003216957557015121,-0.05788732320070267,-0.07371380925178528,-0.04059218615293503,-0.14092755317687988,0.060681335628032684,0.151585653424263,-0.08484857529401779,0.10802075266838074,-0.06306321918964386,0.13526609539985657,-0.09785423427820206,0.10976699739694595,0.0992484763264656,0.07745591551065445,0.1394466906785965,0.15442609786987305,0.09613892436027527,0.09272624552249908,-0.10258171707391739,0.08816883713006973,0.017044460400938988,-0.10315724462270737,-0.04034559801220894,0.1581595242023468,0.04539356380701065,-0.12176770716905594,-0.09576762467622757,-0.0100829117000103,-0.03996281325817108,-0.04260872304439545],[0.03700125589966774,-0.00036707607796415687,-0.11388886719942093,0.0002607310307212174,-0.13097389042377472,0.06825237721204758,0.10238932818174362,0.04759148508310318,-0.024069488048553467,0.10678722709417343,-0.0905112773180008,0.07756580412387848,-0.09946294873952866,0.12370048463344574,-0.14101019501686096,0.06868220865726471,0.013071335852146149,-0.1097409799695015,0.07788195461034775,0.08116302639245987,0.1585572212934494,-0.15443216264247894,-0.13972418010234833,0.13502104580402374,0.041180022060871124,-0.11358646303415298,-0.13850103318691254,0.1559005230665207,-0.044036298990249634,-0.06943656504154205,-0.14991818368434906,0.06944593787193298,-0.033663760870695114,0.1505514532327652,-0.058301158249378204,0.08938731253147125,0.11836818605661392,-0.07942666113376617],[-0.01600060798227787,-0.047770678997039795,0.12447767704725266,0.0006143958889879286,0.008431916125118732,0.11334699392318726,0.013248484581708908,-0.006584663409739733,-0.11817039549350739,0.041292693465948105,0.020195089280605316,0.11535067856311798,-0.1573532372713089,0.052894413471221924,-0.1486484706401825,0.006014007609337568,-0.03450676053762436,0.07877621799707413,0.023545781150460243,0.12385597079992294,-0.11756391823291779,0.12608623504638672,-0.10519822686910629,-0.0984296128153801,0.12651169300079346,0.10962408781051636,-0.12633325159549713,-0.1107821837067604,0.03676094859838486,-0.11053705215454102,-0.017044615000486374,-0.015692895278334618,0.04454782232642174,0.072635218501091,0.028491981327533722,-0.13097892701625824,0.14148257672786713,-0.15306010842323303],[-0.0412922278046608,-0.00041415877058170736,0.05888203904032707,0.11038553714752197,0.051874466240406036,-0.11808570474386215,-0.10478617995977402,0.09533857554197311,0.032465580850839615,0.047803085297346115,0.016129078343510628,-0.08678173273801804,-0.13244102895259857,-0.038385674357414246,0.10455560684204102,0.04702666029334068,-0.08592628687620163,0.11145386844873428,0.12090682238340378,-0.10293416678905487,0.09340447932481766,-0.07004822790622711,0.02691696584224701,0.12827830016613007,-0.1412929743528366,-0.0434206984937191,-0.10969480872154236,-0.07084241509437561,0.13829109072685242,-0.08197522163391113,-0.04454994946718216,0.06484319269657135,0.09916005283594131,0.14651545882225037,0.12462016195058823,-0.04684808850288391,-0.08941275626420975,-0.04150654748082161],[0.09853512793779373,-0.03859094902873039,-0.15023145079612732,0.13013745844364166,0.106266088783741,-0.04466170817613602,0.05515903979539871,-0.11141443997621536,0.09298388659954071,0.055906012654304504,-0.027002720162272453,-0.017851414158940315,-0.07232856750488281,0.12720611691474915,0.06189647689461708,-0.10724882036447525,0.045449141412973404,0.10024529695510864,0.08556812256574631,-0.07448124885559082,0.005370812024921179,0.07501630485057831,-0.09261981397867203,0.10033848881721497,-0.016595983877778053,0.05242408812046051,-0.06701775640249252,-0.0012735308846458793,-0.10609110444784164,0.07147996872663498,-0.13002246618270874,0.08496542274951935,0.10484517365694046,0.0938001424074173,0.01849314570426941,-0.08318641036748886,-0.10328924655914307,0.077608622610569],[-0.05712553858757019,0.08006300777196884,-0.07461302727460861,0.05252322554588318,-0.05990016087889671,-0.10803735256195068,-0.09673477709293365,-0.0010880503104999661,-0.0229421928524971,0.1303347796201706,0.11835809797048569,-0.00443014781922102,-0.06903589516878128,-0.034823328256607056,-0.00585151556879282,0.08493731170892715,0.14284904301166534,0.1657475233078003,-0.012766186147928238,-0.15495824813842773,0.07530435174703598,0.06971018016338348,-0.08960934728384018,-0.061068207025527954,-0.11022862792015076,0.017329301685094833,-0.14758971333503723,0.07385410368442535,-0.15738563239574432,-0.07252899557352066,0.11191371828317642,0.01955335959792137,0.08448061347007751,0.06540848314762115,-0.015690907835960388,-0.0533900111913681,0.04411374032497406,0.04700253903865814],[0.028280388563871384,0.1349370777606964,0.131791889667511,-0.08062170445919037,-0.07735113054513931,0.04768805578351021,0.043636299669742584,0.1017041876912117,0.05533206835389137,-0.026773706078529358,-0.0332576259970665,0.025029795244336128,-0.012574980966746807,0.012511972337961197,0.04620230942964554,0.1478414088487625,-0.07092221826314926,0.03024754859507084,-0.020584862679243088,-0.11318314075469971,-0.04260323569178581,0.13346993923187256,0.15088854730129242,0.06137119606137276,0.07932396233081818,0.06973547488451004,-0.02449497953057289,-0.16615541279315948,-0.15992045402526855,0.025652684271335602,0.03443020582199097,0.13590241968631744,0.16450415551662445,-0.13656336069107056,-0.021219030022621155,0.12189874798059464,-0.09679212421178818,0.10122733563184738],[-0.08401671051979065,-0.01575576327741146,0.08593938499689102,-0.03820621967315674,-0.03457298129796982,-0.012494596652686596,-0.06279981881380081,0.0060856943018734455,0.13048258423805237,-0.012847973965108395,-0.05221567302942276,-0.005452562123537064,0.030871912837028503,0.03992364555597305,-0.11281653493642807,-0.12549684941768646,0.14185944199562073,-0.1468784362077713,0.08429674059152603,-0.03561858460307121,0.13012075424194336,-0.005095027387142181,-0.14412206411361694,-0.08833501487970352,0.06314150989055634,-0.008137558586895466,-0.08404972404241562,-0.13019335269927979,0.13360905647277832,0.004021761007606983,0.053994711488485336,-0.020360881462693214,0.05790266394615173,0.07358002662658691,0.007867611944675446,-0.05853097140789032,0.06028960645198822,0.05208425596356392],[0.020877566188573837,0.0006729304441250861,0.03239529952406883,-0.08206520974636078,0.004326538648456335,0.05368511751294136,9.333063644589856e-06,0.08344336599111557,-0.133164182305336,0.06398076564073563,0.13622744381427765,0.12233654409646988,-0.02652258612215519,0.030477376654744148,-0.12845781445503235,-0.0689416155219078,0.16227300465106964,0.022741524502635002,-0.04251525551080704,0.09160760045051575,-0.13941071927547455,-0.008937740698456764,-0.012550750747323036,0.07101167738437653,-0.15014341473579407,0.0447658970952034,0.10954026132822037,0.057308048009872437,-0.0054886615835130215,0.07192546874284744,0.09845931828022003,0.04592388495802879,0.10446197539567947,0.049996260553598404,-0.07688558846712112,0.1631999909877777,0.02180023118853569,-0.003636246547102928],[0.03869513049721718,0.06823219358921051,-0.05022157356142998,-0.025950495153665543,-0.019920406863093376,-0.13261383771896362,-0.0185211393982172,0.050285883247852325,0.09609252959489822,-0.13707613945007324,-0.01939314976334572,-0.0652061179280281,0.002936537144705653,0.0878358781337738,-0.07195257395505905,0.015974070876836777,0.10232724249362946,0.09198281913995743,0.05527987703680992,-0.07113837450742722,0.05099659413099289,-0.07042676955461502,0.08899884670972824,0.14609716832637787,0.019134968519210815,-0.0681595578789711,-0.013621554709970951,0.1270989626646042,-0.06945006549358368,-0.014004343189299107,0.14092253148555756,0.03746772184967995,0.10717414319515228,-0.13880054652690887,0.09250369668006897,-0.04169691354036331,0.130161315202713,0.05702745169401169],[0.06395048648118973,-0.032169971615076065,0.10563703626394272,0.0860748216509819,-0.058960698544979095,0.049561385065317154,-0.013800611719489098,0.1321801394224167,-0.05991194769740105,0.00048480197438038886,0.09136596322059631,0.07373607903718948,-0.13335739076137543,0.02686195634305477,-0.1332610845565796,0.15429601073265076,-0.03783826902508736,0.024793585762381554,-0.020766330882906914,0.04671606793999672,-0.13553984463214874,-0.020903892815113068,-0.11631111055612564,-0.07414232939481735,-0.1137336790561676,-0.1526973843574524,0.11917989701032639,-0.007010364904999733,-0.08406749367713928,0.05930100753903389,0.11967416107654572,0.1112799122929573,0.01549226138740778,-0.08125710487365723,0.13738904893398285,0.004618073347955942,0.1340005248785019,-0.10043561458587646],[-0.010138210840523243,-0.017681235447525978,0.06244945153594017,-0.10944242775440216,-0.13526056706905365,-0.12049082666635513,-0.06689135730266571,0.02450704574584961,0.10021679848432541,-0.06858620047569275,-0.011910390108823776,-0.1512123942375183,0.00461930688470602,-0.057818613946437836,0.05657618120312691,-0.01982809044420719,0.07919727265834808,0.05659272149205208,-0.0804898664355278,0.05672476068139076,-0.020299574360251427,-0.09862854331731796,-0.08391278237104416,-0.1517280787229538,-0.15969884395599365,-0.12603123486042023,0.0789860337972641,0.1225806251168251,0.09253702312707901,-0.06077050790190697,-0.04656042903661728,0.1436934471130371,-0.03166641667485237,0.11445555835962296,0.013742336072027683,-0.03371496498584747,-0.026392927393317223,-0.09981254488229752],[0.011096492409706116,-0.04031689465045929,0.030800988897681236,-0.09425152093172073,-0.12067393213510513,-0.024173177778720856,0.00010036824096459895,-0.03594677522778511,-0.11613023281097412,7.553774048574269e-05,-0.02990841679275036,0.07249481976032257,0.13287875056266785,0.09837749600410461,0.04978729039430618,0.006057167425751686,0.15801063179969788,0.013396348804235458,-0.05385785922408104,0.15901915729045868,0.1074807196855545,-0.15178918838500977,0.051253948360681534,0.08110982179641724,0.08053656667470932,-0.04313542693853378,-0.027125591412186623,0.06751281768083572,-0.05489078164100647,0.07554611563682556,-0.03897812217473984,-0.043773721903562546,-0.14664019644260406,-0.12594850361347198,-0.07553520053625107,0.018054168671369553,-0.04711701348423958,-0.16522854566574097],[0.1323748081922531,0.04634787514805794,0.1538299173116684,0.08637058734893799,-0.023780062794685364,-0.12458055466413498,-0.0002923206484410912,-0.1292150914669037,0.10345341265201569,0.1297432780265808,-0.13174936175346375,-0.11252611875534058,0.11214293539524078,0.08288273960351944,-0.09377282857894897,0.04929185286164284,0.11882827430963516,0.09462252259254456,0.06078129634261131,-0.14651525020599365,-0.04198490083217621,0.14209383726119995,-0.13846468925476074,-0.002669263631105423,0.06725478917360306,0.06448080390691757,-0.06502264738082886,-0.009677938185632229,-0.09013459086418152,-0.14630796015262604,-0.04122878611087799,-0.061995647847652435,-0.08990896493196487,-0.06977709382772446,-0.005981027148663998,0.05586139112710953,0.07025542855262756,0.1506330370903015],[-0.007351703941822052,0.049063995480537415,-0.11568807810544968,-0.003980665467679501,0.008933565579354763,0.0004761606687679887,0.1063602939248085,0.11585505306720734,0.022517796605825424,-0.008961884304881096,-0.13887886703014374,-0.12454598397016525,0.013385766185820103,-0.06975158303976059,-0.06129802018404007,-0.11802548170089722,-0.02939806878566742,-0.07950988411903381,-0.07938558608293533,-0.088644839823246,-0.0038121934048831463,0.0031439601443707943,-0.00931394100189209,-0.10241364687681198,0.14744003117084503,-0.1123654767870903,0.010659035295248032,-0.044135335832834244,-0.08059186488389969,-0.14954853057861328,-0.05262136459350586,-0.11663421243429184,0.1141534075140953,-0.0025074053555727005,0.11849924176931381,-0.13121318817138672,-0.11608638614416122,0.10067202150821686],[0.09166518598794937,0.0005982191069051623,0.1353282332420349,0.11872495710849762,0.003991957288235426,-0.050093017518520355,-0.09990894049406052,0.001825846266001463,0.07770267128944397,-0.12796340882778168,0.05985989421606064,-0.07032667100429535,0.08691707998514175,0.11945001035928726,0.15759308636188507,0.11576288193464279,-0.08224455267190933,0.005371030420064926,-0.0761483833193779,-0.04936319589614868,0.06961275637149811,-0.12132469564676285,0.14899791777133942,0.1538981944322586,0.008081440813839436,0.13735975325107574,-0.026005417108535767,-0.08509132266044617,-0.11220896244049072,0.12818175554275513,0.15747545659542084,-0.08609139174222946,-0.05102984607219696,0.010186204686760902,0.10795578360557556,-0.11307094246149063,-0.03476959466934204,-0.0661269873380661],[-0.06098935380578041,-0.043644167482852936,0.13001812994480133,-0.04147575795650482,0.03459501639008522,-0.10525364428758621,0.09143369644880295,0.010551788844168186,-0.00019768571655731648,-0.03188679367303848,-0.15591250360012054,-0.03943459689617157,0.09921912848949432,-0.05791732296347618,-0.09913670271635056,0.14701227843761444,-0.1358722597360611,-0.11433159559965134,-0.15910322964191437,-0.1492125540971756,-0.08649048209190369,-0.0654953345656395,-0.09740479290485382,-0.08397487550973892,0.01361708901822567,-0.04835420474410057,0.016308670863509178,0.013794634491205215,-0.14923155307769775,-0.024020271375775337,0.13245585560798645,0.01925852708518505,-0.07773005217313766,-0.09454572200775146,-0.0517389215528965,-0.10261174291372299,-0.12501630187034607,0.03644226863980293],[-0.06470758467912674,-0.050980161875486374,0.04570532217621803,-0.0020750178955495358,-0.011101163923740387,-0.01568758487701416,0.0006543491035699844,0.07159600406885147,0.004106988664716482,-0.047773804515600204,0.024335114285349846,-0.1511775702238083,0.10254186391830444,-0.04482061415910721,0.16304299235343933,-0.15228788554668427,-0.09481728076934814,-0.11942238360643387,-0.014035290107131004,-0.1334308534860611,0.03736838325858116,-0.004433484748005867,0.11063731461763382,0.041867226362228394,-0.11694416403770447,-0.05951002612709999,0.10003297030925751,0.006090954411774874,-0.042075265198946,0.10556790977716446,0.1580858677625656,-0.16222704946994781,-0.06854928284883499,-0.14594526588916779,-0.05594201013445854,-0.02320941537618637,0.12132533639669418,0.038531363010406494],[0.00024852328351698816,0.03611244261264801,0.03908127546310425,-0.07769666612148285,0.001496260752901435,0.032011792063713074,-0.074289470911026,0.013716043904423714,-0.0016515704337507486,0.03821255639195442,0.06529577821493149,0.1394510120153427,0.07064121216535568,-0.06728009879589081,0.13845448195934296,0.12008751928806305,0.07666141539812088,0.029365655034780502,-0.05923832580447197,-0.0628293976187706,0.06797262281179428,0.026990314945578575,-0.1495712250471115,0.10426551103591919,-0.09336652606725693,-0.044541630893945694,-0.06505593657493591,0.05159159377217293,-0.12755186855793,-0.007964905351400375,0.0872993990778923,0.06143733859062195,0.10189882665872574,-0.07024827599525452,-0.130835622549057,-0.031293611973524094,0.07091235369443893,-0.039022427052259445],[0.05935749039053917,0.09171964973211288,-0.14387482404708862,0.09091126173734665,-0.11463349312543869,0.057917412370443344,-0.056366611272096634,0.1106184720993042,0.03410136699676514,-0.09765667468309402,-0.021908458322286606,-0.07989010959863663,0.1174849346280098,-0.0755661278963089,0.04583185911178589,-0.08656974881887436,-0.12711350619792938,0.028506958857178688,-0.04390755668282509,0.11683697998523712,-0.14254862070083618,-0.04762754216790199,0.1180385872721672,-0.009233062155544758,-0.13145095109939575,-0.016867665573954582,0.019687697291374207,0.10351940244436264,-0.09020566195249557,-0.07336028665304184,-0.08110412210226059,-0.10849472880363464,-0.0005741367349401116,-0.10298854112625122,-0.04532167688012123,-0.03835386782884598,0.11766257882118225,-0.04271816462278366],[0.06332921981811523,0.05505610629916191,0.06247197091579437,0.11042039841413498,-0.0993880033493042,0.0094850342720747,-0.09214311838150024,-0.024654429405927658,-0.12307171523571014,-8.132591028697789e-05,-0.041463762521743774,0.06679774820804596,-0.014824916608631611,-0.06366601586341858,0.10979367047548294,-0.013485555537045002,-0.0766816958785057,-0.04853634163737297,0.013812240213155746,0.031186075881123543,-0.03651522845029831,-0.09652253240346909,0.021401097998023033,-0.07870470732450485,-0.16775883734226227,0.03404979035258293,0.12448622286319733,0.09837871044874191,0.09927713125944138,0.0929485335946083,0.05796132981777191,-0.005075819790363312,-0.11540001630783081,0.07301035523414612,-0.11164960265159607,-0.07474557310342789,0.011851946823298931,-0.0705554410815239],[-0.07557655870914459,-0.0003854985989164561,0.06870803982019424,0.0025264760479331017,0.106783926486969,0.0932127833366394,-0.08648524433374405,-0.014368048869073391,-0.030554812401533127,0.059431273490190506,-0.049736060202121735,0.02884714864194393,0.0026151996571570635,0.15427453815937042,0.11003544926643372,-0.0068036578595638275,-0.020053375512361526,-0.13035579025745392,-0.08518504351377487,-0.04011658579111099,0.10427036881446838,-0.1259528398513794,0.06247536092996597,0.035774100571870804,0.030868252739310265,-0.04169271141290665,0.04221675172448158,-0.06435883790254593,0.08628127723932266,0.12077003717422485,0.092717744410038,-0.04144702106714249,0.0626031830906868,-0.1190914660692215,-0.06773741543292999,-0.04145126789808273,0.13060162961483002,-0.09118027240037918],[-0.07248701900243759,-0.0014341045171022415,-0.028715649619698524,0.09650178253650665,-0.05626395717263222,0.015704117715358734,-6.0780330386478454e-05,0.025890886783599854,-0.056953851133584976,0.019186334684491158,0.09026462584733963,0.04641260951757431,0.08605312556028366,-0.14910735189914703,-0.045614615082740784,-0.14963789284229279,-0.06592825055122375,-0.010456887073814869,0.13137008249759674,-0.004226326011121273,0.08471599966287613,0.10792315751314163,0.09271616488695145,0.07813483476638794,-0.0373915396630764,-0.1334824115037918,0.1517598181962967,-0.05509071424603462,0.01555562298744917,0.13543352484703064,0.13432839512825012,0.05321185290813446,-0.15934982895851135,-0.13800814747810364,-0.10114815831184387,-0.021886274218559265,-0.1284911334514618,-0.12762166559696198],[-0.001127835363149643,-0.034455254673957825,-0.0870574340224266,-0.0022371290251612663,-0.12693184614181519,-0.0007319112773984671,-0.03284198045730591,0.037265926599502563,-0.07886206358671188,0.06715182960033417,0.10400360077619553,-0.08501285314559937,0.00768656749278307,-0.10533096641302109,-0.13145661354064941,0.011844441294670105,-0.15502780675888062,0.12003187090158463,-0.04796595126390457,0.09522102773189545,-0.026328617706894875,-0.04454575851559639,0.05328458920121193,0.11122148483991623,-0.009264359250664711,0.13010810315608978,0.12935791909694672,0.04256211966276169,-0.07680769264698029,0.11961809545755386,-0.01378631591796875,0.1475999504327774,-0.11951201409101486,-0.07656722515821457,-0.09182588756084442,-0.03539567440748215,0.05803500860929489,0.09450341016054153],[0.11775336414575577,-0.11446856707334518,0.12619827687740326,0.09824035316705704,0.00018750462913885713,-0.06630977243185043,0.12219268828630447,-0.07967817038297653,-0.05762366205453873,0.0026987730525434017,0.0009120343020185828,0.1531647890806198,0.09708430618047714,-0.0630439892411232,-0.12840060889720917,-0.024506641551852226,-0.1128297746181488,-0.06531669944524765,0.12126182019710541,-0.09912554174661636,0.04851127415895462,-0.08768388628959656,-0.04647687450051308,0.005688806995749474,0.12521681189537048,-0.039837971329689026,-0.12026636302471161,-0.036941491067409515,-0.04187013581395149,0.0044686030596494675,-0.02849121205508709,-0.042642880231142044,0.0609159991145134,0.011754642240703106,-0.08659005165100098,-0.12367495894432068,0.07310596853494644,-0.08098170161247253],[0.12119194865226746,-0.1333991289138794,-0.003463481552898884,0.08889041095972061,0.06130291149020195,0.13692976534366608,0.03541867062449455,0.03303709998726845,-0.13236786425113678,-0.0004743512545246631,-0.06666643917560577,0.10290665179491043,0.06161079555749893,-0.11162755638360977,0.04591675102710724,-0.04814582318067551,0.15950383245944977,0.12765318155288696,0.15083208680152893,0.029842225834727287,-0.12222611904144287,0.07379822432994843,-0.04762057587504387,0.1386094093322754,-0.08838964253664017,0.04459738731384277,-0.14711534976959229,-0.034418508410453796,0.14590859413146973,-0.10596694052219391,0.07174979895353317,0.12762926518917084,0.07213756442070007,-0.08887128531932831,-0.051568418741226196,0.11773616075515747,-0.10799670219421387,0.14231766760349274],[-0.10230188816785812,0.06257013976573944,-0.051027681678533554,0.03693394735455513,0.013097050599753857,-0.12436407059431076,0.10114120692014694,-0.11877579241991043,0.1251758486032486,-0.011044162325561047,0.026574809104204178,0.024739332497119904,0.12250791490077972,-0.06956212967634201,-0.10143184661865234,-0.1314162313938141,0.084022156894207,0.035247113555669785,0.051345374435186386,0.07267884910106659,0.07860612124204636,0.030464421957731247,0.029062602669000626,0.02065424993634224,0.07216710597276688,-0.014062183909118176,-0.1585710346698761,-0.11140212416648865,0.08608797192573547,0.05708068236708641,0.05819949135184288,0.1571047008037567,-0.05025508999824524,-0.07765353471040726,0.0935702919960022,-0.00704145198687911,0.0009275971096940339,0.129017636179924],[0.07025357335805893,0.06998009234666824,0.06399853527545929,0.00024184692301787436,-0.11064939945936203,-0.09206533432006836,0.0004702639125753194,-0.039724718779325485,-0.07965602725744247,-0.10547984391450882,-0.07467414438724518,0.062686026096344,-0.014337817206978798,0.12397874146699905,-0.08172230422496796,-0.03834801912307739,-0.037307851016521454,-0.09564165771007538,-0.14356395602226257,-0.151689350605011,-0.024750173091888428,-0.08286924660205841,0.1403784453868866,0.055524107068777084,-0.12828972935676575,-0.09241142123937607,-0.03596669062972069,-0.03448198363184929,0.08034870773553848,-0.09258607774972916,-0.12933135032653809,0.16216516494750977,-0.1276557445526123,-0.11841487884521484,0.012237577699124813,0.1533268541097641,-0.1559685319662094,-0.05722039192914963],[0.12470245361328125,-6.502928329155111e-08,-0.14702445268630981,-0.10177627950906754,-0.04870080202817917,-0.08386629819869995,-0.09059827774763107,-0.10849558562040329,0.07249727845191956,-0.00848923809826374,-0.016523772850632668,0.15572458505630493,-0.09015633165836334,0.06724689900875092,0.05091030150651932,-0.1441630870103836,0.1368790566921234,-0.02194844000041485,-0.06573036313056946,0.072917640209198,0.05267282947897911,-0.06142577528953552,-0.0038258759304881096,0.0744866132736206,0.022966844961047173,-0.035199280828237534,-0.07397717237472534,0.1436469405889511,-0.023455584421753883,0.060204945504665375,-0.06654974073171616,-0.14663389325141907,-0.08161909133195877,-0.1268959492444992,0.08656024932861328,-0.044941116124391556,0.1213654950261116,-0.049761056900024414],[0.066086046397686,0.026530254632234573,-0.01854689046740532,0.021783147007226944,0.0004127370484638959,-0.03646601364016533,0.03849862143397331,0.08250642567873001,0.1324826031923294,-0.08065531402826309,-0.032106418162584305,-0.03713590279221535,0.1522604376077652,0.14498604834079742,0.0666426494717598,-0.14807410538196564,0.12473468482494354,-0.16221338510513306,-0.0978742241859436,-0.11389530450105667,-0.07862406969070435,0.038404203951358795,-0.09035898000001907,0.018914667889475822,-0.06786017119884491,0.01302279718220234,-0.06171659380197525,-0.07746383547782898,-0.10373414307832718,0.014326014555990696,0.05085834488272667,0.13763362169265747,0.07700564712285995,0.05619971081614494,-0.1270337849855423,0.13655777275562286,-0.1427973359823227,0.09085144847631454],[-0.000251076155109331,0.07862407714128494,-0.14496982097625732,-0.1219656839966774,0.05215555429458618,-0.054630592465400696,-0.09313617646694183,-0.00038417999166995287,0.11839189380407333,0.026626359671354294,0.07656090706586838,0.046722978353500366,0.04277147725224495,-0.08432549983263016,-0.07136083394289017,-0.07177074998617172,-0.15595953166484833,-0.022576335817575455,-0.03999859839677811,0.13507987558841705,-0.009699195623397827,0.1054774597287178,-0.03589946776628494,0.09707999974489212,-0.09856000542640686,-0.13635952770709991,-0.025247851386666298,0.1477024406194687,0.1348058134317398,0.11934419721364975,0.013677787035703659,-0.04197411611676216,0.07179928570985794,-0.1389365941286087,0.023166898638010025,-0.12032061815261841,0.08862914890050888,-0.04312504827976227],[0.08566457778215408,0.04641673341393471,-0.03647541627287865,-0.07741246372461319,8.448722655884922e-05,-0.06775116920471191,0.06497451663017273,-0.10520107299089432,0.01750749535858631,-0.01720263995230198,0.15515407919883728,0.03090628609061241,0.12177694588899612,0.04320840537548065,-0.12019627541303635,0.010492082685232162,0.019120797514915466,0.15736070275306702,-0.06628697365522385,-0.077351875603199,-0.016644127666950226,-0.007657421287149191,-0.09268222749233246,-0.08864757418632507,-0.11702828854322433,0.046939101070165634,0.10883864015340805,0.05590635910630226,0.059874795377254486,-0.12828771770000458,-0.12990878522396088,0.09164317697286606,0.03915677219629288,-0.032577887177467346,-0.1270686239004135,-0.10721040517091751,-0.058837126940488815,0.02038094960153103],[-0.11547256261110306,0.1282418668270111,-0.11367357522249222,0.07265760749578476,-0.014219749718904495,-0.03495437651872635,0.0007004166836850345,0.017369123175740242,-4.6060114982537925e-05,0.09724226593971252,-0.1425943225622177,-0.1510101854801178,-0.11784547567367554,0.08429399877786636,0.14297327399253845,0.0065822480246424675,-0.07041791081428528,0.17351041734218597,-0.07372315227985382,0.015749061480164528,-0.06251517683267593,0.10291073471307755,0.07839089632034302,0.07598493993282318,-0.12328381091356277,-0.059359803795814514,0.11427528411149979,-0.0611676461994648,0.08924097567796707,0.009461225010454655,0.08607765287160873,0.06555155664682388,0.034485843032598495,0.013412624597549438,-0.14084231853485107,-0.04554847255349159,0.02753346599638462,0.09361535310745239],[0.00018780447135213763,-0.08372757583856583,0.13882537186145782,1.710659489617683e-05,-0.07982487231492996,-0.07809807360172272,-0.05798273906111717,0.016334695741534233,0.041607506573200226,-0.055295903235673904,0.08972623199224472,0.0030100999865680933,0.012600157409906387,0.15633651614189148,-0.05729182809591293,-0.015129504725337029,0.06051125377416611,-0.022498982027173042,0.04457921162247658,0.05252949893474579,-0.0018249675631523132,-0.09895686060190201,-0.10217833518981934,0.1344279646873474,-0.1536228060722351,-0.11612299084663391,0.055230557918548584,-0.03766295313835144,0.0418773889541626,-0.05906971916556358,0.1665608286857605,-0.00044356053695082664,-0.07374054193496704,-0.13410654664039612,0.06581543385982513,0.08734683692455292,0.11936291307210922,0.09846687316894531],[0.10085073858499527,1.7561538697918877e-05,0.14319391548633575,-0.10719060897827148,0.04009333997964859,0.08661233633756638,-0.10382214933633804,0.13421399891376495,-0.03745588660240173,-0.048362407833337784,0.006207848899066448,-0.1030476987361908,0.09355973452329636,-0.12588782608509064,0.13236980140209198,-0.049487099051475525,0.014868475496768951,0.021499844267964363,0.03199954330921173,-0.09297556430101395,0.139826238155365,-0.03572143614292145,0.004747235216200352,0.1052212342619896,0.15865616500377655,0.13649798929691315,0.14607396721839905,0.009008258581161499,-0.12642891705036163,0.009748673997819424,-0.08822380006313324,0.09885764867067337,0.047534242272377014,0.1256723552942276,-0.06901444494724274,-0.010561221279203892,-0.01906212419271469,0.06735479086637497],[0.05626782402396202,-0.00021662421931978315,-0.12767784297466278,0.0951174944639206,0.003304749261587858,4.2978208512067795e-05,0.012854639440774918,-0.07852353155612946,0.05952585116028786,-0.04509349539875984,0.03569478169083595,0.051937125623226166,0.006116891745477915,-0.13541999459266663,0.04867692291736603,0.06964407861232758,-0.153760626912117,-0.15575386583805084,0.016898412257432938,-0.07815543562173843,-0.13982152938842773,-0.03930209204554558,0.15795864164829254,0.11525774002075195,0.009942530654370785,-0.044303636997938156,0.12217162549495697,0.038986384868621826,-0.027395980432629585,-0.15423108637332916,-0.13948221504688263,0.10206957906484604,-0.03379594534635544,-0.07524218410253525,0.10380884259939194,-0.13933011889457703,-0.04951159656047821,-0.13998715579509735],[0.030750250443816185,0.07569537311792374,0.10377226769924164,-0.034452736377716064,-0.016507834196090698,0.00508143613114953,-0.00048304759548045695,0.01654553785920143,0.06272593885660172,-0.027583876624703407,-0.104609914124012,-0.10450815409421921,0.032003797590732574,-0.07659918069839478,-0.1545628011226654,0.06866750121116638,0.012353743426501751,-0.08374468982219696,-0.11702309548854828,0.0013102744705975056,-0.11813114583492279,0.045295096933841705,0.10760252922773361,-0.04602361097931862,0.05670008435845375,-0.018172623589634895,0.10719592124223709,0.12850481271743774,0.09402988851070404,-0.1392863690853119,0.14403285086154938,0.11416169255971909,-0.09663383662700653,0.12177727371454239,0.13047409057617188,0.05233105644583702,0.04627031087875366,-0.08890853077173233],[0.1304314136505127,0.07510986179113388,0.06964418292045593,-0.09359079599380493,0.13641996681690216,0.033661458641290665,-0.11440496891736984,0.11965658515691757,-0.07518334686756134,0.003454889403656125,0.010439358651638031,-0.04743419587612152,-0.013154787942767143,0.016348479315638542,-0.10537607967853546,-0.025215674191713333,0.08942663669586182,-0.04848146066069603,0.15268506109714508,-0.15304580330848694,0.13955383002758026,0.15410412847995758,-0.07869218289852142,-0.11544500291347504,0.1459251195192337,-0.058230068534612656,-0.0917460173368454,-0.12286265194416046,0.14524255692958832,-0.04398403316736221,0.07801280170679092,0.1345500499010086,-0.11892808973789215,0.08516889065504074,-0.07004489004611969,0.15232661366462708,0.13410529494285583,0.0968455821275711],[0.09784936904907227,-0.04656990244984627,0.06389688700437546,0.04318137466907501,-0.03662005811929703,0.10464955866336823,-0.09277769923210144,7.232326606754214e-05,-0.1279219388961792,-0.04974543675780296,0.15699495375156403,0.13740703463554382,0.016831396147608757,0.15735751390457153,-0.15551020205020905,-0.08897513151168823,-0.17285220324993134,-0.1464260071516037,0.13987219333648682,-0.05362473428249359,0.1577979475259781,0.1083480566740036,0.10772000998258591,-0.16046617925167084,0.12414873391389847,-0.14625702798366547,0.09623504430055618,-0.028725318610668182,-0.13372482359409332,-0.058297835290431976,-0.003251515794545412,-0.0035686036571860313,0.054613325744867325,0.05626855790615082,0.06493950635194778,0.023195801302790642,-0.0475623719394207,-0.03718278184533119],[-0.07381384074687958,0.0001609229075256735,0.1563219130039215,0.13367962837219238,-0.07178186625242233,0.0702587217092514,-0.0615287646651268,-0.052496202290058136,0.00998337659984827,-0.09359376132488251,-0.09494969993829727,-0.06653271615505219,0.059281472116708755,-0.10658031702041626,-0.02319115214049816,-0.05622619763016701,-0.09475681930780411,0.024462342262268066,0.02796710655093193,-0.14508365094661713,0.009888715110719204,0.0021074856631457806,0.0597962811589241,-0.11868677288293839,-0.07483455538749695,0.1377907246351242,0.16719098389148712,-0.12950119376182556,-0.10143443197011948,0.07192156463861465,-0.05709455534815788,-0.06814897060394287,-0.0392342135310173,-0.023935824632644653,0.1502683013677597,0.15763671696186066,-0.04362456873059273,0.002204440999776125],[-0.11630066484212875,-0.0075415330938994884,0.05572144687175751,0.12424640357494354,-0.1109166219830513,0.09644290804862976,-0.001256729243323207,0.0011552858632057905,0.13488692045211792,-0.04227610304951668,-0.036966472864151,0.05637456476688385,0.06274635344743729,-0.05295852571725845,0.15285637974739075,0.12174925953149796,-0.015133742243051529,-0.007813776843249798,0.14992184937000275,-0.07183003425598145,0.08616666495800018,0.10093808174133301,-0.12325187027454376,-0.12225016951560974,0.0803295448422432,0.13039284944534302,0.02671915665268898,-0.012243556790053844,0.016169991344213486,-0.0007883626385591924,-0.13660523295402527,-0.1428375542163849,-0.020163539797067642,0.09437763690948486,-0.048998791724443436,-0.05071679502725601,-0.05626123026013374,-0.14872236549854279],[0.13017691671848297,-0.04774760827422142,-0.06741011142730713,0.0031889297533780336,0.05017225444316864,0.10511341691017151,0.03343929722905159,-0.018094634637236595,0.09512659907341003,0.036742061376571655,-0.11480256170034409,0.12451888620853424,0.1335032731294632,0.14489531517028809,0.032147783786058426,0.059420451521873474,0.024878399446606636,-0.03220877796411514,0.11221794784069061,0.08860065042972565,0.08775244653224945,-0.0739874616265297,-0.1077035516500473,-0.1561390459537506,-0.14146138727664948,-0.0410303995013237,-0.11746560037136078,-0.09248998761177063,-0.06906567513942719,-0.13856160640716553,-0.01786707527935505,0.15590307116508484,0.11255796253681183,0.16242684423923492,0.04841243103146553,-0.09272745251655579,-0.018344732001423836,-0.15842671692371368],[-0.13356037437915802,-1.953371611307375e-05,-0.15522034466266632,0.0002715447044465691,-0.12043100595474243,-0.013979742303490639,0.006665241904556751,0.04484500735998154,-0.005242579150944948,0.020780429244041443,-0.11355122178792953,-0.14987796545028687,0.020984062924981117,0.015369771979749203,-0.1394096165895462,-0.04159696400165558,0.150019571185112,0.1031566932797432,0.06316277384757996,-0.06214802712202072,0.012241452932357788,0.11542832851409912,0.14513476192951202,-0.04719450697302818,-0.15422815084457397,-0.01325074303895235,0.16291320323944092,0.08800318837165833,-0.06522979587316513,-0.15089136362075806,0.001376577652990818,0.12570615112781525,0.0032578036189079285,0.1287931650876999,0.04512571543455124,0.054870087653398514,-0.07656463980674744,0.00046928608207963407],[-0.13406336307525635,0.009068372659385204,0.05774759501218796,-0.006983262486755848,2.5272365746786818e-05,0.05205242708325386,-0.02178276889026165,0.1348765790462494,-0.009343880228698254,0.037249606102705,0.043165069073438644,0.12904083728790283,0.06812569499015808,0.005152201745659113,-0.08093740791082382,0.1403876096010208,0.007898259907960892,-0.07913676649332047,-0.15601809322834015,-0.05756479129195213,-0.04804982244968414,0.10900606215000153,0.048790741711854935,-0.0006207083933986723,0.053509339690208435,0.1463342010974884,-0.10428589582443237,0.042829837650060654,0.028582977131009102,0.02131146378815174,-0.1281263530254364,-0.019680766388773918,-0.0643228143453598,-0.16205860674381256,-0.11232984811067581,-0.11946012824773788,0.1371009796857834,0.04992390051484108],[-0.04984138906002045,0.12884792685508728,0.030088769271969795,0.0005166346090845764,0.02222079038619995,-0.13573989272117615,0.006378303747624159,0.040816813707351685,-0.00024317190400324762,0.006553777027875185,0.024311302229762077,0.09498758614063263,0.08086694031953812,-0.16099484264850616,0.034793682396411896,-0.06956029683351517,0.0579683780670166,-0.14775164425373077,0.008513595908880234,-0.018887875601649284,0.06906493008136749,-0.1304892599582672,-0.10268520563840866,0.04694969579577446,0.13297750055789948,-0.1581568568944931,-0.11499456316232681,0.028429651632905006,-0.10804401338100433,-0.026646357029676437,0.14798486232757568,-0.007592478767037392,0.06514321267604828,0.11719898879528046,0.037132181227207184,-0.09520101547241211,-0.07144279032945633,-0.004494772292673588],[-0.030856557190418243,-0.07536767423152924,0.06289470940828323,-0.10006584972143173,-0.0013392838882282376,0.005153255071491003,6.53747993055731e-05,0.01951281912624836,-0.0411367230117321,-0.04102136194705963,0.05240888521075249,-0.010334152728319168,0.03715718910098076,-0.010064952075481415,-0.0017319649923592806,-6.355729419738054e-05,-0.11024139821529388,-0.08287815749645233,0.09760287404060364,-0.01031526830047369,-0.0963113009929657,0.10301434993743896,0.04876931756734848,-0.08943996578454971,-0.1109033152461052,-0.07001110166311264,0.0043928432278335094,0.16045382618904114,-0.028378648683428764,0.014935064129531384,-0.08935566246509552,-0.011360228061676025,0.08315940201282501,0.09185141324996948,-0.13131988048553467,-0.15765641629695892,0.10984824597835541,0.12306476384401321],[-0.0884881392121315,0.008519699797034264,0.015905063599348068,-0.0013247724855318666,-0.05055127665400505,-0.04105071723461151,-0.0360528901219368,0.029903527349233627,-0.0733771100640297,-0.08573675155639648,-0.12120173871517181,0.16164322197437286,-0.0854705348610878,0.024392446503043175,0.12229666113853455,0.07911357283592224,0.0926227942109108,-0.15175700187683105,0.10471965372562408,0.04623724892735481,-0.04319057613611221,0.023634834215044975,-0.02453049272298813,0.12624239921569824,-0.01988864876329899,-0.148664653301239,-0.08834375441074371,-0.14332610368728638,0.15123270452022552,0.05589928850531578,-0.09580635279417038,-0.10686599463224411,0.04183756560087204,-0.13114507496356964,-0.07390402257442474,-0.052030712366104126,-0.13359105587005615,0.14114642143249512],[-0.09448755532503128,-0.11842268705368042,0.0860883891582489,-0.1255609393119812,-0.13231109082698822,-0.0023230272345244884,0.11882777512073517,-0.000797106244135648,-0.0003445585025474429,0.0003449422074481845,0.06791263818740845,0.06556551158428192,0.0038351493421941996,-0.11978932470083237,0.014867912977933884,-0.03557402640581131,0.014021079055964947,-0.061288248747587204,0.054810985922813416,0.1342650204896927,-0.11829233169555664,0.12146454304456711,-0.13254475593566895,-0.09424062818288803,0.13670365512371063,-0.026767047122120857,0.03363125026226044,-0.10697156935930252,-0.01861860230565071,-0.11804112792015076,0.06643768399953842,0.05478185415267944,-0.010087188333272934,-0.07552266865968704,-0.12950833141803741,-0.025366896763443947,-0.023815488442778587,-0.053116895258426666],[0.09039619565010071,-0.00925428792834282,-0.15256088972091675,0.08632310479879379,0.08003545552492142,0.07529289275407791,-0.11966385692358017,-0.0004136103088967502,-0.002764112316071987,0.04348001256585121,-0.10335305333137512,-0.014098077081143856,0.01821802742779255,-0.15966828167438507,-0.13853402435779572,0.0540633499622345,-0.1035754531621933,-0.018229365348815918,-0.07704445719718933,-0.15520864725112915,0.04693711921572685,-0.06925579905509949,-0.12147513031959534,0.020499520003795624,0.10422301292419434,-0.04509580880403519,-0.12935516238212585,0.029138248413801193,-0.010734363459050655,0.13167592883110046,0.1292341947555542,-0.028549475595355034,0.008019878529012203,-0.10314816981554031,-0.15998396277427673,-0.037966351956129074,-0.021596845239400864,-0.043471042066812515],[0.1347542554140091,0.04581886902451515,0.1474209576845169,-0.1303865909576416,-0.00015174713917076588,-0.08355171233415604,-0.045535147190093994,-0.04091840609908104,0.06446753442287445,0.03570571169257164,-0.03433440253138542,-0.1492614597082138,0.11714084446430206,-0.08629545569419861,-0.09800949692726135,-0.11899574100971222,-0.03432603180408478,0.024814357981085777,0.017450001090765,0.12604454159736633,-0.038021791726350784,-0.08684255182743073,0.05132199078798294,0.11853896081447601,0.03831033781170845,0.14165936410427094,-0.07280905544757843,-0.08413460105657578,-0.16069631278514862,-0.06535432487726212,0.10424673557281494,-0.12957881391048431,-0.029967471957206726,-0.0306202732026577,-0.12334246188402176,-0.10912124812602997,-0.12824109196662903,0.04467083141207695],[0.006683989427983761,-0.11386474967002869,-0.06991519033908844,0.06401023268699646,-0.1331123411655426,-0.02398342825472355,-0.12309394776821136,-0.05319801717996597,-0.10438363999128342,-0.025893423706293106,-0.14577749371528625,-0.15003393590450287,0.08950568735599518,0.12951795756816864,-0.044989582151174545,-0.025441182777285576,-0.0654105469584465,-0.08439664542675018,-0.0607212595641613,0.1031520739197731,-0.04373179003596306,0.04332490637898445,-0.015597308054566383,-0.15795546770095825,-0.0275938268750906,-0.08363489806652069,-0.1101832240819931,0.05649453029036522,0.06925053894519806,-0.11528105288743973,0.018994217738509178,0.049405332654714584,-0.05662122741341591,0.05015873163938522,-0.1504552662372589,-0.042250193655490875,-0.12553028762340546,0.12364880740642548],[-0.03313278779387474,0.11494883894920349,-0.08172992616891861,-0.06937722116708755,-0.028120601549744606,0.02461238019168377,-0.033922985196113586,0.07853829115629196,-0.05744552984833717,-0.1150643453001976,0.07200932502746582,0.10872332751750946,-0.14085976779460907,0.023117948323488235,-0.01509120874106884,-0.13845469057559967,-0.03165223449468613,0.05307042971253395,0.052572835236787796,0.12120574712753296,0.004097421653568745,-0.017143122851848602,0.16310787200927734,-0.10649695992469788,-0.006294424645602703,0.07612531632184982,-0.05273039638996124,-0.06323975324630737,0.07557236403226852,-0.1079636886715889,0.16307710111141205,-0.02116529643535614,0.04152694344520569,-0.14449697732925415,-0.002960813697427511,0.07483156025409698,-0.06258925795555115,-0.03237678110599518],[0.004856196232140064,0.005810225382447243,0.019815772771835327,2.6046105631394312e-05,-0.0776662677526474,0.009546966291964054,-0.10408294945955276,0.008078097365796566,-0.009193302132189274,0.023965442553162575,0.09842885285615921,0.03501465916633606,-0.047247838228940964,-0.04351801797747612,-0.13452216982841492,-0.04759622737765312,-0.12442835420370102,-0.08948364853858948,-0.14377202093601227,-0.025263674557209015,0.1276702582836151,-0.08624698966741562,0.060902222990989685,0.13739795982837677,0.14720028638839722,0.13244016468524933,-0.03391995280981064,0.16808737814426422,0.12945540249347687,-0.039181940257549286,-0.10933463275432587,-0.06205584481358528,-0.02890598215162754,0.09327304363250732,-0.1516530066728592,0.07565546780824661,0.10836360603570938,0.029629426077008247],[0.0890970379114151,0.050567105412483215,0.07187457382678986,-0.023261547088623047,-0.0967893898487091,0.07772215455770493,-0.06241917237639427,-0.09334282577037811,-0.09907832741737366,0.08827245235443115,0.14666634798049927,0.01175729651004076,-0.15686482191085815,0.08131637424230576,-0.0503290519118309,0.06643496453762054,0.08528999239206314,0.007934805005788803,0.12849067151546478,-0.1364079862833023,-0.02852383814752102,0.06534542143344879,0.08800135552883148,-0.15339073538780212,0.093142569065094,0.06585178524255753,0.057400766760110855,0.13512900471687317,0.06662265956401825,-0.06011871621012688,0.1134134829044342,-0.08679024130105972,-0.008722294121980667,-0.07842579483985901,-0.06725335866212845,-0.06140552833676338,0.06651590019464493,0.06791307032108307],[-0.003917960915714502,0.014497560448944569,0.0661621019244194,0.11549785733222961,-0.07777699828147888,0.12133672088384628,-0.03094402886927128,0.12668785452842712,0.023764153942465782,-0.12653698027133942,-0.044108618050813675,0.13600288331508636,0.08084455877542496,0.015736078843474388,-0.05391348898410797,0.06982187181711197,0.09251124411821365,0.00424850033596158,-0.12186054140329361,0.11927545070648193,0.12640537321567535,0.1435156762599945,0.05218466371297836,0.05763011798262596,-0.09293494373559952,0.15805824100971222,-0.01582583226263523,-0.16063964366912842,0.1698811948299408,-0.13226011395454407,-0.07765764743089676,-0.11582987755537033,0.05503922700881958,-0.06487398594617844,0.15893633663654327,-0.13394859433174133,0.07762966305017471,0.0029545428697019815],[0.10867785662412643,0.13547663390636444,0.12698768079280853,-0.1001787856221199,-0.07967711985111237,0.044820476323366165,0.0004538318607956171,-0.005346347577869892,0.092729851603508,0.1279672384262085,0.09049850702285767,0.10585791617631912,-0.0972222089767456,0.13057395815849304,-0.10328701138496399,-0.06311340630054474,0.014000213705003262,-0.030456408858299255,-0.011342287063598633,0.11452263593673706,-0.13424581289291382,0.01935386471450329,-0.03779790177941322,-0.0263841412961483,0.055247120559215546,-0.11320877820253372,0.03718837350606918,0.04650941118597984,0.09152914583683014,0.0447038859128952,0.04691344499588013,-0.15924295783042908,0.14022444188594818,0.1374114751815796,0.1347665935754776,-0.0582108348608017,0.13455058634281158,-0.11564379185438156],[-0.017314104363322258,0.10282059013843536,0.12168552726507187,-0.040659017860889435,-1.8884868040913716e-05,-0.04579966515302658,-0.0671813040971756,0.02599070966243744,-0.0005015623173676431,-0.01076003722846508,0.09083211421966553,-0.1496058851480484,-0.12680530548095703,-0.009186942130327225,-0.11634120345115662,-0.009073135443031788,-0.021070752292871475,-0.058667395263910294,-0.15259826183319092,0.14302316308021545,-0.07534153014421463,0.04546314477920532,-0.08129408955574036,-0.004800349473953247,-0.027970634400844574,0.11740418523550034,0.04750353842973709,-0.1404542475938797,0.07176648080348969,-0.09858090430498123,0.045291509479284286,0.051334284245967865,0.10795187950134277,-0.030100639909505844,0.06311368197202682,-0.1523287445306778,-0.05407301336526871,0.0957227498292923],[-0.00879120733588934,0.009372880682349205,-0.057570699602365494,0.05448748916387558,0.07880763709545135,-0.048199571669101715,0.08221106976270676,0.08945934474468231,0.000565140217076987,0.10769732296466827,0.1366797685623169,0.036956001073122025,0.043509457260370255,0.1569722294807434,-0.0927010327577591,-0.0720338374376297,-0.009367364458739758,0.06825611740350723,-0.024305235594511032,0.036901675164699554,-0.08923531323671341,-0.07782693207263947,-0.05956197530031204,-0.03815125674009323,0.11273366212844849,-0.15240132808685303,-0.10371710360050201,0.0745081901550293,0.041243333369493484,-0.023139765486121178,0.13034884631633759,-0.12831413745880127,0.12162888050079346,0.07274443656206131,-0.05598800629377365,-0.14675429463386536,0.10120881348848343,-0.0513114258646965],[-0.03804278373718262,-0.06195581331849098,-0.11676988005638123,-0.009027692489326,-0.10932719707489014,-0.025478381663560867,-0.009052716195583344,0.08073977380990982,-0.02472255565226078,0.11468419432640076,0.10248050093650818,-0.08102381974458694,-0.13976292312145233,0.008586657233536243,-0.07850903272628784,-0.08123968541622162,-0.0909191146492958,0.040029335767030716,0.10551788657903671,0.0941677913069725,0.16077153384685516,0.028883472084999084,-0.04331070929765701,0.1504071205854416,-0.12744475901126862,0.0884101614356041,0.04424389451742172,-0.07291331142187119,-0.15382887423038483,0.15891991555690765,0.11009667068719864,0.13337808847427368,0.0309866014868021,0.06006905436515808,0.11715899407863617,0.14050601422786713,0.07425765693187714,0.019335605204105377],[-0.009805996902287006,-2.6590614652377553e-05,-0.02357384003698826,-0.09579337388277054,0.1270631104707718,-0.04487697780132294,-0.09565344452857971,0.1228141263127327,-0.11202102154493332,-0.04248657822608948,-0.026847008615732193,-0.07355835288763046,0.002386282430961728,0.020082414150238037,-0.07743047922849655,-0.10638970881700516,0.07002849131822586,0.13070401549339294,0.1040436401963234,0.0882163867354393,-0.16340862214565277,0.004004134796559811,0.1218857541680336,0.06407076865434647,0.03163084387779236,0.0024945330806076527,0.00935164000838995,-0.1248050183057785,-0.05356653034687042,-0.06483516842126846,-0.026303879916667938,0.14831818640232086,0.13957878947257996,-0.021888582035899162,-0.12144126743078232,0.02108895219862461,0.08816111832857132,-0.13605020940303802],[0.08652329444885254,-4.11511973652523e-05,0.11845200508832932,0.01811131276190281,-0.07824192941188812,-0.024526776745915413,-0.02936510741710663,-0.10005071014165878,-0.00024166994262486696,0.09814489632844925,0.14740286767482758,-0.022717753425240517,0.0404210090637207,-0.06938745081424713,-0.10816462337970734,0.14841987192630768,0.11971164494752884,0.1206589862704277,-0.003765558125451207,0.11127782613039017,-0.15507347881793976,0.06904194504022598,-0.11475280672311783,0.025690948590636253,-0.030946142971515656,0.14286191761493683,-0.039087701588869095,0.10696234554052353,0.020530201494693756,-0.05153079330921173,-0.1320396214723587,-0.13309842348098755,0.12240809202194214,0.10036500543355942,0.13332071900367737,0.06616905331611633,0.154798224568367,0.0690336525440216],[-0.041388556361198425,-0.13488686084747314,-0.023135758936405182,-0.06618686765432358,0.0006990963593125343,-0.1175060048699379,-0.05150194466114044,-0.017271244898438454,-0.045632559806108475,0.04273902624845505,0.018356243148446083,-0.07047464698553085,0.07462993264198303,-0.03547848388552666,0.05185571312904358,-0.1279166042804718,-0.04725037142634392,0.07959402352571487,-0.0233807023614645,0.012657170183956623,0.11237183213233948,0.08212832361459732,0.02612883970141411,0.13119223713874817,0.03664308413863182,0.006005849223583937,-0.08680973201990128,0.07076112926006317,-0.09577231854200363,0.12241631746292114,0.09471380710601807,0.02022620290517807,-0.1282428503036499,0.15619519352912903,0.062154099345207214,-0.07810035347938538,0.06108884885907173,-0.1530797928571701],[0.0006829316262155771,-0.041080866008996964,0.024554336443543434,-0.12486274540424347,0.03638749569654465,-0.005275988020002842,-0.11205452680587769,0.06182575598359108,0.03701772913336754,-0.11215653270483017,0.09303921461105347,-0.03227375075221062,0.05876254662871361,0.055115316063165665,0.03561227023601532,-0.03174688294529915,0.10904049128293991,-0.07765194773674011,0.11257561296224594,-0.0695827528834343,-0.1386304497718811,0.010427609086036682,0.078732930123806,-0.12606091797351837,-0.09000644087791443,0.15261031687259674,0.041107844561338425,0.09501553326845169,-0.002471915679052472,-0.15416081249713898,0.04527399688959122,0.11143230646848679,0.1576547771692276,0.12598662078380585,-0.01561719924211502,0.05456889793276787,-0.12378977239131927,-0.09718894958496094],[-0.11464845389127731,0.030605806037783623,-0.05240347981452942,-0.02106546051800251,-0.1116132065653801,-0.1090032309293747,-0.12758825719356537,0.004114434123039246,-0.03732610121369362,-0.09858566522598267,-0.0013798358850181103,-0.0858025848865509,0.0546400249004364,-0.004710250534117222,0.0168379507958889,-0.15018142759799957,-0.022765520960092545,-0.11541386693716049,0.010751169174909592,0.1207638755440712,-0.0860428437590599,0.0534977987408638,-0.07494299858808517,-0.02730197086930275,0.013241356238722801,0.11560357362031937,-0.02976067177951336,0.1315271109342575,-0.1284581422805786,0.023417482152581215,0.025282803922891617,0.05851896479725838,0.09904202073812485,0.08229304850101471,-0.03481265902519226,-0.14525023102760315,-0.15251268446445465,-0.10746166855096817],[-0.020702697336673737,0.09016000479459763,-0.07214013487100601,0.009744599461555481,0.04574061557650566,-0.10476985573768616,-0.10315793752670288,-0.0003702077083289623,-0.12814386188983917,-0.11185173690319061,-0.03232003375887871,-0.04280836880207062,-0.13799721002578735,-0.12221232056617737,0.13232308626174927,0.11883531510829926,0.02931607887148857,-0.036940619349479675,0.057458825409412384,0.08499939739704132,-0.028544211760163307,0.1312408447265625,0.019126640632748604,0.11539371311664581,0.08665923029184341,0.030959341675043106,0.009126848541200161,0.11154595762491226,-0.13779205083847046,0.030825015157461166,-0.12375099211931229,-0.0767051950097084,0.04235866665840149,0.039181675761938095,-0.08399546146392822,0.09958724677562714,-0.07989081740379333,-0.05957842990756035],[0.020681289955973625,0.027192987501621246,0.08726844191551208,-0.11536604166030884,0.03706526756286621,0.09511511027812958,0.006776577793061733,0.006313038989901543,0.08559868484735489,-0.060089848935604095,0.019953107461333275,-0.15399456024169922,0.08973915874958038,0.082321897149086,-0.029870962724089622,-0.012015210464596748,0.05505472421646118,-0.04997844249010086,-0.017686957493424416,0.019915292039513588,0.08460618555545807,-0.021762561053037643,-0.08900123089551926,0.07855883985757828,0.029175305739045143,-0.1212959736585617,0.004250688012689352,0.051679257303476334,0.15464553236961365,0.07060208171606064,-0.10392792522907257,0.1264873594045639,0.07372228056192398,0.0312819741666317,-0.10651897639036179,-0.03172687068581581,-0.052241962403059006,-0.08769787847995758],[0.06098967790603638,0.00022434056154452264,-0.12829548120498657,-0.007923868484795094,0.03378389775753021,-0.09832051396369934,0.046512436121702194,-0.10207416117191315,0.07665695250034332,0.06947776675224304,-0.03555554151535034,-0.1288832277059555,0.1463746577501297,-0.013730335980653763,-0.07273484021425247,0.14609909057617188,0.01584399864077568,-0.05180919170379639,-0.15873415768146515,-0.159723699092865,0.1416170746088028,0.07994963228702545,-0.05221051350235939,0.029730716720223427,0.011023309081792831,-0.13639120757579803,-0.07888922840356827,0.010930530726909637,-0.09801145642995834,-0.02269641123712063,0.07350168377161026,-0.01176130399107933,-0.08945063501596451,-0.04319359362125397,0.045628372579813004,0.12672004103660583,-0.045218147337436676,0.10277436673641205],[0.12939481437206268,0.13219588994979858,-0.15948185324668884,0.09238492697477341,0.13566938042640686,-0.01964838057756424,-0.028320124372839928,-0.07235092669725418,-0.0006511249812319875,0.07629643380641937,0.06671781092882156,-0.09226012229919434,0.08314882218837738,0.0740993544459343,0.06374086439609528,-0.09006620198488235,-0.1447201520204544,0.12527386844158173,0.08071138709783554,0.14200669527053833,-0.0518832802772522,-0.12439204752445221,0.020879501476883888,-0.12229970097541809,-0.051477957516908646,-0.0022137677296996117,-0.03966329246759415,0.018562929704785347,0.08095903694629669,-0.15251794457435608,-0.1218101903796196,0.005228325258940458,-0.07067185640335083,-0.10336881875991821,0.06366865336894989,-0.10832836478948593,0.04139137640595436,-0.013520763255655766],[0.0869804173707962,-0.02976754494011402,0.11057544499635696,-0.11514133960008621,-0.08912073820829391,0.0939101055264473,-0.09204719215631485,-0.13525021076202393,-0.021869739517569542,0.01652853563427925,0.15985572338104248,-0.03854876011610031,0.0493454784154892,-0.03841343894600868,-0.11977110058069229,-0.03874373435974121,-0.0919758751988411,0.15929365158081055,-0.000893047486897558,-0.14580923318862915,-0.04083484038710594,-0.06525751203298569,0.1532309204339981,-0.06817495822906494,-0.10778646171092987,0.01621979847550392,-0.025492053478956223,-0.005091531202197075,-0.15886297821998596,-0.13471442461013794,0.11137397587299347,0.13937513530254364,-0.10984008759260178,-0.06268024444580078,-0.0046734921634197235,-0.08217598497867584,-0.07468050718307495,-0.017256559804081917],[-0.08744210749864578,-0.0014186979969963431,-0.13329645991325378,0.04035776108503342,-0.03076007030904293,0.050765953958034515,-0.05879414826631546,0.11500874906778336,-0.10487455129623413,-0.0706808865070343,0.13786354660987854,-0.06075103208422661,0.0004815983702428639,0.04977480694651604,0.12019819766283035,0.11579945683479309,0.06507604569196701,-0.03195348009467125,-0.010098938830196857,0.12244539707899094,0.15104413032531738,0.05984066426753998,0.12601758539676666,-0.14824791252613068,0.08796054869890213,-0.08405502885580063,-0.013896076940000057,0.09939175844192505,0.13698306679725647,-0.09975970536470413,0.14287252724170685,-0.10185840725898743,-0.05450719594955444,0.022108545526862144,0.12030768394470215,0.15085120499134064,-0.06565868109464645,0.10788602381944656],[1.8010487110586837e-05,0.058916300535202026,-0.040644384920597076,-0.026153063401579857,0.1277536302804947,-0.11881746351718903,0.02607819437980652,0.10551037639379501,0.10631433129310608,0.0072316695004701614,-0.1579834371805191,0.11725795269012451,-0.14472489058971405,-0.16020235419273376,0.055745262652635574,-0.08075922727584839,0.08450815081596375,-0.10190034657716751,-0.03928661346435547,0.055940914899110794,0.15654873847961426,-0.023170676082372665,-0.06578945368528366,-0.0317518450319767,-0.014323333278298378,0.06392403692007065,0.12050152570009232,-0.06288693100214005,0.16009628772735596,-0.05055265873670578,0.02416648343205452,0.1268012672662735,0.09447307884693146,-0.11642761528491974,-0.022072769701480865,-0.14069287478923798,-0.082086481153965,0.01540906261652708],[-0.025115856900811195,-0.008056760765612125,-0.08963841199874878,-0.024382852017879486,0.072087362408638,-0.09449352324008942,0.06180816516280174,-0.12774872779846191,-0.0986112728714943,-0.019933786243200302,0.15196265280246735,0.12683041393756866,0.07563601434230804,0.1432492733001709,-0.08240263164043427,0.13725580275058746,0.03217004984617233,0.1149999275803566,-0.039603617042303085,-0.1647467464208603,-0.02721981517970562,0.043533626943826675,0.10221090912818909,0.09818460792303085,-0.055575091391801834,-0.14448653161525726,-0.016187530010938644,0.06977866590023041,0.06297072768211365,0.11845573037862778,0.02050010859966278,0.11137843877077103,0.13579429686069489,-0.07877466827630997,0.07149897515773773,0.004489488899707794,-0.17405477166175842,-0.08744383603334427],[0.00882746186107397,-0.04412323608994484,-0.09421903640031815,0.1163892075419426,-0.011824451386928558,-0.10771818459033966,-1.0899880180659238e-05,0.0377865806221962,-0.016992192715406418,-0.01182351540774107,0.024219702929258347,0.12984685599803925,-0.03786458075046539,-0.03406354412436485,0.020222175866365433,-0.047107994556427,0.06263648718595505,0.13186612725257874,0.1443522870540619,-0.03359926864504814,0.028707951307296753,0.030604856088757515,0.01847987435758114,-0.03473440930247307,-0.12584178149700165,0.02768781967461109,-0.12961609661579132,0.12081409245729446,-0.16577692329883575,0.036695707589387894,-0.15321765840053558,-0.0742870569229126,-0.1619160920381546,-0.11600803583860397,0.08813872188329697,0.14454370737075806,-0.15223078429698944,-0.04317043721675873],[-0.004007961601018906,0.04967613145709038,-0.1096857562661171,0.1202607974410057,0.10235763341188431,-0.12308146804571152,-0.05267138406634331,0.08176795393228531,-0.0033646603114902973,0.06824876368045807,-0.11593320220708847,-0.023885484784841537,0.16601483523845673,0.1427498608827591,0.05732079967856407,-0.01359240896999836,-0.1585959792137146,-0.023724714294075966,0.02927679941058159,-0.10831842571496964,0.13842515647411346,-0.0643039420247078,0.14915886521339417,0.09187169373035431,-0.02616261877119541,-0.06071113049983978,0.14270652830600739,0.15341408550739288,-0.15784363448619843,0.04971222206950188,-0.16084153950214386,0.13693472743034363,-0.012298055924475193,0.1415655016899109,-0.02493281103670597,0.10451462119817734,0.006691987160593271,0.07685951143503189],[3.5013683373108506e-05,-0.09260524809360504,-0.06392893940210342,-0.09994666278362274,0.010280932299792767,0.007840598002076149,-0.05286490544676781,-0.1353873610496521,0.12947162985801697,0.1275307536125183,-0.015447501093149185,0.14773450791835785,0.15064071118831635,0.14273354411125183,-0.02622450701892376,-0.10699708759784698,0.029090307652950287,0.11404617875814438,-0.07625492662191391,-0.03241581842303276,-0.012366601265966892,0.02567809447646141,-0.1006985455751419,-0.13175362348556519,-0.15688078105449677,0.09168406575918198,0.04696296155452728,-0.08114241808652878,-0.014876930974423885,0.07146727293729782,-0.0920541062951088,-0.04059255123138428,-0.06702426075935364,0.023114463314414024,-0.03958803415298462,-0.04221062734723091,0.009081154130399227,-0.10399550199508667],[-1.820424040488433e-05,-0.0883934274315834,0.0986139252781868,-0.026402387768030167,-0.002199700567871332,-0.0293887872248888,0.0003289907763246447,-0.021688170731067657,-0.00019203858391847461,-0.1368105709552765,0.051502157002687454,0.005844924598932266,0.01827300526201725,-0.037194907665252686,-0.08255671709775925,-0.14980719983577728,-0.1510847806930542,-0.023764189332723618,-0.13961298763751984,-0.08679202944040298,-0.10733504593372345,0.019863886758685112,0.09790463000535965,-0.1555243581533432,0.06711701303720474,0.03921577334403992,0.06278631091117859,-0.03219127655029297,-0.09302522987127304,0.13585270941257477,-0.05717727914452553,0.03172367438673973,0.05762885510921478,0.07618862390518188,0.07715368270874023,0.03317469358444214,-0.022962622344493866,-0.08720570802688599],[0.00018988194642588496,0.12600862979888916,-0.017392048612236977,0.06058042496442795,-0.05196661129593849,0.08872333914041519,3.4108881663996726e-05,-0.029099885374307632,0.03777123615145683,0.0800846666097641,0.019363269209861755,-0.030339950695633888,-0.09203701466321945,-0.032431699335575104,0.10428717732429504,0.1046140268445015,0.07587398588657379,0.1456923484802246,-0.14204013347625732,0.0026945974677801132,-0.030007045716047287,0.005854719318449497,-0.023470783606171608,-0.005566527601331472,-0.011025712825357914,-0.11785334348678589,0.10786622762680054,-0.02323256805539131,-0.0851043090224266,-0.04911491647362709,0.12506331503391266,-0.08733557164669037,-0.036042675375938416,0.0565740130841732,0.07583426684141159,-0.06630166620016098,0.13276107609272003,0.07615559548139572],[-0.07302933186292648,0.0006150832050479949,-0.077940434217453,0.11386075615882874,-0.00021972751710563898,-0.08162077516317368,0.008809968829154968,0.0042974925599992275,-0.04990492761135101,0.1290738433599472,-0.16149726510047913,0.09892155975103378,0.0470014289021492,-0.09477391093969345,-0.010643953457474709,0.1552913635969162,-0.008988987654447556,-0.06285277754068375,0.04722549021244049,0.08917682617902756,-0.05407266318798065,0.06240475922822952,0.11756434291601181,-0.12924298644065857,-0.09039580821990967,-0.014037503860890865,-0.16768445074558258,0.039873603731393814,-0.020780082792043686,0.012551655992865562,-0.037993598729372025,0.13219334185123444,0.12590649724006653,0.10902837663888931,-0.07763317227363586,-0.13404473662376404,0.06097441911697388,0.04947328194975853],[-0.1256052404642105,0.07203314453363419,-0.06833777576684952,0.04788755252957344,0.04958585649728775,-0.026795512065291405,0.0006668561836704612,0.10204890370368958,-0.10269372165203094,0.05880633369088173,0.12652984261512756,-0.015581982210278511,0.09648454934358597,-0.031012142077088356,0.11459311097860336,0.06030214950442314,-0.04117421805858612,-0.07915521413087845,0.1387310028076172,0.0928388237953186,-0.002109338529407978,0.10772690176963806,-0.11929923295974731,-0.15734153985977173,-0.0021709671709686518,0.13378536701202393,-0.015391345135867596,0.13216951489448547,0.11787862330675125,-0.021045498549938202,-0.03768327832221985,0.11354821175336838,-0.10780574381351471,0.026123154908418655,-0.013477899134159088,0.11283861100673676,-0.007385502103716135,0.15596598386764526],[-0.017057903110980988,-0.037137411534786224,-0.047038882970809937,0.019745325669646263,-0.11456437408924103,-0.0006898849387653172,-0.00041319310548715293,0.10576269775629044,-0.13523603975772858,-0.06714474409818649,0.07915611565113068,-0.010243657045066357,-0.15313993394374847,-0.05041787773370743,0.13882587850093842,0.13125614821910858,0.11048620939254761,-0.14351512491703033,-0.07425811141729355,0.13021935522556305,0.04251865670084953,0.038827087730169296,-0.008591603487730026,0.10024100542068481,-0.04477053880691528,-0.06572919338941574,-0.06913261115550995,0.10558541119098663,0.13921642303466797,0.04700388014316559,-0.03745144605636597,0.10274673998355865,-0.09129142761230469,-0.025500275194644928,0.06022219359874725,0.013053121976554394,0.11835235357284546,-0.1408512145280838],[0.026333801448345184,-0.079469695687294,0.10702522099018097,-0.09677179902791977,-0.040530718863010406,-0.07440772652626038,-0.09627935290336609,0.05820639058947563,0.11634697020053864,0.0006882834131829441,-0.08523910492658615,0.021437430754303932,0.07035606354475021,-0.056454647332429886,-0.042115360498428345,-0.051210686564445496,-0.05449492111802101,-0.11425720900297165,-0.14677675068378448,0.11219453066587448,0.0897221565246582,0.13877563178539276,0.08281128108501434,-0.10873168706893921,0.06773723661899567,0.019541403278708458,-0.06789934635162354,-0.12046920508146286,-0.04365324601531029,0.06716608256101608,-0.009285706095397472,-0.16070865094661713,0.15821540355682373,-0.031242234632372856,0.11292974650859833,0.1334376335144043,0.022479772567749023,0.06310363113880157],[-0.08223643153905869,-0.043324533849954605,0.11582864820957184,0.06952772289514542,-0.10733474791049957,-0.012422011233866215,0.0577881783246994,0.12793086469173431,0.00017230352386832237,-0.04458533227443695,0.10982363671064377,0.11101209372282028,-0.0076725599355995655,0.014852473512291908,0.03356859087944031,0.12419760227203369,-0.11222502589225769,0.08364418148994446,0.07794924825429916,-0.011374169029295444,0.15178902447223663,0.1028846725821495,0.08157801628112793,-0.02050270140171051,0.11559873819351196,0.004518459551036358,-0.06926421076059341,0.06629178673028946,0.021146388724446297,-0.05703320354223251,-0.004418198950588703,0.12140645831823349,-0.006119836121797562,-0.025310389697551727,0.057015445083379745,-0.038533419370651245,0.08543165773153305,-0.0022185188718140125],[0.11125746369361877,-0.1155649721622467,-0.07826589047908783,-0.13336794078350067,0.08963190019130707,-0.10184429585933685,0.07359550893306732,-0.014339865185320377,0.001830847468227148,-0.1292356699705124,-0.12002530694007874,-0.025050517171621323,0.06177602708339691,0.1275695413351059,-0.07750734686851501,-0.13391347229480743,0.1374068409204483,-0.023927118629217148,0.13740220665931702,-0.03383437171578407,-0.13938415050506592,-0.006954793818295002,-0.13855639100074768,0.10189936310052872,-0.032829344272613525,0.06346166133880615,-0.07416161149740219,0.16419465839862823,0.1126396581530571,0.013122769072651863,0.10227964073419571,0.05671156942844391,-0.021083276718854904,-0.04533107206225395,-0.06774099916219711,0.06443233788013458,0.10774323344230652,0.10523654520511627],[-0.0832788422703743,0.07785490155220032,-0.0377543568611145,0.0001778323348844424,-0.12202606350183487,-0.02257472835481167,-0.03757288679480553,0.029064157977700233,-0.0318363681435585,-0.09798819571733475,-0.03291888162493706,0.004934877622872591,0.14098979532718658,0.12531256675720215,-0.025851596146821976,-0.1453269124031067,-0.06410123407840729,0.07366396486759186,0.10140947997570038,0.09319206327199936,-0.1554933786392212,-0.048776328563690186,-0.13437892496585846,0.11312884837388992,0.028498901054263115,0.032291583716869354,-0.0027047605253756046,0.15532204508781433,-0.15552489459514618,-0.08900585770606995,0.14422036707401276,-0.1050921082496643,0.09323002398014069,0.039843782782554626,0.13917790353298187,-0.10474095493555069,0.1305563896894455,0.06772531569004059],[-0.02142917923629284,-8.062525739660487e-05,-0.15858109295368195,-0.013436629436910152,0.09448041021823883,-0.09338453412055969,-0.12451384216547012,0.0894937738776207,-0.0005650379462167621,-0.12604062259197235,-0.014080900698900223,-0.040164314210414886,0.10024645924568176,0.08812548965215683,0.14746545255184174,0.018251851201057434,0.10594144463539124,0.11896105110645294,0.07113742083311081,0.11955364793539047,0.1258581131696701,0.07721728086471558,0.027579454705119133,-0.07560239732265472,-0.11000388115644455,0.08999718725681305,-0.12437330931425095,0.00285553396679461,-0.10845349729061127,0.15623652935028076,0.14964091777801514,-0.16691407561302185,-0.04920133203268051,0.05794551223516464,-0.141673281788826,0.14252647757530212,-0.15558502078056335,-0.15201321244239807],[-0.05776211619377136,-0.12561295926570892,0.10654827207326889,-0.08898229897022247,-0.12100175023078918,0.03835100680589676,0.07126231491565704,0.06366142630577087,0.0003496315039228648,0.09040235728025436,-0.010122859850525856,0.16626301407814026,0.11159028112888336,-0.12270335108041763,-0.07469641417264938,-0.09317445009946823,0.100220687687397,-0.09573118388652802,-0.11683474481105804,0.11526219546794891,0.03754897788167,0.0589090995490551,-0.0824880376458168,-0.08591760694980621,0.16151724755764008,-0.0983344316482544,-0.014461548067629337,-0.053079307079315186,0.1180943101644516,-0.0028626560233533382,0.13631971180438995,0.06150190532207489,-0.08793821185827255,0.14823998510837555,0.1290665566921234,0.004213826730847359,-0.025872891768813133,0.049365848302841187],[-0.09120472520589828,0.08872939646244049,-0.09924405813217163,-0.0026199319399893284,-0.062278106808662415,-0.11831863224506378,-0.006974747870117426,4.4074949983041734e-05,-0.00021926585759501904,0.01156383566558361,-0.0045660994946956635,0.0894361287355423,0.15249942243099213,-0.06801488995552063,0.12562714517116547,0.01476519089192152,-0.06468527764081955,-0.1417815238237381,-0.07694007456302643,-0.14580915868282318,0.0890875905752182,0.06095510348677635,-0.02339370921254158,0.07380256056785583,0.05909213796257973,-0.09810730814933777,0.10112286359071732,-0.09239549934864044,0.13324958086013794,0.14048416912555695,0.06170869991183281,-0.15476015210151672,-0.09150008857250214,0.0649142935872078,0.09705838561058044,-0.1259925365447998,-0.07791976630687714,0.160232275724411],[0.11588972061872482,-0.0013789958320558071,-0.1516655832529068,0.04961777850985527,-0.12038096785545349,0.011102089658379555,-0.1357959508895874,0.035778239369392395,-0.052054647356271744,0.05255207419395447,0.011735544539988041,0.15244649350643158,0.07317952066659927,0.09492524713277817,0.1362680047750473,0.07840032130479813,0.0743648111820221,0.08433938026428223,-0.1513126790523529,0.051290806382894516,-0.02667814865708351,0.015316952019929886,0.027741074562072754,0.08409180492162704,0.028190555050969124,0.14243806898593903,-0.01237428653985262,-0.0814945325255394,-0.0389443039894104,-0.08568204939365387,0.1641658991575241,0.12283539772033691,0.09085671603679657,0.1617712676525116,0.07587316632270813,-0.0693068876862526,0.04284694418311119,-0.051467012614011765],[-0.01267299335449934,0.032252565026283264,-0.13277849555015564,-0.1311430037021637,-0.08117107301950455,0.06040064990520477,-0.1314184069633484,-0.0379982553422451,0.13647088408470154,0.09073914587497711,0.08027926087379456,0.08833698183298111,-0.1461324840784073,-0.039962928742170334,-0.12408503144979477,-0.08429642766714096,-0.11417548358440399,-0.11207312345504761,-0.14842599630355835,0.05030486360192299,-0.1556921899318695,0.02360137365758419,0.1411280781030655,-0.07152006775140762,-0.098002590239048,-0.13268819451332092,0.019930077716708183,-0.1407659500837326,-0.08728211373090744,-0.1439426690340042,0.07230059057474136,-0.0708671510219574,0.08409038931131363,0.03016532212495804,-0.09906166046857834,0.14792963862419128,-0.1500435620546341,-0.06330648809671402],[-0.032077159732580185,0.020659523084759712,0.04938889294862747,0.055404480546712875,0.009605173021554947,0.00013164005940780044,8.167937630787492e-05,0.1158534362912178,0.042216576635837555,-0.09298912435770035,-0.05780148133635521,0.12482535094022751,0.14640198647975922,0.08032035082578659,-0.010316225700080395,-0.07912591099739075,-0.044770725071430206,-0.012288092635571957,-0.028185896575450897,-0.13743649423122406,0.018560977652668953,0.1292300820350647,0.044196370989084244,-0.154676616191864,-0.15668565034866333,-0.04219359904527664,0.1541510969400406,-0.07314782589673996,0.07183816283941269,-0.05264187976717949,-0.028918879106640816,-0.061237674206495285,0.027951199561357498,0.06586986035108566,0.09194561839103699,-0.15118898451328278,-0.15190497040748596,0.00719026941806078],[-0.06982040405273438,0.08868376165628433,0.06488391011953354,0.05060815438628197,-0.09739650785923004,-0.05908004194498062,0.027592256665229797,0.09088775515556335,-0.05581672489643097,-0.11832480132579803,-0.1640344113111496,0.07066253572702408,0.03135664016008377,-0.0369635671377182,-0.09470643103122711,-0.1084132045507431,-0.02052033320069313,-0.003946466837078333,-0.04857251048088074,0.0526941679418087,0.004108788911253214,-0.00034918609890155494,0.09660142660140991,-0.11017481237649918,0.06216982752084732,-0.04220201075077057,-0.12935736775398254,-0.1448080986738205,-0.09658777713775635,0.08139243721961975,0.02471395768225193,0.04731724411249161,0.05808332562446594,-0.0929315835237503,-0.12386704981327057,-0.006767259910702705,-0.09214455634355545,0.10992161929607391],[-0.0030148415826261044,0.07020533084869385,0.09743610769510269,-0.12495730817317963,-0.09430397301912308,0.007883135229349136,0.05259808897972107,0.01021164283156395,-0.016049671918153763,-0.0005093906656838953,0.018088581040501595,0.033288780599832535,0.12671412527561188,-0.049376584589481354,-0.04669768735766411,0.036951977759599686,0.0832907035946846,0.15214359760284424,-0.09531784057617188,0.08899392932653427,0.00439150957390666,-0.07348506897687912,-0.05808858200907707,0.03286106511950493,-0.09919466078281403,0.09994775056838989,0.04136066138744354,0.13115356862545013,-0.01152275875210762,-0.09784045070409775,-0.028059067204594612,0.0563080869615078,-0.05230496823787689,0.1351095288991928,0.11911517381668091,-0.038429856300354004,0.03927062451839447,0.04843105748295784],[0.12512759864330292,0.00019916746532544494,-0.02837052382528782,-0.07025060802698135,-0.12271057814359665,-0.02027193456888199,0.08867203444242477,0.00024569890229031444,-0.06574907153844833,0.031185979023575783,-0.1302793025970459,0.11217930912971497,-0.11681857705116272,0.06495796889066696,-0.053611308336257935,0.15690062940120697,0.10053175687789917,-0.02455650269985199,-0.10118750482797623,0.022651534527540207,-0.09449981153011322,0.12162806838750839,-0.023244118317961693,0.1496136486530304,0.10970473289489746,-0.06959742307662964,-0.04163796082139015,0.09797206521034241,0.03189287707209587,0.08834856748580933,-0.06981269270181656,-0.04116524010896683,-0.04237532988190651,-0.1489008516073227,0.021175941452383995,0.0816023126244545,-0.1234799399971962,0.082285575568676],[-0.09956908971071243,-0.035007134079933167,0.0641995221376419,0.07540342211723328,-0.059895094484090805,0.11453685164451599,-0.00022904996876604855,0.10955928266048431,0.07377760857343674,0.01960729993879795,0.00763342110440135,0.007811303250491619,0.07206422835588455,-0.015207107178866863,-0.12476277351379395,0.07381702959537506,-0.07755763083696365,-0.02882731705904007,-0.027303023263812065,0.0012225409736856818,-0.08940424025058746,0.04334178939461708,0.11395686864852905,-0.12395747005939484,0.09410406649112701,0.015922216698527336,0.06127653270959854,-0.01985900290310383,0.06558285653591156,-0.10000587999820709,-0.05957568436861038,-0.10742516815662384,-0.1263079047203064,-0.03460393100976944,-0.00902185682207346,-0.05593479797244072,0.029375307261943817,0.012954221107065678],[0.10633649677038193,0.046033330261707306,0.160599485039711,-0.08147499710321426,0.026940910145640373,-0.03636147454380989,0.050068628042936325,-0.022274425253272057,0.02826414443552494,0.0005563947488553822,-0.06157756596803665,0.15677562355995178,0.09332975000143051,-0.02169801853597164,-0.15734706819057465,3.054150874959305e-05,-0.07862061262130737,0.022330697625875473,-0.1226210668683052,-0.11770971864461899,0.1363901048898697,-0.1030525490641594,-0.11739370971918106,-0.018353722989559174,-0.07100657373666763,0.08183008432388306,0.10403286665678024,0.14571206271648407,-0.15362104773521423,-0.14404362440109253,0.02553759329020977,0.08689623326063156,0.16518965363502502,0.13905519247055054,0.04608586058020592,-0.06325768679380417,-0.07032401114702225,0.1410042941570282],[-0.06721329689025879,0.07683125883340836,-0.006187770050019026,-0.1134665459394455,0.06989508122205734,-0.13104379177093506,0.12198014557361603,-0.016074256971478462,-0.013137973845005035,-0.0033280125353485346,-0.16080030798912048,-0.0003992030397057533,-0.0386071503162384,-0.11516369134187698,0.058597732335329056,-0.1045774519443512,-0.1214548721909523,0.0562693290412426,-0.044931188225746155,0.15337680280208588,-0.011629336513578892,-0.14048971235752106,-0.025092942640185356,0.1530013531446457,0.04699401557445526,0.07210756838321686,0.1655566692352295,0.010821990668773651,0.021783314645290375,-0.09571285545825958,0.08884964883327484,0.09999918192625046,-0.02090645395219326,0.1161559671163559,-0.08202429115772247,-0.1461239606142044,0.03135276213288307,-0.12030305713415146],[-0.021942859515547752,0.049529895186424255,-0.09837549179792404,0.09657111763954163,6.806687451899052e-05,-0.07406706362962723,0.038659680634737015,-0.0779520571231842,-0.1368418186903,0.0002128827036358416,0.05652384087443352,-0.11839542537927628,-0.05720963701605797,-0.14206095039844513,0.11143838614225388,-0.012187749147415161,0.052276838570833206,-0.06851164251565933,-0.051572155207395554,0.10825660824775696,0.08646523207426071,0.11664470285177231,-0.12342754751443863,-0.11148574203252792,-0.05677541345357895,0.06620561331510544,0.06271670013666153,-0.07105151563882828,0.03759894147515297,0.11372582614421844,0.09022273123264313,0.12563814222812653,0.04402446746826172,-0.09330350160598755,0.04772484675049782,0.13801325857639313,0.0819074958562851,-0.12708526849746704],[0.10084152221679688,-0.005530942231416702,-0.1592627465724945,0.08035407960414886,0.09695123136043549,0.0950697734951973,0.03598909452557564,0.09284532815217972,-0.0841018334031105,-0.10057009011507034,-0.09960808604955673,0.003745210589841008,-0.07407324016094208,0.12318357825279236,0.08018986135721207,0.01402007695287466,-0.030718127265572548,-0.023672884330153465,0.02457558363676071,0.12597417831420898,0.1085481122136116,-0.0371612086892128,-0.04483882710337639,-0.011789372190833092,-0.0071658543311059475,0.09274779260158539,0.14851464331150055,0.1561923623085022,0.09734509140253067,0.0026706294156610966,0.10852371901273727,-0.13493676483631134,0.13919782638549805,-0.011500582098960876,-0.07759718596935272,-0.048669394105672836,0.09880101680755615,0.11057700216770172],[0.00022265852021519095,-0.007978668436408043,-0.10943122953176498,-0.1322503387928009,0.057232413440942764,0.11208134144544601,0.053743790835142136,0.09294924139976501,-0.024649454280734062,0.055994756519794464,-0.015455616638064384,0.061605438590049744,-0.04636113718152046,-0.06482218205928802,-0.14322498440742493,-0.14339421689510345,0.06399638950824738,0.04396267980337143,-0.08423151820898056,0.000664938532281667,-0.0818074494600296,-0.03228272870182991,0.08499273657798767,0.03229261934757233,0.10362295061349869,-0.02240362949669361,0.04402690380811691,-0.12566587328910828,0.13395416736602783,-0.0636567622423172,-0.1475757509469986,-0.14176969230175018,0.036974914371967316,-0.05415607616305351,0.04661048203706741,0.11067812144756317,0.044835351407527924,-0.02692566253244877],[-0.03821631893515587,-0.13282057642936707,-0.10046899318695068,0.10176772624254227,0.13543939590454102,0.025174463167786598,-0.019251348450779915,7.813461706973612e-05,0.00021098267461638898,0.00032295958953909576,0.14676378667354584,-0.08848205953836441,0.037740521132946014,-0.04204953461885452,-0.05709393322467804,-0.14937563240528107,0.10020112246274948,-0.13106054067611694,0.012582610361278057,0.00017920743266586214,0.0432400181889534,0.04819152504205704,0.06866715103387833,-0.060223013162612915,0.10287221521139145,-0.1292443871498108,0.10043374449014664,0.012095004320144653,0.11351041495800018,-0.07137999683618546,0.15447939932346344,-0.03175456076860428,-0.1047971248626709,0.07086740434169769,-0.03303384780883789,-0.09317263215780258,0.10064857453107834,-0.04467068985104561],[-0.12376351654529572,0.04898363724350929,0.12384791672229767,0.07630731910467148,0.09302977472543716,-0.07470019906759262,-1.4684268535347655e-05,-0.13302139937877655,0.06039533019065857,-0.09026270359754562,0.11650843173265457,-0.014558537863194942,-0.1088545173406601,-0.10721393674612045,0.0009290200541727245,0.14440616965293884,-0.16280607879161835,0.021391194313764572,0.10289827734231949,0.006244114134460688,-0.02834833785891533,0.12147900462150574,0.14105136692523956,-0.11773965507745743,0.09251362830400467,-0.04254908859729767,-0.07653515040874481,0.10032978653907776,0.023358140140771866,-0.06308936327695847,-0.13317863643169403,-0.07718335837125778,0.14937564730644226,-0.08871857076883316,0.10574042797088623,-0.032410379499197006,-0.032698385417461395,0.052778832614421844],[-0.12100310623645782,0.054865892976522446,0.017051225528120995,0.06373533606529236,-0.10016264021396637,0.09708952903747559,-0.0065719266422092915,-0.01909889467060566,0.10264919698238373,0.04774576798081398,0.0006558785680681467,-0.10765524953603745,0.002296586986631155,-0.09682144224643707,0.03168899193406105,-0.13066406548023224,0.059502311050891876,-0.12468912452459335,-0.0808127149939537,-0.1273937076330185,0.03622658550739288,-0.039142727851867676,-0.053667981177568436,0.10158181935548782,-0.04955649375915527,0.08231783658266068,0.03943091630935669,0.03296194598078728,0.013807965442538261,0.038038015365600586,0.11405867338180542,-0.056435469537973404,0.06890445947647095,0.10780081897974014,0.01823696866631508,-0.0170600526034832,-0.11928992718458176,0.08292626589536667],[-0.01795998215675354,-0.05391847714781761,0.0071312678046524525,-0.052111122757196426,0.08577798306941986,-0.07223176211118698,9.765600225364324e-06,-0.06320372968912125,-0.08957509696483612,0.13586096465587616,0.02870294451713562,0.08987512439489365,-0.1578458547592163,-0.11425371468067169,0.04286249354481697,0.04518799111247063,-0.12960465252399445,0.06609804928302765,0.023184236139059067,-0.05541999638080597,0.12389572709798813,0.01981186494231224,0.15536180138587952,-0.012292315252125263,0.04418295994400978,-0.11307333409786224,-0.029549330472946167,0.14574401080608368,0.07951977103948593,-0.07572358101606369,-0.11077189445495605,-0.13257427513599396,0.020119652152061462,0.067604660987854,0.08327826857566833,0.04982076212763786,