{"species":"Alfar","input_dim":38,"weights":{"net.0.weight":[[0.06576165556907654,-0.016206353902816772,0.10412950813770294,-0.055025987327098846,-0.08545844256877899,-0.0590079128742218,0.02846069633960724,0.012499234639108181,-0.001240417710505426,-0.13978233933448792,0.003276021219789982,0.12422791123390198,0.05224287882447243,-0.003173035802319646,0.15651775896549225,0.016583601012825966,-0.09866801649332047,0.035480983555316925,-0.08395998179912567,-0.033533696085214615,-0.14192862808704376,-0.08539276570081711,-0.13456867635250092,0.019570209085941315,-0.11329071968793869,-0.05870770290493965,-0.08697312325239182,-0.13446901738643646,0.03975332900881767,0.041171059012413025,-0.09071395546197891,-0.05707318335771561,-0.14057759940624237,-0.01761319860816002,-0.06141060218214989,0.10314247012138367,-0.09757465869188309,-0.003851506160572171],[0.0001814813876990229,-0.1301984339952469,0.07063408195972443,0.0663880705833435,0.0002038146194536239,0.13191691040992737,0.15290580689907074,-0.08234357088804245,0.10185110569000244,-0.13170120120048523,0.06631730496883392,0.07666874676942825,-0.10359087586402893,-0.09782024472951889,-0.08368466794490814,0.06564105302095413,-0.09023874253034592,0.04759032651782036,0.13731838762760162,-0.059756409376859665,0.14755754172801971,0.0974588468670845,-0.1199096068739891,0.14056521654129028,0.00856048334389925,-0.1495693325996399,0.00723293935880065,0.10003113001585007,0.030478181317448616,-0.03209737315773964,0.08644495159387589,0.0021756880450993776,0.11906792223453522,0.11620541661977768,0.12097398936748505,-0.07226265221834183,-0.009390568360686302,0.019724637269973755],[-0.08151371031999588,-0.11758892238140106,-0.009551248513162136,-0.0455574207007885,0.004995326511561871,-0.03888142853975296,0.08583391457796097,-0.035220760852098465,0.05706441402435303,-0.05020357668399811,-0.04363642632961273,-0.0015646109823137522,-0.050850316882133484,-0.05094217136502266,-0.11275657266378403,-0.14404521882534027,0.006235284730792046,-0.12250742316246033,-0.03670952841639519,-0.03900790587067604,-0.07928711920976639,-0.06910884380340576,0.15209618210792542,-0.02660718560218811,-0.025167737156152725,0.14752376079559326,-0.15115118026733398,-0.13315296173095703,0.000930674490518868,0.03173312917351723,-0.014888317324221134,0.09965217113494873,0.05162065103650093,-0.03410524129867554,0.004376997705549002,-0.005315931048244238,-0.0268313679844141,-0.0451594740152359],[0.10585213452577591,-0.09231020510196686,-0.02958877570927143,0.017318250611424446,-0.08792584389448166,0.012319703586399555,0.11222781985998154,-0.14377708733081818,0.0010240975534543395,0.007407953031361103,0.0007106653065420687,0.10483835637569427,0.09669375419616699,-0.048183415085077286,-0.07611270248889923,0.08642129600048065,0.11958219856023788,0.15274150669574738,0.1546616107225418,-0.07307107001543045,-0.02629861794412136,-0.07667721807956696,-0.14237207174301147,-0.1520751416683197,0.09133048355579376,0.08957028388977051,-0.0641564205288887,-0.09882121533155441,-0.04519429802894592,-0.1524660438299179,0.045711699873209,0.16215983033180237,-0.15586459636688232,0.007173448335379362,-0.026422353461384773,-0.126123309135437,0.06257345527410507,-0.02931870147585869],[0.13672767579555511,0.040011122822761536,0.00016753392992541194,0.05903063341975212,0.12475626170635223,-0.06453844159841537,0.08766032755374908,0.07944235950708389,0.0184085164219141,0.036955807358026505,0.10148375481367111,-0.12752042710781097,-0.003545631654560566,0.09810185432434082,-0.061251450330019,0.09708314388990402,0.08159241825342178,0.004979646299034357,0.05626124143600464,0.006450144574046135,0.12175914645195007,-0.09238826483488083,0.036831144243478775,-0.14134123921394348,-0.022252921015024185,-0.018823200836777687,-0.15247701108455658,0.031512681394815445,-0.09080410748720169,-0.059434033930301666,0.02509620226919651,-0.057847823947668076,0.1541655957698822,0.04754346236586571,0.14894472062587738,-0.06680034101009369,-0.04895025119185448,-0.13352136313915253],[-0.09849625825881958,0.08820294588804245,0.11657283455133438,-0.14052851498126984,0.07709117233753204,-0.14633426070213318,-0.07433547079563141,0.0010313107632100582,-0.05220213904976845,-0.10201961547136307,-0.14560432732105255,-0.03641664236783981,0.07278500497341156,0.05969740077853203,-0.04608548805117607,-0.0022627958096563816,-0.1473265439271927,0.11695048213005066,-0.15496689081192017,0.14118781685829163,0.14010213315486908,0.05506443977355957,0.018716245889663696,0.10465013235807419,0.03913595527410507,0.0532819889485836,-0.11827076971530914,-0.1038845032453537,-0.13692860305309296,0.02525932528078556,0.15825089812278748,-0.10336323082447052,0.05391644313931465,0.11682616174221039,-0.15140318870544434,0.07199627161026001,-0.07541455328464508,0.13970157504081726],[0.12798704206943512,0.11915536969900131,0.029261942952871323,-0.07602793723344803,-0.12433457374572754,-0.026742037385702133,0.1279851645231247,0.019947512075304985,0.0727619156241417,-0.020353415980935097,0.11149536818265915,0.07085011154413223,0.04773183912038803,0.11655940115451813,0.05856648460030556,0.10156852751970291,0.0020430204458534718,0.028937283903360367,-0.12965337932109833,0.008090606890618801,0.029235519468784332,0.03517598658800125,-0.054385289549827576,0.07994421571493149,-0.1633739173412323,-0.056690458208322525,0.03293468803167343,-0.13208363950252533,0.010664100758731365,-0.08491072058677673,-0.11805620789527893,-0.1370040327310562,0.06302107870578766,0.026762614026665688,-0.013132180087268353,-0.13220570981502533,-0.0038850679993629456,-0.04220796748995781],[0.13456852734088898,0.02271667867898941,0.01602655090391636,-0.13043037056922913,0.08547335118055344,0.00019874969439115375,-0.02976468950510025,0.036793772131204605,0.11012023687362671,-0.12471318244934082,0.0872485488653183,0.04793737828731537,-0.11823434382677078,-0.011871076188981533,0.08176679909229279,0.06544020771980286,0.16053912043571472,0.07448408007621765,0.07732340693473816,0.03132525458931923,0.10667078197002411,-0.017102044075727463,-0.006222004536539316,0.010091830976307392,-0.07374423742294312,0.1593015193939209,-0.006468034349381924,-0.12216595560312271,-0.15843699872493744,0.0887194275856018,0.04833647981286049,0.021815642714500427,0.1484653800725937,0.0672091469168663,0.018432458862662315,0.11481895297765732,-0.0859367698431015,-0.13170167803764343],[0.09957423061132431,0.04454918950796127,-0.0006572927231900394,0.01029171422123909,0.017119087278842926,0.01837681606411934,0.029960783198475838,0.01747405156493187,0.061806242913007736,0.12670832872390747,-0.04227174445986748,0.15524014830589294,-0.029338886961340904,0.055610474199056625,0.015158462338149548,0.0071258689276874065,0.007084184791892767,-0.05558319762349129,-0.11877072602510452,-0.05557537451386452,0.06402122229337692,0.11828245222568512,-0.137534961104393,-0.0047334833070635796,0.10400223731994629,0.16103635728359222,0.07721898704767227,-0.018173586577177048,-0.08955491334199905,-0.10623108595609665,0.07021025568246841,0.04187533259391785,0.10863588005304337,-0.07073863595724106,0.10324309021234512,-0.0681752860546112,-0.13042066991329193,0.012758654542267323],[-0.13079778850078583,0.04440397024154663,-0.0370548740029335,-0.03402729704976082,0.09217147529125214,0.06761068850755692,0.16091175377368927,0.0005801020888611674,-0.1028255820274353,-0.04627655819058418,-0.10030040144920349,0.10843975096940994,-0.010578317567706108,0.020845748484134674,0.13011959195137024,-0.08655718713998795,-0.1300472915172577,-0.10245047509670258,0.0004521877272054553,-0.001288047875277698,0.051926303654909134,-0.14039170742034912,-0.06269987672567368,-0.0002843296097125858,-0.10533672571182251,0.036059558391571045,0.0662241280078888,0.11644697189331055,-0.05322211980819702,-0.13793332874774933,-0.07878968119621277,-0.018309302628040314,0.08284029364585876,0.1418905258178711,-0.13425235450267792,-0.12963692843914032,0.1095697209239006,0.08278626203536987],[0.14057429134845734,0.05895465239882469,-0.11128013581037521,-0.14015540480613708,-0.10774973779916763,-0.028678281232714653,0.07168908417224884,0.02166074886918068,0.11722702533006668,0.05092179775238037,0.042915232479572296,0.0903402790427208,0.09607961773872375,0.020808693021535873,0.014571304433047771,-0.02450619637966156,0.06126523017883301,-0.006602875422686338,-0.14477728307247162,-0.11631102859973907,-0.0826973244547844,-0.05328274145722389,0.10913415253162384,0.12186122685670853,-0.11717182397842407,-0.1355709731578827,-0.16354820132255554,0.05873803794384003,0.13763096928596497,-0.10826142877340317,0.08280058950185776,-0.018955837935209274,-0.12372931838035583,-0.13053356111049652,-0.020041730254888535,-0.14752908051013947,-0.02869553677737713,-0.06833396106958389],[0.06728724390268326,0.027503231540322304,-0.04507472366094589,0.02943701110780239,0.13340020179748535,-0.13146190345287323,-0.0258650965988636,0.025444593280553818,0.11756572872400284,0.09670655429363251,-0.10727177560329437,-0.15731492638587952,0.09508869051933289,0.027949074283242226,-0.1619821935892105,0.1043027713894844,-0.14678898453712463,0.10106734186410904,0.06342454254627228,0.009694268926978111,-0.1492004543542862,0.13516928255558014,-0.0722615048289299,0.047813110053539276,0.05171163007616997,0.05970626696944237,-0.019037071615457535,-0.10482165217399597,0.04367484897375107,0.10851451754570007,-0.12529678642749786,-0.13757631182670593,0.15402080118656158,0.09599234163761139,-0.15214627981185913,0.10253185778856277,-0.024613145738840103,0.04084116965532303],[-0.13441886007785797,0.00038957485230639577,-0.1464061588048935,0.0010189696913585067,0.017546799033880234,-0.016011642292141914,-0.10348686575889587,0.14525900781154633,0.003275791648775339,-0.13018615543842316,-0.0652901902794838,0.005745275411754847,-0.14310307800769806,0.014996766112744808,-0.05644441023468971,0.11023714393377304,-0.027911078184843063,0.03251492604613304,0.015272748656570911,-0.012166176922619343,-0.1522509753704071,-0.11705430597066879,-0.05311746522784233,-0.019137639552354813,-0.0051388307474553585,0.08666989952325821,0.03216344490647316,-0.022534199059009552,-0.05922948196530342,-0.16479003429412842,-0.11386474221944809,0.06884587556123734,-0.10896509885787964,-0.017910916358232498,-0.10299836099147797,0.10959722846746445,-0.1397549957036972,0.019710121676325798],[-0.11513113975524902,0.09488396346569061,-0.08940406888723373,0.027014952152967453,-0.11300325393676758,-0.04216388985514641,-0.015570469200611115,-0.0625244751572609,0.03867575526237488,-0.13295140862464905,-0.057039543986320496,0.12073847651481628,-0.021196436136960983,-0.1367669552564621,0.01852562092244625,-0.06184712424874306,0.10674654692411423,0.11542514711618423,0.13846798241138458,0.0866488441824913,0.00287313899025321,-0.0824093371629715,-0.021476497873663902,0.1598854809999466,-0.13073007762432098,0.027107015252113342,0.029809758067131042,0.0013355690753087401,-0.12305156886577606,-0.023877521976828575,-0.06934613734483719,-0.14893017709255219,-0.11660722643136978,0.1241922602057457,-0.00859987922012806,-0.0067160059697926044,0.02000362053513527,-0.12517598271369934],[-0.012142013758420944,0.11479111760854721,0.023996805772185326,-0.12330345809459686,0.0756152868270874,0.10158523172140121,0.013540548272430897,-0.08807505667209625,-0.07625962793827057,0.13901932537555695,-0.0737662985920906,-0.08873045444488525,0.0595998577773571,0.04068882018327713,0.1539181023836136,0.1295124739408493,0.10802628099918365,0.12491912394762039,0.1462259292602539,0.10714434832334518,-0.08550512790679932,-0.1529736965894699,0.09485643357038498,-0.025933673605322838,0.04028548672795296,-0.04500030726194382,0.05523788928985596,0.12778516113758087,0.11108996719121933,0.11596029996871948,-0.0908711850643158,-0.15474243462085724,0.11591435968875885,-0.07101365178823471,-0.029343359172344208,-0.04776042327284813,-0.12665356695652008,-0.08901622891426086],[-0.10297977179288864,-0.04531159624457359,-0.005233884323388338,-0.1165674552321434,-0.10359925031661987,0.056738514453172684,0.022253042086958885,0.0010224373545497656,0.07137569785118103,0.09896423667669296,-0.15788832306861877,-0.047925401479005814,-0.1181519627571106,-0.011218545958399773,0.045034054666757584,0.08231580257415771,0.03138408809900284,-0.0025745865423232317,0.12679307162761688,0.12904538214206696,0.10646332055330276,0.13967609405517578,-0.10741996765136719,-0.027609966695308685,-0.046266376972198486,-0.09523030370473862,-0.11340387165546417,0.14956313371658325,-0.02331741340458393,0.04724373668432236,-0.0013580737868323922,-0.0025021664332598448,-0.12426123768091202,0.043145496398210526,-0.10230531543493271,-0.08765556663274765,0.09403374791145325,0.04752872884273529],[0.11627920717000961,0.1202615350484848,0.028897825628519058,0.04143627732992172,0.09563355147838593,0.004381061531603336,0.019818438217043877,0.007794769946485758,-0.04012029618024826,0.00014269104576669633,0.07414346188306808,0.007934008724987507,0.1107877865433693,0.11375117301940918,-0.16325053572654724,-0.09196010231971741,0.15749721229076385,0.1586838811635971,-0.061429463326931,-0.15769341588020325,0.1051899865269661,-0.042160652577877045,0.10181137174367905,0.1642579287290573,-0.09439276903867722,0.08650162816047668,-0.04709470272064209,-0.014953631907701492,0.027153268456459045,0.04592931643128395,0.11833129078149796,-0.16546452045440674,0.013500037603080273,-0.13021831214427948,-0.02721710130572319,0.12453371286392212,-0.13960567116737366,-0.10280736535787582],[-0.016378944739699364,-0.11200343072414398,-0.04161061719059944,0.005936763249337673,0.0907505676150322,0.13410763442516327,-0.04815249890089035,-1.9264727598056197e-05,-0.0005221510655246675,0.006165607832372189,0.14552414417266846,-0.05276256799697876,0.10973140597343445,0.022221840918064117,0.024216726422309875,0.04779632017016411,0.08402014523744583,0.11011167615652084,0.09746548533439636,0.06419025361537933,0.062121979892253876,-0.05508068576455116,0.029569080099463463,-0.022068580612540245,0.04657284542918205,-0.014306730590760708,-0.08467203378677368,0.15255796909332275,0.05677616596221924,0.10835491120815277,-0.009221510030329227,0.0854048952460289,0.062236081808805466,0.13391120731830597,-0.1025194451212883,0.1087624728679657,0.10563193261623383,0.001431071199476719],[-0.06269177794456482,0.016783010214567184,0.07685013860464096,0.04360148683190346,-0.010031656362116337,-0.1376606971025467,-0.15032269060611725,0.12588615715503693,-0.00018584346980787814,-0.013699519447982311,0.15511614084243774,0.08013804256916046,0.1161896362900734,-0.16205309331417084,0.06706789135932922,0.03776165470480919,-0.01394565124064684,0.04260217770934105,-0.15291033685207367,-0.1081700250506401,-0.1011853888630867,0.1405613124370575,-0.12251826375722885,0.06809736788272858,0.09472961723804474,-0.1312437355518341,0.13979539275169373,0.013145009987056255,-0.0017096647061407566,0.004795855842530727,0.12380577623844147,0.1347794085741043,0.1529179960489273,-0.046927109360694885,0.011981675401329994,0.12183346599340439,-0.0518827959895134,-0.1360790878534317],[-0.025632517412304878,-0.0723060593008995,-0.028661303222179413,0.0007226385059766471,0.03372836858034134,-0.10497917234897614,-0.12619489431381226,-0.13331390917301178,0.0007423826027661562,0.03298841044306755,-0.025783492252230644,0.0939144715666771,0.1314849555492401,-0.03623565658926964,0.07976851612329483,-0.15687116980552673,-0.04450790584087372,-0.027030738070607185,-0.1307915300130844,0.003931785002350807,0.0296460073441267,-0.09888004511594772,0.02867552638053894,0.06510492414236069,-0.04605340212583542,-0.047870341688394547,0.1355493664741516,-0.02880648709833622,0.06133350357413292,-0.054486386477947235,0.027483664453029633,-0.13107167184352875,-0.15653975307941437,0.11010926216840744,0.07628604769706726,0.10282909125089645,-0.015768954530358315,0.06333007663488388],[0.002572162076830864,-0.0007626849110238254,-0.01709851063787937,0.0013051675632596016,0.07851757854223251,-0.0815175250172615,0.01964668743312359,-0.0300507303327322,0.026262527331709862,-0.030238013714551926,0.11674890667200089,-0.044073957949876785,-0.07758527994155884,-0.09192407131195068,-0.0735444724559784,-0.0027689659036695957,0.04591798409819603,0.0892391949892044,0.04757867008447647,-0.050309427082538605,-0.05284454673528671,-0.09394998103380203,0.09166334569454193,0.004248665180057287,0.04072585329413414,-0.09676048159599304,-0.06380881369113922,-0.013148712925612926,-0.14553192257881165,-0.05696944519877434,-0.13080917298793793,-0.16779974102973938,-0.035278256982564926,0.10667447745800018,-0.09076574444770813,-0.1302148848772049,0.007338527590036392,0.005597794894129038],[-0.0007453245343640447,0.024408455938100815,0.13302822411060333,0.090207040309906,-0.06450143456459045,-0.08665292710065842,0.06670020520687103,0.049290455877780914,-0.00509236752986908,0.0008907903102226555,0.1200968325138092,0.03905308246612549,-0.0744987204670906,-0.05694447085261345,-0.09099418669939041,-0.059368181973695755,0.15600073337554932,0.06712613999843597,0.040197890251874924,0.07989862561225891,-0.007941225543618202,0.05550498515367508,0.09580302983522415,-0.1271294355392456,-0.025868644937872887,0.03571518510580063,0.1120731309056282,0.1644516885280609,-0.093584805727005,-0.07632569968700409,-0.1300581991672516,0.09968748688697815,-0.13716700673103333,-0.049521367996931076,-0.08172351121902466,-0.04853330925107002,0.019892647862434387,-0.06262459605932236],[0.054059602320194244,-0.08374446630477905,0.0001464076485717669,-0.041315726935863495,0.12485864758491516,0.14390258491039276,-0.10764153301715851,0.001003097160719335,-0.07483270019292831,0.11007685959339142,0.04940514639019966,0.1337669938802719,0.06628105789422989,0.09610681235790253,0.15364781022071838,-0.016084818169474602,-0.0671548917889595,0.02336752973496914,-0.13362517952919006,0.020712189376354218,0.15509161353111267,0.14024129509925842,0.14314483106136322,0.08775785565376282,0.11787999421358109,0.08651725202798843,0.038408372551202774,0.07846806198358536,-0.12452251464128494,0.11766254901885986,-0.05019581690430641,-0.08924109488725662,0.08439287543296814,0.14089645445346832,0.07704415917396545,-0.11297058314085007,0.0667290985584259,0.11139772087335587],[0.01745685376226902,-0.09554878622293472,-0.07258772850036621,-0.11639819294214249,0.13259345293045044,0.08426577597856522,0.05108219012618065,0.019719908013939857,0.0914243832230568,-0.0864381194114685,-0.10671200603246689,-0.01731160283088684,0.07623008638620377,-0.15516436100006104,-0.024544112384319305,0.059826821088790894,0.03226873278617859,0.004098627716302872,0.08854682743549347,-0.07826018333435059,-0.061004940420389175,0.12140236049890518,-0.017216382548213005,-0.09673315286636353,-0.0319460928440094,-0.06771648675203323,-0.09026067703962326,0.10216616839170456,-0.051127634942531586,-0.02856648899614811,-0.1550360769033432,0.048551786690950394,0.04015757888555527,-0.1329544484615326,0.12483100593090057,-0.0009954593842849135,-0.13924852013587952,-0.11047391593456268],[-0.001291129388846457,0.09149441868066788,-0.03910673037171364,-0.03502797707915306,-0.04630276560783386,-0.12844687700271606,-0.09208689630031586,-0.023966828361153603,0.026934849098324776,-0.038294147700071335,0.035437025129795074,-0.10101356357336044,-0.08665351569652557,0.11180727928876877,0.15459099411964417,0.0298010166734457,0.041415710002183914,-0.06706887483596802,-0.013227974995970726,0.1506844460964203,0.1273909956216812,-0.02340504713356495,0.12454653531312943,-0.14791184663772583,0.07826104015111923,0.026735354214906693,-0.15875723958015442,-0.12990820407867432,-0.13219007849693298,-0.03704998269677162,-0.030104586854577065,0.06360326707363129,0.06994383037090302,0.08955274522304535,-0.07733852416276932,0.11244333535432816,0.04193412885069847,-0.008499100804328918],[0.05213911831378937,-0.0001359953748760745,-0.005044520366936922,0.10371411591768265,0.0009101632167585194,0.006613441277295351,0.13587769865989685,0.026783572509884834,0.0819602906703949,0.1271016150712967,0.03647701069712639,0.08642663806676865,0.10354942828416824,-0.07868099957704544,0.0551481768488884,-0.04006354883313179,0.06100781261920929,0.08476421982049942,-0.13277755677700043,0.12486062943935394,0.15053008496761322,0.1328677386045456,0.08698611706495285,0.07061481475830078,-0.029989618808031082,0.02371365576982498,-0.09943612664937973,-0.12514391541481018,-0.060697682201862335,-0.10618801414966583,-0.06797477602958679,0.02989862486720085,-0.1207801103591919,-0.11861034482717514,0.0935669094324112,0.12094404548406601,0.09024917334318161,-0.00886488612741232],[0.04742176830768585,-0.08516417443752289,0.14555850625038147,-0.09098447114229202,-0.0005174817051738501,-0.10493863373994827,0.0677194893360138,0.14048366248607635,0.1402808427810669,0.019079212099313736,-0.006258198991417885,-0.02028004266321659,-0.13318295776844025,-0.06052913889288902,0.04894758388400078,-0.15634121000766754,0.026854200288653374,0.065463587641716,0.09142274409532547,0.07589542865753174,-0.05398264154791832,-0.06100854277610779,0.06741902977228165,-0.0883638933300972,0.04254378378391266,0.07771982252597809,-0.07956083863973618,-0.0422644205391407,0.1555650681257248,-0.08361215889453888,-0.12071983516216278,-0.03381382301449776,-0.024972623214125633,-0.12486764043569565,-0.01368178054690361,-0.12372743338346481,0.15776892006397247,-0.03131412714719772],[0.09661082923412323,-0.024097256362438202,-0.06298132240772247,0.02347872033715248,0.11282291263341904,0.11221211403608322,0.13584516942501068,0.012977123260498047,0.10019704699516296,-0.03584641218185425,0.05984146147966385,-0.1553529053926468,0.05655406787991524,0.04296628013253212,0.048509590327739716,0.030729927122592926,-0.02333415485918522,0.1582120954990387,0.004422096069902182,-0.15530166029930115,-0.1365092545747757,0.1049167811870575,0.017932601273059845,0.008588156662881374,0.062292858958244324,0.011746792122721672,-0.03780985623598099,-0.13066346943378448,0.012757105752825737,0.15354077517986298,-0.1299251914024353,-0.004332967568188906,-0.026845961809158325,-0.14455261826515198,-0.05741243064403534,-0.1453092247247696,0.036191705614328384,-0.12630538642406464],[-0.09188450127840042,-0.09500131011009216,0.06458889693021774,-0.04595154896378517,0.09767676889896393,0.14611469209194183,-0.13511843979358673,0.11472389847040176,-0.09557976573705673,-0.12329573929309845,0.007292844820767641,-0.03041406162083149,-0.08549007028341293,-0.11593205481767654,-0.07549719512462616,0.12227818369865417,0.1605444848537445,-0.1286333203315735,0.08068222552537918,0.08487012982368469,0.012752512469887733,-0.0972243994474411,0.07427695393562317,0.001135741826146841,0.005531178787350655,-0.0755033940076828,0.08564459532499313,-0.13865676522254944,-0.028722623363137245,-0.1424834281206131,-0.004356157500296831,-0.14049886167049408,-0.013678116723895073,0.03277109935879707,0.15381556749343872,-0.038891978561878204,0.11404747515916824,0.09721689671278],[0.07229943573474884,-0.07177905738353729,0.05401458963751793,-0.04159821197390556,0.11179611086845398,0.07353989034891129,-0.1082715094089508,0.014777940697968006,0.12049047648906708,0.03850402683019638,-0.11810794472694397,-0.05332508310675621,-0.07051264494657516,-0.13735496997833252,0.03479140251874924,-0.03503339737653732,0.1320129632949829,-0.16075198352336884,0.07575082778930664,-0.0007131154416128993,-0.0029815544839948416,-0.1057441234588623,0.07477528601884842,0.11942557990550995,-0.03999361768364906,0.052091676741838455,-0.032760705798864365,-0.07571791112422943,-0.06679918617010117,-0.11130579560995102,0.13511885702610016,-0.04697589948773384,-0.11813592165708542,0.0730554386973381,-0.04822579771280289,0.15814684331417084,-0.011911517009139061,-0.019801195710897446],[0.13738271594047546,-1.4928060409147292e-05,-0.009915129281580448,0.06098184362053871,-0.0007548532448709011,-0.001644468167796731,-0.08458992093801498,0.050348978489637375,0.07406504452228546,0.05953564494848251,0.1396370828151703,0.1340140998363495,0.13989703357219696,0.0839734673500061,0.14068421721458435,0.09661729633808136,0.07513619214296341,0.01621430180966854,-0.07857241481542587,0.08972851186990738,0.15860189497470856,0.1391700953245163,0.07947865128517151,-0.07429295778274536,-0.00779723608866334,0.008350139483809471,-0.10740168392658234,0.07455869019031525,-0.05820801109075546,0.07937364280223846,-0.09291746467351913,-0.07535106688737869,0.1254073679447174,0.0464959554374218,-0.04023192822933197,0.06949150562286377,-0.028485635295510292,-0.07780760526657104],[-0.11633958667516708,-0.07633455097675323,-0.09219423681497574,-0.10399846732616425,0.09942451119422913,-0.04076825827360153,-0.05002160370349884,6.0035192291252315e-05,-0.1173437237739563,-0.0009011884685605764,0.0716150552034378,-0.012917743995785713,0.1147112101316452,-0.009586636908352375,-0.13372646272182465,-0.12904903292655945,-0.058926668018102646,-0.1043141558766365,-0.14942248165607452,0.11433747410774231,0.008412225171923637,-0.05092756077647209,0.15029525756835938,0.15442317724227905,0.059471726417541504,-0.0725308507680893,-0.051136571913957596,-0.05315709859132767,0.10346611589193344,-0.010797101072967052,0.12293197959661484,-0.1315394937992096,-0.027603594586253166,-0.006585173308849335,-0.15064018964767456,0.10046159476041794,0.1309070736169815,0.10465040802955627],[-0.13913002610206604,-0.09586760401725769,-0.0004353250260464847,0.08534890413284302,-0.09699414670467377,0.01635740138590336,0.10025835037231445,0.1366582214832306,-0.0034737233072519302,0.008049090392887592,-0.11662974953651428,0.012800918892025948,0.043033622205257416,-0.08205534517765045,0.1455739587545395,-0.10531282424926758,-0.14236555993556976,-0.0899977758526802,-0.13110876083374023,-0.012073918245732784,0.10806421935558319,0.01734485663473606,0.1390182375907898,-0.038797661662101746,0.0090011702850461,-0.06876694411039352,-0.0428888164460659,0.0392073392868042,0.10533936321735382,-0.13163647055625916,0.02850760519504547,0.006386890076100826,-0.12742802500724792,0.03774673864245415,0.026120247319340706,-0.0813995972275734,0.026921335607767105,0.1023482158780098],[-0.044568780809640884,-0.08727625012397766,0.08276050537824631,-0.014356567524373531,0.09203322231769562,-0.010797495022416115,-0.16591693460941315,-0.1461239904165268,-0.14395710825920105,-0.14683249592781067,-0.019919712096452713,0.06453853845596313,0.09743358939886093,-0.060430966317653656,-0.03355175256729126,0.07200455665588379,-0.12753325700759888,-0.10186998546123505,-0.14120417833328247,-0.0983320102095604,-0.006363062188029289,0.06184181198477745,0.09127503633499146,0.07690843939781189,-0.06847221404314041,0.10843271762132645,0.12424091249704361,-0.09273724257946014,-0.1105867326259613,-0.07819175720214844,-0.13287532329559326,0.12013445794582367,0.10026440769433975,-0.0063466946594417095,0.1532609462738037,-0.03391071408987045,-0.1328994482755661,-0.040920764207839966],[-0.025959335267543793,0.03841150179505348,0.0002100981946568936,-0.039792198687791824,0.12978342175483704,-0.07380308210849762,-0.002545083872973919,-0.013812650926411152,-0.07241488993167877,-0.14330489933490753,0.028040308505296707,-0.03599737957119942,-0.004752469714730978,0.15504643321037292,0.07846180349588394,-0.06569194048643112,0.04093508794903755,-0.11150506883859634,-0.11804778128862381,-0.04832452908158302,0.07672689110040665,0.08663704991340637,-0.0032529481686651707,-0.06803018599748611,0.1428416520357132,-0.09224651753902435,0.0004156614886596799,0.04173322394490242,-0.05891754850745201,-0.05420483276247978,-0.055757857859134674,0.1431870460510254,-0.12148347496986389,-0.09412243962287903,-0.10873338580131531,0.06356064975261688,-0.05683043971657753,-0.04742521420121193],[-0.1395149677991867,-0.1388321816921234,0.02893676608800888,0.12340965121984482,-0.1141013503074646,0.005743187386542559,-0.14561867713928223,-0.07277502119541168,0.14524106681346893,-0.02498055063188076,0.08082848787307739,0.009941697120666504,-0.10077887028455734,-0.09473812580108643,0.1565709412097931,-0.013774116523563862,-0.09423039853572845,0.10485246032476425,0.058419760316610336,-0.03755936399102211,-0.0958319753408432,0.03095282055437565,-0.13917195796966553,-0.012557893060147762,-0.04804384708404541,-0.1188201904296875,0.0744524896144867,0.08015014976263046,0.00938044860959053,0.013552489690482616,-0.13796672224998474,-0.009474079124629498,-0.13922326266765594,0.02711212821304798,0.14929863810539246,0.002365848748013377,0.12217340618371964,0.1570385843515396],[-0.11507302522659302,-0.018748540431261063,-0.029042599722743034,-0.08953993022441864,-0.1268855631351471,-0.001858917879872024,-0.030875541269779205,0.04100735858082771,0.09796221554279327,-0.10276839137077332,-0.11290832608938217,0.10377410799264908,-0.1430182158946991,0.13775873184204102,-0.1209343746304512,-0.07359692454338074,0.12732277810573578,0.01383102685213089,-0.1270703226327896,0.047992367297410965,-0.1378229558467865,-0.12530909478664398,0.14042925834655762,0.11688633263111115,-0.11431613564491272,-0.11068625003099442,-0.026824643835425377,0.08474130183458328,-0.0928877741098404,-0.020818427205085754,-0.08494606614112854,-0.10544579476118088,0.053497157990932465,0.08548443019390106,-0.06974326819181442,0.1286139339208603,0.14367178082466125,0.0487319715321064],[0.07967140525579453,0.026475366204977036,0.021632656455039978,0.09603147953748703,-0.11509925872087479,-0.13724417984485626,-0.09549950063228607,0.05877590924501419,-0.004575653932988644,-0.04362596198916435,-0.03998209908604622,-0.14836108684539795,0.14034231007099152,0.10188271105289459,-0.07902370393276215,-0.14244313538074493,0.007687912788242102,-0.13468749821186066,0.12746162712574005,-0.03841748088598251,-0.04424106702208519,0.057814642786979675,-0.038278594613075256,0.03918201103806496,-0.02799380011856556,0.04630190134048462,0.07552424818277359,0.04408704489469528,0.004551047924906015,0.15085044503211975,-0.05227170139551163,0.15036746859550476,-0.1631803810596466,0.07469464093446732,0.028215719386935234,-0.08956986665725708,-0.10929509997367859,-0.12536737322807312],[-0.03269627317786217,-0.00015077834541443735,-0.11147728562355042,0.13688747584819794,-0.10682421922683716,7.444630227837479e-06,-0.1508280336856842,0.029302561655640602,-0.004511575680226088,0.09356708824634552,-0.03591877594590187,-0.019475538283586502,0.11510580033063889,-0.11067163199186325,-0.08785157650709152,0.07363694906234741,-0.06309887766838074,-0.05608118325471878,0.1376352608203888,-0.052238829433918,0.10231899470090866,0.11354158073663712,0.03321255370974541,-0.020179297775030136,-0.11005901545286179,0.02921610325574875,0.15050819516181946,-0.08309239149093628,0.065567247569561,0.013731972314417362,0.027325090020895004,-0.11141642183065414,-0.14700263738632202,0.1498957723379135,-0.042526718229055405,-0.07799657434225082,0.018232867121696472,-0.07385765761137009],[0.12588804960250854,0.03274938464164734,0.009938236325979233,0.002280840650200844,0.1373041719198227,-0.04796907305717468,0.04295164719223976,0.09063097089529037,0.14237622916698456,-0.08159205317497253,-0.13314996659755707,0.022236736491322517,0.06382067501544952,0.1386466771364212,-0.1275051236152649,0.07874896377325058,0.06711049377918243,0.14434239268302917,-0.12377097457647324,0.029098037630319595,0.07469113916158676,0.11440247297286987,0.05279297009110451,-0.14804062247276306,-0.024182358756661415,-0.027769170701503754,-0.04054487869143486,-0.15904587507247925,-0.0342433862388134,-0.12540510296821594,0.03872762992978096,0.08096736669540405,-0.13872767984867096,0.1635240763425827,0.14537151157855988,-0.0094738295301795,-0.08135771751403809,0.09641339629888535],[0.07952925562858582,0.013990283012390137,-0.09279600530862808,-0.08992121368646622,-0.06816098839044571,-0.0010113229509443045,-0.09963986277580261,-0.080868199467659,0.1369428038597107,-0.13241665065288544,0.12000837177038193,-0.04307086393237114,-0.10390616953372955,0.10906405001878738,-0.060426563024520874,-0.045989472419023514,-0.07089362293481827,0.051545027643442154,0.03624343127012253,-0.14332474768161774,-0.0772571936249733,-0.016341447830200195,-0.15813325345516205,-0.11720399558544159,-0.15319178998470306,-0.15396162867546082,0.032499317079782486,0.09192533791065216,0.0010721433209255338,-0.01062538381665945,-0.038088079541921616,0.08715064823627472,-0.06914105266332626,-0.05739793926477432,-0.04884295538067818,0.07402699440717697,-0.03891212120652199,0.10956268012523651],[0.04762102663516998,-0.06588935106992722,0.03600691258907318,0.12736856937408447,0.007704291492700577,0.11435369402170181,0.10572255402803421,-0.13090145587921143,0.019981717690825462,-0.14186736941337585,-0.05181755870580673,-0.0682777538895607,-0.01884790137410164,0.08038242161273956,0.06654524803161621,-0.1571759432554245,-0.05450155958533287,0.04679486155509949,-0.1333649903535843,-0.15297994017601013,-0.13203665614128113,0.13996966183185577,-0.0710374042391777,-0.14746294915676117,0.10756263881921768,-0.010020917281508446,-0.05377546325325966,-0.13003793358802795,-0.1546340435743332,0.13943319022655487,-0.0629487857222557,0.07321413606405258,0.06824444234371185,0.11375967413187027,0.03846387565135956,-0.03934904560446739,-0.0009210067219100893,0.00985976867377758],[0.11470259726047516,0.044073425233364105,0.05366531014442444,-0.014935820363461971,0.10133019089698792,0.018644530326128006,0.08875449746847153,-5.375024556997232e-05,-0.11076001077890396,-0.02402966283261776,0.1609354019165039,-0.0930592343211174,-0.1261662244796753,-0.0902547836303711,-0.14540430903434753,0.1332916021347046,-0.1373884528875351,0.15387694537639618,-0.14572522044181824,0.05011830851435661,-0.07296264171600342,0.11303775012493134,-0.07936474680900574,-0.0038846789393574,-0.14568378031253815,-0.14406642317771912,0.12353547662496567,-0.05712037533521652,-0.11804407089948654,-0.13531191647052765,0.027037739753723145,0.0807744637131691,-0.03151010349392891,-0.06371279805898666,-0.010098077356815338,0.04385947436094284,0.003031178843230009,0.08725187927484512],[-0.13955341279506683,0.09119994938373566,0.06278464198112488,0.12225047498941422,0.058331817388534546,-0.013487569987773895,0.07861202210187912,0.04814852029085159,0.02831217274069786,-0.1293952912092209,0.1551450788974762,-0.11937721073627472,0.16298851370811462,-0.04872961714863777,-0.16140565276145935,-0.1119099035859108,-0.011466454714536667,0.09747829288244247,-0.0005789847928099334,-0.044124674052000046,-0.0376666858792305,0.10455555468797684,0.0704629123210907,0.07798083871603012,-0.0028318751137703657,-0.03181060403585434,0.016610335558652878,0.056932322680950165,0.15746067464351654,-0.11099465936422348,-0.10816337168216705,-0.1382097452878952,0.0585993193089962,0.11044667661190033,0.1533668488264084,-0.1263406127691269,-0.15282198786735535,0.03371070325374603],[0.11810964345932007,-0.08709000051021576,-0.0013158980291336775,0.10485287755727768,0.05543552339076996,-0.12437183409929276,-0.003957843407988548,0.0443984791636467,0.030179405584931374,0.061086177825927734,-0.15118937194347382,0.09645678102970123,0.11246854066848755,-0.13916875422000885,0.12291345745325089,0.080506332218647,-0.11581271886825562,0.07465578615665436,0.07725238054990768,-0.05735870823264122,-0.06148615479469299,0.07543062418699265,0.13741545379161835,0.0803692564368248,0.013582505285739899,-0.09121710807085037,-0.033629000186920166,0.11782471090555191,-0.02573731727898121,-0.13655662536621094,0.031354427337646484,-0.16230396926403046,-0.05803484842181206,0.013623584993183613,0.05063868686556816,-0.08304212242364883,-0.14227302372455597,0.020665528252720833],[-0.0025497572496533394,0.029326990246772766,-0.08392897248268127,-0.11128433793783188,0.0004053116135764867,-0.05125982314348221,0.0708717405796051,0.14569540321826935,-0.08995167911052704,0.0660625621676445,0.12248867750167847,-0.1176157221198082,0.15215496718883514,-0.07696515321731567,-0.09899640828371048,-0.06784963607788086,-0.10648860037326813,-0.02406321093440056,0.11014731973409653,0.08690529316663742,-0.1563638299703598,0.04523155093193054,-0.041593801230192184,0.11291778832674026,0.010522578842937946,-0.08894424140453339,0.005840707570314407,-0.01282017957419157,0.05604853481054306,-0.05981695279479027,0.13050290942192078,0.14780443906784058,-0.058701880276203156,0.004451071843504906,-0.1361667662858963,0.0768204778432846,0.04115450754761696,0.020661931484937668],[0.09574835002422333,-0.11919879913330078,0.0009760630782693624,-0.040303785353899,0.11036420613527298,-0.024090001359581947,0.0033585072960704565,-0.0877099260687828,0.024647271260619164,0.08211399614810944,-0.11639615148305893,0.05694832280278206,-0.0009385027224197984,-0.046352945268154144,0.051582999527454376,-0.0724879801273346,0.03584757447242737,0.057297367602586746,-0.0031011521350592375,-0.07357211410999298,0.10906592011451721,0.07890290766954422,-0.038144055753946304,0.0093818549066782,0.03383549675345421,-0.043853141367435455,-0.15466101467609406,-0.12661787867546082,-0.001630535232834518,-0.03686915338039398,-0.05825238302350044,-0.15026205778121948,0.02210095152258873,-0.12618854641914368,0.019211510196328163,-0.01867079734802246,0.10302617400884628,0.04655430093407631],[-0.11423337459564209,0.13642272353172302,0.04141747206449509,0.029575834050774574,0.12887804210186005,0.03166184946894646,0.08249145746231079,0.12760774791240692,0.08314431458711624,-0.03872343897819519,0.13509464263916016,0.07567805796861649,-0.04331515356898308,-0.049832455813884735,-0.020165864378213882,-0.020930215716362,-0.07943319529294968,0.06874369084835052,-0.07729342579841614,-0.0317203588783741,0.004618801176548004,0.11141999810934067,0.11652369052171707,0.1541825830936432,-0.12708780169487,-0.07726185768842697,0.13376379013061523,-0.04920479282736778,-0.1595466434955597,-0.08598202466964722,-0.12488004565238953,-5.544092709897086e-05,0.11172990500926971,-0.14838917553424835,-0.1328691989183426,-0.020018186420202255,-0.036223169416189194,0.024067586287856102],[-0.04282134771347046,0.0712694376707077,-0.02237888053059578,-0.06364797055721283,0.05587625503540039,-0.08216236531734467,0.11967361718416214,-0.09319774806499481,-0.10537200421094894,0.0851781815290451,0.14157892763614655,0.1339857578277588,0.10619854182004929,0.057002563029527664,-0.07961992919445038,0.15046213567256927,-0.09473955631256104,0.01731179840862751,-0.0634184405207634,-0.12510384619235992,0.08501341938972473,0.13318277895450592,0.058595143258571625,-0.11223004758358002,0.13920465111732483,-0.012532963417470455,0.1156473308801651,-0.08525130897760391,-0.09546297788619995,-0.026419274508953094,-0.03133293613791466,0.07185183465480804,0.0709252804517746,0.15572278201580048,-0.009430265985429287,0.04529225826263428,0.06811773777008057,0.06871137022972107],[-0.1292741596698761,0.10280146449804306,-0.053402744233608246,0.07157833129167557,0.07306628674268723,0.1184116080403328,0.034304726868867874,0.11410749703645706,0.14463339745998383,0.028705231845378876,0.15576721727848053,-0.12390021234750748,-0.08774091303348541,-0.040732502937316895,0.016719600185751915,-0.1533675193786621,-0.07926664501428604,-0.12626272439956665,-0.04476958140730858,-0.11471480876207352,0.12382330000400543,0.14490875601768494,0.09448092430830002,0.0879833772778511,-0.05214741826057434,-0.08165863156318665,0.1209714412689209,-0.03943382203578949,0.13967061042785645,0.023327287286520004,-0.14937114715576172,0.08599406480789185,-0.09967032074928284,-0.1307746171951294,0.0010627580340951681,-0.1259264349937439,0.02429710514843464,0.12177416682243347],[-0.12186035513877869,-0.14448358118534088,0.0660024955868721,0.0006643221713602543,-0.00027476728428155184,0.03360316902399063,-0.044906094670295715,0.014534570276737213,-0.08186227083206177,-0.13744647800922394,-0.14412625133991241,0.027734432369470596,-0.13134564459323883,-0.022512443363666534,0.07194936275482178,0.1281767636537552,-0.05937447026371956,0.07148229330778122,-0.006719658616930246,-0.022707991302013397,-0.11752551048994064,-0.011422836221754551,-0.030750418081879616,0.12896956503391266,0.025358125567436218,0.029031949117779732,0.023540733382105827,0.07726532965898514,-0.049188029021024704,-0.13512974977493286,0.015104353427886963,-0.01964903436601162,-0.12329666316509247,0.06572722643613815,-0.06272883713245392,0.027977418154478073,-0.12710773944854736,0.03048541396856308],[-0.040810950100421906,-0.09784487634897232,0.0312885157763958,0.10445646196603775,0.06548566371202469,-0.004328104667365551,0.1334879994392395,-0.06990740448236465,-0.09554458409547806,0.026241792365908623,-0.02367045357823372,0.13638748228549957,0.05182616785168648,-0.04730407893657684,0.11049427092075348,0.15199589729309082,0.021998388692736626,-0.12488732486963272,0.11935865879058838,0.08850067853927612,0.10289676487445831,-0.0956173911690712,0.15173378586769104,0.1086810901761055,-0.12621554732322693,-0.13829796016216278,-0.08374374359846115,-0.025236716493964195,-0.07199770957231522,-0.059219419956207275,0.01093284972012043,0.16048535704612732,0.02405220828950405,0.08568239212036133,0.04837459325790405,-0.0574938990175724,-0.05014316365122795,0.14559140801429749],[0.031044965609908104,0.14020879566669464,-0.0022393171675503254,-0.004303737543523312,0.0038214668165892363,-0.04259750619530678,-0.15089847147464752,0.09044799208641052,-0.059748437255620956,0.1461266428232193,0.027638794854283333,0.15231183171272278,0.061233729124069214,0.13763166964054108,0.1298443078994751,-0.09144028276205063,0.0966293215751648,0.07642502337694168,-0.08147559314966202,0.146357923746109,0.06024495139718056,0.02239767462015152,0.03156103938817978,0.14465969800949097,-0.07589487731456757,-0.15836374461650848,-0.10909436643123627,-0.0654657781124115,0.14873822033405304,0.04935759678483009,-0.10253538191318512,0.09616294503211975,0.12582379579544067,0.06351764500141144,-0.06092323735356331,-0.129512757062912,0.1186063140630722,0.08747996389865875],[0.0008726862142793834,-0.05766972526907921,0.0451054684817791,-0.03945194557309151,-0.1288372278213501,0.014311080798506737,-0.0759291723370552,0.05694558098912239,0.08692535012960434,-0.053984541445970535,-0.09387442469596863,-0.08266689628362656,0.05081360787153244,-0.13837355375289917,-0.009400054812431335,-0.09502445161342621,-0.13946114480495453,-0.12441658973693848,-0.12310771644115448,0.15828582644462585,0.018360622227191925,0.02683422528207302,-0.11958260089159012,3.929292506654747e-05,-0.06848887354135513,-0.04487088695168495,-0.14060385525226593,0.1498006135225296,0.1296864151954651,-0.142150416970253,-0.13840703666210175,0.054357949644327164,0.11932830512523651,0.059104256331920624,0.07467418164014816,-0.017606792971491814,-0.10966778546571732,0.09315071254968643],[-0.0034097544848918915,-0.02467186190187931,0.10503111779689789,-0.04362372308969498,0.08018883317708969,-0.042589351534843445,-0.07629150152206421,-0.12323011457920074,0.026676654815673828,0.08747769892215729,-0.1040477529168129,-0.0307094007730484,0.11431080102920532,0.10766629874706268,-0.07013268768787384,-0.10637708753347397,0.06009206920862198,0.12244325876235962,-0.07190189510583878,0.1286384016275406,-0.02887473627924919,-0.10244699567556381,-0.008176675997674465,-0.07127994298934937,-0.07916559278964996,-0.03918496146798134,-0.055214010179042816,-0.08908016234636307,0.07815869152545929,-0.11612877249717712,-0.06696677207946777,0.08074905723333359,0.02161279134452343,-0.08565239608287811,0.002656850265339017,0.04481015354394913,-0.06444127857685089,-0.07341787219047546],[0.03166522830724716,0.1293100118637085,0.06753384321928024,0.12772104144096375,0.0009213723242282867,0.04409412294626236,0.15156032145023346,-0.03402230888605118,-0.0009220581268891692,0.08789084106683731,0.13456371426582336,0.02729967050254345,0.05931752920150757,-0.10301767289638519,0.09227416664361954,-0.04571447893977165,-0.03428606316447258,-0.019347965717315674,0.15131573379039764,-0.05911557003855705,-0.007187170907855034,0.019435374066233635,-0.03912879154086113,-0.027452750131487846,0.025202011689543724,0.14046575129032135,-0.14059603214263916,0.06518235057592392,-0.00362629652954638,-0.03318732976913452,-0.08672485500574112,0.12304350733757019,0.07109913975000381,0.11662211269140244,0.12050008773803711,0.10847539454698563,-0.042205553501844406,0.1584034562110901],[0.03997327759861946,-0.0019004909554496408,0.08942678570747375,-0.02886834554374218,-0.07395067811012268,0.1354980766773224,-0.030043533071875572,-0.010240601375699043,-0.01668187417089939,0.14068271219730377,0.041631732136011124,0.10841549932956696,0.023629408329725266,0.020053699612617493,0.14472351968288422,-0.05876794457435608,-0.14289872348308563,-0.06914088129997253,-0.0008212722023017704,0.09203492850065231,-0.10177597403526306,0.1529214084148407,-0.06846640259027481,0.06482511758804321,0.09392040222883224,0.01165525522083044,-0.08837109804153442,0.03605615347623825,0.05494950711727142,-0.07586533576250076,0.12604671716690063,0.1112816333770752,-0.14410950243473053,-0.014403223060071468,-0.03664463013410568,0.022545143961906433,-0.14159248769283295,-0.08610708266496658],[-0.05634787306189537,0.14075054228305817,0.13657306134700775,-0.07680222392082214,8.585519026382826e-06,-0.010077731683850288,0.055790890008211136,0.027730805799365044,-0.12284471094608307,0.10825783014297485,0.007936040870845318,-0.11044450849294662,-0.11410800367593765,0.0010256620589643717,-0.144782155752182,-0.0028774701058864594,-0.09482689946889877,-0.03950508311390877,-0.067286916077137,-0.13935768604278564,0.0719427689909935,-0.02201252058148384,-0.14305295050144196,0.06363200396299362,-0.05253707617521286,-0.12157933413982391,0.05436946451663971,0.10714278370141983,0.09342176467180252,0.11474780738353729,0.05024264380335808,-0.09381969273090363,-0.009609615430235863,0.048433542251586914,-0.04082004353404045,-0.10605982691049576,0.10480276495218277,-0.11943992972373962],[-0.05691935494542122,0.10527555644512177,0.09139548242092133,0.01988046057522297,0.00897566694766283,0.05890979245305061,0.16244228184223175,-0.12787246704101562,0.05871374532580376,0.03357982262969017,-0.06951957941055298,0.07021842151880264,-0.04152809455990791,-0.01397532969713211,0.13758370280265808,-0.0256812646985054,0.09090341627597809,0.08850813657045364,0.05907386913895607,-0.12366094440221786,-0.022780651226639748,-0.03623459115624428,-0.04441783204674721,0.13616152107715607,0.0709567591547966,0.09093562513589859,0.08108896017074585,-0.03869061544537544,0.041607871651649475,0.14295034110546112,0.016925392672419548,-0.0522284097969532,0.11737104505300522,-0.13000360131263733,0.022853586822748184,0.14616869390010834,-0.15055841207504272,-0.01878380961716175],[-0.03436991199851036,-0.07048620283603668,-0.007008880376815796,-0.02259647659957409,0.0647181048989296,0.07986155897378922,0.036033689975738525,0.1294439435005188,-0.1320827752351761,0.023221690207719803,0.030704639852046967,0.07577670365571976,0.005816999822854996,0.04087100178003311,0.06549455970525742,-0.13952848315238953,-0.12370030581951141,0.12457530945539474,0.09684747457504272,-0.1336071640253067,-0.023714272305369377,0.06020374968647957,-0.022092286497354507,0.12283499538898468,-0.005661611910909414,0.10286547243595123,-0.09539808332920074,0.060404542833566666,0.1121591255068779,-0.003096596337854862,-0.16239093244075775,0.08928054571151733,0.13153651356697083,-0.07287278771400452,0.022420762106776237,0.09884447604417801,0.13717307150363922,0.115234375],[-0.07648124545812607,-0.1284606158733368,0.09745369106531143,0.11838866770267487,-0.07517895102500916,-0.07793795317411423,0.08993174135684967,-0.059721969068050385,0.051901716738939285,-0.00138408737257123,0.03249248117208481,0.039453402161598206,-0.06974413990974426,-0.0298575758934021,0.10198788344860077,0.0589996874332428,0.029750509187579155,0.1617310494184494,0.15717953443527222,0.04817570373415947,-0.14583176374435425,0.03188429772853851,0.06381113827228546,0.12347783893346786,-0.028444746509194374,-0.1152595728635788,-0.09085768461227417,-0.07562694698572159,0.11446762830018997,-0.08122579753398895,-0.08468309044837952,0.02229517139494419,0.12330646812915802,0.07990557700395584,0.044025834649801254,0.020831597968935966,-0.14737190306186676,-0.15285302698612213],[-0.10408077389001846,-5.7082317653112113e-05,0.06076527014374733,-0.02007964998483658,0.0004123003745917231,0.06335318833589554,-0.10771847516298294,0.024697164073586464,-0.10557156056165695,-0.009086793288588524,0.03277203068137169,0.12412841618061066,-0.09215153008699417,-0.03534278646111488,-0.14214596152305603,-0.007412256672978401,0.12598469853401184,-0.0834217295050621,-0.1249907910823822,-0.040867388248443604,0.15630565583705902,0.0874822586774826,0.0361509695649147,0.09321102499961853,-0.11199256032705307,-0.07822863012552261,0.16221271455287933,0.13200898468494415,0.15694411098957062,-0.1068241149187088,-0.03145509213209152,-0.04204854741692543,0.08947582542896271,0.0453268364071846,-0.06333538889884949,-0.06884107738733292,0.1466219127178192,0.08378135412931442],[-0.059910017997026443,-0.10520349442958832,0.035255517810583115,0.04442135617136955,0.12194390594959259,0.0911422148346901,-0.13545255362987518,-0.14135147631168365,0.1174963191151619,0.0071499403566122055,-0.04557220637798309,-0.15110795199871063,-0.09308002889156342,0.047719161957502365,0.0673379972577095,-0.0713980570435524,-0.045680638402700424,-0.15959981083869934,-0.07651417702436447,-0.0783892422914505,-0.004009436350315809,0.06869904696941376,0.03812110424041748,0.046599291265010834,0.09188675135374069,0.08906617015600204,0.08785195648670197,-0.07956405729055405,0.10032668709754944,-0.15880145132541656,0.14802883565425873,0.02275768294930458,0.11295964568853378,-0.11456090956926346,-0.1202094554901123,0.1241946592926979,0.16249744594097137,0.06850453466176987],[-0.10603994131088257,8.250615792348981e-06,0.11335407197475433,0.12407830357551575,-0.053525686264038086,-0.1101091280579567,-0.16062171757221222,0.06006180867552757,-0.010759057477116585,-0.052853960543870926,0.10048842430114746,0.10116584599018097,-0.03012262098491192,-0.14207206666469574,0.12629243731498718,-0.10551366955041885,0.043615132570266724,0.15408951044082642,-0.047658681869506836,-0.07658733427524567,-0.007806519512087107,-0.13630490005016327,-0.07849588245153427,0.11166787147521973,0.025707965716719627,-0.023897092789411545,0.08378675580024719,-0.06832870841026306,0.026995133608579636,-0.07145760208368301,0.025819087401032448,0.06552460044622421,0.08402764052152634,0.04014553129673004,-0.01714136265218258,0.12734603881835938,-0.022480806335806847,0.10415883362293243],[-0.13473840057849884,-0.141915962100029,-0.0884673148393631,-0.11867474764585495,-0.1367950588464737,-0.055944763123989105,0.020194459706544876,0.12563274800777435,-0.0006150549161247909,0.09226251393556595,0.0379960760474205,-0.06942449510097504,0.08233313262462616,0.11890693008899689,-0.16448770463466644,-0.05869690328836441,0.03753194585442543,-0.15410207211971283,-0.11793696880340576,0.1169339269399643,-0.14451567828655243,0.05123971030116081,0.004231402650475502,-0.07331448793411255,0.05579742044210434,-0.032371439039707184,0.12206065654754639,-0.0037460217718034983,-0.08485409617424011,0.1306394785642624,0.07640833407640457,0.09604188054800034,-0.06561893969774246,0.005390975158661604,-0.1565411537885666,0.04184914752840996,0.003785031381994486,0.14453411102294922],[-0.00866706296801567,-0.06897974014282227,0.13007761538028717,-0.12407264113426208,0.0828411802649498,-0.05795890837907791,-0.026512840762734413,0.07187577337026596,-0.022775623947381973,-0.10425501316785812,0.11909569799900055,0.10322276502847672,-0.06357339769601822,-0.04710287228226662,0.04404832795262337,0.11422049254179001,-0.1114325001835823,-0.14778709411621094,-0.14705213904380798,0.1285730004310608,-0.04023426026105881,0.005495310761034489,0.032025013118982315,0.028207875788211823,0.035226885229349136,-0.08714704215526581,-0.026119085028767586,-0.12955313920974731,-0.029934920370578766,0.12162738293409348,-0.1175842136144638,-0.0032069371081888676,-0.0806378573179245,-0.0888245478272438,-0.11678964644670486,-0.07809027284383774,-0.010744853876531124,-0.11775272339582443],[0.05731384456157684,-0.024536125361919403,0.004287972114980221,0.01745586469769478,0.05183828994631767,-0.008398493751883507,0.15819519758224487,0.002080039819702506,0.016860339790582657,0.041244152933359146,0.10138451308012009,-0.12831410765647888,0.06331948935985565,0.13157592713832855,0.050791628658771515,0.12357201427221298,0.09072687476873398,0.05229336395859718,-0.04743406921625137,-0.12029141932725906,-0.15306305885314941,0.08397495001554489,-0.040274277329444885,0.0222458578646183,0.07255618274211884,-0.023356493562459946,0.09889693558216095,0.053042665123939514,-0.1380937248468399,-0.10990946739912033,0.013704047538340092,-0.11262929439544678,0.05514116585254669,0.006981797516345978,-0.06629334390163422,-0.04385460540652275,-0.14289633929729462,0.011677423492074013],[-0.07521668821573257,0.13092996180057526,-0.09810210764408112,0.036298513412475586,-4.061138315591961e-05,0.07334387302398682,-0.11922864615917206,0.12701724469661713,0.10062450915575027,0.04666592553257942,-0.05744960531592369,0.058933842927217484,0.1425216943025589,0.046060144901275635,0.054076388478279114,0.044007159769535065,0.11284376680850983,0.013694691471755505,0.08676282316446304,0.07346036285161972,0.10247935354709625,0.15731048583984375,0.0470711924135685,-0.1605280488729477,-0.015602638944983482,-0.06305593997240067,-0.059744421392679214,0.020549118518829346,0.1448252648115158,-0.04514022171497345,-0.011019580066204071,0.01683773845434189,-0.1599799245595932,0.04473178833723068,-0.026999933645129204,-0.14886240661144257,0.03770904988050461,-0.146966814994812],[0.09979157894849777,-0.06215432658791542,0.06266169250011444,-0.06712198257446289,-0.11857583373785019,0.0936531126499176,-0.0821828693151474,-0.0753975585103035,-0.0004303988825995475,-0.1457401067018509,-0.07535339891910553,0.011100443080067635,0.049832455813884735,0.15344226360321045,-0.020648684352636337,-0.07788639515638351,0.05315934494137764,0.01841023936867714,-0.04864897206425667,-0.031204532831907272,0.14945237338542938,0.034235067665576935,-0.15287518501281738,0.05330611392855644,0.02479274943470955,-0.021645747125148773,-0.09728416055440903,-0.016833694651722908,-0.006769646890461445,-0.08212906122207642,-0.12543857097625732,-0.09882564097642899,-0.028904978185892105,-0.08082453906536102,-0.0855327695608139,0.0930689200758934,-0.016295725479722023,0.13840650022029877],[0.018836678937077522,-0.0010503357043489814,-0.12822669744491577,0.11507835984230042,-0.05312681570649147,0.14737433195114136,0.037381164729595184,4.996130428480683e-06,0.11766128987073898,0.13460758328437805,-0.026538606733083725,-0.08058003336191177,0.09988117218017578,0.015275516547262669,0.027228549122810364,-0.11570003628730774,-0.16008800268173218,0.13456885516643524,-0.1361784189939499,-0.11033084988594055,-0.0007182739209383726,-0.16218070685863495,-0.021646494045853615,-0.09092167019844055,-0.04751633107662201,0.07494158297777176,-0.062202922999858856,0.10857101529836655,-0.11977842450141907,-0.0850268229842186,-0.10874556005001068,-0.009535237215459347,-0.09440698474645615,-0.07072874903678894,-0.043111611157655716,-0.09324607998132706,0.012541064992547035,0.12864701449871063],[0.09469910711050034,-0.08017507195472717,-0.07982965558767319,0.11358773708343506,-0.10670144855976105,0.0879228264093399,-0.058307476341724396,-0.12576253712177277,0.11172880232334137,-0.053652144968509674,-0.0780990868806839,0.14132043719291687,-0.07695940881967545,-0.13718779385089874,-0.016326243057847023,0.15639281272888184,-0.007064796518534422,0.06371244043111801,0.13384217023849487,0.030271707102656364,-0.1263812929391861,0.005787705071270466,0.13948725163936615,-0.14529141783714294,-0.03557705134153366,-0.009291514754295349,0.023263076320290565,-0.07853236794471741,0.10498091578483582,0.013577244244515896,-0.011557926423847675,-0.12187593430280685,0.0906701311469078,-0.08871765434741974,0.14012938737869263,0.026071632280945778,0.029539382085204124,0.04114281013607979],[-0.14119157195091248,0.03694251552224159,-0.07826517522335052,-0.03655945509672165,0.03182268515229225,-0.05635383352637291,-0.04629936069250107,0.1372368335723877,0.10536645352840424,0.1175692155957222,0.12862013280391693,0.020976020023226738,0.11218605935573578,0.03971543535590172,0.11217562854290009,-0.012460500001907349,0.029934491962194443,-0.04434538260102272,-0.00028396095149219036,0.06668124347925186,-0.11925887316465378,-0.132053405046463,0.09412755072116852,0.15402211248874664,0.025762934237718582,0.09160894900560379,-0.15517935156822205,0.02810622937977314,-0.01745671220123768,-0.15140771865844727,0.1534339189529419,0.036570459604263306,-0.13398388028144836,-0.1126101166009903,0.1496160626411438,0.04051285237073898,0.041477929800748825,-0.15383441746234894],[0.08901383727788925,0.06839215010404587,-0.1450665146112442,0.10959793627262115,0.031068500131368637,0.10954112559556961,0.10558267682790756,0.088264100253582,-0.05650109052658081,0.10602018237113953,-0.0058745029382407665,-0.014112573117017746,-0.015776386484503746,-0.036373600363731384,0.09333628416061401,0.08327901363372803,-0.04140126332640648,-0.10886204242706299,0.0754779800772667,-0.13557308912277222,0.161130890250206,0.1110091432929039,0.141042560338974,-0.02888231910765171,-0.13973882794380188,-0.14330914616584778,-0.13605518639087677,-0.003945489879697561,0.1378810852766037,-0.09524714946746826,0.148972287774086,-0.1284191757440567,-0.07894916087388992,0.09754889458417892,0.11190111935138702,-0.1470283567905426,-0.159377783536911,0.0562758594751358],[-3.2991465559462085e-06,-0.06162089854478836,0.00043895404087379575,-0.04654694348573685,-0.142758309841156,0.13378271460533142,-0.10311932861804962,-0.09854940325021744,0.09082330018281937,0.012376535683870316,0.07771501690149307,0.053839780390262604,0.12570326030254364,-0.03582347184419632,0.05918992683291435,0.10064464807510376,-0.06215549260377884,0.09002500772476196,-0.11062268167734146,-0.10630755871534348,-0.06414612382650375,0.14119553565979004,-0.06835341453552246,0.047922175377607346,-0.0013471875572577119,0.11397352069616318,0.027733061462640762,-0.07978551834821701,0.1318856179714203,-0.055389221757650375,0.07062221318483353,0.16329576075077057,-0.012273408472537994,0.10461879521608353,-0.07424630969762802,-0.09437797963619232,0.03512264043092728,0.07609200477600098],[-0.13494765758514404,0.0022055846638977528,0.07847649604082108,-0.05256877467036247,0.05545033514499664,0.06376861035823822,-0.13852925598621368,-0.041851386427879333,0.13005279004573822,-0.040422890335321426,0.04378768801689148,0.0015441625146195292,-0.03045312874019146,-0.05998726561665535,0.11367077380418777,0.031892769038677216,-0.1275947093963623,0.03607448190450668,0.10840009897947311,0.01706923358142376,0.04192248359322548,-0.0645182654261589,-0.14944656193256378,0.010550975799560547,0.15366342663764954,-0.036029621958732605,0.05397162213921547,-0.037947267293930054,0.0718580037355423,0.05203882232308388,0.0012166037922725081,0.10054468363523483,-0.03085060603916645,-0.08799849450588226,0.013927526772022247,-0.0005091665661893785,0.1584988236427307,-0.05076451972126961],[-0.013290761969983578,-0.13191698491573334,0.07876551896333694,-0.07586082816123962,-0.020095445215702057,0.13667985796928406,0.045835256576538086,0.04468788579106331,-0.01307040173560381,0.0848429948091507,-0.13565249741077423,0.0002376630436629057,-0.13698628544807434,-0.04698414355516434,0.06122756749391556,-0.1526193767786026,0.025542205199599266,-0.023332593962550163,-0.03697129338979721,0.13414372503757477,-0.10194370150566101,-0.12394381314516068,0.07118190079927444,0.09058115631341934,-0.028081215918064117,0.07074937224388123,0.05885668471455574,0.10146978497505188,-0.14969736337661743,0.14991673827171326,-0.1279376745223999,-0.13208213448524475,0.154767245054245,-0.15522868931293488,0.10641919821500778,0.15856924653053284,-0.15019811689853668,-0.09344997256994247],[0.13724514842033386,0.09632033109664917,-0.02367459051311016,0.06321774423122406,-0.0336882509291172,0.14621977508068085,0.06339747458696365,0.04259330406785011,0.01250701304525137,0.09169290959835052,0.028897350654006004,-0.04310604929924011,0.0877138301730156,0.1407279223203659,0.1255868375301361,-0.010639524087309837,-0.09852166473865509,0.081646628677845,0.08064518868923187,-0.08524831384420395,-0.05250639468431473,0.10691020637750626,-0.14329542219638824,-0.07019294053316116,-0.08175612986087799,-0.036788344383239746,-0.023226339370012283,-0.10206133872270584,-0.04162593185901642,-0.11675368994474411,0.12253938615322113,0.05416037514805794,0.02366030216217041,-0.1594599038362503,-0.12893052399158478,0.0808788612484932,-0.013479536399245262,-0.11037606000900269],[-0.12503623962402344,-0.0002911685442086309,-0.014052046462893486,-0.07855886220932007,0.10785303264856339,-0.019118886440992355,0.02883637137711048,0.001691328827291727,0.06930726766586304,0.059277407824993134,-0.040241941809654236,-0.13478127121925354,-0.1076459288597107,0.09224281460046768,0.13113951683044434,-0.07212599366903305,0.025247549638152122,-0.09568827599287033,-0.12032543122768402,0.14545980095863342,-0.011692906729876995,0.15141943097114563,0.07288593798875809,-0.15579935908317566,-0.012539718300104141,0.03767331689596176,0.01649797521531582,-0.023497097194194794,0.10697575658559799,0.08730071783065796,-0.03168855607509613,0.09767670184373856,0.03443107753992081,-0.04224744066596031,-0.14600954949855804,-0.028677091002464294,0.06607487052679062,0.09662799537181854],[0.08993926644325256,-0.1016966700553894,0.09281276911497116,0.10289855301380157,0.09474214911460876,-0.05583123862743378,0.10787719488143921,0.0200714822858572,0.07746351510286331,-0.02652658522129059,0.12071998417377472,0.09460992366075516,-0.1452733427286148,0.14556460082530975,0.06973933428525925,0.1344667226076126,-0.12173168361186981,0.023694682866334915,-0.014531662687659264,0.11257194727659225,-0.023777533322572708,-0.14470452070236206,-0.07450371235609055,0.09212713688611984,0.12042614817619324,0.14876018464565277,0.09419254958629608,-0.15623833239078522,-0.05345762521028519,-0.1537518948316574,0.13711543381214142,-0.06840931624174118,0.13513395190238953,-0.07782582938671112,0.11569509655237198,-0.009516525082290173,0.06287100911140442,0.10955341160297394],[-0.09173880517482758,0.015532003715634346,0.11232899129390717,-0.06308935582637787,0.09195886552333832,-0.01702442578971386,-0.042756956070661545,0.14692936837673187,-0.13037459552288055,-0.1174098551273346,-0.07403511554002762,-0.011009154841303825,-0.09643816202878952,-0.04178721830248833,-0.09545861929655075,-0.09024161100387573,0.023909112438559532,0.12851063907146454,-0.14396916329860687,0.09438032656908035,-0.005299570970237255,0.12551234662532806,-0.11139794439077377,0.0755465105175972,0.05566643923521042,-0.09267386794090271,0.15191319584846497,0.018215321004390717,-0.12535715103149414,0.09283684939146042,0.03668675199151039,-0.007182479836046696,-0.004713153932243586,0.135828897356987,-0.1559947282075882,0.03612954169511795,0.04246074706315994,0.14757314324378967],[0.1424974799156189,-0.1427459865808487,0.13859274983406067,-0.016115833073854446,0.007815947756171227,0.10283495485782623,-0.028261957690119743,-0.015574042685329914,0.11645961552858353,0.032382573932409286,-0.022346002981066704,0.1346638798713684,0.08248142153024673,-0.07717029005289078,-0.11026949435472488,-0.02513580210506916,-0.010821033269166946,-0.13902680575847626,0.038618821650743484,-0.13209985196590424,0.07474446296691895,0.10331220924854279,-0.045366398990154266,0.1411159783601761,-0.0696304589509964,-0.03561599925160408,0.04648164287209511,-0.10423007607460022,0.09791462868452072,0.11254237592220306,0.1461237072944641,-0.00033984045148827136,0.14627452194690704,-0.1326141357421875,-0.036436811089515686,-0.049476686865091324,-0.010500416159629822,0.11481302976608276],[-0.12902268767356873,0.07200559973716736,-0.018430909141898155,-0.13494634628295898,0.112705759704113,0.010488821193575859,0.06991463154554367,-0.08991693705320358,-0.012583371251821518,-0.08747301250696182,0.14893661439418793,0.1165822446346283,0.13922059535980225,0.0492260679602623,-0.06970542669296265,0.03912363201379776,0.08628430217504501,-0.1421063244342804,0.08193980902433395,0.006183111574500799,-0.11666936427354813,-0.1219232901930809,-0.13422948122024536,0.07076014578342438,-0.06796837598085403,0.07884068042039871,-0.11586222052574158,0.1350000947713852,0.015652751550078392,0.15518885850906372,-0.15546472370624542,-0.08930017054080963,0.0791911631822586,0.15580235421657562,0.11379273980855942,0.1400691568851471,-0.10460054874420166,-0.010710605420172215],[0.02987375669181347,0.06932470947504044,0.11386870592832565,-0.1366748958826065,0.09208617359399796,-0.10851586610078812,-0.10557279735803604,-0.007258947938680649,-0.10798114538192749,-0.12644673883914948,-0.16155090928077698,-0.03799993544816971,0.16790413856506348,0.10711266845464706,-0.12740246951580048,0.024029441177845,0.007370959967374802,0.016415085643529892,0.06926895678043365,-0.0006454624235630035,0.0861038789153099,-0.03570086136460304,-0.10089964419603348,-0.15179196000099182,-0.01333672646433115,-0.1460164189338684,-0.0005307049141265452,-0.06257247179746628,0.10084788501262665,-0.07966861128807068,0.08140935003757477,0.13951195776462555,-0.050208475440740585,-0.12670059502124786,0.016080761328339577,0.027984438464045525,-0.08217159658670425,0.04742550849914551],[0.1466880887746811,-0.06717723608016968,-0.05653129145503044,-0.13413269817829132,-0.11812528222799301,-0.028491221368312836,0.10914641618728638,-0.035147037357091904,-0.08127868175506592,0.022004418075084686,0.13943079113960266,-0.05171294882893562,0.07412787526845932,-0.13505907356739044,-0.11871016770601273,0.06999972462654114,-0.15114368498325348,-0.10347826033830643,0.14854688942432404,0.10804903507232666,0.013129795901477337,-0.06374658644199371,-0.03179164230823517,-0.06353329122066498,-0.13363756239414215,0.06674087047576904,0.1274873912334442,-0.11171942204236984,-0.08959030359983444,0.117444708943367,0.08448607474565506,-0.027778130024671555,0.0018248590640723705,-0.16119875013828278,-0.03500281646847725,0.08141999691724777,0.11365309357643127,0.01984485611319542],[-0.05660676583647728,0.029289284721016884,-0.06457015872001648,0.07198544591665268,-0.09182385355234146,-0.05641397833824158,0.10726021230220795,-0.02857629954814911,0.06898543983697891,-0.053754206746816635,0.0031000219751149416,0.04579620435833931,0.07616677135229111,-0.0025725371669977903,-0.016714338213205338,-0.11655767261981964,-0.06108007952570915,0.05469461530447006,0.020292794331908226,-0.01648567058146,-0.06300860643386841,0.06015367805957794,-0.15570732951164246,0.03288743644952774,-0.020929018035531044,0.01434285193681717,0.10087141394615173,0.00654838141053915,0.14298774302005768,0.08992183208465576,-0.163378044962883,0.09867695719003677,0.13826709985733032,0.03197363391518593,0.13234204053878784,-0.13951167464256287,-0.03284758701920509,0.0562402717769146],[-0.07378525286912918,0.016234157606959343,-0.13761596381664276,0.060871388763189316,-0.001246969448402524,0.0010293076047673821,-0.027459539473056793,0.03678907826542854,-0.1372319608926773,0.011080986820161343,0.07140723615884781,-0.049217067658901215,0.11484479159116745,0.07559313625097275,-0.044892940670251846,-0.10178913921117783,-0.006964963395148516,-0.06312193721532822,0.08081092685461044,-0.09324520826339722,0.03913497552275658,0.06477826833724976,-0.043291956186294556,-0.02113278955221176,0.03756983205676079,-0.08509281277656555,-0.002764767035841942,-0.15687671303749084,0.08501529693603516,0.13152553141117096,-0.041569970548152924,-0.13881738483905792,-0.1366383135318756,0.05315563455224037,0.10139501839876175,0.11398211866617203,-0.1434841752052307,-0.0499732568860054],[-0.07955247163772583,-8.465362770948559e-05,-0.05134828761219978,-0.12667779624462128,-0.0007073418819345534,0.012228426523506641,-0.0853310152888298,0.059897132217884064,-0.0008223076001740992,-0.055852435529232025,-0.11790964007377625,-0.09657243639230728,0.07674112915992737,0.03690340369939804,0.10649960488080978,-0.09734147042036057,0.10371284186840057,-0.07592890411615372,-0.01773468405008316,-0.09406676888465881,0.1384650617837906,0.06556611508131027,0.13049589097499847,-0.15525327622890472,0.0992061123251915,-0.09002608805894852,0.014156932011246681,0.16042272746562958,0.0732959657907486,0.028481602668762207,0.01643882505595684,0.12049209326505661,-0.06277217715978622,-0.08586562424898148,0.1166873648762703,-0.014231099747121334,0.1390579789876938,-0.002920039463788271],[0.02703694999217987,0.0708327367901802,-0.00616102060303092,-0.11309980601072311,0.14392827451229095,0.04275339096784592,-0.1520971804857254,0.06497129797935486,-0.11786907911300659,-0.10672547668218613,0.08734068274497986,-0.035987209528684616,-0.044714417308568954,0.15551649034023285,0.094245545566082,-0.08344139158725739,0.0983828529715538,-0.1616332232952118,-0.15480247139930725,0.027577605098485947,-0.006083809770643711,-0.12318704277276993,-0.024434631690382957,-0.12310998886823654,0.11240137368440628,0.1400402933359146,-0.03445544093847275,-0.036345239728689194,0.10168047249317169,-0.12153947353363037,0.06558080017566681,-0.0697704553604126,-0.0734144002199173,-0.03535282984375954,-0.04974786564707756,-0.06314059346914291,0.15171842277050018,0.05790726840496063],[0.058803509920835495,0.12211192399263382,-0.01995522528886795,0.05754804611206055,0.09426987916231155,0.1474369615316391,-0.06789548695087433,0.00019516449538059533,0.11835494637489319,0.0656874030828476,0.09316062182188034,0.14439764618873596,-0.07105956971645355,0.0487176775932312,-0.12015789747238159,0.07217999547719955,-0.036275461316108704,0.0784735158085823,0.06325039267539978,-0.07880033552646637,-0.1322091966867447,-0.1310437023639679,-0.06782238930463791,-0.03269737958908081,0.017683526501059532,-0.11696866899728775,0.05605509877204895,0.08235307782888412,-0.03188757598400116,0.045402102172374725,-0.08561668545007706,-0.06899802386760712,0.02633269503712654,-0.16561485826969147,0.12906847894191742,-0.1465238630771637,0.023917609825730324,-0.10422618687152863],[-0.01407734677195549,0.06832695007324219,0.1437780112028122,0.07180900126695633,-0.11780340224504471,-0.0024195534642785788,0.14741438627243042,0.012647707015275955,0.09371330589056015,0.1278022974729538,0.016571708023548126,-0.11930374801158905,-0.09797486662864685,-0.08505728840827942,-0.1595115065574646,-0.13828736543655396,-0.012557617388665676,-0.05602551996707916,-0.06998151540756226,0.13863204419612885,-0.1527702957391739,0.040741488337516785,0.038391292095184326,-0.1260378360748291,0.134192556142807,-0.07947986572980881,0.1145707368850708,-0.06225183233618736,-0.05858030915260315,0.00604757247492671,0.08208619803190231,-0.1644384115934372,0.06116679310798645,-0.12787970900535583,-0.1656958907842636,-0.151993989944458,0.01605614647269249,0.048601724207401276],[-0.031033163890242577,-0.06796672940254211,0.13445118069648743,-0.08722132444381714,0.0801176205277443,0.12455948442220688,0.11955135315656662,-0.1471654176712036,-0.000897524761967361,-0.023235371336340904,-0.15300938487052917,0.08684132248163223,-0.014502213336527348,-0.01857037842273712,-0.0230003260076046,-0.08296921849250793,0.14137642085552216,0.1414669007062912,-0.08262404799461365,-0.05439477413892746,-0.11946187168359756,0.08974355459213257,-0.05197065696120262,0.07963099330663681,0.14976255595684052,0.1304330676794052,-0.06806685030460358,0.13379761576652527,0.13231021165847778,-0.05415511503815651,0.08867494761943817,0.06795603036880493,-0.13734856247901917,0.15737920999526978,-0.12665490806102753,0.137261763215065,-0.06846143305301666,-0.15225234627723694],[0.0735686644911766,-0.09675911068916321,0.07531893253326416,-0.02699137106537819,-0.040014754980802536,0.1390746682882309,-0.08509122580289841,-0.13940317928791046,0.05561152473092079,-0.004527386277914047,0.018125560134649277,0.004641417413949966,-0.016889551654458046,-0.09803000092506409,0.038322169333696365,-0.095345638692379,-0.15132977068424225,0.08116072416305542,0.1472771018743515,-0.09490789473056793,-0.027507232502102852,0.06909014284610748,0.01819213293492794,-0.10436051338911057,0.03735174611210823,-0.050304800271987915,-0.14700265228748322,0.08405555784702301,-0.12507732212543488,0.12836194038391113,-0.05081704258918762,0.015532228164374828,0.11164193600416183,-0.02433553710579872,-0.12160986661911011,0.06278327852487564,-0.07093486189842224,0.09848570078611374],[-0.08242896944284439,0.1038452610373497,-0.13357272744178772,-0.13414739072322845,0.014499947428703308,-0.04621895030140877,-0.10037301480770111,0.13103874027729034,0.13163843750953674,0.09246981143951416,0.13611984252929688,0.1271459311246872,0.12640254199504852,-0.1399914175271988,-0.11236515641212463,-0.03741646930575371,0.08600464463233948,-0.07589725404977798,-0.048197586089372635,-0.11475220322608948,0.07216186076402664,0.056761618703603745,-0.04454145208001137,-0.10021691024303436,-0.01983034424483776,0.036317128688097,-0.07880747318267822,0.006306683178991079,-0.0267436895519495,0.08374815434217453,-0.15540428459644318,0.003998235333710909,-0.08244404196739197,0.0996023416519165,0.11232717335224152,0.007356560789048672,-0.1090480238199234,0.014787613414227962],[-0.039973143488168716,0.006093507166951895,-0.0816807672381401,0.1395491361618042,-0.09177134931087494,0.014390851370990276,-0.13882121443748474,0.02627156674861908,0.14487743377685547,0.14209982752799988,0.12416470050811768,0.025160418823361397,-0.10349839925765991,-0.0666632354259491,0.07403478026390076,-0.04776640608906746,0.03603801503777504,-0.11315029114484787,-0.02051077038049698,0.07299488037824631,0.16768977046012878,0.08462259918451309,0.052360668778419495,-0.13330931961536407,0.023892717435956,0.019085966050624847,0.0685247927904129,-0.021004682406783104,0.11966659873723984,0.13577057421207428,-0.06601466238498688,0.12660911679267883,0.08795338124036789,0.10929005593061447,-0.0977821946144104,-0.13171474635601044,-0.0470549501478672,0.08369988203048706],[0.0007994543993845582,-0.06614257395267487,-0.08213850855827332,0.14576613903045654,-0.0325503833591938,-0.025722112506628036,0.12218796461820602,-0.05480015650391579,-0.1388043314218521,-0.1222754493355751,-0.031399380415678024,0.04585329815745354,-0.03867806866765022,-0.008986922912299633,0.07254356890916824,0.14799568057060242,0.05861324071884155,-0.11671105027198792,0.07848901301622391,-0.11605874449014664,0.07934944331645966,0.022029457613825798,0.027161935344338417,-0.03214831277728081,0.15998269617557526,0.09843829274177551,0.0037102692294865847,-0.16557267308235168,0.04281219467520714,0.11080634593963623,-0.1361936628818512,0.11611202359199524,-0.13814745843410492,-0.08159757405519485,0.09676515311002731,0.015782155096530914,0.1615327149629593,-0.12184073030948639],[0.07746078819036484,-0.14563195407390594,-0.11383562535047531,0.1100892573595047,-0.024793053045868874,0.011719664558768272,-0.020924953743815422,0.032187242060899734,-0.0005911790067330003,-0.05382240563631058,0.14666782319545746,0.11032876372337341,-0.07729040086269379,0.14458583295345306,0.08817217499017715,0.1649509072303772,0.051269128918647766,0.15207283198833466,0.15162646770477295,-0.12606705725193024,-0.05334106460213661,0.07684537023305893,0.12262570112943649,-0.04847311973571777,0.056464169174432755,0.05808370187878609,0.018391242250800133,0.0011212750105187297,-0.05492990463972092,-0.07015959173440933,-0.06960323452949524,0.07997593283653259,-0.0490337498486042,-0.16069944202899933,0.0397627018392086,0.12135811895132065,0.05126173421740532,0.09014227986335754],[-0.00979829765856266,-0.004596430342644453,-0.02932143211364746,-0.10042604804039001,-0.014410365372896194,0.12443394958972931,0.09528219699859619,0.0029411055147647858,0.08517545461654663,-0.041744742542505264,-0.0620860755443573,-0.061947740614414215,0.11851483583450317,-0.09899359196424484,-0.01843750849366188,0.06025448068976402,-0.12944848835468292,-0.11436695605516434,0.1547427773475647,-0.06686600297689438,0.001993195153772831,0.15301719307899475,0.1471841037273407,0.08011352270841599,-0.1428542286157608,0.03308337926864624,0.11236066371202469,-0.13363070785999298,-0.11266174167394638,0.05088415369391441,-0.047015588730573654,-0.1266586035490036,-0.04693405702710152,0.07859652489423752,-0.11769672483205795,0.03316210210323334,0.02204807847738266,0.11477949470281601],[-0.0590272918343544,0.0734468474984169,-0.03865145146846771,-0.08282841742038727,0.08987001329660416,0.023040849715471268,0.05027712509036064,0.06972941011190414,-0.12389706075191498,0.13602381944656372,-0.017584607005119324,0.0963452160358429,0.11969763785600662,0.049463387578725815,0.08678929507732391,0.04728839918971062,-0.037993766367435455,-0.08178830146789551,0.08924399316310883,0.001450599986128509,-0.014172676019370556,-0.154361292719841,0.029672136530280113,0.09334538877010345,-0.11435054242610931,0.042955268174409866,-0.0701012834906578,0.010820661671459675,-0.05270407348871231,-0.13673192262649536,-0.017389986664056778,0.11072567105293274,-0.02737371064722538,0.030523043125867844,-0.16059450805187225,0.09298032522201538,0.13091738522052765,0.07518139481544495],[-0.04913726821541786,0.08232833445072174,0.047141801565885544,0.011131309904158115,0.10147495567798615,-0.007448554504662752,0.0005054664216004312,0.09007324278354645,0.00017925418796949089,-0.09283595532178879,-0.14392155408859253,-0.1306549608707428,-0.16005127131938934,-0.005884452257305384,-0.07543018460273743,0.13079646229743958,-0.06987100839614868,0.02097059041261673,0.14058975875377655,0.029355525970458984,0.0996679738163948,-0.1564529538154602,-0.029429281130433083,0.022882916033267975,0.0994059145450592,0.12391477078199387,-0.15094541013240814,-0.10011100023984909,0.12154515832662582,-0.09548331052064896,0.09064541012048721,0.06397189199924469,0.12608622014522552,-0.1320054531097412,0.03670357167720795,-0.034585703164339066,0.1643342226743698,-0.09076409786939621],[-0.019986078143119812,0.0010256904643028975,-0.03645157441496849,-0.042925719171762466,0.06005573645234108,-0.02467922493815422,0.14612632989883423,8.378834536415525e-06,-0.14540310204029083,-0.0008911493932828307,0.055601704865694046,-0.15783964097499847,-0.1273922175168991,-0.0290250014513731,-0.012079814448952675,-0.13198967278003693,0.02907298319041729,-0.1280558854341507,-0.13938114047050476,-0.00033047053148038685,-0.13629117608070374,0.11364225298166275,-0.043561626225709915,-0.07400694489479065,-0.06280136853456497,-0.05576595664024353,-0.013729654252529144,-0.027125803753733635,-0.03865809738636017,0.07391051203012466,-0.009596597403287888,-0.023803213611245155,-0.03595137968659401,-0.01271863840520382,-0.08634461462497711,0.14223439991474152,-0.04608355462551117,0.009418502449989319],[-0.06703224033117294,0.02337525598704815,0.0012119943276047707,0.05287099629640579,-0.09302207082509995,-0.06324368715286255,0.13017058372497559,0.09306119382381439,0.0006242072558961809,0.11660125106573105,0.03007926605641842,0.08176606893539429,0.1139015406370163,0.13883920013904572,-0.03183555603027344,-0.011531075462698936,0.15972617268562317,0.044085919857025146,-0.05475230887532234,-0.026326710358262062,-0.1575453132390976,-0.09389378130435944,0.05449968948960304,0.10474802553653717,0.10565954446792603,0.14307951927185059,0.08739229291677475,0.04390415921807289,-0.05523150414228439,-0.025547904893755913,-0.04636385664343834,0.016815146431326866,0.06271126121282578,0.1539810597896576,-0.15388499200344086,0.09288018196821213,0.12177225947380066,0.04986497014760971],[-0.0850355252623558,0.0957292914390564,-0.00993588101118803,0.07358323782682419,0.04200255870819092,-0.12851956486701965,-0.14783865213394165,-0.0953996554017067,-0.01343655027449131,0.11198892444372177,0.012312573380768299,-0.010199171490967274,-0.0876932144165039,-0.08616475760936737,-0.00953815970569849,-0.07432827353477478,-0.0799073874950409,-0.11639774590730667,0.1230689063668251,-0.08746805042028427,-0.10994284600019455,0.10861802846193314,-0.14076413214206696,-0.019760631024837494,-0.04855325445532799,-0.14923155307769775,0.11091939359903336,0.015968039631843567,0.02076009474694729,0.06932346522808075,0.025105586275458336,-0.03346577659249306,-0.11900757253170013,0.06386950612068176,-0.08663532137870789,-0.04092640429735184,0.0991252213716507,0.12821762263774872],[-0.13393954932689667,0.06788845360279083,8.910645556170493e-05,-0.00017216945707332343,0.0010316554689779878,0.04154415801167488,0.11448074877262115,0.01941494271159172,-0.08435910940170288,0.03289727866649628,0.10865487903356552,0.035707853734493256,-0.04802479222416878,0.1392994225025177,-0.08849386125802994,0.15706413984298706,0.12213768810033798,0.11419428884983063,0.10271167010068893,-0.11165983974933624,0.05481720343232155,-0.08640033006668091,-0.007623099721968174,0.1565157175064087,-0.1089254692196846,-0.15688230097293854,0.06325864791870117,-0.13042926788330078,-0.0872441977262497,0.12036115676164627,0.10574192553758621,-0.0024278073105961084,-0.09649821370840073,0.00018702598754316568,0.02863643690943718,-0.06649429351091385,-0.12177444249391556,-0.15942886471748352],[0.0526120699942112,-0.1388477087020874,-0.03431779146194458,-0.09880383312702179,0.012799737975001335,-0.018684912472963333,0.019609523937106133,0.01762375235557556,0.12294062227010727,-0.00010325532639399171,0.021966498345136642,0.15812915563583374,0.010872398503124714,-0.008222547359764576,0.05101798102259636,-0.017799077555537224,0.12478532642126083,-0.01712642051279545,0.15398022532463074,-0.14388060569763184,0.03924396634101868,-0.07602888345718384,-0.13722826540470123,-0.07809042930603027,0.1395832598209381,-0.04355320334434509,-0.13277368247509003,-0.1031516045331955,0.08499889820814133,-0.03557472303509712,0.04701044410467148,0.08101101964712143,0.1475491225719452,0.013251583091914654,-0.14552943408489227,-0.004889563657343388,0.1595776230096817,-0.16368210315704346],[0.08923561125993729,0.13016639649868011,-0.09118771553039551,-0.11119330674409866,0.008215761743485928,-0.0009308892767876387,-0.15612827241420746,-0.1221088394522667,-0.00018327822908759117,-0.08851725608110428,0.006665308494120836,-0.060183580964803696,0.07968827337026596,-0.06694015115499496,-0.13683882355690002,-0.09618557244539261,0.09414283186197281,0.08270581066608429,-0.12929917871952057,0.03651491552591324,-0.040569279342889786,-0.10528736561536789,0.03557088226079941,0.15562212467193604,-0.007648881990462542,-0.03804977983236313,-0.1609233021736145,-0.03167162835597992,0.03848407417535782,0.13051240146160126,-0.12694136798381805,0.11165113002061844,0.018396295607089996,-0.1569870561361313,-0.09377704560756683,-0.0722319632768631,-0.0973426029086113,-0.1542568802833557],[-0.08699779212474823,0.12266499549150467,-0.00023182269069366157,-0.03246026486158371,0.1465786099433899,0.0619879849255085,-0.051981937140226364,-0.0986839309334755,0.000976664130575955,0.11332141607999802,-0.09452451020479202,0.11284223198890686,-0.012699544429779053,0.13943161070346832,-0.12843002378940582,-0.0035141650587320328,-0.13676083087921143,0.07322128862142563,-0.014119322411715984,0.02426682785153389,-0.07894490659236908,0.04051569104194641,0.06670749187469482,0.13556066155433655,0.10627709329128265,0.051293615251779556,-0.16142305731773376,-0.0686991959810257,0.1626642793416977,-0.07596895843744278,-0.09978954493999481,-0.0276896171271801,-0.13590234518051147,-0.15663361549377441,0.06790632754564285,-0.009158560074865818,-0.11787807196378708,-0.05826330929994583],[0.0965210497379303,-0.033447910100221634,-0.0706445723772049,-0.11898112297058105,-0.06305869668722153,-0.03182017430663109,-0.12523648142814636,-0.05749273672699928,-0.07598195970058441,-0.017664488404989243,0.1379687488079071,0.06027594581246376,0.021905334666371346,-0.11710016429424286,0.11238787323236465,-0.0115121491253376,-0.1668020784854889,-0.043765485286712646,-0.06217443197965622,0.15412214398384094,-0.07381653040647507,0.028557969257235527,-0.09728536009788513,0.1053648293018341,0.11040514707565308,0.10541245341300964,-0.05271211639046669,0.06201288849115372,-0.0049418178386986256,-0.04090161994099617,0.15430238842964172,0.07921364158391953,0.018816890195012093,0.13609963655471802,-0.039856743067502975,-0.03257276117801666,-0.052384719252586365,0.10820964723825455],[0.13798020780086517,-0.08689951151609421,-0.05908672884106636,-0.10303623974323273,0.11678265780210495,-0.001878917682915926,0.07018837332725525,0.0001656230742810294,-0.04938270151615143,-0.06390543282032013,-0.11105260998010635,-0.01476801373064518,0.08220738172531128,0.10761545598506927,0.07188050448894501,0.011980226263403893,-0.05975864455103874,-0.016167689114809036,-0.14407436549663544,0.10590068995952606,-0.0733429417014122,0.018488280475139618,-0.004713207017630339,0.08588261902332306,0.07107392698526382,0.15801851451396942,-0.05597184598445892,0.058388520032167435,-0.04881870001554489,-0.11758861690759659,-0.007424232549965382,0.050145410001277924,0.08329027891159058,-0.06181210279464722,0.08233668655157089,-0.06513124704360962,0.12921659648418427,0.12446413189172745],[-0.0709519162774086,-0.048416100442409515,-0.09691166877746582,0.035973381251096725,-0.08915560692548752,0.000747515878174454,0.0933459997177124,0.08663588017225266,0.09145034849643707,0.08049550652503967,0.15406003594398499,-0.1463218778371811,0.0002835995110217482,0.08857661485671997,-0.11098382622003555,-0.11142905056476593,-0.026480285450816154,0.01187930442392826,-0.11005956679582596,0.033551231026649475,0.08914551883935928,0.023755867034196854,-0.0837026834487915,0.10111674666404724,0.03626202791929245,0.1541963517665863,0.11545109003782272,0.03635445982217789,-0.03596086800098419,-0.03378806635737419,-0.01737923175096512,0.02064858190715313,0.1566128432750702,-0.14267267286777496,0.00446931179612875,0.0007110008737072349,-0.019604679197072983,0.06968297064304352],[0.12361864000558853,-0.036935534328222275,-0.03933333232998848,0.012956615537405014,0.06750425696372986,-0.0016649853205308318,-0.12106246501207352,-0.08324688673019409,-0.14368075132369995,0.027019886299967766,-0.02024184912443161,-0.09112127125263214,0.11730480194091797,0.1018052026629448,0.1568012833595276,0.05270454287528992,0.04878554120659828,0.08701551705598831,0.09458965063095093,-0.08744097501039505,0.06361716985702515,0.036589134484529495,0.0966833084821701,0.11077333986759186,0.009982127696275711,0.13805383443832397,-0.0670948475599289,-0.07072290033102036,0.09397490322589874,-0.07724349200725555,0.04183884710073471,0.10090050846338272,-0.02392502874135971,-0.13442833721637726,0.06673844158649445,0.03167317435145378,-0.1536886990070343,0.009812370873987675],[0.12224262207746506,-0.084300696849823,-0.06430622935295105,0.06442230194807053,0.10071047395467758,-0.028752846643328667,-0.14155524969100952,0.10832930356264114,0.0991935133934021,0.09646183997392654,-0.051439862698316574,0.13303382694721222,0.009687314741313457,-0.08851253241300583,0.022777840495109558,0.10715857148170471,0.16318216919898987,-0.13949152827262878,-0.04710982367396355,0.09091535210609436,-0.029504751786589622,0.11621027439832687,0.11435530334711075,0.10084952414035797,0.04764265939593315,0.12136434018611908,0.086262047290802,0.0034440469462424517,0.07302793860435486,0.1150241494178772,-0.11763015389442444,-0.07307460159063339,0.09142620861530304,0.1415741741657257,0.005741674918681383,0.05366676300764084,-0.022317122668027878,-0.11325918883085251],[0.06759712100028992,-0.06991241872310638,0.02323940210044384,0.14695784449577332,-0.01772494427859783,-0.12302990257740021,-0.15321005880832672,0.07590698450803757,-0.04599462077021599,0.057768113911151886,0.10704690217971802,0.10909956693649292,-0.13091526925563812,-0.06941551715135574,-0.09021764993667603,0.004330851603299379,0.12413473427295685,0.07894574850797653,-0.041717778891325,0.007994996383786201,-0.06965845078229904,-0.1514907032251358,0.0880216732621193,-0.16718736290931702,-0.0816260576248169,-0.10439472645521164,-0.10612191259860992,0.1109544038772583,-0.042381200939416885,0.056443631649017334,-0.14353102445602417,-0.08052898943424225,0.13119341433048248,-0.07041444629430771,-0.11847653239965439,-0.09971381723880768,-0.043473150581121445,0.10240106284618378],[0.0004330679657869041,0.005585430655628443,-0.008282246068120003,-0.0006806665332987905,0.08969313651323318,0.020583299919962883,0.1369173526763916,-0.11215191334486008,-0.013382834382355213,0.044195786118507385,0.0068092942237854,-0.14346739649772644,0.11093563586473465,-0.05723442882299423,-0.009780914522707462,0.027529923245310783,0.12065153568983078,-0.05944063141942024,-0.013283778913319111,-0.008489755913615227,0.014751099050045013,-0.1072888895869255,-0.05195159837603569,0.0832066535949707,0.0009198905318044126,-0.05890833958983421,0.07226923853158951,0.10803144425153732,0.07832153886556625,0.1419997662305832,0.15102455019950867,-0.14650332927703857,-0.0009294733172282577,-0.07057702541351318,-0.06891974061727524,0.064256452023983,0.1364990919828415,0.03664916381239891],[0.07266421616077423,0.04340483993291855,-0.11382726579904556,0.006097250618040562,-0.0436992384493351,-0.14135701954364777,-0.08916465938091278,0.04675038531422615,-0.10490245372056961,0.016996826976537704,-0.05091046169400215,-0.026942290365695953,-0.12953205406665802,-0.12321536988019943,0.09267264604568481,-0.1407678723335266,0.16090896725654602,0.16105960309505463,-0.0346229188144207,-0.10103819519281387,0.010239631868898869,0.11218242347240448,0.004788132384419441,0.15172891318798065,0.12156300246715546,0.0102761909365654,0.14424264430999756,-0.04603473097085953,0.03848561272025108,-0.027571216225624084,0.15627773106098175,-0.14556919038295746,0.031640082597732544,-0.07638643682003021,-0.0999937504529953,0.15598012506961823,-0.021335262805223465,-0.02141825668513775],[0.000406518520321697,0.1287594735622406,0.0003925745841115713,-0.0745772123336792,-0.03433220833539963,-0.04516318440437317,-0.10973914712667465,0.03462632745504379,0.034080520272254944,-0.026165757328271866,0.13719592988491058,0.07317543029785156,0.03721756115555763,0.05301988497376442,-0.1354314684867859,-0.012031249701976776,0.044580381363630295,0.05009368434548378,-0.05590236932039261,0.14918603003025055,0.14135026931762695,-0.026378417387604713,0.1665271520614624,-0.04870706424117088,-0.0038789501413702965,-0.07567478716373444,-0.006243329029530287,-0.09974581748247147,0.07175804674625397,0.13093693554401398,-0.15255902707576752,-0.010415115393698215,0.13170947134494781,0.062402401119470596,-0.1308525949716568,0.06224112585186958,0.026378560811281204,0.015496157109737396],[0.14721396565437317,0.14025090634822845,-0.12401549518108368,0.011376221664249897,-0.03494548425078392,0.00020155611855443567,0.1015748679637909,0.13391773402690887,-0.1412263810634613,-0.01492275670170784,0.03626030683517456,-0.14119644463062286,-0.10163034498691559,0.08279731869697571,-0.16028645634651184,0.12228212505578995,0.10431260615587234,0.13049481809139252,-0.0981280580163002,0.04220626875758171,0.07968106865882874,-0.09190984070301056,-0.16036857664585114,0.04932889714837074,0.07319089770317078,-0.10392715036869049,0.04035868123173714,0.0460989885032177,-0.050945963710546494,0.09053324162960052,0.10464442521333694,-0.12705884873867035,0.1251591444015503,-0.14711923897266388,-0.019702833145856857,-0.011780033819377422,-0.07036851346492767,-0.14144468307495117],[0.027813665568828583,0.025100650265812874,0.008074789308011532,0.10473836213350296,-0.10673226416110992,0.04551117122173309,0.10712824016809464,-0.02145235426723957,-0.0508272610604763,-0.12375520169734955,-0.08301682025194168,0.13684086501598358,-0.12827526032924652,0.1513366401195526,-0.08708230406045914,-0.11533500999212265,0.008544940501451492,-0.018758878111839294,-0.13944852352142334,0.013207902200520039,-0.07217071950435638,-0.10748698562383652,-0.15032586455345154,-0.04726288095116615,-0.0937436893582344,-0.12905776500701904,-0.11334238201379776,-0.017852196469902992,-0.14272817969322205,-0.023830151185393333,0.15152856707572937,-0.16286174952983856,-0.09305813163518906,0.16279330849647522,-0.024449925869703293,0.12734782695770264,0.09343210607767105,-0.002749161096289754],[0.051551058888435364,-0.025848621502518654,0.01533711701631546,0.13639093935489655,0.014034771360456944,0.14424213767051697,0.10177227109670639,0.045649804174900055,-0.10497743636369705,-0.1390579342842102,-0.045335426926612854,-0.07030478864908218,0.08364132791757584,0.051503006368875504,-0.13742126524448395,-0.06734216958284378,0.1202370822429657,-0.06860476732254028,-0.006639120168983936,-0.10969256609678268,-0.1363968551158905,-0.00474699167534709,-0.11908834427595139,-0.04720546305179596,-0.047626495361328125,-0.05770731717348099,-0.10347495228052139,-0.013238455168902874,-0.030926862731575966,-0.09770514816045761,0.02331068180501461,-0.15160514414310455,-0.051842231303453445,0.09392763674259186,-0.1301712989807129,-0.04117915779352188,0.16043269634246826,-0.07501497119665146],[-0.06119999662041664,-0.0370962880551815,0.09862209111452103,-0.07790576666593552,-0.0631413459777832,-0.03166636824607849,0.13814851641654968,-0.029602179303765297,-0.037604738026857376,0.1018502488732338,0.012887602671980858,-0.05249859020113945,0.05985657870769501,0.1342497169971466,0.046939291059970856,0.09996961802244186,0.002606702037155628,-0.010480031371116638,0.14082224667072296,0.08783410489559174,0.0474647581577301,-0.05319595709443092,-0.0005418641958385706,-0.08116579055786133,-0.1272275596857071,-0.08423592150211334,0.056798264384269714,-0.07415605336427689,-0.024939749389886856,0.05382280796766281,0.022431569173932076,-0.15875108540058136,0.06018393486738205,0.16015227138996124,-0.0076604546047747135,-0.14922650158405304,-0.10210412740707397,-0.1167447417974472],[-0.04909086227416992,-0.0008563331211917102,0.02333352155983448,-0.08826441317796707,0.11431438475847244,0.07905089855194092,-0.0351911298930645,-0.06871433556079865,-0.005441619083285332,0.03167983889579773,0.09575765579938889,-0.15204234421253204,0.07813641428947449,0.11980962753295898,0.06498277932405472,-0.12441206723451614,-0.09291194379329681,0.10500804334878922,0.14116637408733368,-0.10291153192520142,-0.05195334553718567,0.007943734526634216,-0.13171246647834778,-0.06348028033971786,0.06515567749738693,0.11106640845537186,-0.037938836961984634,-0.0015702520031481981,0.06189681589603424,0.033669356256723404,0.03473882004618645,-0.09102979302406311,-0.09531329572200775,0.1497250348329544,-0.08822610974311829,-0.0683630183339119,-0.022035790607333183,0.06943196803331375],[-0.13930243253707886,0.02447959966957569,0.09493046253919601,0.01799623854458332,-0.054666221141815186,0.0005237401346676052,0.05841397866606712,0.009070842526853085,-0.048090074211359024,-0.1357862949371338,-0.07518725097179413,0.12532389163970947,0.13891582190990448,0.1357804536819458,0.04573184996843338,-0.055776383727788925,0.14418955147266388,0.0709625855088234,0.09731723368167877,-0.06837337464094162,-0.05870986357331276,-0.050144076347351074,0.15899990499019623,0.077327199280262,-0.08350744843482971,0.12290550023317337,-0.11883839964866638,-0.11331511288881302,0.07469018548727036,0.06687325984239578,-0.06010555475950241,-0.1577107310295105,-0.019999437034130096,0.14808820188045502,0.12607964873313904,0.05553954467177391,0.06157320365309715,0.003020097501575947],[-0.049576520919799805,-0.04297960177063942,-0.00695539265871048,0.08201170712709427,0.02349008060991764,0.06733798235654831,0.04400061070919037,0.14145003259181976,0.01765936240553856,-0.02356358990073204,-0.1436675637960434,0.081112340092659,0.11545867472887039,-0.058119889348745346,-0.13466422259807587,-0.05551820993423462,0.12089534848928452,0.14326657354831696,-0.13279572129249573,-0.021306408569216728,0.039302852004766464,0.10609323531389236,-0.032317135483026505,-0.14095574617385864,-0.11790776252746582,0.057203520089387894,-0.11189652979373932,0.007947484031319618,0.04523080959916115,0.08370538800954819,0.10231323540210724,0.09866490215063095,-0.032636821269989014,-0.040873583406209946,-0.0617867112159729,0.051780812442302704,-0.07360200583934784,0.11948090046644211],[0.10836095362901688,0.10061616450548172,-0.1239224523305893,0.02840869314968586,0.0331047885119915,-0.1447487324476242,0.09755858778953552,-0.07729441672563553,-0.12942014634609222,0.0001442107168259099,0.12255151569843292,-0.10753955692052841,-0.15706810355186462,0.06425680220127106,0.05612536892294884,0.028662819415330887,-0.1320844441652298,-0.11033213883638382,-0.024334825575351715,-0.032068099826574326,-0.03489977493882179,0.12048295885324478,0.0282744150608778,-0.16000501811504364,-0.07300447672605515,0.1329934000968933,-0.08278965204954147,-0.12255856394767761,0.06762836128473282,0.10341399908065796,-0.12820956110954285,0.07078954577445984,-0.0066611929796636105,-0.08739578723907471,0.037669554352760315,0.03985666111111641,-0.04734912887215614,0.1415686011314392],[-0.05287409946322441,-0.13689185678958893,0.09262675791978836,0.10647440701723099,0.1260211020708084,0.12345513701438904,0.0015905237523838878,0.017498483881354332,0.09303762018680573,-0.04960691183805466,0.06049761176109314,0.1077471375465393,-0.12836715579032898,-0.02963046357035637,-0.057543475180864334,0.10837843269109726,0.10166767239570618,-0.06652779132127762,-0.023520577698946,-0.15222157537937164,0.1262015402317047,-0.01562438253313303,-0.017497068271040916,-0.030731216073036194,-0.10838528722524643,-0.0009433329687453806,0.010205365717411041,-0.15765774250030518,0.15112446248531342,0.13681791722774506,-0.07600308209657669,-0.051647480577230453,0.023896679282188416,-0.11044957488775253,0.1460525542497635,0.06781303137540817,0.0862281545996666,-0.1283411681652069],[-0.06390867382287979,0.02495673857629299,-0.04853132367134094,-0.14651192724704742,0.0009788612369447947,-0.102402463555336,0.05886271968483925,-0.000940590281970799,0.036170076578855515,-0.09897959232330322,-0.15226538479328156,0.07082197815179825,-0.06731431931257248,-0.09891682863235474,-0.03924259543418884,-0.046621110290288925,0.11582202464342117,0.14744886755943298,-0.02441173791885376,-0.11417080461978912,0.04785331338644028,0.0883469209074974,-0.1436183899641037,0.0277229156345129,0.02440505661070347,-0.004893543664366007,-0.043939851224422455,-0.07399364560842514,-0.12173976749181747,0.04854102060198784,-0.03323759511113167,0.008330807089805603,-0.10145695507526398,0.03806270658969879,-0.07651104778051376,-0.07552532851696014,0.04039287194609642,-0.009539174847304821],[0.13596728444099426,0.040973056107759476,0.1414298564195633,-0.060853857547044754,0.041534166783094406,0.009802686050534248,-0.1310122162103653,-0.023529982194304466,0.1003044918179512,4.147179424762726e-05,0.061144135892391205,-0.1176302582025528,-0.10706185549497604,-0.044802967458963394,-0.14938344061374664,0.024200519546866417,0.12288063019514084,0.03665395826101303,-0.12319611012935638,0.001036714413203299,0.09664745628833771,0.14158302545547485,-0.15886440873146057,-0.02104329504072666,0.1424294114112854,0.0932680070400238,0.08047744631767273,-0.03899076581001282,-0.03253334015607834,-0.10331221669912338,-0.14884379506111145,0.04863254725933075,0.06765477359294891,-0.09491369128227234,0.014992078766226768,-0.1343478262424469,-0.12180045992136002,0.047552987933158875],[0.011023549363017082,-0.08782676607370377,-0.055923014879226685,-0.13231860101222992,0.07559185475111008,0.08333820104598999,0.052067432552576065,0.041957754641771317,0.008956395089626312,-0.02380167506635189,-0.10787972807884216,-0.10727154463529587,-0.07824515551328659,0.027327699586749077,-0.0950973704457283,-0.11476818472146988,-0.07669297605752945,0.023847108706831932,-0.08101154118776321,-0.15177179872989655,0.015772081911563873,0.009096476249396801,-0.13665103912353516,-0.03967811167240143,-0.1225137785077095,-0.06485863029956818,0.11422054469585419,0.07759387046098709,-0.02190742827951908,-0.10457433015108109,-0.09422001987695694,-0.05591407045722008,-0.10789705067873001,-0.04422752559185028,-0.057768478989601135,-0.13917380571365356,0.02861618436872959,0.05627942085266113],[0.04377661272883415,-0.038429368287324905,-0.12799152731895447,0.02081579715013504,0.031159980222582817,0.08849605172872543,0.09998812526464462,