{"archetype":"utterance","input_dim":142,"output_dim":10,"weights":{"net.0.weight":[[0.12935343384742737,0.006694599986076355,-0.031508155167102814,0.008796501904726028,0.003537907265126705,0.037820324301719666,-0.023793965578079224,-0.004129295237362385,0.08833377808332443,0.1250753551721573,0.018916025757789612,0.15452376008033752,0.05385047197341919,-0.18847276270389557,0.02185271680355072,-0.20119290053844452,-0.20521514117717743,-0.16572986543178558,0.3288288116455078,0.3705969750881195,0.09662561118602753,-0.0243497584015131,0.11860731989145279,-0.010869774967432022,-0.041253432631492615,-0.03459938243031502,0.04662302881479263,0.12913204729557037,0.09781947731971741,0.20747190713882446,0.22343948483467102,0.07209504395723343,0.08316318690776825,0.18846914172172546,-0.10802050679922104,0.011558801867067814,-0.0030041667632758617,-0.02057814411818981,-0.04799427092075348,0.12628121674060822,0.02791396901011467,-0.12583835422992706,0.15410082042217255,0.255127489566803,0.11113645136356354,-0.07601112872362137,-0.09704799950122833,0.056966330856084824,0.1679762750864029,-0.08591023087501526,-0.004282613284885883,0.1671261340379715,0.11255854368209839,0.019737351685762405,0.023153245449066162,-0.05702359229326248,-0.04248986765742302,-0.2002941519021988,0.25815072655677795,-0.012899292632937431,-0.13663765788078308,-0.013863490894436836,0.2496892511844635,0.02525932528078556,0.10241922736167908,0.10218365490436554,0.14005477726459503,-0.10372163355350494,0.08653444796800613,0.2505331337451935,0.16444936394691467,0.08170200884342194,0.06152302771806717,-0.04931008815765381,-0.051430195569992065,0.046556077897548676,0.1132095530629158,0.08670931309461594,0.1011674776673317,-0.27188822627067566,0.12691088020801544,0.026821674779057503,0.1454681009054184,-0.045679785311222076,-0.18053853511810303,-0.18717779219150543,0.15535373985767365,0.24695628881454468,0.1901009976863861,0.24671433866024017,-0.07173967361450195,0.01298384740948677,0.16991043090820312,-0.20143438875675201,-0.07854880392551422,0.1941823959350586,0.14569483697414398,0.05292683467268944,-0.022409452125430107,-0.05477200448513031,0.010372691787779331,0.026081852614879608,0.0024709878489375114,0.04251251369714737,-0.011369125917553902,-0.03887052461504936,-0.048937153071165085,-0.029777277261018753,0.10185908526182175,-0.0021889940835535526,0.03173739090561867,0.023201094940304756,-0.008642401546239853,-0.0015180092304944992,-0.06203112378716469,0.03306414932012558,-0.016871048137545586,0.01517084427177906,0.023446327075362206,-0.02958555892109871,0.024190865457057953,-0.05892007052898407,0.002752307802438736,0.0426982082426548,-0.010177806951105595,-0.07155013084411621,0.06917104870080948,0.060998544096946716,-0.0015029247151687741,0.002482579555362463,0.016928110271692276,0.010906098410487175,0.018183467909693718,0.04935317859053612,-0.05887870118021965,0.0328071154654026,-0.0022060060873627663,0.002075553173199296,-0.015991680324077606,0.0386434942483902,0.025297850370407104,-0.16671620309352875],[0.02545078657567501,0.0828344076871872,0.15880432724952698,0.020129939541220665,-0.007551505696028471,0.03895815834403038,0.3538069427013397,0.0605318620800972,0.01878058910369873,0.12090915441513062,0.11351711302995682,0.01622600667178631,0.012136053293943405,0.10757873952388763,0.10137685388326645,0.16144125163555145,0.19536419212818146,-0.034200284630060196,-0.23742447793483734,-0.14503633975982666,-0.04091537743806839,-0.05364260450005531,-0.07827231287956238,0.1943163126707077,0.012568446807563305,0.2034497857093811,0.16866590082645416,-0.08841606229543686,0.11766920983791351,-0.1848432719707489,0.0759100466966629,0.043555956333875656,0.024377360939979553,0.034718308597803116,0.02633950114250183,0.11429283022880554,0.08381664007902145,0.014389503747224808,-0.0027158441953361034,-0.03222367540001869,0.1944914609193802,-0.05450135096907616,-0.12482939660549164,-0.036641404032707214,0.041074488312006,-0.043792836368083954,0.020927410572767258,-0.14802493155002594,0.014704891480505466,-0.20589220523834229,-0.041072722524404526,0.05005613714456558,0.0848521813750267,-0.03529863432049751,0.14395999908447266,0.07476621866226196,-0.005970929283648729,0.1212586835026741,0.12828291952610016,0.1465849131345749,0.009847227483987808,-0.16312028467655182,0.07752075046300888,0.12276917695999146,0.09549052268266678,0.007396330125629902,-0.02981119602918625,-0.05653579905629158,-0.03654470294713974,-0.0857362300157547,-0.054276466369628906,-0.010242116637527943,0.022954372689127922,-0.024995537474751472,0.09153995662927628,0.05734769254922867,-0.08170637488365173,0.0904596745967865,0.13372336328029633,-0.04364582896232605,0.009511432610452175,0.032439373433589935,0.07144325226545334,0.09875504672527313,0.024066828191280365,-0.11480842530727386,0.017122948542237282,-0.23438140749931335,0.11230949312448502,-0.08756671100854874,0.09079480916261673,0.12223357707262039,0.03750012442469597,-0.0767323300242424,-0.08491653949022293,0.1575291007757187,0.1911446750164032,0.07265382260084152,-0.025528689846396446,-0.015009069815278053,-0.03588825836777687,-0.01721823401749134,-0.06475824862718582,-0.0044660503044724464,0.0039950525388121605,-0.12010081112384796,-0.03193141147494316,-0.013752054423093796,0.1323602795600891,-0.007429556921124458,0.018395572900772095,0.029249241575598717,0.0183207169175148,-0.013741489499807358,0.058819666504859924,0.007232606876641512,0.002039918676018715,-0.023991623893380165,0.03613174334168434,0.027425803244113922,0.009762839414179325,0.054346662014722824,0.0035048292484134436,-0.016767311841249466,-0.04137665405869484,-0.015556881204247475,0.007051593624055386,0.01733747310936451,0.024991776794195175,0.028685180470347404,0.004971173591911793,0.01022579800337553,0.029515987262129784,-0.016633274033665657,0.006363824475556612,0.01445323321968317,0.049204666167497635,0.005925866775214672,-0.021211370825767517,-0.03821664676070213,0.023199031129479408,-0.07685711979866028],[-0.08981576561927795,-0.010331523604691029,-0.03444303944706917,0.012436410412192345,0.06159408763051033,0.06110366806387901,0.10949903726577759,0.03585507348179817,-0.044250618666410446,-0.029974212870001793,-0.02082243002951145,-0.015237638726830482,0.030719514936208725,-0.009249982424080372,0.02885672077536583,-0.09605248272418976,-0.17338259518146515,-0.5210837125778198,-0.001676890766248107,-0.015236100181937218,0.05015368014574051,0.07830367237329483,0.007072226610034704,0.023193657398223877,0.05124374479055405,-0.03493940085172653,0.032499104738235474,0.09228044748306274,0.01312894094735384,0.02471941150724888,-0.027935493737459183,-0.002088906243443489,0.10072581470012665,0.039871253073215485,0.04234117642045021,0.04295222461223602,0.1060459092259407,0.04784393683075905,0.043781232088804245,0.05064871907234192,-0.01615411974489689,0.03557142987847328,-0.009689227677881718,0.009847158566117287,-0.008049055933952332,0.035660285502672195,-0.06688670814037323,0.026874765753746033,0.03261455148458481,0.0199897363781929,-0.023871077224612236,-0.0004245380114298314,-0.00897912122309208,0.08341080695390701,0.037924401462078094,0.021825281903147697,0.035078052431344986,-0.06106197461485863,-0.00041589949978515506,-0.0516679584980011,0.07894746214151382,-0.035355426371097565,0.04127122461795807,-0.06020113453269005,-0.0018584211356937885,-0.08507762104272842,0.02498951368033886,-0.11938270926475525,-0.028888337314128876,-0.03440779075026512,0.05341125652194023,0.05446433648467064,-0.04381196200847626,-0.08460631221532822,0.042418934404850006,0.03375622257590294,0.01773141883313656,-0.05062057077884674,0.006055567879229784,0.03602798283100128,-0.06537036597728729,0.0174846313893795,0.048988036811351776,-0.050247371196746826,-0.003655003383755684,0.027685951441526413,0.018654586747288704,0.0007297526462934911,0.007267630659043789,-0.030441252514719963,-0.028638597577810287,-0.026416338980197906,0.03572370111942291,-0.031601887196302414,-0.05723109096288681,0.020761210471391678,0.030277008190751076,0.06619910150766373,0.07829463481903076,0.05366704240441322,0.0735100582242012,0.08663365244865417,0.05492053180932999,0.07203064113855362,0.07358742505311966,0.06280568987131119,0.04891197010874748,0.0553399957716465,0.0038826866075396538,0.015525384806096554,0.02614494226872921,0.014245366677641869,0.02686794474720955,0.0032079387456178665,0.0006672384915873408,0.0009165497613139451,0.009059821255505085,0.0021267100237309933,0.020187795162200928,0.01274188794195652,0.029699642211198807,0.04232862964272499,0.03612861782312393,0.01606161706149578,0.00830906629562378,0.03042794018983841,0.01413450762629509,0.005847844760864973,0.027531350031495094,0.02691560611128807,0.013566549867391586,0.01643446832895279,0.02230479009449482,0.03545069321990013,0.011916392482817173,0.01589019037783146,0.004454090725630522,0.02164400927722454,0.020310506224632263,0.01740732416510582,0.010193061083555222,0.04577106982469559],[0.014622445218265057,0.0795433446764946,0.11866898834705353,-0.046658050268888474,0.09774473309516907,0.1985091120004654,-0.3344454765319824,0.23807674646377563,0.20398996770381927,0.0729588195681572,0.11145037412643433,0.15559063851833344,0.029909156262874603,0.16226689517498016,0.1769607663154602,0.4579387605190277,-0.24762435257434845,-0.47294411063194275,0.020534850656986237,0.5986113548278809,0.29817885160446167,-0.04784807562828064,-0.05370832607150078,0.11470720916986465,0.10007869452238083,0.09926468878984451,0.2670024335384369,0.11885695904493332,0.13888029754161835,0.07131289690732956,-0.1073341816663742,0.0722329169511795,0.1693199872970581,0.19805145263671875,0.015983622521162033,-0.003943388815969229,0.016372263431549072,0.13036391139030457,0.08664978295564651,0.1082606166601181,0.028019757941365242,0.061818476766347885,0.07544653862714767,0.012070942670106888,0.1432463377714157,0.19889648258686066,0.08876124024391174,-0.008669551461935043,0.1489269733428955,0.09076348692178726,0.20893336832523346,0.09039770811796188,-0.16665905714035034,0.1371496617794037,0.13496176898479462,0.14806391298770905,0.05629558861255646,0.22370131313800812,0.02197672426700592,0.07714791595935822,0.16512876749038696,0.048488304018974304,0.020031971856951714,0.1925434172153473,0.049946922808885574,0.08586148917675018,0.10707869380712509,0.1791302114725113,0.094235859811306,0.06324245035648346,0.05272403359413147,0.053807999938726425,0.06373149156570435,0.19376562535762787,0.097261443734169,0.1140594333410263,0.1290128380060196,0.05136625096201897,0.15843984484672546,0.2718258500099182,-0.051747605204582214,-0.036368291825056076,-0.05074644833803177,0.024212069809436798,0.14094771444797516,0.16709491610527039,0.16756102442741394,0.2461470514535904,0.09309783577919006,-0.02523072063922882,0.016659758985042572,0.23007912933826447,0.029926063492894173,0.1022314503788948,-0.07109881192445755,0.21732936799526215,0.18480642139911652,0.13571643829345703,-0.04804161563515663,0.003894584719091654,-0.00546977948397398,-0.0033048561308532953,0.019438212737441063,-0.0034021229948848486,0.020974813029170036,0.0005965553573332727,-0.04842304438352585,-0.008002081885933876,-0.12438622117042542,0.06560824811458588,0.006727633532136679,-0.03226355463266373,0.02859664149582386,-0.028205132111907005,0.025668654590845108,0.020772617310285568,-0.006012458819895983,-0.005700628273189068,0.012113753706216812,0.014368677511811256,0.010585783049464226,-0.015788795426487923,0.008709889836609364,-0.01944907382130623,-0.028189819306135178,-0.006131501868367195,-0.003047873266041279,-0.017321018502116203,0.01579892262816429,-0.0005663972115144134,-0.004713728092610836,-0.0033202150370925665,0.01005725096911192,0.011643050238490105,0.02429973892867565,-0.0007752636447548866,0.036658916622400284,-0.014318854548037052,0.008744742721319199,0.016821900382637978,0.03594805300235748,0.13968700170516968],[-0.21942280232906342,-0.06115931645035744,-0.03881750628352165,-0.1323394924402237,-0.16918723285198212,-0.02095636911690235,-0.06538239866495132,-0.13228164613246918,0.008551114238798618,0.02811676636338234,-0.0037597231566905975,-0.080044686794281,-0.05881566181778908,-0.06234358623623848,0.017574021592736244,0.0039034271612763405,-0.31564319133758545,-0.14088113605976105,0.0648808404803276,0.1553700715303421,0.09394153952598572,-0.05572070553898811,0.06624452024698257,0.0007637880044057965,-0.10656017810106277,0.06614428013563156,0.04762940853834152,-0.16221114993095398,-0.08157917112112045,-0.08524792641401291,0.02625727653503418,0.11509174108505249,0.013700299896299839,-0.016970576718449593,-0.28968870639801025,-0.16918149590492249,-0.06252361834049225,-0.005277265794575214,-0.15418075025081635,-0.03443930298089981,-0.19808337092399597,-0.11333967745304108,-0.06147999316453934,-0.01210082694888115,-0.1342828869819641,-0.12692297995090485,-0.010184373706579208,-0.10455510765314102,-0.012842781841754913,-0.15014004707336426,0.1269330382347107,-0.09658744931221008,-0.009397117421030998,-0.1071535050868988,-0.015551070682704449,-0.12785741686820984,-0.1524280607700348,-0.0982445627450943,-0.007235970348119736,-0.03301311284303665,-0.155849426984787,-0.24064597487449646,0.044758088886737823,-0.037122663110494614,-0.1318555772304535,0.06262306123971939,-0.1488233357667923,0.12988054752349854,-0.10851135849952698,0.10736194998025894,-0.040277350693941116,-0.15964767336845398,0.13852128386497498,-0.05097581073641777,-0.1278601437807083,-0.020414002239704132,-0.1787341684103012,-0.001913181971758604,0.019959961995482445,-0.09194808453321457,-0.029616426676511765,-0.02993845008313656,-0.20607072114944458,0.00966585986316204,0.018178744241595268,-0.19046762585639954,0.05803424119949341,0.10080099105834961,-0.11007729917764664,-0.08253509551286697,0.013688500970602036,-0.023153265938162804,-0.08470592647790909,-0.0705728828907013,0.20587754249572754,0.12192147970199585,-0.037151508033275604,-0.12062946707010269,0.039351463317871094,0.05295109003782272,0.07936891913414001,0.02603718638420105,0.024570055305957794,0.08623497188091278,0.04888063296675682,-0.010930955410003662,0.03988724201917648,0.02357593923807144,0.0646766722202301,-0.027149170637130737,-0.007677460089325905,0.024714332073926926,0.04387528449296951,-0.045552369207143784,0.015906156972050667,0.02935129404067993,0.05507442727684975,0.006472664885222912,0.040034834295511246,-0.010225344449281693,0.00801343098282814,0.027360854670405388,0.020797181874513626,0.05715242028236389,-0.03827055171132088,0.013004587963223457,0.002707651350647211,0.028677208349108696,-0.007097326684743166,-0.02226676046848297,0.026786843314766884,0.04357115179300308,-0.012844569981098175,0.018307900056242943,0.054014138877391815,0.010006533935666084,0.028585530817508698,-0.02929091826081276,0.024450376629829407,0.007096803281456232,-0.005370430648326874,-0.008951900526881218],[-0.1312021166086197,-0.017872584983706474,-0.048850640654563904,0.19200477004051208,-0.01284212339669466,-0.02948286384344101,-0.09362509101629257,-0.14863727986812592,0.05573396384716034,0.03387153148651123,0.0017032020259648561,0.03903840482234955,-0.013477589935064316,0.07179111242294312,0.024144243448972702,-0.08878912031650543,0.03324861824512482,-0.16364553570747375,0.32886919379234314,-0.22913102805614471,-0.08341164141893387,-0.07607709616422653,0.06367262452840805,0.0004967215354554355,-0.19314704835414886,-0.04639403522014618,0.11898911744356155,0.05527316778898239,0.14611485600471497,0.1418813169002533,0.061806440353393555,-0.045021649450063705,-0.03041105344891548,0.02547619305551052,0.06831017881631851,-0.004562442656606436,-0.08083774149417877,0.14374762773513794,-0.07913318276405334,-0.06256788969039917,-0.0669754296541214,-0.2293356955051422,-0.03140183165669441,0.18354934453964233,-0.010133539326488972,-0.043140709400177,0.10043664276599884,0.020880835130810738,-0.07600224018096924,-0.16675680875778198,-0.011269130744040012,0.10871594399213791,-0.05815902724862099,-0.19658991694450378,-0.0583939366042614,-0.12172349542379379,-0.15205875039100647,0.012615729123353958,-0.03784067928791046,0.044560130685567856,-0.17585380375385284,-0.06026547774672508,0.027626121416687965,-0.05891831964254379,-0.19870547950267792,0.060579512268304825,-0.07701753079891205,0.10122914612293243,-0.20848500728607178,0.16543635725975037,0.05725080519914627,0.10311820358037949,-0.015266657806932926,0.07589644193649292,0.02941306121647358,-0.06302406638860703,-0.05825820937752724,0.029458830133080482,-0.1845056563615799,-0.0933830514550209,-0.09005802869796753,0.20122350752353668,-0.021332908421754837,0.009469235315918922,-0.13949716091156006,0.05955681949853897,0.22321189939975739,-0.06586498767137527,-0.1016780361533165,0.005893847905099392,-0.08949752897024155,0.14157691597938538,0.07127947360277176,0.2383037507534027,0.13856080174446106,0.07161279767751694,-0.04169124737381935,0.026804743334650993,0.009502187371253967,-0.023860309273004532,-8.0364930909127e-05,0.030773235484957695,-0.00942041166126728,-0.005959759932011366,0.012034405022859573,0.008930424228310585,-0.019456643611192703,-0.01107748318463564,0.32379963994026184,-0.02360982820391655,-0.008527860045433044,0.03311819210648537,0.03182830661535263,0.004117065574973822,-0.04113111272454262,0.0030691390857100487,-0.06294244527816772,-0.00647544814273715,-0.009281874634325504,-0.027915535494685173,0.020772263407707214,0.009220371954143047,0.010821948759257793,0.017890959978103638,-0.016805779188871384,-0.036561518907547,-0.040256839245557785,-0.03288976103067398,0.004641485866159201,0.06166858971118927,-0.005718047730624676,-0.001034395769238472,-0.019927283748984337,-0.038348592817783356,-0.0014985485468059778,0.0034139007329940796,-0.02025032415986061,-0.07255233824253082,0.016106950119137764,0.010134859010577202,0.001445265021175146,0.07991863787174225],[0.06005076318979263,0.05009298771619797,0.18787544965744019,-0.04015152528882027,0.054033853113651276,0.13616731762886047,0.09815188497304916,0.02415234036743641,-0.05712396651506424,0.031989242881536484,-0.20376065373420715,-0.08523980528116226,0.10084843635559082,-0.0038495222106575966,0.13382871448993683,0.27054426074028015,-0.007075664587318897,0.02917678840458393,-0.1824931800365448,-0.026240192353725433,0.0740714818239212,0.07033244520425797,0.14240925014019012,0.059762418270111084,0.16628685593605042,0.039264511317014694,-0.04291687160730362,-0.11272730678319931,-0.11110816895961761,0.0023997377138584852,0.2531391680240631,0.044070012867450714,0.051430948078632355,-0.025304466485977173,0.1689509153366089,0.11919645220041275,0.037586893886327744,0.06636049598455429,0.05458424612879753,-0.014307744801044464,-0.17759239673614502,0.06025495380163193,0.051553599536418915,-0.08270972222089767,-0.036191441118717194,0.11116664856672287,0.05051880702376366,0.10000337660312653,0.004873861093074083,-0.02659495919942856,0.18542486429214478,0.08658484369516373,0.018792973831295967,-0.0738261416554451,0.058700863271951675,-0.06837855279445648,0.11774975061416626,-0.026499783620238304,-0.043284978717565536,0.09148856997489929,-0.007800330873578787,0.11110858619213104,0.16462816298007965,0.08114298433065414,0.13027018308639526,-0.06845343858003616,0.09448963403701782,0.11226369440555573,-0.002391938818618655,-0.03905470296740532,0.013295617885887623,0.3041515052318573,-0.2312754988670349,0.005422627087682486,-0.11434352397918701,0.21602201461791992,-0.02830391936004162,-0.001816540490835905,-0.046487219631671906,-0.008792388252913952,0.02263612672686577,0.22733664512634277,0.005549732595682144,0.1751169115304947,0.08871462196111679,0.010241338983178139,-0.0657767802476883,0.02245905064046383,0.0465492308139801,0.19691666960716248,0.10885406285524368,0.08666683733463287,-0.1371547132730484,0.0019307337934151292,0.16548988223075867,0.02525184117257595,0.08157665282487869,0.004310708958655596,-0.01336708664894104,0.008093898184597492,0.035691700875759125,0.03458547592163086,0.07138905674219131,0.03765906020998955,0.03437955677509308,0.05264882370829582,0.006402173545211554,0.062227994203567505,-0.3879368007183075,0.014095828868448734,0.042637377977371216,-0.015576609410345554,-0.015748538076877594,-0.013611563481390476,0.050671495497226715,-0.011996743269264698,-0.03499254584312439,0.03254403918981552,0.013593862764537334,0.01100141741335392,-0.01698029786348343,-0.0020607938058674335,0.009772912599146366,0.02866138145327568,-0.017587080597877502,0.03848593309521675,0.026883864775300026,-0.00540138129144907,-0.030135180801153183,0.001607018057256937,0.016844378784298897,0.002548928838223219,-0.002651365241035819,0.03319055214524269,-0.007473045960068703,0.012944534420967102,-0.020335495471954346,0.018581993877887726,0.003705570474267006,0.023464208468794823,0.02863970957696438,0.09870486706495285],[0.12191107124090195,0.003914963454008102,-0.04082336649298668,-0.024388130754232407,-0.1799447387456894,-0.0055252606980502605,0.2640724182128906,-0.04665684700012207,-0.0074642798863351345,-0.016273586079478264,0.16669590771198273,0.07573989033699036,0.10572092235088348,-0.09417637437582016,-0.016193559393286705,-0.25264739990234375,0.06887561082839966,0.06634406745433807,0.3672024607658386,-0.2938937842845917,0.008149130269885063,-0.12355325371026993,-0.14542794227600098,0.035497747361660004,0.08595538884401321,0.09958837181329727,0.06567615270614624,-0.009901375509798527,0.01690061204135418,0.08380183577537537,0.04691522940993309,0.0840337872505188,0.08853600174188614,0.11303689330816269,0.0038842095527797937,-0.09668773412704468,0.06591907888650894,0.0459204763174057,-0.03884993493556976,-0.009612233377993107,0.04285912215709686,-0.12470085918903351,-0.105818971991539,-0.09881719946861267,0.054732419550418854,-0.05867236852645874,0.021583858877420425,-0.088971346616745,0.016770411282777786,-0.02237974852323532,0.007951973006129265,0.06865688413381577,-0.04841326177120209,-0.08220497518777847,0.011271572671830654,-0.006713980343192816,-0.01723691076040268,0.008715899661183357,-0.03106345608830452,0.05331829935312271,0.039312686771154404,-0.019169511273503304,0.12913000583648682,-0.2033834159374237,-0.009109558537602425,-0.12227658182382584,0.026937153190374374,-0.11632801592350006,0.026163943111896515,0.023897066712379456,-0.028100015595555305,-0.05682067945599556,-0.23007801175117493,0.0678761675953865,-0.06346267461776733,-0.11393656581640244,0.00717252679169178,0.06435656547546387,0.056847818195819855,-0.007460087072104216,-0.03956717625260353,-0.06875482201576233,0.19315987825393677,0.10674294084310532,-0.08199471235275269,-0.13731791079044342,0.07714740931987762,-0.06622304767370224,0.1389414668083191,-0.047612495720386505,-0.00023320212494581938,0.09689786285161972,-0.09041377902030945,-0.09252887219190598,-0.01482432335615158,-0.08826722204685211,0.024531418457627296,0.12470341473817825,0.00430639460682869,-0.01637026108801365,-0.013390780426561832,0.00811403151601553,-0.022044813260436058,-0.007584270089864731,0.032836444675922394,-0.030043115839362144,0.02062513306736946,-0.0008158102864399552,0.0338791199028492,0.04123726114630699,0.007032804191112518,-0.001840186771005392,0.01466612983494997,-0.015846969559788704,0.04836316779255867,0.0013297265395522118,0.03802286088466644,0.015582915395498276,0.022522374987602234,0.016593217849731445,-0.028089947998523712,0.031647227704524994,0.010818714275956154,-0.017814049497246742,0.039955612272024155,0.003703540889546275,0.029881590977311134,0.04576428234577179,0.025419805198907852,0.025833813473582268,0.010885465890169144,-0.03142976760864258,0.009751725010573864,0.04791528359055519,-0.0007286555483005941,0.012142195366322994,0.027550306171178818,0.02446029894053936,0.01251644641160965,-0.004073611926287413,0.012091322802007198,0.02069387398660183],[-0.10092412680387497,0.00773020600900054,-0.16176201403141022,-0.16405439376831055,-0.16074000298976898,-0.13572680950164795,-0.34143704175949097,-0.43383756279945374,-0.12221312522888184,-0.1451738029718399,0.04337199777364731,0.0024816521909087896,-0.1655053049325943,-0.14075079560279846,-0.1849578320980072,-0.35249125957489014,-0.10243666172027588,-0.3520768880844116,0.15988191962242126,-0.4361993372440338,0.10229245573282242,-0.2138366401195526,-0.08363138884305954,-0.10703415423631668,-0.13504914939403534,-0.05864432454109192,-0.006053616758435965,-0.22342519462108612,-0.13802625238895416,0.03436293452978134,0.033846378326416016,-0.29573825001716614,-0.1104385182261467,-0.00031526951352134347,-0.09570454806089401,0.04975641146302223,0.05360536277294159,-0.27789053320884705,-0.20459313690662384,-0.1414472460746765,-0.09650810062885284,-0.13991780579090118,-0.11254469305276871,-0.2863118350505829,-0.05720735341310501,-0.11122946441173553,-0.2464873343706131,-0.23202772438526154,0.03964802250266075,-0.16393783688545227,0.06755828857421875,-0.155161514878273,-0.1690085381269455,-0.05530277267098427,-0.2594551742076874,-0.010320262983441353,-0.16577890515327454,-0.19834741950035095,0.04558295011520386,0.028512131422758102,-0.057177867740392685,-0.22014272212982178,-0.09404176473617554,0.03293946012854576,-0.19253765046596527,-0.13351652026176453,-0.0006994104478508234,-0.06141675263643265,-0.21914900839328766,0.09684000164270401,0.020297259092330933,-0.04363037273287773,-0.21114975214004517,0.06957153230905533,-0.20461413264274597,-0.02371654100716114,-0.22922955453395844,0.0928211510181427,-0.12693652510643005,-0.24174420535564423,-0.21966682374477386,0.1169334352016449,-0.11070548743009567,-0.06690126657485962,-0.13145866990089417,0.007310531567782164,-0.04534659907221794,-0.26093438267707825,-0.12581108510494232,0.045829519629478455,0.13758821785449982,-0.23978982865810394,-0.24900150299072266,0.0021877491381019354,-0.22027869522571564,0.04678195342421532,-0.0810270830988884,0.11731035262346268,0.08940556645393372,0.06341982632875443,0.032514989376068115,0.08267480134963989,0.05367041379213333,0.00906286109238863,0.04994940757751465,0.05587449669837952,0.017683297395706177,0.051373377442359924,0.17055131494998932,0.027462538331747055,0.04670988768339157,-0.0038739407900720835,0.024301379919052124,-0.02277248725295067,0.012194680981338024,-0.013624809682369232,0.010147292166948318,-0.006251269951462746,0.010230707004666328,0.0036239242181181908,0.011987741105258465,0.024996694177389145,0.054642096161842346,-0.017504753544926643,0.021697863936424255,0.059035107493400574,-0.007317501585930586,0.023574307560920715,0.037344351410865784,0.005002426914870739,0.012766342610120773,0.016696814447641373,-0.0030236884485930204,0.04594042897224426,0.03773578256368637,0.0257806908339262,0.056234125047922134,0.01692766696214676,0.004806089214980602,0.033493440598249435,0.00026373681612312794,-0.11477581411600113],[0.11378954350948334,-0.17398235201835632,0.09086575359106064,0.09795156866312027,0.11364779621362686,-0.25419577956199646,-0.4865288734436035,0.2559832036495209,0.011768209747970104,-0.07959147542715073,0.21406084299087524,0.028556443750858307,-0.18403954803943634,-0.03296996280550957,0.01297251507639885,-0.5098431706428528,0.0768950879573822,0.3157653212547302,0.0463104210793972,-0.3937285840511322,-0.019191956147551537,0.011713345535099506,-0.00977357942610979,0.014250647276639938,0.0374363549053669,0.03307343274354935,-0.05399713292717934,-0.05887634679675102,0.020014170557260513,0.06581050157546997,-0.05138671398162842,-0.026527544483542442,0.07730673253536224,-0.02722226455807686,0.04500248655676842,0.21105757355690002,-0.027977539226412773,0.06580393016338348,0.02284402772784233,-0.005674608517438173,0.14487895369529724,0.18929488956928253,0.14290225505828857,-0.008719731122255325,0.01620658114552498,0.10390131175518036,0.041869089007377625,0.03069497086107731,0.07259875535964966,-0.04302924871444702,-0.02138361893594265,-0.019040802493691444,0.06860029697418213,0.042326029390096664,-0.07859256118535995,0.10682034492492676,0.013057819567620754,0.06137234717607498,0.07898055016994476,-0.03313041105866432,0.02041017636656761,0.02393750473856926,0.07337808609008789,-0.01385137066245079,0.05978754162788391,-0.04787837713956833,-0.012966891750693321,-0.08418681472539902,0.06262633204460144,0.05948018282651901,-0.08646050095558167,-0.0921337679028511,0.005787089467048645,0.013530684635043144,-0.14496777951717377,0.0005735831800848246,0.15898269414901733,-0.07290714979171753,-0.05976501479744911,-0.15759435296058655,0.03884391859173775,0.004854671191424131,-0.0519208163022995,-0.039748068898916245,0.20254391431808472,-0.004067466594278812,0.05547795817255974,-0.06263116002082825,-0.045755501836538315,0.0007296883268281817,0.06251603364944458,-0.010043183341622353,0.13960790634155273,-0.004086782690137625,0.07849492132663727,-0.08005795627832413,-0.061110712587833405,-0.043313827365636826,0.026097360998392105,0.0057807862758636475,0.03333577886223793,0.03757838159799576,0.047276850789785385,0.0405425950884819,0.02253941260278225,0.0742618516087532,0.05191650614142418,0.04143649712204933,-0.1274300515651703,0.07030627876520157,0.022880006581544876,0.011369257234036922,0.03978922590613365,0.015566693618893623,0.014143846929073334,0.05384569615125656,0.009190304204821587,-0.009145209565758705,0.030628584325313568,0.0027841150294989347,-2.2210850147530437e-05,0.004320788662880659,0.06166335195302963,0.022153818979859352,0.022042501717805862,0.04738454520702362,0.004323030821979046,0.011622222140431404,-0.01608937792479992,-0.0010511222062632442,0.02314954623579979,0.0265133548527956,0.012157352641224861,0.025266680866479874,-0.015710456296801567,0.04501446709036827,0.01494327001273632,0.036215681582689285,-0.02087126486003399,0.07137423753738403,0.006881351117044687,0.018976150080561638],[0.17886853218078613,0.06771019101142883,-0.04381923750042915,-0.24351492524147034,0.01798705756664276,0.06696445494890213,0.009990004822611809,0.19190771877765656,-0.0342886745929718,0.07181839644908905,-0.07636608928442001,-0.05991838872432709,0.020076651126146317,0.028074180707335472,-0.07072947919368744,-0.15480545163154602,-0.2572198212146759,-0.059451766312122345,0.18794885277748108,-0.08703428506851196,-0.058201681822538376,0.04084854945540428,-0.07967498153448105,-0.0006133737624622881,-0.03273078054189682,0.03440581634640694,-0.10609035193920135,-0.09339266270399094,-0.02653389796614647,-0.1599467247724533,0.018373539671301842,-0.09068555384874344,-0.10836761444807053,-0.059784818440675735,-0.06593277305364609,-0.035846810787916183,-0.12228026986122131,-0.18896551430225372,0.05087735503911972,-0.03577630594372749,-0.14292675256729126,0.013434971682727337,-0.08019290864467621,0.1096486821770668,-0.17657843232154846,-0.20177707076072693,-0.05475768446922302,-0.1186092421412468,-0.06596965342760086,0.050275176763534546,0.0061463406309485435,-0.04928740859031677,0.010148001834750175,0.09782923012971878,-0.014247779734432697,0.025741901248693466,-0.052780695259571075,0.11172917485237122,-0.02302536368370056,-0.19564321637153625,0.19633780419826508,0.04375983774662018,-0.02912209928035736,-0.03501952439546585,0.05876418948173523,0.02937643975019455,0.09568967670202255,0.11960764974355698,-0.1860334426164627,-0.1466464102268219,-0.1810469627380371,0.06777555495500565,0.0009418564150109887,-0.038805801421403885,-0.07198099046945572,-0.042360011488199234,-0.08956915885210037,-0.03909499943256378,0.10860396921634674,-0.056541815400123596,0.04374658316373825,-0.06475167721509933,-0.030317028984427452,-0.0021575656719505787,-0.016121545806527138,0.007651360705494881,-0.08514657616615295,-0.008297981694340706,0.06571893393993378,0.028302302584052086,0.060473039746284485,0.05072642117738724,0.026880839839577675,-0.06264667958021164,-0.023266680538654327,0.013972855173051357,0.23355989158153534,-0.12270743399858475,0.010183652862906456,0.015486438758671284,-0.007455986458808184,0.024799037724733353,-0.04521631449460983,0.014368146657943726,0.025644546374678612,0.04183688387274742,0.00446859747171402,0.011844229884445667,-0.3556506633758545,0.006904494948685169,0.03967437893152237,0.020455533638596535,0.011101149953901768,-0.017629249021410942,-0.01053306832909584,0.0047489856369793415,0.04189026728272438,0.03579101711511612,0.025017311796545982,0.031168855726718903,0.020687805488705635,0.013101889751851559,0.011957761831581593,0.023796599358320236,0.015514195896685123,-0.021925650537014008,0.021449370309710503,0.030676795169711113,-0.00499374745413661,0.027913983911275864,0.02658560499548912,0.02809830568730831,0.01076702680438757,0.006947461515665054,0.035828880965709686,0.04700391739606857,-0.004613553173840046,0.01053282618522644,0.02186734229326248,0.003482194384559989,0.00573331443592906,-0.22527942061424255],[0.010956928133964539,0.00652478588744998,0.06088333949446678,0.024275904521346092,0.054768338799476624,0.06098855286836624,0.05874178186058998,-0.2608327269554138,0.11268341541290283,0.06600578874349594,0.13804256916046143,0.024607054889202118,-0.016901658847928047,-0.07252205908298492,-0.1145336776971817,0.38694697618484497,-0.1793307363986969,-0.03910694643855095,-0.3232760429382324,0.040761660784482956,0.19928619265556335,0.1230369433760643,0.046516742557287216,-0.019485177472233772,0.10095864534378052,0.02532404661178589,0.10130287706851959,0.15283890068531036,0.07898768782615662,0.22705861926078796,0.05395328998565674,0.0443483367562294,0.020434865728020668,-0.019772177562117577,-0.0006910692900419235,0.06660756468772888,0.09296625852584839,-0.06731294840574265,-0.08862607926130295,0.07533453404903412,0.13436459004878998,-0.0017895742785185575,-0.02496294677257538,0.13304604589939117,0.028158770874142647,0.11690907925367355,0.025996794924139977,0.10294882208108902,0.2664809226989746,0.09157514572143555,-0.001676542917266488,0.09798812866210938,0.1537814885377884,0.10677359253168106,-0.1406659483909607,-0.07163521647453308,0.09180159121751785,-0.056496769189834595,-0.045025501400232315,-0.004783639684319496,0.004448259249329567,0.07159744948148727,0.12945763766765594,-0.10878350585699081,0.17480231821537018,-0.006744465325027704,0.08390162885189056,0.0457567535340786,0.009035184979438782,0.17901721596717834,0.08763743191957474,0.11973195523023605,0.02770618349313736,0.14564864337444305,-0.10802704840898514,0.08355074375867844,0.09641531854867935,0.2044161558151245,-0.1458343118429184,-0.18883360922336578,0.020307209342718124,0.09376747906208038,0.1229630559682846,0.05332769453525543,0.20272640883922577,0.00423173513263464,0.14416733384132385,0.09761679172515869,0.014844807796180248,0.06376500427722931,0.04060588404536247,-0.01811561919748783,0.07452146708965302,0.13619622588157654,0.031027814373373985,0.06828618049621582,0.010195036418735981,0.2487010955810547,0.04196278378367424,0.026039551943540573,0.029335785657167435,-0.016330108046531677,-0.005522456951439381,0.03887677192687988,0.018567711114883423,0.033129144459962845,0.039409104734659195,0.03860613703727722,-0.027022892609238625,0.0014853129396215081,0.042158618569374084,-0.009037170559167862,0.015638766810297966,-0.021393630653619766,-0.013217073865234852,-0.0014368088450282812,-0.02418958954513073,-0.020831957459449768,0.006242771167308092,-0.0393536239862442,-0.026965873315930367,-0.005633931141346693,0.04949759691953659,0.02609322965145111,-0.0016283440636470914,0.03662531077861786,-0.04041079431772232,-0.020341910421848297,0.022810593247413635,0.00016760262951720506,0.06062605232000351,-0.014309229329228401,-0.018642399460077286,-0.032712485641241074,-0.0088898791000247,-0.006220913492143154,0.04158591851592064,-0.0032937349751591682,-0.027824994176626205,-0.01006164588034153,-0.004271868150681257,-0.11507540941238403],[0.11130522936582565,0.15334460139274597,-0.21132880449295044,0.10460510104894638,-0.08765321224927902,0.029326181858778,0.15025512874126434,-0.11092004925012589,0.02813086472451687,0.028447646647691727,-0.23427218198776245,0.11170859634876251,-0.0531650148332119,-0.08719945698976517,-0.07067625969648361,0.11237131804227829,-0.058170586824417114,-0.08044268190860748,-0.08136402815580368,0.18324315547943115,-0.016138439998030663,-0.05177074670791626,0.14119429886341095,0.16433025896549225,-0.02397041767835617,-0.28529873490333557,-0.2114880234003067,0.08402065187692642,0.05032872408628464,-0.13678599894046783,-0.07886063307523727,-0.08454355597496033,-0.1408136487007141,-0.04049040004611015,-0.28277143836021423,-0.141815647482872,-0.09933723509311676,-0.18573495745658875,0.09011472016572952,-0.22577165067195892,0.061166081577539444,-0.0797106996178627,-0.06742458790540695,-0.22750955820083618,0.00972234271466732,0.017145801335573196,-0.3321583569049835,0.15918901562690735,-0.09981634467840195,-0.13554143905639648,0.044648148119449615,-0.1486164778470993,0.13988815248012543,0.027079040184617043,-0.048531193286180496,0.0041964976117014885,0.2525489926338196,0.2158665955066681,-0.05000201240181923,-0.12828804552555084,-0.10980527848005295,-0.08121688663959503,0.19303837418556213,0.2755378484725952,0.19525489211082458,0.04199046269059181,0.24383530020713806,0.029497697949409485,-0.18702402710914612,0.044126834720373154,0.010993077419698238,-0.08106651902198792,-0.032488029450178146,0.10754825174808502,-0.1564803570508957,-0.12184349447488785,0.26450440287590027,-0.02825799770653248,-0.024726368486881256,0.09164108335971832,-0.11607062816619873,0.016777224838733673,-0.0778084546327591,-0.021160457283258438,0.03553406894207001,0.15625542402267456,-0.07697189599275589,0.07823900878429413,-0.03846600651741028,0.04854782670736313,-0.04302309826016426,0.06531760096549988,0.01826249621808529,0.24909760057926178,-0.029829982668161392,-0.11092592775821686,0.15797476470470428,-0.07355494797229767,-0.1471761167049408,-0.1346721053123474,0.05980479344725609,0.00830247811973095,-0.05712949484586716,-0.11827517300844193,-0.03395593911409378,-0.011190532706677914,0.07895289361476898,0.03790663182735443,0.09855029731988907,0.0004731242952402681,-0.005945917218923569,0.024242153391242027,-0.024709751829504967,-0.04170896112918854,0.03207091987133026,0.01036931574344635,-0.010278585366904736,0.017722398042678833,0.03738856688141823,-0.03318854421377182,0.00600113719701767,0.07556375861167908,0.007268873043358326,-0.06693988293409348,-0.005106039345264435,0.08673018217086792,-0.0020944366697221994,0.078179731965065,-0.056248798966407776,0.12825755774974823,0.012503474950790405,0.007232063449919224,0.015142761170864105,-0.12930145859718323,-0.03690020367503166,0.02398245967924595,0.029837267473340034,0.03160008415579796,-0.072024866938591,0.03647801652550697,-0.017850905656814575,0.1562432050704956],[0.058279670774936676,0.03239797428250313,-0.06479772925376892,0.04429999738931656,0.09259751439094543,0.21937566995620728,-0.30077946186065674,-0.07850045710802078,0.03407122939825058,0.002444550395011902,-0.05719314143061638,-0.0031194803304970264,0.27229735255241394,0.2095477432012558,0.12801887094974518,0.4192979633808136,0.6369228959083557,0.4910961389541626,-0.34430333971977234,-0.3539249897003174,0.19289536774158478,0.14747664332389832,0.15846924483776093,0.15891367197036743,0.0666428878903389,0.00977239478379488,0.10040325671434402,0.10891316086053848,0.177313432097435,0.11199343204498291,0.0315452478826046,0.1495339423418045,-0.0010670594638213515,0.018613427877426147,-0.012090704403817654,0.12895715236663818,0.12699265778064728,0.023228753358125687,0.13868218660354614,0.12660335004329681,0.02495635114610195,0.018389102071523666,0.13010664284229279,0.11701014637947083,0.12437663972377777,0.08161596953868866,-0.019464364275336266,0.0753253847360611,0.21990779042243958,0.03510253503918648,0.15227191150188446,0.17784935235977173,-0.027120046317577362,0.17014549672603607,0.13364817202091217,0.0752863734960556,0.03843217343091965,0.017461147159337997,0.055538199841976166,-0.02997620962560177,0.19043639302253723,0.17638279497623444,0.15847375988960266,0.0875452533364296,0.04076431319117546,0.058929502964019775,0.13230586051940918,0.056253064423799515,0.07659432291984558,0.1829376369714737,0.0710354745388031,0.14231887459754944,0.14603181183338165,-0.012517181225121021,0.045699894428253174,0.06613315641880035,0.10763351619243622,0.07864668220281601,-0.0141298808157444,0.09906784445047379,-0.03880693390965462,0.13974139094352722,0.08859402686357498,0.07575399428606033,0.01273647602647543,0.20096930861473083,0.09912601113319397,0.06259785592556,0.18780329823493958,0.10534964501857758,0.0160443764179945,0.029994620010256767,0.12337210029363632,0.1337292343378067,-0.007503095548599958,-0.00623473571613431,-0.029200078919529915,0.07023783773183823,-0.02662438526749611,-0.009660477750003338,-0.024741236120462418,-0.009799870662391186,-0.03190309554338455,0.0022179237566888332,0.030968060716986656,0.018845733255147934,-0.03363293781876564,-0.019275814294815063,0.03871399909257889,0.023593872785568237,0.01041410956531763,0.005730555858463049,-0.003687432035803795,-0.014245601370930672,-0.004725987557321787,0.01265178993344307,-0.010115105658769608,-0.009640774689614773,-0.008523505181074142,0.01441475935280323,-0.015193426050245762,0.010907704941928387,0.03640076518058777,-0.00886491034179926,0.02816283516585827,0.0233327466994524,0.008803999982774258,0.01777556911110878,0.0018049298087134957,-0.0035057328641414642,0.03534116595983505,0.008988117799162865,0.013746600598096848,0.013050524517893791,-0.0017194502288475633,-0.009219725616276264,0.01166928093880415,0.0038655041716992855,0.008348583243787289,0.015303738415241241,-0.006739652715623379,0.040511827915906906],[-0.04736914113163948,-0.00024206610396504402,0.007993514649569988,0.00811118446290493,0.02314564771950245,0.06754041463136673,-0.39451098442077637,0.1808745265007019,0.07244528830051422,-0.13206152617931366,-0.06264232844114304,0.11484460532665253,0.1352020800113678,-0.027414662763476372,-0.021044543012976646,0.20222264528274536,-0.41004282236099243,-0.4392430782318115,0.34349948167800903,0.1985442191362381,0.02745523862540722,0.19759945571422577,0.010745689272880554,0.11724782735109329,0.03781375288963318,0.012090246193110943,0.11316857486963272,0.008087013848125935,0.04844779521226883,-0.023263998329639435,-0.005705058574676514,-0.07865437120199203,0.022915661334991455,0.024801896885037422,0.1190728098154068,0.12795747816562653,0.08061789721250534,0.15033556520938873,0.007934903725981712,0.07257410138845444,0.04966314509510994,0.04545881226658821,-0.05219150707125664,-0.019069381058216095,0.032177314162254333,0.18050040304660797,0.029157251119613647,-0.01626547798514366,-0.03335930034518242,0.21094651520252228,-0.02594618685543537,0.24276800453662872,0.11462689936161041,0.056347787380218506,-0.005487195216119289,-0.033409103751182556,0.206875741481781,-0.056234266608953476,-0.12364842742681503,-0.03869146481156349,0.1728404313325882,0.1309613585472107,0.16264276206493378,0.03926382586359978,0.12284956127405167,0.05934011563658714,0.11623047292232513,0.02038220688700676,0.08310694247484207,0.05883548781275749,-0.0832972526550293,0.003863769816234708,-0.03829949349164963,0.16876232624053955,0.18215058743953705,0.0905400738120079,-0.10490145534276962,0.08615721017122269,0.0044326758943498135,0.12225503474473953,0.11392712593078613,-0.005597455892711878,0.042848870158195496,0.008585072122514248,-0.0174569021910429,0.07308145612478256,-0.07850927859544754,0.0917755663394928,-0.03353768214583397,0.048802897334098816,0.016304822638630867,-0.09685534983873367,0.09462328255176544,0.02834358438849449,0.19934220612049103,-0.008402983658015728,0.017736246809363365,0.0013032378628849983,0.03399034962058067,0.00701139634475112,-0.017325012013316154,0.006881064735352993,-0.0560440830886364,0.01703004166483879,0.017411764711141586,-0.029384469613432884,0.0025667913723737,0.0020337002351880074,0.12272237986326218,-0.01614604890346527,0.017384476959705353,0.05321304872632027,0.018781768158078194,0.012175296433269978,0.006511416286230087,0.0028826487250626087,0.007737439591437578,0.015013741329312325,0.025549359619617462,-0.01739874854683876,-0.003807919565588236,0.024575883522629738,-0.0003681075177155435,0.01717216707766056,0.011725782416760921,0.03625393286347389,0.024036040529608727,-0.008253161795437336,0.003961712121963501,0.03333568945527077,0.011637823656201363,0.0017332271672785282,0.008552426472306252,0.006858496926724911,-0.021056948229670525,0.01788656786084175,-0.0348144955933094,0.019024275243282318,-0.007037706207484007,0.025878701359033585,-0.016073692589998245,0.05182209983468056],[-0.1223001778125763,0.01161885540932417,0.01471187174320221,-0.008513285778462887,0.21249544620513916,-0.027841627597808838,0.23873724043369293,-0.17690148949623108,0.007146286778151989,0.0867914929986,0.021546341478824615,0.2559925317764282,0.013987625949084759,0.14840124547481537,-0.07373607903718948,-0.32060521841049194,-0.1511463075876236,0.586827278137207,-0.3189024329185486,0.4021710753440857,0.23408691585063934,0.15720880031585693,0.08694842457771301,0.1666729897260666,-0.027546631172299385,-0.044675055891275406,0.051957257091999054,-0.030007151886820793,0.013163062743842602,0.06308571249246597,0.07358438521623611,0.013499739579856396,0.038330744951963425,-0.022247828543186188,0.05146130546927452,0.14756491780281067,0.12802448868751526,0.12090849876403809,0.2393343150615692,0.18496501445770264,-0.04377540946006775,0.1977483332157135,0.16066104173660278,0.07535289227962494,-0.0490727461874485,0.02858220785856247,0.19608646631240845,-0.009811922907829285,0.25271305441856384,-0.05395173653960228,-0.05985569208860397,0.11765307188034058,0.15371239185333252,0.025414181873202324,-0.03442923724651337,0.2144879847764969,0.1565639078617096,0.027045104652643204,0.0938388779759407,-0.014498340897262096,-0.03140740841627121,0.19299866259098053,0.010923201218247414,0.07576733827590942,0.06502922624349594,0.09922459721565247,0.12994103133678436,-0.1837056577205658,-0.027570758014917374,0.07891161739826202,0.0040463609620928764,0.15978944301605225,0.01435973308980465,0.050164707005023956,0.08168374001979828,0.051106635481119156,0.015871630981564522,-0.02267497405409813,0.030646760016679764,0.0037548025138676167,0.09710865467786789,-0.04809458553791046,0.023601830005645752,0.07906316220760345,-0.07937227934598923,0.1380748152732849,0.1242077425122261,0.18393896520137787,0.07918102294206619,0.22144833207130432,-0.013169209472835064,-0.01979897730052471,0.1028856411576271,0.07936766743659973,0.10488809645175934,0.01787865348160267,0.07918085157871246,-0.02432982623577118,0.012402757070958614,0.04292016476392746,-0.0677151158452034,-0.020944707095623016,0.035113491117954254,0.03025861084461212,0.033386509865522385,-0.023899724707007408,0.004389413166791201,0.019158292561769485,-0.012923082336783409,0.02969934046268463,-0.012606668286025524,-0.016109922900795937,0.028101619333028793,-0.0055467900820076466,-0.041635867208242416,-0.028625043109059334,-0.023345094174146652,-0.022861752659082413,0.009034475311636925,-0.05108311399817467,0.04352826252579689,-0.0439668670296669,0.013999737799167633,0.026863103732466698,0.005142518784850836,0.017532169818878174,0.0075138346292078495,0.033247724175453186,-0.03320959955453873,-0.009938094764947891,0.05709373950958252,0.012569556944072247,0.03892962262034416,0.02652086317539215,-0.03607860952615738,-0.022715264931321144,0.025510603561997414,-0.04901490733027458,-0.027064574882388115,0.037383951246738434,0.027853645384311676,0.060011863708496094],[0.18262529373168945,0.04905295744538307,0.02378508821129799,0.055048976093530655,0.09283552318811417,-0.09678825736045837,0.3677588403224945,-0.16099104285240173,0.04035315662622452,-0.0035431396681815386,0.19533918797969818,0.005756081081926823,-0.032217010855674744,0.04532778263092041,0.13304263353347778,-0.4224321246147156,0.3356228768825531,0.44796860218048096,-0.24997511506080627,-0.2751477062702179,0.18004025518894196,0.025132499635219574,0.08156314492225647,-0.06152242422103882,0.05131317675113678,0.0034006976056843996,0.08209025859832764,-0.030629297718405724,0.018581461161375046,0.1258505880832672,-0.05623682215809822,0.02257058210670948,0.07186829298734665,-0.07750654965639114,0.07458548992872238,0.12033902853727341,0.028006959706544876,0.023936057463288307,0.056414272636175156,0.10700439661741257,0.07615736126899719,0.12328269332647324,0.11909937113523483,-0.03377978876233101,0.0808921828866005,0.17451125383377075,0.06062857434153557,0.052788350731134415,0.06955128163099289,-0.13048209249973297,0.034523945301771164,-0.06471443921327591,0.07424099743366241,-0.03660420700907707,-0.014217190444469452,0.08300270140171051,-0.016971489414572716,0.019125480204820633,0.1347426474094391,0.07516509294509888,0.023514920845627785,-0.0701935812830925,0.08566099405288696,0.12206682562828064,0.07340145856142044,-0.029468905180692673,-0.07442672550678253,0.05301189422607422,0.22662803530693054,0.06148576736450195,0.053636275231838226,0.03383913263678551,-0.010751605033874512,0.004639189224690199,-0.07042374461889267,-0.06504517048597336,0.0037055814173072577,0.09182199090719223,-0.054881371557712555,-0.01720978319644928,-0.03475533053278923,0.05948721244931221,0.0311321709305048,-0.07323479652404785,0.1400877833366394,-0.05092666670680046,0.0673341155052185,0.03679414466023445,-0.012484957464039326,0.18104635179042816,0.0798846110701561,0.036186859011650085,0.11020991206169128,0.04550755023956299,0.05396376922726631,-0.007763178553432226,-0.017822325229644775,0.03598278760910034,-0.0044111586175858974,0.0315861739218235,0.016360023990273476,0.07036251574754715,0.08316124975681305,0.010374278761446476,-0.025640683248639107,0.036348387598991394,0.01115823071449995,0.03925742208957672,-0.09768156707286835,0.009114637970924377,0.03580235689878464,0.0035180747509002686,0.018909325823187828,-0.02195926196873188,-0.009996442124247551,0.005724804010242224,-0.007623780053108931,-0.0015246440889313817,0.005589508451521397,-0.012288178317248821,-0.019432954490184784,0.05759328976273537,0.018824003636837006,0.007564454805105925,0.013363112695515156,0.007500623352825642,-0.0029529030434787273,-0.011901123449206352,0.03379937261343002,0.01587488315999508,0.026192935183644295,-0.022888099774718285,-0.02093539573252201,-0.013834658078849316,0.022549761459231377,0.004990098997950554,-0.006340221036225557,0.007980737835168839,-0.02806662581861019,-0.0001348911609966308,0.049740713089704514,-0.05120820179581642],[0.06705635786056519,0.14737452566623688,-0.12478821724653244,0.02676880732178688,-0.056595928966999054,0.002698402851819992,-0.22843153774738312,0.022364826872944832,-0.01551628764718771,0.011368552222847939,-0.13315406441688538,-0.14485561847686768,0.13045372068881989,0.1004360094666481,0.10240647196769714,0.2027229219675064,0.2007363885641098,-0.07480999827384949,-0.15242554247379303,-0.18070733547210693,-0.11411475390195847,0.07709849625825882,0.04237482696771622,0.0947033166885376,0.0566420815885067,-0.02548706904053688,-0.14708951115608215,-0.2360275238752365,0.03711530193686485,-0.18962757289409637,-0.03199752792716026,-0.03385695070028305,-0.08679038286209106,-0.036029983311891556,-0.032110024243593216,0.01336989738047123,0.2393806129693985,-0.1606518179178238,0.0194520503282547,0.21673555672168732,0.10435228794813156,-0.07428182661533356,-0.05203632265329361,0.001237655058503151,-0.06732340157032013,-0.11716070026159286,-0.053923144936561584,-0.2071380913257599,-0.15471656620502472,0.14417752623558044,-0.11724739521741867,-0.38413283228874207,-0.09557007998228073,0.05099845305085182,0.10064441710710526,0.03909827023744583,-0.12504038214683533,-0.13710743188858032,-0.04086204618215561,-0.05119180306792259,-0.10736352205276489,-0.15484607219696045,0.024979494512081146,0.11756088584661484,0.027451680973172188,-0.127292200922966,0.14641927182674408,0.20948447287082672,-0.21603290736675262,-0.05749981477856636,-0.055080585181713104,0.008885868825018406,0.0928112119436264,0.06735976040363312,0.014495078474283218,0.06016905605792999,-0.11764027178287506,0.14455124735832214,-0.05003786459565163,0.1198662742972374,0.11980924755334854,-0.08847200870513916,0.0253785140812397,-0.12036505341529846,0.02843153104186058,-0.027748778462409973,-0.21071548759937286,0.04839998856186867,-0.1308862864971161,-0.06279988586902618,-0.054305627942085266,0.12826962769031525,0.028744565322995186,0.03563934192061424,0.021503163501620293,-0.02860747091472149,-0.049860820174217224,0.16553550958633423,-0.07451233267784119,0.03293904662132263,0.012490926310420036,0.05671742558479309,-0.010499621741473675,0.039162471890449524,-0.01727360486984253,-0.06059472635388374,0.05103857070207596,0.010946874506771564,-0.032862089574337006,-0.0011816351907327771,-0.033132802695035934,-0.04480116441845894,0.05122211575508118,0.03609881177544594,-0.04709743335843086,0.019935164600610733,0.008639317005872726,0.08244624733924866,-0.029129112139344215,0.0021028814371675253,0.04761373996734619,0.02952042780816555,0.07627546042203903,-0.028127331286668777,0.054154712706804276,-0.021014632657170296,-0.014314045198261738,0.013777931220829487,0.06620081514120102,0.061430998146533966,0.08105459809303284,-0.030193308368325233,0.02482154406607151,-0.03730291500687599,0.06920339912176132,-0.035688482224941254,-0.028090715408325195,-0.01970873586833477,0.054852742701768875,-0.067906953394413,-0.014897286891937256,-0.02500985749065876],[0.05645488575100899,0.05034950375556946,-0.03379511460661888,-0.04977043718099594,0.06470958888530731,-0.018276922404766083,0.2779396176338196,-0.23562288284301758,0.033315178006887436,-0.000457933871075511,-0.007697955705225468,-0.003402999136596918,-0.00018285417172592133,0.11304020136594772,0.03634786233305931,0.3019913136959076,0.3002908229827881,0.4313310980796814,-0.3725903034210205,0.301297128200531,0.00012981817417312413,-0.012339186854660511,0.02340053953230381,0.015758469700813293,-0.036276474595069885,0.11091779172420502,0.014920666813850403,-0.10007130354642868,0.05184972658753395,0.058602020144462585,0.0007239326951093972,-0.07229133695363998,-0.07110658288002014,-0.025504902005195618,-0.005127457901835442,0.006347773130983114,-0.0413728728890419,-0.06134313344955444,-0.06366493552923203,-0.042921002954244614,-0.0656149834394455,-0.08381515741348267,0.061111390590667725,-0.036561090499162674,0.004267971031367779,-0.03371313214302063,-0.08822207152843475,-0.022486329078674316,0.05446120351552963,-0.08077362924814224,0.0035416216123849154,-0.05612964928150177,-0.04931414872407913,-0.05480007082223892,-0.006811019964516163,0.011333948001265526,0.08407598733901978,-0.03776577487587929,0.014689045026898384,-0.01592019759118557,-0.1425630748271942,0.036911316215991974,0.041260071098804474,0.09598971903324127,-0.007637286093086004,-0.00043649692088365555,-0.0185064896941185,0.017542611807584763,0.07797694951295853,-0.06986501812934875,-0.0801527202129364,-0.06782576441764832,-0.0028354087844491005,-0.03879981487989426,0.002793010789901018,-0.046150416135787964,-0.007295513059943914,0.0370589904487133,-0.12585803866386414,-0.028683792799711227,0.03181108459830284,-0.030150488018989563,-0.07661332190036774,-0.037456661462783813,0.035057149827480316,0.005453318823128939,-0.013086180202662945,-0.024716060608625412,0.08179465681314468,0.03536338359117508,-0.031777527183294296,-0.08280455321073532,0.0389808714389801,-0.09293346852064133,0.0005095208180136979,0.0859970971941948,-0.004466400481760502,-0.014839706011116505,-0.04972125589847565,-0.04698619991540909,-0.0434504859149456,-0.04013317450881004,-0.0430266410112381,-0.03125082701444626,-0.030839961022138596,-0.05787656828761101,-0.05705634132027626,-0.034740954637527466,0.003950048703700304,0.016679294407367706,0.026455245912075043,-0.009392675012350082,-0.0018988260999321938,-0.02177031710743904,0.004832376725971699,0.004797189962118864,-0.012852240353822708,-0.0039514582604169846,0.006357721984386444,0.002291816519573331,0.00879144761711359,0.003701976500451565,0.00962632242590189,-0.00316426670178771,-0.007402859162539244,0.019237324595451355,0.015141592361032963,0.00855963584035635,0.006830682046711445,0.0008179426658898592,0.004482870921492577,0.005697043612599373,-0.010794062167406082,-0.0010597601067274809,0.011846221052110195,-0.00469905324280262,0.011794169433414936,-0.004699420649558306,-0.015429952181875706,0.012495324946939945,-0.005020377226173878,0.004459701478481293],[0.06507394462823868,-0.09602335095405579,0.06370244175195694,-0.20807623863220215,-0.008262029848992825,0.14799967408180237,-0.11371663957834244,-0.22756168246269226,-0.051787037402391434,0.023130420595407486,0.17856207489967346,0.14254999160766602,-0.004473574925214052,-0.03432242199778557,-0.07083026319742203,-0.07941432297229767,-0.08142131567001343,-0.14706239104270935,-0.23990900814533234,1.3616176843643188,-0.037748370319604874,0.10626465082168579,-0.12676891684532166,0.04934085160493851,-0.10854721814393997,0.002616416895762086,-0.10334350913763046,-0.022451994940638542,-0.15042012929916382,-0.14411887526512146,0.05978384241461754,0.0037444878835231066,0.08385094255208969,-0.07563246786594391,0.054593246430158615,0.07345578819513321,0.17759019136428833,0.17383305728435516,-0.02510535530745983,0.1733856499195099,-0.02876233495771885,0.16081002354621887,-0.027296282351017,-0.06801778823137283,-0.16969925165176392,0.00782106164842844,0.07675427198410034,0.2000121772289276,-0.0549788735806942,-0.07534781843423843,-0.034508220851421356,0.01655610278248787,0.0667569488286972,-0.003004344180226326,0.09200521558523178,0.0356418676674366,-0.1327870935201645,-0.035512372851371765,0.008574207313358784,0.026194674894213676,-0.04433601349592209,0.07725664973258972,-0.11920135468244553,0.20710648596286774,-0.044577885419130325,-0.1489834189414978,0.1708562821149826,-0.09682891517877579,0.21157100796699524,-0.10706517100334167,0.031098157167434692,-0.042318474501371384,0.03430408611893654,0.12492398917675018,0.05733991414308548,0.13746920228004456,-0.11800617724657059,-0.0005265935324132442,-0.0426931157708168,-0.1043039858341217,0.05170101299881935,0.012144742533564568,-0.043134450912475586,0.021152257919311523,-0.012622619979083538,-0.07264592498540878,-0.11308113485574722,0.08222824335098267,-0.010947315953671932,-0.07112959772348404,-0.05692511424422264,0.08001596480607986,-0.055985674262046814,-0.06087164208292961,0.33068111538887024,0.03500371426343918,-0.18913042545318604,0.012202619574964046,0.03468158468604088,-0.030275478959083557,-0.03105861321091652,-0.0012678857892751694,-0.01796741597354412,-0.02723449096083641,0.013858181424438953,0.008656292222440243,0.020420972257852554,0.019173704087734222,0.00999466609209776,-0.0067984312772750854,-0.0045998599380254745,0.018020007759332657,-0.030857417732477188,-0.03814295306801796,0.014597300440073013,-0.014347917400300503,-0.03603366017341614,0.019889364019036293,-0.026948899030685425,-0.05399133637547493,-0.006154931150376797,0.05454851686954498,0.07521846145391464,0.03211210295557976,0.044426947832107544,0.055475350469350815,-0.012196379713714123,0.02110855095088482,-0.009736688807606697,0.04332860931754112,0.08638989925384521,-0.015027490444481373,-0.024588778614997864,0.006803381256759167,0.05370905622839928,0.020953956991434097,0.03634065389633179,-0.0023565972223877907,-0.00016092404257506132,-0.006031125783920288,0.02877703309059143,0.03998999297618866],[-0.054572515189647675,-0.11308341473340988,-0.1833784133195877,-0.15736617147922516,-0.028307313099503517,-0.01852007582783699,-0.5635432600975037,-0.5096020102500916,-0.22169798612594604,-0.0591895654797554,-0.10413996130228043,-0.14107325673103333,-0.12007404863834381,-0.007969665341079235,-0.09783287346363068,-0.3144735097885132,-0.4872610867023468,-0.3994259834289551,-0.6889302730560303,0.21864263713359833,-0.07095247507095337,0.004037605598568916,0.0027893190272152424,0.08148849010467529,-0.07087919861078262,-0.01221601665019989,-0.1777346134185791,-0.02293589897453785,-0.016560640186071396,-0.08516731858253479,0.0543978326022625,-0.02724679559469223,0.007467228453606367,-0.13742807507514954,-0.04788420721888542,0.07829322665929794,-0.11239339411258698,-0.049016062170267105,-0.02658144012093544,0.010866930708289146,-0.04657692089676857,-0.021792007610201836,0.012731056660413742,0.09364675730466843,-0.05734998732805252,-0.010271694511175156,-0.16987799108028412,0.08558954298496246,-0.018472813069820404,-0.051597561687231064,-0.07039675861597061,-0.09720169007778168,-0.08967816084623337,-0.11887915432453156,0.07662209868431091,-0.09160599112510681,-0.11615978181362152,-0.16258512437343597,-0.030144067481160164,-0.14369264245033264,-0.051579225808382034,-0.07590699940919876,-0.06632835417985916,0.07512035965919495,-0.07577500492334366,-0.11136717349290848,-0.027695482596755028,0.0033272774890065193,-0.06133928894996643,-0.05554341524839401,-0.010611575096845627,-0.14534549415111542,0.04965846613049507,-0.024376632645726204,0.05958743393421173,0.07588030397891998,-0.13535399734973907,-0.14132444560527802,-0.008710428141057491,-0.13434548676013947,-0.16037248075008392,-0.056605029851198196,-0.12103323638439178,-0.15517055988311768,0.009504643268883228,-0.09184887260198593,-0.11268889158964157,0.02337922342121601,-0.15812581777572632,-0.1563030183315277,-0.16954761743545532,-0.11438629031181335,-0.09039636701345444,-0.02945766970515251,-0.11135956645011902,0.07439306378364563,-0.13904684782028198,-0.017178665846586227,0.12366785854101181,0.1227579191327095,0.13463440537452698,0.13553090393543243,0.1253751665353775,0.13757973909378052,0.11821971833705902,0.155717670917511,0.12856067717075348,0.10707408934831619,-0.029367618262767792,0.02025839313864708,0.04109689220786095,0.009949016384780407,0.024291539564728737,0.0035410744603723288,0.011501108296215534,-0.008542557246983051,-0.013716627843677998,0.006402779836207628,0.02710767835378647,-0.011593665927648544,0.028070129454135895,0.04292919859290123,0.027188915759325027,-0.0020186302717775106,0.019562898203730583,0.026753831654787064,-0.015128027647733688,0.011211848817765713,0.0005813306197524071,-0.009567398577928543,0.031147893518209457,0.01676916889846325,0.00657055526971817,0.043022915720939636,-0.011594608426094055,0.016508476808667183,0.024300575256347656,0.01091067399829626,0.016970645636320114,0.03293672949075699,0.007120979949831963,-0.01473237294703722],[0.10015843063592911,0.044154971837997437,0.1536775678396225,0.14742256700992584,0.12028076499700546,0.07087094336748123,-0.05390637367963791,-0.18299618363380432,0.14838773012161255,0.01783561147749424,0.014153679832816124,0.1136849969625473,0.06230291724205017,0.08345188200473785,0.10044637322425842,-0.31704649329185486,0.8465198278427124,-0.034986548125743866,0.5055752396583557,-0.4752800464630127,0.03514719754457474,-0.02251245081424713,0.0157573614269495,0.13838276267051697,0.14656998217105865,0.029206683859229088,0.11263784766197205,0.16850998997688293,0.03516555204987526,0.04370930790901184,0.16344054043293,0.08641568571329117,-0.028974704444408417,0.13971345126628876,-0.04035459831357002,0.0009406194440089166,0.05438442900776863,0.11636010557413101,0.09463168680667877,0.051455676555633545,0.13094182312488556,0.031014565378427505,0.10342521220445633,0.05912987142801285,-0.039757683873176575,0.15557678043842316,0.010183239355683327,0.12994666397571564,0.02027573250234127,0.24288976192474365,-0.05294225364923477,0.016347510740160942,0.007884787395596504,0.1309100240468979,-0.14435072243213654,-0.0064734723418951035,0.07174970954656601,0.05081843212246895,0.02398953214287758,0.010595417581498623,0.07538574934005737,0.10518230497837067,0.06236734241247177,0.05196352303028107,0.07047773897647858,0.20859576761722565,0.12234622240066528,0.03067043423652649,0.024742400273680687,0.12657006084918976,0.08641385287046432,0.06965124607086182,0.11797510832548141,0.15376634895801544,-0.12378155440092087,0.09712507575750351,0.180552139878273,-0.049593113362789154,0.08305375277996063,0.05779939517378807,-0.07579122483730316,0.08424174040555954,0.06659898906946182,0.19219306111335754,0.10627603530883789,0.11918856203556061,0.14513887465000153,0.18193477392196655,0.13421913981437683,-0.04143150523304939,0.0913965106010437,0.19689734280109406,-0.08743497729301453,0.14949041604995728,0.0019616365898400545,0.13495378196239471,0.10344002395868301,0.1527937650680542,0.016048328951001167,0.023583296686410904,0.008432597853243351,0.027690758928656578,-0.028827279806137085,0.029332516714930534,0.031860072165727615,-0.03305647522211075,-0.013359914533793926,0.002171429805457592,0.04013146087527275,-0.00411380548030138,-0.014225510880351067,0.0003540506586432457,0.017965398728847504,-0.028435727581381798,0.009801710955798626,0.030462732538580894,0.015927618369460106,0.006575628183782101,-0.031934600323438644,0.011233937926590443,-0.01402053702622652,0.004289671778678894,0.02775634080171585,-0.012501719407737255,-0.02286069467663765,0.0027480798307806253,0.0234203040599823,0.007093459367752075,0.034310754388570786,0.02273254282772541,0.004216991364955902,-0.005746821872889996,0.01609509065747261,-0.009654680266976357,0.04837516322731972,0.01888163387775421,-0.0012481841258704662,-0.0005926141748204827,0.004441646859049797,-0.006489090621471405,-0.03230535238981247,0.06056142970919609],[-0.19135825335979462,0.0442027784883976,0.005798600614070892,0.012965412810444832,0.10613928735256195,-0.18042892217636108,-0.11902182549238205,-0.19035081565380096,0.06598611176013947,0.1030740886926651,-0.12605002522468567,-0.01196302380412817,0.05172935128211975,0.005049414932727814,0.17959868907928467,0.4257460832595825,-0.10782822966575623,-0.0453074686229229,-0.305961936712265,0.4263146221637726,0.037562210112810135,0.1368541121482849,0.19713003933429718,-0.13271144032478333,-0.07365867495536804,0.09841062128543854,0.1425616592168808,0.09409475326538086,-0.030755342915654182,0.08702483773231506,-0.08482003957033157,-0.0563870444893837,0.0974644348025322,-0.09531871974468231,0.1473030298948288,0.02335701696574688,0.043198004364967346,-0.08269912004470825,0.12396971881389618,0.03309196978807449,0.04931489750742912,0.13461148738861084,0.025945626199245453,0.048029158264398575,-0.0023592363577336073,-0.017542198300361633,-0.007625178899616003,-0.1049954742193222,-0.04646501690149307,0.08506722748279572,-0.0928371474146843,-0.07923877239227295,0.11183252930641174,0.0390821136534214,0.027014780789613724,-0.10121702402830124,-0.054562896490097046,-0.03460825979709625,-0.06297605484724045,-0.04214463010430336,0.0005757641047239304,-0.06152775511145592,0.04814162105321884,-0.07685673236846924,0.16189999878406525,-0.0328231081366539,-0.010967898182570934,0.015416020527482033,0.054879311472177505,0.0623859241604805,-0.08250812441110611,-0.04019111022353172,-0.011423035524785519,0.048933498561382294,0.08747056126594543,-0.09636040776968002,0.14921587705612183,-0.04240258038043976,-0.14709162712097168,0.08563414216041565,-0.011099346913397312,-0.0705467015504837,0.1560954749584198,0.014982734806835651,0.06569240987300873,0.08895258605480194,0.0108511196449399,0.045503295958042145,0.016526302322745323,0.16890445351600647,-0.09906619787216187,-0.0725376233458519,0.11604335904121399,-0.04155147448182106,-0.06085185334086418,-0.08263708651065826,-0.052761152386665344,0.06413042545318604,0.030489927157759666,0.04271843284368515,0.006940994877368212,0.02359810285270214,0.027448788285255432,0.0012236025650054216,0.015483972616493702,-0.010898393578827381,-0.039423439651727676,0.03236120566725731,-0.07375677675008774,0.0003044781624339521,0.027918023988604546,0.061141323298215866,0.052471451461315155,0.042830172926187515,-0.02386956289410591,0.02970452792942524,0.05963469296693802,-0.004643989261239767,0.011118591763079166,0.012990626506507397,0.0238023791462183,-0.003423404647037387,0.02487104758620262,-0.020406529307365417,-0.008258658461272717,0.014256348833441734,0.005823094863444567,-0.012252270244061947,-0.0022779295686632395,0.01813211478292942,-0.025051498785614967,0.022620810195803642,0.038761354982852936,0.019144006073474884,0.01896306313574314,0.02072307839989662,0.03097165934741497,0.029702672734856606,-0.02113477885723114,0.0007780474261380732,0.0020557271782308817,0.1353512406349182],[0.009433679282665253,0.09978640079498291,-0.0232985969632864,0.016584618017077446,0.1147286668419838,-0.0814092829823494,-0.03092896193265915,-0.023485369980335236,0.13656575977802277,-0.016740290448069572,0.016115151345729828,0.08251389116048813,-0.045314617455005646,0.08302359282970428,0.048943303525447845,-0.042429935187101364,0.11878502368927002,0.02222745306789875,0.1639699637889862,0.0422828271985054,0.0649484395980835,0.05547390878200531,-0.0627109557390213,-0.02216842770576477,-0.05674462765455246,0.18982785940170288,0.11640788614749908,-0.06577061861753464,0.08544087409973145,-0.09551993757486343,0.07342071831226349,0.021014446392655373,-0.03765668347477913,0.01389777660369873,-0.06667785346508026,-0.03921981528401375,-0.0428931824862957,0.061749380081892014,0.040921397507190704,-0.012353108264505863,0.08857963979244232,-0.029696239158511162,0.01325573492795229,-0.06602021306753159,0.10451816022396088,-0.011032579466700554,-0.0613442063331604,-0.056039173156023026,0.01656598597764969,0.019287362694740295,0.06415509432554245,0.0957699567079544,0.021618470549583435,-0.013256638310849667,0.05424201115965843,0.04719661548733711,0.0730699747800827,0.07787472009658813,-0.05753010883927345,0.03600040078163147,-0.0013481586938723922,0.09257912635803223,0.147120863199234,-0.007920106872916222,0.11522947996854782,0.140281543135643,0.07499082386493683,0.10795391350984573,0.09968113899230957,0.04953603446483612,-0.1305244117975235,-0.08001191914081573,-0.03852064535021782,0.19826336205005646,-0.006843067705631256,0.04202329367399216,0.057337597012519836,0.044976238161325455,-0.05884227529168129,0.13780800998210907,0.12167428433895111,0.02833700180053711,0.012004819698631763,0.07670228183269501,0.003323278622701764,-0.03637373074889183,0.018784072250127792,0.15712428092956543,0.009027048014104366,-0.05731365829706192,0.0324142724275589,0.03390977904200554,-0.056213535368442535,0.09166814386844635,0.0851927399635315,0.08382117748260498,0.04167388752102852,-0.01956486701965332,0.03378588706254959,0.050867483019828796,0.015189546160399914,-0.005967442411929369,0.050467755645513535,0.0220814049243927,0.043293628841638565,0.04008888825774193,0.021975751966238022,0.050512608140707016,0.06787105649709702,-0.03807372599840164,0.029438715428113937,-0.001198644982650876,0.007781274151057005,0.020576337352395058,0.005181284621357918,0.019061969593167305,0.03953961655497551,-0.005392258521169424,-0.020573850721120834,-0.028062138706445694,0.04270406812429428,-0.019687004387378693,-0.013650868088006973,-0.032063983380794525,0.003351035062223673,0.0008073222124949098,0.0009554670541547239,-0.0021424521692097187,-0.007473969366401434,0.021373065188527107,-0.024286597967147827,-0.001431172015145421,-0.030927389860153198,0.0032837565522640944,0.006616093683987856,0.00527584832161665,0.02751879021525383,-2.518454857636243e-05,-0.010255346074700356,-0.0193158145993948,-0.013518999330699444,-0.01771036721765995],[-0.03906017169356346,0.05958688631653786,0.03101276606321335,0.13202622532844543,-0.08475960046052933,0.03544553741812706,-0.10095041990280151,0.8250892758369446,-0.1085221916437149,-0.11692781001329422,-0.20157292485237122,0.03458365797996521,0.0033915964886546135,0.1384461373090744,-0.025327270850539207,0.7442384362220764,-0.18392087519168854,-0.28088948130607605,-0.27343887090682983,-0.18634499609470367,-0.0831701010465622,-0.0313895121216774,0.06626953929662704,0.05342885106801987,0.09190432727336884,0.028410235419869423,-0.14290206134319305,0.013285904191434383,-0.10265044867992401,-0.012556406669318676,0.03187865391373634,0.1082918643951416,0.0701281800866127,0.10005588084459305,0.05646911635994911,0.0505329966545105,-0.07664164900779724,0.0005250722169876099,0.03048173151910305,0.08245103061199188,-0.07533986121416092,0.03604186698794365,-0.0019481175113469362,0.013676592148840427,-0.1411859691143036,-0.05329316481947899,0.13463127613067627,0.17592668533325195,-0.07146596908569336,0.04040287807583809,0.02010137215256691,0.0034478865563869476,-0.09953413903713226,-0.019872058182954788,0.0153711698949337,-0.06507883220911026,-0.0745789036154747,-0.12487722933292389,0.15453803539276123,-0.04832875728607178,-0.015716787427663803,-0.1699308156967163,0.028228191658854485,0.07501645386219025,-0.06100934371352196,0.05594925954937935,0.09870929270982742,0.07762668281793594,0.06646236777305603,-0.10064088553190231,-0.050676170736551285,0.004912457894533873,0.17353515326976776,0.06427197903394699,0.09009331464767456,0.09908363968133926,-0.1067739948630333,-0.022997725754976273,0.09299098700284958,0.17321446537971497,-0.05381891131401062,0.009245781227946281,-0.029091112315654755,0.00989335123449564,0.08358023315668106,0.06936981528997421,-0.04752141609787941,-0.017748642712831497,-0.16713429987430573,-0.13599520921707153,-0.07825927436351776,0.09739581495523453,-0.022102857008576393,-0.04597543925046921,0.04203573614358902,0.15302999317646027,-0.029818929731845856,0.06251528859138489,-0.0314929261803627,-0.0230290237814188,-0.008622335270047188,-0.030691349878907204,0.02588994987308979,-0.017247069627046585,-0.03752000629901886,-0.04118841886520386,-0.028424814343452454,-0.0282790157943964,0.06104364991188049,-0.005304671358317137,-0.0177183598279953,0.008687051944434643,0.026328573003411293,-0.005826665088534355,-0.004462614189833403,-0.013615954667329788,-0.02161077782511711,0.009092887863516808,-0.03046043962240219,0.015012689866125584,0.06369911134243011,0.002619039500132203,-0.0029858234338462353,0.000914412725251168,0.014918860979378223,0.06169486045837402,-0.04141003265976906,-0.00038543069968000054,0.0160541869699955,0.0511004775762558,0.014452308416366577,0.007235675118863583,0.003965911455452442,0.04558190703392029,0.009059800766408443,0.02480403520166874,-0.0022386438213288784,0.004497204907238483,0.0024212277494370937,0.022798307240009308,-0.02140718139708042,-0.004476578906178474],[-0.1359053999185562,0.0203594621270895,0.06421376764774323,0.06004083529114723,-0.001122624846175313,-0.1003166139125824,0.11131103336811066,0.4302808344364166,0.07328995317220688,0.09673763811588287,-0.09820020198822021,0.13523033261299133,-0.06229338049888611,0.08840131014585495,0.14176017045974731,0.35542571544647217,-0.1184437945485115,0.004981033969670534,-0.30640146136283875,-0.2295147031545639,0.1068655401468277,0.039087191224098206,0.23899534344673157,0.08976743370294571,-0.1171671599149704,0.011897987686097622,-0.04583344608545303,-0.23708386719226837,0.14684541523456573,0.10115881264209747,-0.03827466070652008,-0.038605865091085434,0.04579564929008484,-0.037827204912900925,-0.12335973232984543,0.10510066151618958,-0.015601581893861294,0.1348416805267334,-0.02707687020301819,0.05092835798859596,0.0296340174973011,-0.01226003561168909,-0.06771514564752579,0.07328280061483383,0.13582183420658112,0.031014082953333855,0.15669183433055878,-0.03686084970831871,0.12597815692424774,-0.08357153087854385,0.040232691913843155,-0.09602267295122147,-0.07171302288770676,-0.02903144247829914,0.13422229886054993,-0.20094771683216095,-0.05060596391558647,-0.10238514840602875,0.07182999700307846,0.06049838662147522,-0.19128766655921936,-0.008999539539217949,0.1950506567955017,0.09701801836490631,0.16334863007068634,0.06651829928159714,0.11065885424613953,0.0591282919049263,-0.09794478863477707,0.0925295427441597,0.026272617280483246,-0.06225883588194847,0.05319809168577194,-0.19210200011730194,0.15854859352111816,0.16134674847126007,-0.06697046756744385,0.015866218134760857,-0.03142683207988739,0.07433503866195679,-0.0032000194769352674,-0.035400908440351486,-0.07741539925336838,0.0439201220870018,0.12067749351263046,0.036584094166755676,0.010539865121245384,0.07945442199707031,-0.0816885456442833,0.13817310333251953,0.09806434065103531,0.07622427493333817,-0.08886466175317764,0.03948972746729851,0.08170633018016815,0.04936734214425087,0.03493564948439598,-0.08472096920013428,0.01774093322455883,-0.059857577085494995,0.012309352867305279,-0.04340934008359909,0.004379307385534048,-0.030488446354866028,-0.04609121009707451,0.049194805324077606,-0.057612914592027664,0.025425828993320465,0.14344289898872375,0.04057879373431206,-0.022398049011826515,-0.08484409004449844,-0.03022586926817894,0.01098113413900137,0.004513757303357124,0.017773188650608063,-0.02142995223402977,-0.041584111750125885,0.007849892601370811,0.005241157952696085,0.010879999957978725,0.04199158400297165,0.03803059831261635,0.0527426041662693,0.04349013417959213,0.01945681683719158,0.007453093770891428,-0.020123576745390892,-0.024664826691150665,0.02313508465886116,0.010378137230873108,-0.006117788143455982,-0.03925837203860283,-0.0029125355649739504,-0.02493838034570217,0.003123147413134575,0.012441493570804596,-0.02715669944882393,0.04326736927032471,0.07989268749952316,-0.04660370945930481,0.09440179169178009],[-0.23751884698867798,-0.13986875116825104,0.12314248085021973,-0.04901076480746269,-0.10017316788434982,-0.11046314984560013,0.16184937953948975,0.04827228561043739,-0.005877675488591194,-0.08016722649335861,-0.12791527807712555,-0.06885156780481339,-0.2254735231399536,-0.045681096613407135,0.020226243883371353,-0.18720626831054688,0.0988181084394455,0.044119302183389664,0.08594680577516556,-0.002001440618187189,-0.06081915274262428,-0.016395458951592445,0.041952162981033325,0.06045835092663765,-0.2544964551925659,0.009709986858069897,-0.100739024579525,0.020541731268167496,0.012817551381886005,-0.0900292694568634,-0.10913179069757462,0.06010866537690163,0.1013588234782219,-0.11954443901777267,-0.1002752035856247,-0.006430392153561115,-0.16102632880210876,0.06496001034975052,-0.010151068679988384,0.010287917219102383,-0.23307117819786072,0.18492165207862854,0.19502922892570496,0.16489318013191223,-0.17076115310192108,0.029577994719147682,0.1532539576292038,0.1547640860080719,-0.06535281985998154,-0.11697830259799957,-0.12729409337043762,0.11855291575193405,0.08206424862146378,-0.09275572746992111,-0.2049647867679596,0.02840731292963028,0.03549430891871452,-0.14326806366443634,0.10311474651098251,0.06813700497150421,-0.200420543551445,-0.11343179643154144,-0.19596946239471436,-0.022420242428779602,-0.1297452300786972,-0.08074574917554855,-0.061066072434186935,-0.10582726448774338,-0.12525512278079987,0.08831274509429932,-0.051712919026613235,-0.05169903114438057,0.08915325254201889,0.0024887328036129475,-0.0295216366648674,-0.16878825426101685,-0.2209666520357132,-0.16386599838733673,0.11235213279724121,-0.23598086833953857,0.022658465430140495,-0.28127822279930115,-0.060387834906578064,-0.092500701546669,-0.01611180230975151,0.017014510929584503,-0.12520545721054077,0.10569016635417938,-0.20739689469337463,-0.0486035980284214,-0.21390219032764435,-0.04832705855369568,-0.009314539842307568,-0.04833253100514412,0.11325286328792572,-0.1529870629310608,-0.05592556297779083,-0.22701776027679443,0.04602205380797386,0.04212181270122528,0.03209170699119568,0.05439743399620056,0.03887941315770149,0.013741730712354183,0.08230413496494293,0.018770720809698105,0.032475702464580536,0.10278453677892685,-0.014724797569215298,0.03820439428091049,-0.002356503391638398,0.010814512148499489,0.014506062492728233,0.02444387972354889,0.03619038686156273,-0.0123762097209692,-0.04614971578121185,0.05119498446583748,-0.02170730195939541,0.005641171708703041,-0.032642219215631485,-0.07408104836940765,0.08458400517702103,0.038811709731817245,-0.03946845605969429,0.022498011589050293,0.012485728599131107,-0.011415207758545876,-0.04665040597319603,0.03632890805602074,0.0486726388335228,0.027395956218242645,-0.014379157684743404,0.0014361122157424688,0.04033941030502319,0.056040722876787186,0.0812583863735199,-0.09200610965490341,0.009865634143352509,0.054435838013887405,-0.05460233986377716,0.15082210302352905],[0.06255332380533218,0.08918598294258118,-0.07192613929510117,-0.19842343032360077,-0.030924571678042412,-0.04050176963210106,-0.3961794376373291,-0.1483539640903473,0.02617259882390499,0.08685029298067093,-0.08604089170694351,-0.0559215247631073,-0.04817209765315056,-0.09278248250484467,-0.15139056742191315,0.5100313425064087,-0.32752710580825806,-0.43543320894241333,0.02609095722436905,-0.5871132016181946,-0.07470197975635529,-0.08389934152364731,-0.013107594102621078,-0.19050294160842896,-0.029312193393707275,0.03859783709049225,0.10126016288995743,0.040411025285720825,-0.012287872843444347,0.08165522664785385,0.15683762729167938,0.03592380881309509,0.041239358484745026,-0.07798407226800919,0.0017416003393009305,-0.3157556653022766,-0.18148910999298096,-0.023505285382270813,-0.15244248509407043,-0.06765235960483551,-0.10580416023731232,-0.10427366197109222,0.052393119782209396,0.021134475246071815,-0.043526921421289444,-0.009020262397825718,-0.04872920364141464,-0.06322240084409714,-0.11443076282739639,0.1372653692960739,0.05851607024669647,-0.09264598786830902,0.06773494929075241,-0.0023134795483201742,-0.023604843765497208,-0.0776839479804039,-0.020074989646673203,0.09556619822978973,-0.10469762980937958,-0.1313217431306839,-0.00363573688082397,0.1086459755897522,-0.08119219541549683,-0.10877987742424011,-0.061670031398534775,0.07737651467323303,-0.1532030701637268,0.3166620433330536,-0.08696506172418594,0.04382520169019699,0.07404191792011261,-0.07743104547262192,-0.06543030589818954,0.08982184529304504,0.13432720303535461,-0.060423728078603745,-0.0442974790930748,0.07423123717308044,0.11029821634292603,-0.047182291746139526,-0.07026500254869461,-0.07199891656637192,-0.17437905073165894,-0.020146701484918594,0.09718910604715347,-0.26999014616012573,-0.15694506466388702,0.08705336600542068,-0.01807241514325142,0.001780443242751062,0.06227640062570572,-0.11557536572217941,-0.029129285365343094,0.07647163420915604,-0.024692725390195847,0.012292267754673958,0.1259201318025589,-0.0742197260260582,0.013019926846027374,0.04301992058753967,0.05888471379876137,0.04757946357131004,0.01728013902902603,0.03113078512251377,0.03679851070046425,0.03513230010867119,0.0310446098446846,0.060233693569898605,-0.043726030737161636,0.02209487557411194,-0.0009103884221985936,0.010026168078184128,0.037154410034418106,-0.0077190399169921875,0.033623434603214264,0.022268008440732956,0.01747538335621357,0.0071181645616889,-0.001037414069287479,0.008828271180391312,-0.01850838027894497,0.02347101829946041,0.004006989765912294,0.0008662435575388372,-0.0035858270712196827,0.01332525908946991,-0.007169816177338362,0.024626368656754494,0.021274538710713387,-0.0008437890210188925,-0.004546517971903086,0.010858993045985699,0.015178040601313114,0.007750122807919979,0.017520055174827576,-0.020659906789660454,0.015921298414468765,0.0272563174366951,0.009222649969160557,-0.008453423157334328,0.004124210216104984,0.20695270597934723],[-0.22985005378723145,-0.05307333171367645,-0.04647965356707573,-0.04620226472616196,0.0759243369102478,-0.132278710603714,0.4770248532295227,-0.11328800767660141,0.05741878226399422,-0.20582057535648346,-0.09046155214309692,-0.15930935740470886,-0.073366679251194,-0.1222354844212532,0.09978663921356201,-0.32212334871292114,0.01632586307823658,-0.0048593273386359215,-0.0102608697488904,0.26120829582214355,0.0035507993306964636,0.1853695511817932,0.03923916071653366,0.05053907632827759,0.026829952374100685,0.14612342417240143,-0.016031993553042412,0.18732938170433044,0.13863079249858856,0.045448772609233856,-0.0651630088686943,-0.10841836780309677,-0.04021736979484558,-0.08706939965486526,0.023737546056509018,0.1051025316119194,-0.01717383600771427,0.14780747890472412,0.1488581895828247,0.11757068336009979,-0.019521411508321762,0.008407010696828365,0.09723731130361557,0.03990931808948517,-0.07539894431829453,0.07147172838449478,0.08288069814443588,0.19659723341464996,0.03437921777367592,0.17662294209003448,-0.08281959593296051,-0.03863861784338951,0.05516085773706436,0.2108050286769867,0.08972220867872238,-0.11554132401943207,0.15474575757980347,-0.11487042903900146,-0.13328374922275543,0.1936289221048355,0.08966648578643799,0.014059939421713352,-0.11649058759212494,-0.04931139200925827,-0.0775798037648201,-7.299950812011957e-05,-0.07109905034303665,-0.0034372196532785892,0.04143182560801506,0.08720263093709946,-0.2661578059196472,0.13857345283031464,-0.0937146469950676,-0.13333991169929504,0.06486093997955322,-0.004224142991006374,-0.0066874222829937935,-0.04242720454931259,-0.09996598213911057,0.2582586109638214,-0.028245046734809875,0.024032624438405037,-0.03753266483545303,-0.1537545770406723,-0.0024678115732967854,0.09263771772384644,-0.14368999004364014,-0.05287179350852966,-0.17167089879512787,0.10559265315532684,0.038670383393764496,-0.1710498183965683,0.1791205257177353,0.08714484423398972,0.10014259070158005,-0.10311323404312134,-0.19345396757125854,0.05078793689608574,-0.012251831591129303,-0.03364919498562813,-0.0040124268271028996,0.052052028477191925,-0.10401828587055206,0.0597715824842453,-0.04303447902202606,0.02542678266763687,-0.006430635694414377,0.006874204613268375,-0.11949380487203598,-0.04005460441112518,-0.007600941229611635,0.019940000027418137,0.05069992318749428,0.050996627658605576,0.06537202000617981,0.03433183953166008,-0.07512576878070831,-0.041462093591690063,0.005241069942712784,0.0871199369430542,-0.01877654157578945,0.06558935344219208,0.016796035692095757,-0.0008100807317532599,0.03618203476071358,0.09884728491306305,0.006538109388202429,-0.09264837950468063,0.02328011579811573,-0.010421057231724262,0.014783333986997604,-0.027036037296056747,0.00891207717359066,0.0015301841776818037,-0.03150210902094841,-0.010682039894163609,-0.06737096607685089,0.019951608031988144,0.01398723665624857,0.033316243439912796,-0.0399097204208374,0.15452443063259125],[0.021664341911673546,-0.09683924168348312,0.09948815405368805,-0.24742291867733002,0.014100233092904091,0.14091674983501434,0.013501370325684547,0.3414357304573059,-0.06699430197477341,0.20881500840187073,0.024773387238383293,-0.12403732538223267,0.018951544538140297,0.09560628235340118,0.049708809703588486,0.18180398643016815,0.14700889587402344,0.07871770858764648,0.01592973992228508,0.13236096501350403,-0.14638426899909973,-0.2590809762477875,0.15121051669120789,0.20226091146469116,-0.09566136449575424,0.09732074290513992,0.044889725744724274,-0.30755820870399475,-0.16482678055763245,0.02146858535706997,-0.002413024427369237,0.0119093619287014,-0.01713208667933941,-0.12011982500553131,0.1532311737537384,-0.006682284642010927,-0.2857356369495392,0.07216781377792358,-0.03544115275144577,-0.055369604378938675,-0.1062789037823677,-0.08383253961801529,-0.22213655710220337,0.0969662144780159,-0.08423332124948502,-0.2841491997241974,0.3139241933822632,-0.10169398784637451,-0.3113584816455841,-0.1458044946193695,-0.11550727486610413,0.02827267162501812,0.40043795108795166,-0.0030432946514338255,-0.04228378087282181,-0.13495202362537384,-0.020579222589731216,-0.0971120074391365,0.2609572112560272,-0.015986880287528038,-0.08707986027002335,-0.07323500514030457,-0.07218996435403824,0.03697923570871353,-0.04712345451116562,0.02548457309603691,-0.22501899302005768,0.06374642252922058,0.14306919276714325,-0.11835562437772751,0.01201212964951992,0.053937818855047226,0.1595471054315567,-0.342824786901474,0.15784840285778046,-0.15868395566940308,-0.18512479960918427,0.01163538545370102,-0.03833012655377388,-0.08429066091775894,0.20206134021282196,0.016501534730196,-0.13867846131324768,-0.026689661666750908,0.05487877130508423,-0.03708741441369057,0.014519557356834412,-0.10613326728343964,0.16225217282772064,-0.17011691629886627,0.06557852774858475,0.139515221118927,-0.04924246668815613,-0.023912817239761353,0.07979176938533783,0.18140152096748352,-0.042375702410936356,-0.23781634867191315,0.09402517974376678,0.013148068450391293,-0.01545221358537674,-0.07097780704498291,-0.022276686504483223,0.044881097972393036,-0.023083770647644997,0.029583919793367386,0.0391211211681366,0.016934793442487717,0.08416347950696945,-0.02250458300113678,0.03601040691137314,0.03456234186887741,-0.04906431958079338,-0.061474379152059555,0.0114381592720747,0.004150920547544956,0.03961004316806793,0.026976242661476135,0.06617821753025055,0.054715346544981,-0.012234769761562347,0.09209989011287689,0.016495954245328903,-0.02910272590816021,0.005064808763563633,-0.01766938716173172,0.01570722460746765,0.0232265442609787,-0.040548790246248245,-0.041563730686903,0.029161954298615456,-0.0037183784879744053,-0.057830870151519775,-0.03514445200562477,-0.05319124460220337,0.03674725070595741,-0.0836598351597786,0.0052300309762358665,-0.007681387942284346,0.05653184652328491,-0.034367647022008896,-0.021672718226909637],[-0.10396791249513626,-0.012164240702986717,-0.19705507159233093,0.024903632700443268,0.07216573506593704,0.2783089280128479,0.008422208949923515,-0.1430264115333557,0.040647242218256,-0.035056840628385544,-0.021385684609413147,-0.19982975721359253,0.0016873450949788094,-0.04993368685245514,-0.005545902997255325,-0.0241763386875391,0.4636281430721283,-0.05777214840054512,-0.21971555054187775,-0.06375031173229218,-0.011179128661751747,-0.08906446397304535,-0.017562054097652435,0.19597531855106354,-0.12883302569389343,-0.16506701707839966,-0.057713404297828674,0.15169396996498108,0.1254032403230667,0.13840271532535553,0.06703335791826248,0.26264387369155884,-0.04272184520959854,0.12672089040279388,0.14244432747364044,0.0002560799475759268,-0.09751375764608383,-0.15566988289356232,-0.20699141919612885,-0.0813480094075203,0.01764276996254921,-0.07654199004173279,0.1077553778886795,0.11251985281705856,0.0404038205742836,0.050203677266836166,-0.02647518739104271,0.025693243369460106,0.012454449199140072,0.04893679544329643,0.23685523867607117,0.09178934246301651,-0.13284558057785034,-0.2838170528411865,-0.06380339711904526,0.08878383785486221,0.12562470138072968,0.08702592551708221,0.0728740245103836,-0.11429040133953094,0.0385378859937191,-0.0041283355094492435,-0.04923512414097786,0.16744928061962128,-0.0955510139465332,0.08986110240221024,-0.017002161592245102,-0.20332054793834686,0.09647303819656372,0.05054086446762085,0.06525495648384094,-0.06390689313411713,0.042755819857120514,-0.1609317660331726,0.049565594643354416,-0.1460268497467041,0.1837853044271469,-0.1512044221162796,0.22571595013141632,0.08724814653396606,-0.13386601209640503,0.17475596070289612,0.010036032646894455,0.12561720609664917,-1.0814634151756763e-05,-0.0533536821603775,0.08291034400463104,0.17840293049812317,-0.11205735057592392,-0.162016361951828,-0.1218680888414383,0.10062215477228165,0.1280132383108139,-0.3222566246986389,0.0009181699715554714,-0.13952650129795074,-0.0627351701259613,-0.2142302244901657,0.013621573336422443,0.007352159358561039,0.03569170832633972,0.01831740513443947,0.08656806498765945,-0.022795764729380608,-0.09711950272321701,0.07516409456729889,-0.015503199771046638,-0.02796209789812565,-0.030679959803819656,-0.00807117484509945,0.11810969561338425,0.013511152938008308,0.0005175318801775575,0.010742693208158016,-0.023263562470674515,-0.08764158189296722,0.0611925832927227,0.0027852351777255535,-0.0001228076871484518,-0.012620151042938232,0.10937546193599701,0.03356953337788582,0.03286989778280258,-0.00641900859773159,-0.00456666573882103,0.0060706790536642075,-0.05065825581550598,0.00820875819772482,0.07840925455093384,0.029401756823062897,-0.019551144912838936,0.07402241975069046,0.026022933423519135,0.010648599825799465,-0.0410049743950367,-0.05457327142357826,-0.04546161741018295,0.03800838068127632,0.01490545179694891,-0.05649822950363159,0.029656678438186646,0.06630782783031464],[0.10432139039039612,-0.07892157882452011,0.0266230758279562,0.0388011634349823,-0.14408813416957855,-0.20091302692890167,0.06582465767860413,0.10751719772815704,-0.046252284198999405,-0.22553937137126923,0.10022739320993423,0.1295979619026184,0.07972344011068344,-0.12354099750518799,-0.0986495092511177,0.08510872721672058,0.0001409744145348668,0.010458335280418396,0.18552127480506897,0.1069793701171875,-0.08970677107572556,0.08638879656791687,-0.13178186118602753,-0.22142022848129272,0.01540941558778286,-0.0524245947599411,0.08067101985216141,-0.019395528361201286,-0.07100256532430649,0.01119031198322773,-0.19967707991600037,-0.0013401261530816555,-0.02731039747595787,0.16374613344669342,0.011802515015006065,0.04858256131410599,-0.04508444294333458,-0.08086881041526794,-0.07009828090667725,-0.11569461226463318,0.0507693886756897,-0.10381054878234863,0.19692949950695038,-0.016746552661061287,-0.08255002647638321,0.03980221226811409,0.07572522759437561,0.05585772544145584,0.07733253389596939,0.3670738637447357,-0.12373045086860657,0.16222193837165833,-0.0010803542099893093,-0.16158993542194366,0.03660649061203003,0.14218221604824066,0.030646588653326035,0.21536193788051605,-0.15636052191257477,0.05088551342487335,0.09202759712934494,0.195655956864357,0.005166647024452686,-0.08873273432254791,0.2501554787158966,0.05154819414019585,-0.03680633753538132,0.08249419182538986,-0.07927670329809189,0.0945010557770729,0.011993750929832458,-0.10419804602861404,0.05042877048254013,0.06293971836566925,0.3206859529018402,0.011786007322371006,0.08317217975854874,0.01846795715391636,-0.17798149585723877,0.029161276295781136,0.17018277943134308,0.013353860937058926,-0.05243918299674988,0.14271333813667297,-0.10545231401920319,0.0843750461935997,0.012673862278461456,-0.16976065933704376,-0.11318457126617432,0.22374126315116882,0.10132672637701035,-0.030156299471855164,0.042157892137765884,0.07368598133325577,-0.05571824684739113,-0.12450502067804337,0.10330670326948166,0.029283178970217705,0.02424115687608719,0.044706154614686966,0.043151769787073135,0.03785467520356178,0.03559407591819763,-0.038872379809617996,-0.037785474210977554,0.0037931783590465784,-0.12533670663833618,0.09502369165420532,0.08234746754169464,0.05841855704784393,0.025659406557679176,-0.006775050424039364,0.0013770083896815777,-0.0485970564186573,0.03185426443815231,-0.04478606581687927,-0.004785352386534214,-0.08976278454065323,-0.03715447336435318,-0.014765982516109943,0.007342771161347628,0.05869852378964424,-0.015412500128149986,-0.0365837886929512,-0.015626225620508194,-0.02639652229845524,-0.0018291736487299204,-0.07054798305034637,0.05937137454748154,-0.0030579864978790283,0.013747199438512325,-0.02670084498822689,0.02986324392259121,0.00941051822155714,-0.06100238859653473,-0.03597563877701759,-0.013532563112676144,-0.015537867322564125,0.009542226791381836,0.08018074929714203,-0.0027622561901807785,0.1912364810705185],[0.07002101093530655,0.1575012058019638,-0.05064491555094719,-0.011796621605753899,-0.07460746169090271,-0.013343028724193573,-0.3366147577762604,0.2097395956516266,0.03511128947138786,0.11295587569475174,-0.18761563301086426,-0.04055177420377731,0.2799169719219208,0.06567941606044769,0.06805136054754257,0.30031582713127136,0.33607059717178345,-0.11191921681165695,-0.1394171565771103,-0.46418043971061707,0.0375717468559742,-0.09174434840679169,0.019544163718819618,0.05702073499560356,0.10336476564407349,0.01109010074287653,-0.012824201956391335,-0.12704645097255707,0.014050845056772232,0.02652064710855484,0.07280445098876953,0.016931632533669472,-0.10122793167829514,0.0014844011748209596,0.10617578029632568,0.030730146914720535,-0.03211896866559982,-0.1382826864719391,0.1258613020181656,0.13001982867717743,0.07608283311128616,-0.12975068390369415,-0.13739672303199768,-0.08219754695892334,-0.06895092129707336,-0.030314119532704353,0.1796191930770874,-0.05603285878896713,-0.03388706594705582,-0.01038320455700159,0.03235228732228279,-0.11756812036037445,0.05147464945912361,-0.08305363357067108,0.15902268886566162,-0.03876589611172676,0.014070591889321804,-0.08520043641328812,-0.0695243626832962,-0.06023693084716797,-0.007236411329358816,-0.05626798793673515,-0.0021133061964064837,0.08765310794115067,0.11918050050735474,-0.021228531375527382,0.06808792054653168,0.043447770178318024,0.05145198851823807,0.02156311646103859,-0.00401951652020216,-0.0076452866196632385,-0.020826246589422226,-0.048021115362644196,0.050273340195417404,-0.0004656021483242512,0.143123060464859,0.07999139279127121,0.07129016518592834,-0.06343629211187363,0.019339842721819878,-0.005785942543298006,0.08550271391868591,0.08678310364484787,0.003820360405370593,-0.002176810521632433,0.055973466485738754,0.024859361350536346,-0.01893698051571846,0.09941399842500687,-0.04385599493980408,0.06963832676410675,-0.06841789931058884,-0.020069057121872902,0.02749020606279373,0.07583991438150406,-0.09667942672967911,0.08035939931869507,0.022947262972593307,-0.03408972918987274,-0.02311418578028679,0.02299005351960659,0.004452407825738192,-0.0423879511654377,-0.01283003855496645,0.007061887066811323,-0.07040157169103622,-0.001240511890500784,-0.06095506250858307,0.01602928712964058,0.038189202547073364,0.01960844174027443,-0.022673217579722404,-0.024954333901405334,-0.012258309870958328,-0.01830536685883999,0.022608662024140358,-0.01769661344587803,0.041033290326595306,-0.00839179940521717,0.046335723251104355,0.04578060656785965,0.013503944501280785,0.023164357990026474,0.05619767680764198,0.03266844525933266,0.053617265075445175,-0.03845737874507904,0.011381592601537704,0.06488003581762314,0.011087632738053799,0.01269864197820425,-0.03283858299255371,0.03416377678513527,0.020184004679322243,-0.009973276406526566,-0.018481062725186348,0.025464581325650215,0.006445587147027254,0.027528461068868637,0.04837573319673538,-0.01584354229271412],[0.22328011691570282,0.1345643252134323,0.03604167327284813,0.052257239818573,-0.014382452704012394,0.11503957957029343,-0.3361457884311676,0.48929670453071594,0.18070076406002045,-0.0640900507569313,0.04682707041501999,0.09151588380336761,0.13136231899261475,-0.04842723533511162,-0.024759706109762192,0.04591521620750427,0.006921485997736454,0.21243469417095184,-0.13667438924312592,-0.2774701416492462,0.20797553658485413,-0.021703233942389488,-0.11697946488857269,0.05837405472993851,0.07424262166023254,-0.06582154333591461,0.07522086054086685,0.07129176706075668,-0.13640865683555603,0.0264214389026165,0.17224156856536865,0.019920891150832176,0.017988555133342743,0.046750061213970184,0.09089663624763489,-0.04702204093337059,0.06239291653037071,0.037733275443315506,0.0491223968565464,0.05122774839401245,-0.0025345110334455967,-0.03586125746369362,0.1854744851589203,-0.07012087106704712,-0.015702547505497932,0.0843898206949234,0.149322971701622,0.2213953584432602,0.15522295236587524,0.10234268009662628,0.07430268824100494,-0.15326577425003052,-0.11039525270462036,-0.05168923735618591,0.01409351360052824,-0.10839324444532394,0.20718231797218323,0.15933838486671448,0.14612308144569397,-0.0007408343371935189,0.0782855749130249,-0.06449375301599503,0.133624866604805,0.22286023199558258,0.10490534454584122,0.19939643144607544,0.0364665687084198,-0.05223375931382179,0.18234167993068695,-0.017133867368102074,-0.0296332910656929,0.1467950940132141,0.08946839720010757,0.23965013027191162,0.04512379318475723,0.06799304485321045,0.05232613533735275,0.025703828781843185,-0.057755932211875916,0.1284402757883072,0.05121965706348419,0.1430848240852356,0.1713559925556183,0.11687206476926804,-0.016131624579429626,0.16405919194221497,0.1662062555551529,-0.012073895893990993,0.11303728073835373,0.06415122002363205,0.18079769611358643,-0.016507109627127647,0.14311495423316956,0.008497538045048714,0.18796613812446594,0.16657577455043793,-0.0036241875495761633,0.08187147229909897,-0.0007568189757876098,0.0331144854426384,0.048722896724939346,0.07910192757844925,0.09178484976291656,0.07642093300819397,0.053575221449136734,0.02668997459113598,0.028398126363754272,0.06379779428243637,0.023294301703572273,-0.023929083719849586,0.031052181497216225,-0.027692560106515884,0.03389476612210274,-0.03056880086660385,0.025321688503026962,-0.036434561014175415,-0.026604602113366127,0.004651715513318777,0.01895769312977791,0.0030209659598767757,0.00937905814498663,0.06412361562252045,-0.04265052452683449,0.01667446829378605,-0.06188308075070381,0.004745063371956348,-0.02827215939760208,0.011213651858270168,0.004527722485363483,0.02858303301036358,-0.0012832770589739084,0.034593742340803146,0.02319253236055374,-0.012016727589070797,0.010764705017209053,-0.0001294248504564166,0.022328389808535576,-0.021044718101620674,